svm_type c_svc
kernel_type rbf
gamma 0.00195312
nr_class 2
total_sv 163
rho 0.538305
label 1 -1
nr_sv 68 95
SV
0.7817803869176234 1:8 2:6 3:13 4:20 5:12 6:11 7:10 8:13 9:14 10:23 11:6 12:3 13:16 14:5 15:15 16:16 17:8 18:16 19:1 20:9 21:0.053333333 22:0.058035714 23:0.058295964 24:0.018018018 25:0.090497738 26:0.063636364 27:0.063926941 28:0.064220183 29:0.059907834 30:0.064814815 31:-0.021720285 32:0.021679478 33:0.053421133 34:-0.010272834 35:0.042313349 36:0.044101888 37:-0.086982136 38:0.06924527 39:-0.10801878 40:-0.087837068 41:0.0058379892 42:-0.039728524 43:0.13067518 44:0.056417201 45:0.10818143 46:-0.019552516 47:-0.051344448 48:0.058182872 49:0.08138676 50:-0.061030727 51:0.068562161 52:-0.024361261 53:0.11235796 54:0.066983089 55:0.13611894 56:-0.021566601 57:0.054269661 58:0.10109952 59:0.073001417 60:-0.039204977 61:-0.05577446 62:-0.00045691473 63:0.046421532 64:0.078906873 65:0.070843577 66:-0.027151631 67:0.015605374 68:0.053008216 69:0.052882079 70:-0.12053756 71:0.049723054 72:-0.034848389 73:0.094019169 74:-0.14318782 75:-0.11486419 76:0.06855198 77:0.022562028 78:0.11517977 79:0.12083979 80:-0.096807255 81:0.011432106 82:0.069821758 83:0.055932221 84:0.019206456 85:0.055371921 86:0.0020459792 87:0.06175606 88:-0.0015757981 89:0.035171008 90:0.025349838 91:-0.02387134 92:0.0099132681 93:-0.01205842 94:-0.016350582 95:0.052230055 96:0.1115316 97:0.062696653 98:0.025389994 99:0.12782043 100:-0.037301192 101:-0.013050208 102:0.08546005 103:0.010141019 104:-0.0091744163 105:0.04150629 106:0.020863125 107:0.033845796 108:0.03630588 109:-0.062845769 110:0.046241901 111:-0.040658969 112:-0.0011061412 113:-0.11266917 114:0.036070412 115:0.18075014 116:0.083812729 117:0.014066016 118:-0.16286839 119:-0.025407303 120:-0.0024646414 
0.6654465077926781 1:10 2:2 3:11 4:6 5:8 6:7 7:4 8:9 9:7 10:12 11:3 12:10 13:11 14:3 15:7 16:6 17:13 18:11 19:0 20:11 21:0.059602649 22:0.053333333 23:0.060402685 24:0.040540541 25:0.10204082 26:0.047945205 27:0.04137931 28:0.055555556 29:0.055944056 30:0.063380282 31:0.060761927 32:-0.1052115 33:0.074700756 34:0.040216198 35:-0.04300174 36:0.0052945501 37:-0.051276013 38:-0.08054414 39:-0.077590284 40:-0.12767929 41:0.059620233 42:-0.13101414 43:0.010301092 44:0.055135011 45:-0.063088858 46:-0.022536551 47:0.020301775 48:-0.093931297 49:0.010854878 50:-0.0080603098 51:0.0018219432 52:-0.20270115 53:0.078241184 54:0.046408204 55:0.01615805 56:0.033654771 57:-0.0052618088 58:-0.056576384 59:-0.0088901166 60:-0.056876156 61:0.031594181 62:-0.13073745 63:-0.019365999 64:0.059087539 65:-0.056731219 66:0.0016426651 67:-0.0086872392 68:-0.0040591797 69:-0.027107195 70:-0.12195684 71:-0.025623684 72:0.057506054 73:0.041996129 74:-0.027176097 75:0.031157077 76:0.016562321 77:0.06779203 78:-0.04648325 79:-0.075166414 80:0.0014631959 81:0.11534466 82:0.046722279 83:0.065545566 84:-0.032159044 85:0.061919518 86:0.038509645 87:0.054130134 88:0.054454111 89:-0.0039995494 90:-0.065756051 91:0.0083336425 92:-0.082028659 93:-0.099495688 94:-0.028389752 95:0.085009089 96:0.023152741 97:0.042367491 98:0.082271813 99:-0.042034566 100:-0.055634251 101:0.080159963 102:0.015290398 103:0.043133773 104:-0.044999514 105:0.037653352 106:0.037366844 107:0.052176058 108:0.04565023 109:-0.062489891 110:-0.14095242 111:0.055218823 112:0.052396333 113:-0.14433622 114:0.047567327 115:0.18176616 116:0.043433678 117:0.13039078 118:-0.040194917 119:-0.05303264 120:0.021873421 
2 1:9 2:5 3:10 4:8 5:7 6:9 7:4 8:9 9:10 10:14 11:5 12:5 13:11 14:4 15:8 16:7 17:6 18:7 19:0 20:7 21:0.062068966 22:0.048611111 23:0.041958042 24:0.028169014 25:0.056737589 26:0.085714286 27:0.035971223 28:0.02173913 29:0.03649635 30:0.036764706 31:0.085435 32:-0.078065914 33:0.065777248 34:-0.02821421 35:-0.045192738 36:0.0224869 37:-0.15959989 38:-0.18449486 39:-0.069450621 40:0.02722989 41:-0.0053009914 42:-0.18350694 43:-0.058393987 44:0.043423701 45:0.029191243 46:0.047010189 47:-0.083785662 48:-0.041631176 49:0.097802983 50:-0.026297305 51:-0.0047574852 52:-0.1540257 53:0.070754628 54:0.10287312 55:0.096525724 56:-0.0026354598 57:-0.054906637 58:-0.017522217 59:0.12275041 60:-0.094021185 61:0.0060969874 62:-0.17168688 63:-0.023560214 64:0.030311289 65:-0.0014328671 66:0.067655159 67:-0.094698952 68:0.0019127729 69:0.037403112 70:-0.10575549 71:-0.013624351 72:-0.037896522 73:-0.26631276 74:-0.089799047 75:-0.024527598 76:0.051972878 77:-0.11089526 78:-2.3167558e-05 79:0.2170627 80:0.039042201 81:0.062767964 82:0.01524572 83:0.012205033 84:-0.087859501 85:0.15984719 86:0.0170288 87:0.063184149 88:-0.028949692 89:-0.026733705 90:0.041959562 91:-0.1027858 92:-0.089971088 93:0.040977984 94:0.01705301 95:0.083623686 96:0.077509944 97:0.050725841 98:0.054640679 99:0.0046523895 100:-0.16613022 101:0.082676142 102:-0.032075365 103:-0.036704145 104:-0.13904236 105:0.15085044 106:0.006712497 107:-0.02454453 108:-0.12641925 109:-0.090681253 110:0.074374373 111:0.054310329 112:0.091412263 113:-0.0026508385 114:0.042714941 115:-0.0096432849 116:0.068104156 117:-0.11630819 118:-0.0090220947 119:-0.026674626 120:0.054616653 
0.4539541937866185 1:41 2:10 3:20 4:29 5:27 6:34 7:10 8:25 9:25 10:59 11:10 12:21 13:27 14:22 15:32 16:25 17:30 18:34 19:7 20:17 21:0.069306931 22:0.073412698 23:0.077534791 24:0.065737052 25:0.063872255 26:0.074 27:0.080160321 28:0.06626506 29:0.048289738 30:0.054435484 31:0.0069623804 32:-0.064328921 33:0.0011358989 34:0.075332204 35:-0.081491139 36:0.082300624 37:0.10871983 38:0.020433141 39:-0.037796361 40:-0.0027928861 41:0.059926351 42:-0.060478268 43:0.12676037 44:0.086758692 45:-0.026173251 46:-0.033945562 47:0.075701582 48:0.091990341 49:-0.05198719 50:-0.028066338 51:0.0582383 52:-0.088281022 53:0.090302242 54:0.07849397 55:-0.01931062 56:-0.0084232132 57:0.085027415 58:0.085852679 59:-0.068540486 60:-0.044105247 61:0.061436554 62:-0.085378311 63:0.061195644 64:0.094530804 65:-0.041810281 66:0.0018356292 67:0.10456359 68:0.10187321 69:-0.016130102 70:-0.019951081 71:0.098113235 72:-0.011583183 73:0.022294999 74:-0.059774 75:0.044772362 76:0.059310726 77:0.066152941 78:0.048105058 79:-0.060817238 80:0.034537723 81:0.084997002 82:0.091444377 83:0.051546966 84:0.017146148 85:0.10837863 86:0.042055867 87:0.065838558 88:0.022062699 89:0.074997495 90:0.036927347 91:0.035894438 92:-0.021812508 93:0.057502809 94:0.073231894 95:-0.027995012 96:-0.050912089 97:0.076410718 98:0.093027563 99:-0.04263216 100:-0.030405955 101:0.021260261 102:0.029502417 103:-0.013268697 104:-0.044726309 105:0.077355382 106:0.037697021 107:0.053450604 108:0.014781385 109:-0.01743736 110:-0.06923011 111:-0.049101821 112:0.034152634 113:0.064606951 114:0.072180393 115:-0.013256274 116:0.04290888 117:0.037619449 118:0.0036802969 119:0.065445831 120:0.035879591 
2 1:21 2:1 3:19 4:18 5:18 6:20 7:7 8:16 9:16 10:36 11:9 12:14 13:16 14:12 15:14 16:14 17:19 18:18 19:5 20:11 21:0.049342105 22:0.072607261 23:0.072847682 24:0.083056478 25:0.066666667 26:0.046822742 27:0.053691275 28:0.070707071 29:0.087837838 30:0.06779661 31:0.070145986 32:-0.1507233 33:0.04134938 34:0.11828911 35:0.018624033 36:-0.11456557 37:-0.016874631 38:-0.029899204 39:-0.053134608 40:-0.020429296 41:0.039655657 42:-0.037222979 43:0.12889631 44:0.079055903 45:-0.031388115 46:-0.049342925 47:-0.041045316 48:-0.020584421 49:-0.15919291 50:-0.043977133 51:0.034758338 52:-0.073985493 53:0.13697507 54:0.095995979 55:-0.024816508 56:-0.056255705 57:0.0064029059 58:0.014443326 59:-0.10109075 60:-0.10912828 61:0.0084387398 62:-0.11367445 63:0.062526435 64:0.14180856 65:0.00049971264 66:-0.11114351 67:-0.029934355 68:-0.015472381 69:-0.085106699 70:-0.071951417 71:0.0023019555 72:0.069249307 73:-0.010491894 74:-0.0081291439 75:-0.020777376 76:0.048005937 77:-0.024741673 78:-0.032046503 79:-0.00023666141 80:0.048732898 81:0.11108678 82:0.049573003 83:0.026432585 84:0.094733093 85:0.090282231 86:0.072172858 87:0.04604856 88:0.047347006 89:0.051593152 90:0.048124689 91:0.040529135 92:-0.07447329 93:0.0019819061 94:0.099264593 95:0.00099875217 96:-0.08721711 97:-0.041546315 98:0.050992356 99:0.028784948 100:-0.030670311 101:0.09942515 102:-0.0087589676 103:-0.011206479 104:0.066885033 105:0.062761992 106:2.8860432e-05 107:-0.014999384 108:-0.010652433 109:0.0090584927 110:0.023270357 111:0.013473503 112:0.097110451 113:-0.046449919 114:0.049116904 115:-0.085201697 116:-0.031814139 117:-0.069243002 118:0.033588455 119:0.038162108 120:0.0094910837 
0.6894268321825558 1:18 2:8 3:38 4:21 5:43 6:18 7:7 8:40 9:43 10:47 11:15 12:35 13:24 14:7 15:22 16:30 17:23 18:31 19:3 20:21 21:0.056680162 22:0.046653144 23:0.067073171 24:0.077393075 25:0.071428571 26:0.059304703 27:0.067622951 28:0.069815195 29:0.055555556 30:0.065979381 31:0.074681137 32:-0.010688745 33:0.018875659 34:0.045468202 35:0.13067404 36:-0.025745754 37:0.10349911 38:0.061054514 39:-0.04994076 40:-0.036560784 41:0.067114247 42:0.0014648339 43:0.017418134 44:0.014409442 45:0.044188507 46:-0.00065800855 47:0.041044603 48:0.059448562 49:-0.097772299 50:-0.10293674 51:0.022073704 52:-0.02455189 53:0.065845096 54:-0.0070067254 55:0.025013566 56:0.011292909 57:0.077515977 58:0.087430035 59:-0.0077999566 60:-0.088762718 61:0.022715786 62:-0.041646065 63:0.015886441 64:0.036606098 65:0.043846566 66:-0.023486346 67:0.096636712 68:0.092493786 69:-0.079778454 70:-0.090305942 71:-0.11538037 72:-0.068292923 73:0.017917975 74:-0.022110771 75:0.015544309 76:-0.0092455985 77:-0.093409614 78:-0.0029400565 79:-0.083050801 80:0.012311545 81:0.033200257 82:-0.025026931 83:-0.0076641331 84:0.025135764 85:0.08273333 86:-0.011456655 87:0.051587498 88:-0.0066654463 89:0.015581854 90:0.0604376 91:-0.0054043595 92:0.03077848 93:0.068159389 94:0.042545379 95:0.053385665 96:0.0015606988 97:0.084237163 98:0.025931944 99:0.031645034 100:-0.049810429 101:0.018264736 102:-0.061486182 103:-0.02515 104:-0.022216716 105:0.080208999 106:-0.0039908426 107:0.02876799 108:-0.036379075 109:-0.0012268563 110:0.055128144 111:-0.021844414 112:-0.092047448 113:0.031214188 114:-0.0074341437 115:0.0046426543 116:0.042427444 117:0.063172006 118:0.016066999 119:-0.029672072 120:-0.0026724538 
0.5971261932423856 1:22 2:8 3:22 4:25 5:31 6:12 7:12 8:26 9:36 10:44 11:17 12:19 13:20 14:22 15:16 16:25 17:24 18:23 19:3 20:18 21:0.063529412 22:0.049528302 23:0.080378251 24:0.052132701 25:0.059382423 26:0.069047619 27:0.042959427 28:0.06937799 29:0.055155875 30:0.069711538 31:-0.044437706 32:-0.064950365 33:0.016212466 34:-0.009049601 35:-0.033512064 36:-0.018065722 37:0.016262835 38:0.077786755 39:-0.00050806077 40:-0.10824954 41:0.060966843 42:-0.07876376 43:0.00068664466 44:0.015381769 45:-0.088424373 46:-0.09523746 47:-0.0015537242 48:0.043116537 49:0.0024511756 50:-0.057962591 51:0.05334525 52:-0.11660712 53:0.0063104762 54:0.089468499 55:-0.079761516 56:-0.10088826 57:0.023212837 58:0.11044405 59:-0.021273837 60:-0.092154206 61:0.007422924 62:-0.10228185 63:-0.0042119033 64:0.059372981 65:-0.060697804 66:-0.081808375 67:0.00082592461 68:0.081662007 69:-0.0096321691 70:-0.13293625 71:0.040683273 72:0.029046168 73:0.016610472 74:0.022882238 75:0.049878229 76:-0.10978132 77:-0.084941537 78:0.11226403 79:0.021220353 80:0.026089276 81:0.05433521 82:0.0054801618 83:0.042122136 84:-0.022979659 85:0.065748613 86:0.071666905 87:0.071611183 88:0.040947234 89:-0.012537178 90:0.029359403 91:0.087384684 92:-0.019637286 93:-0.035294523 94:-0.0035357026 95:0.041110098 96:-0.041699668 97:-2.4773796e-05 98:0.049154935 99:-0.043437233 100:-0.11681726 101:0.050319987 102:-0.017449349 103:0.032300394 104:-0.036384374 105:0.058449536 106:0.050678546 107:0.076547326 108:0.048509964 109:-0.028211962 110:-0.0038052195 111:0.014779203 112:-0.0064229574 113:-0.011214658 114:-0.0052467315 115:0.027339956 116:0.093319607 117:0.0060293048 118:0.043960862 119:0.016345592 120:0.052001204 
1.446018093445419 1:52 2:10 3:19 4:26 5:37 6:42 7:12 8:43 9:26 10:60 11:23 12:23 13:26 14:11 15:17 16:47 17:30 18:43 19:8 20:17 21:0.076923077 22:0.063047285 23:0.066666667 24:0.065026362 25:0.080985915 26:0.051146384 27:0.04770318 28:0.049557522 29:0.067375887 30:0.058614565 31:0.093838866 32:-0.017708511 33:0.066387508 34:0.079754585 35:0.059611329 36:0.024842263 37:-0.0015677228 38:-0.03729892 39:0.06188454 40:0.067731997 41:0.1550662 42:0.11916411 43:0.13433238 44:0.16564374 45:0.085965608 46:0.09622308 47:0.071604284 48:0.060761002 49:0.10815667 50:0.11986543 51:0.075310688 52:0.042429977 53:0.091532847 54:0.099862125 55:0.062051425 56:0.092623101 57:0.026164845 58:-0.015099921 59:0.022949243 60:0.064173706 61:0.10671573 62:0.011044412 63:0.02154697 64:0.099801779 65:0.041368604 66:0.016654405 67:-0.0048800916 68:-0.074978097 69:0.042079507 70:0.0706616 71:0.043743455 72:0.052844166 73:-0.033880864 74:-0.028224992 75:-0.0029434296 76:-0.087686195 77:-0.034696878 78:-0.02321943 79:0.024191409 80:-0.040541377 81:0.081303809 82:0.068621595 83:0.079520838 84:0.10477784 85:0.12827383 86:0.12733941 87:0.095195764 88:0.0059304041 89:0.094650628 90:0.035205271 91:0.024094187 92:-0.015038346 93:0.048122945 94:0.012752553 95:-0.048180168 96:-0.054432339 97:0.014735992 98:-0.10101355 99:0.03183942 100:0.02133051 101:0.05182265 102:0.035849513 103:0.074417893 104:0.10602123 105:0.090454369 106:0.076636312 107:0.064363003 108:-0.076153519 109:0.041961056 110:0.00031765586 111:0.09070673 112:-0.042647482 113:0.032051865 114:0.1191485 115:0.11246215 116:0.076196867 117:-0.0037667485 118:0.026294156 119:0.061258017 120:0.049964206 
2 1:6 2:5 3:11 4:10 5:9 6:7 7:6 8:12 9:9 10:16 11:4 12:8 13:10 14:3 15:7 16:8 17:6 18:4 19:0 20:7 21:0.040540541 22:0.068027211 23:0.020547945 24:0.027586207 25:0.076388889 26:0.090909091 27:0.070422535 28:0.070921986 29:0.05 30:0.057553957 31:0.01383533 32:-0.082421086 33:-0.056537935 34:0.017250076 35:0.044651461 36:-0.0042590809 37:-0.12985943 38:-0.16832896 39:-0.19190406 40:0.042738539 41:0.018952003 42:-0.14037493 43:-0.021164173 44:0.023763812 45:0.038052499 46:0.048670565 47:-0.11915889 48:-0.059108659 49:0.012335063 50:-0.013615523 51:0.052143611 52:-0.09179701 53:0.036724177 54:0.087990072 55:0.16981435 56:0.075749243 57:-0.035715046 58:-0.007541796 59:-0.00029560113 60:-0.074125885 61:0.061122849 62:-0.13750064 63:0.038179796 64:-0.010777414 65:0.024136579 66:0.042070887 67:-0.091256734 68:-0.053469829 69:-0.15068769 70:-0.098585923 71:-0.0086887373 72:0.019921432 73:-0.12427365 74:-0.14000251 75:-0.095517284 76:0.039499376 77:0.12561388 78:0.014255126 79:0.16534722 80:-0.1193274 81:0.098849279 82:0.013674205 83:-0.02991684 84:-0.14376959 85:0.080618232 86:-0.031173153 87:0.0539253 88:0.0044497296 89:-0.020707343 90:0.086485867 91:0.066678027 92:-0.022098066 93:-0.016009484 94:0.0081055702 95:0.14127797 96:0.11979539 97:0.032389611 98:-0.043427374 99:-0.077003429 100:-0.16514528 101:0.012108411 102:0.027996234 103:-0.058011202 104:-0.12406173 105:0.16513996 106:-0.029847013 107:0.041445475 108:-0.067413448 109:-0.09756771 110:0.09669659 111:-0.027838527 112:-0.087393987 113:-0.053952414 114:-0.056047065 115:-0.10630808 116:0.089596886 117:0.087790469 118:-0.030992475 119:0.043124363 120:0.053749581 
0.6207708852548275 1:25 2:7 3:25 4:38 5:28 6:20 7:19 8:49 9:44 10:56 11:10 12:21 13:30 14:14 15:25 16:16 17:31 18:24 19:3 20:19 21:0.061507937 22:0.057654076 23:0.057768924 24:0.05988024 25:0.082 26:0.084168337 27:0.064257028 28:0.058350101 29:0.056451613 30:0.062626263 31:-0.00089009438 32:-0.061141314 33:-0.009557026 34:0.0054452394 35:-0.045259362 36:-0.015941684 37:-0.01789317 38:0.022561954 39:0.0047273035 40:-0.028949728 41:0.05712836 42:-0.064819788 43:-0.044016395 44:0.050268402 45:0.0019490125 46:0.0049133484 47:0.091363184 48:-0.017371005 49:-0.055785128 50:-0.0082304249 51:0.10075528 52:-0.051005523 53:0.0061183159 54:0.048580945 55:0.020132921 56:0.047740183 57:0.14486859 58:0.029106546 59:-0.074670892 60:-0.022885334 61:0.064797443 62:-0.11552629 63:-0.034905989 64:0.063752706 65:-0.0090684613 66:-0.024434516 67:0.0870722 68:0.010290102 69:-0.048062887 70:-0.0405313 71:-0.040128183 72:0.015374557 73:0.012303542 74:-0.0070158354 75:-0.028341401 76:0.059961838 77:0.095159424 78:-0.01574399 79:-0.0021655376 80:0.0088556545 81:0.020135273 82:-0.010282941 83:0.023204647 84:0.015371838 85:0.054154313 86:0.086345167 87:0.014685528 88:-0.0046632948 89:-0.025849034 90:0.021518477 91:0.087131033 92:0.022879739 93:0.0055008124 94:0.038534782 95:0.041369847 96:0.040497219 97:0.052959716 98:0.0087859988 99:-0.041609761 100:-0.028110013 101:0.0002579585 102:-0.046209769 103:0.0043388767 104:-0.017553877 105:0.040853194 106:0.075874891 107:-0.001431914 108:-0.041872327 109:-0.034042198 110:-0.0036444342 111:0.013856 112:0.041252637 113:-0.050090442 114:0.086709754 115:-0.0053747229 116:0.081461756 117:0.095903913 118:0.10281337 119:0.1435659 120:0.056048188 
0.1902353234130316 1:26 2:8 3:29 4:29 5:36 6:30 7:15 8:40 9:30 10:54 11:15 12:15 13:21 14:17 15:32 16:29 17:13 18:36 19:6 20:13 21:0.068825911 22:0.060851927 23:0.079268293 24:0.075356415 25:0.059183673 26:0.051124744 27:0.075819672 28:0.071868583 29:0.063786008 30:0.068041237 31:0.039384318 32:-0.096969089 33:0.11001851 34:0.055239722 35:0.071709432 36:-0.00080372585 37:0.02551549 38:0.037658439 39:-0.087571661 40:-0.0033582497 41:0.072930858 42:-0.027369522 43:0.04530545 44:-0.048396843 45:0.060941529 46:-0.036952562 47:0.033186631 48:-0.029936352 49:-0.070482931 50:0.045133216 51:0.030530109 52:-0.063218043 53:0.041197011 54:-0.0049950952 55:0.059110097 56:0.00047116462 57:0.052903001 58:0.053331059 59:-0.055925704 60:-0.015115542 61:0.038763956 62:-0.078431995 63:0.03520111 64:0.035748706 65:0.066152958 66:-0.012441065 67:0.030558159 68:-0.0029378429 69:-0.1055163 70:0.0068939626 71:0.059124975 72:-0.016866858 73:-0.056745832 74:-0.042621132 75:-0.051986476 76:-0.028018859 77:0.05690784 78:-0.039748962 79:-0.0035614956 80:0.059223608 81:0.059622534 82:-0.028480511 83:-0.0054095519 84:0.10551614 85:-0.0056251435 86:-0.01949894 87:0.025889573 88:0.047035943 89:0.015119678 90:-0.018177252 91:0.0679559 92:0.031841601 93:-0.02122972 94:-0.020445021 95:0.043619122 96:0.025992963 97:0.035596455 98:0.014470782 99:-0.021288878 100:-0.016955422 101:0.015107497 102:-0.054504062 103:-0.020179182 104:0.075466281 105:-0.063616804 106:-0.03587414 107:-0.031112133 108:0.041579131 109:-0.052481219 110:-0.039251319 111:0.017742357 112:0.068306297 113:0.055405645 114:0.055172326 115:-0.0043199521 116:0.009429735 117:0.05962948 118:-0.04735149 119:-0.04797376 120:0.057057478 
0.6644263423787296 1:36 2:4 3:21 4:34 5:15 6:31 7:13 8:27 9:25 10:59 11:14 12:12 13:28 14:17 15:42 16:29 17:29 18:51 19:10 20:17 21:0.068093385 22:0.048732943 23:0.07421875 24:0.074363992 25:0.076470588 26:0.060903733 27:0.049212598 28:0.098619329 29:0.029644269 30:0.04950495 31:-0.02940361 32:-0.0889859 33:0.024932881 34:0.11782259 35:-0.083939761 36:-0.050184225 37:-0.0072348183 38:0.069149549 39:-0.12861356 40:-0.024903188 41:0.0030217791 42:-0.10196089 43:0.031597157 44:0.13774293 45:-0.063193164 46:-0.033324841 47:-0.035015138 48:0.022088014 49:-0.089568159 50:-0.017925736 51:0.058178556 52:-0.087567298 53:0.037356062 54:0.1001954 55:-0.065580064 56:-0.013879818 57:-0.0077257745 58:0.04759396 59:-0.026156295 60:-0.0070508327 61:0.0088097821 62:-0.11569063 63:0.0045269421 64:0.10917458 65:-0.040350398 66:-0.061921407 67:-0.043715213 68:0.050393171 69:-0.080680911 70:-0.056310583 71:0.063573939 72:0.056867778 73:0.01449253 74:0.037169581 75:0.037468788 76:-0.035367285 77:0.010082724 78:0.10685998 79:-0.052889644 80:0.00026196729 81:0.10928529 82:0.082506638 83:0.083412513 84:0.048013845 85:0.12798065 86:0.036845736 87:0.033010253 88:0.039654966 89:0.0086444568 90:0.021423185 91:0.041521192 92:-0.058623128 93:-0.0024608677 94:-0.017058648 95:-0.029562418 96:0.026755356 97:-0.0032860737 98:0.11918062 99:-0.015377241 100:-0.016795612 101:0.06338488 102:0.051572877 103:0.023161752 104:0.01347342 105:0.086762161 106:-0.023112721 107:-0.017098191 108:0.0025544329 109:-0.039581525 110:-0.024005572 111:0.025079622 112:-0.026172288 113:0.096648827 114:0.075187605 115:0.041895235 116:0.081761778 117:-0.024982123 118:0.065859094 119:0.041970212 120:0.045313706 
0.139934760620252 1:30 2:7 3:23 4:39 5:30 6:22 7:9 8:27 9:31 10:42 11:19 12:23 13:19 14:10 15:26 16:22 17:18 18:23 19:5 20:10 21:0.064367816 22:0.059907834 23:0.057736721 24:0.064814815 25:0.060324826 26:0.058139535 27:0.067599068 28:0.058411215 29:0.051522248 30:0.051643192 31:-0.062324749 32:-0.022889493 33:-0.037673374 34:0.00027750111 35:0.014820056 36:-0.12100217 37:0.053123759 38:-0.020956301 39:-0.018561449 40:-0.020794839 41:-0.027909022 42:-0.092052458 43:-0.0030542461 44:0.067641278 45:0.065831371 46:-0.053632797 47:0.10715132 48:-0.052467174 49:-0.01749683 50:-0.062535966 51:-0.003537675 52:0.012272619 53:0.087761619 54:0.095274028 55:0.029644958 56:-0.080175752 57:0.10428041 58:-0.010273948 59:-0.0098020103 60:-0.082804764 61:-0.073057592 62:-0.053663744 63:-0.00052742135 64:0.090037307 65:-0.005843502 66:-0.10911502 67:0.068013135 68:-0.0025320788 69:-0.03421262 70:-0.055499093 71:-0.0047869826 72:-0.036166194 73:-0.12961611 74:-0.055928241 75:0.014080334 76:0.11487344 77:-0.071512476 78:-0.074705068 79:-0.038763649 80:0.0032455556 81:0.016037668 82:0.035388229 83:0.018749973 84:0.012937699 85:-0.02879345 86:0.051430487 87:0.031579928 88:-0.013802179 89:0.002185993 90:0.03963124 91:-0.038465236 92:0.013605638 93:-0.013238549 94:0.047655601 95:0.0031687471 96:-0.010136132 97:0.10177387 98:-0.024517075 99:-0.048736107 100:-0.026847037 101:-0.011454708 102:0.020349212 103:-0.010355571 104:-0.030454341 105:-0.030373134 106:0.033194338 107:-0.0063630018 108:-0.015171522 109:-0.0339969 110:-0.0073432091 111:0.045558856 112:-0.0098702045 113:-9.7614304e-05 114:-0.022544925 115:-0.03322593 116:0.10316094 117:-0.035562055 118:-0.11657614 119:0.030106556 120:-0.040938598 
1.20284251466255 1:15 2:6 3:16 4:12 5:11 6:16 7:4 8:11 9:17 10:30 11:9 12:10 13:12 14:7 15:17 16:16 17:19 18:17 19:2 20:8 21:0.062745098 22:0.066929134 23:0.04743083 24:0.047619048 25:0.079681275 26:0.068 27:0.048192771 28:0.052419355 29:0.10121457 30:0.044715447 31:0.017878896 32:-0.043131622 33:0.011573961 34:0.0057750758 35:-0.018782331 36:-0.077083022 37:0.025199032 38:-0.061368365 39:0.099885475 40:-0.002333582 41:0.010697995 42:-0.064883671 43:-0.0090512972 44:-0.025915084 45:0.0078629078 46:-0.078923082 47:-0.097506047 48:-0.0057096912 49:0.21770928 50:0.001841716 51:0.042049887 52:-0.008658924 53:0.042078161 54:0.05611353 55:0.014203645 56:-0.043157635 57:0.047021463 58:-0.018804961 59:0.14618296 60:0.0023349647 61:-0.026473331 62:-0.026193096 63:0.0048340095 64:0.0036785558 65:0.039108368 66:-0.066033954 67:0.011460532 68:-0.11064444 69:0.15719805 70:-0.048651357 71:0.054723673 72:-0.041724794 73:-0.062438265 74:-0.067270626 75:-0.10257768 76:-0.1497399 77:0.058864856 78:0.0099066828 79:0.10921251 80:-0.067939463 81:0.087726219 82:0.055347993 83:0.02895394 84:0.035226815 85:0.093577037 86:0.027010601 87:0.0082870332 88:0.063427181 89:0.07168637 90:0.085735927 91:0.020361746 92:0.055078182 93:0.02108381 94:0.021393798 95:0.099344615 96:-0.040169949 97:0.054651529 98:-0.0049993301 99:0.11355532 100:-0.044083526 101:0.10848967 102:0.0086596438 103:-0.018605093 104:-0.052363593 105:0.075205932 106:-0.0043353208 107:0.01898152 108:0.091874773 109:0.059351861 110:0.061640966 111:-0.064199674 112:0.0018962033 113:0.055323472 114:-0.044156648 115:0.029217179 116:0.075273042 117:-0.0029329925 118:-0.12804482 119:-0.03472683 120:0.038081239 
0.0297326332792924 1:28 2:5 3:30 4:32 5:43 6:31 7:11 8:31 9:34 10:36 11:21 12:24 13:29 14:18 15:29 16:30 17:28 18:36 19:5 20:20 21:0.063339731 22:0.065384615 23:0.073217726 24:0.048262548 25:0.069632495 26:0.067829457 27:0.050485437 28:0.06614786 29:0.037037037 30:0.0546875 31:0.036985461 32:-0.051212708 33:0.07090124 34:-0.040251638 35:0.038356623 36:-0.022826028 37:-0.025937436 38:0.067407592 39:0.053641055 40:-0.10231434 41:0.0080798096 42:-0.034212977 43:0.12112913 44:0.023298987 45:0.073452492 46:0.032138414 47:-0.099263901 48:0.025206261 49:0.0059768411 50:-0.040126016 51:0.0081503478 52:-0.063330276 53:0.12132421 54:0.0099115254 55:0.039624901 56:0.00344136 57:-0.029492765 58:0.10303043 59:0.016438479 60:-0.10333644 61:0.0031971786 62:-0.043477518 63:0.099703121 64:-0.029347202 65:0.059714929 66:-0.0061787721 67:-0.057742739 68:0.085109446 69:0.017585623 70:-0.09041935 71:-0.074455428 72:0.03602477 73:-0.089037776 74:-0.049424448 75:-0.012799924 76:-0.064450884 77:0.019012076 78:-0.038917658 79:-0.04456493 80:-0.028416763 81:0.052344906 82:0.032186795 83:0.013419474 84:-0.029375589 85:0.026980378 86:0.033159061 87:0.040108857 88:0.052099129 89:-0.028709818 90:0.013299123 91:0.03515978 92:-0.071000491 93:0.073852814 94:0.0095583014 95:0.043873369 96:0.02067854 97:0.0055639066 98:0.067953056 99:-0.013510666 100:-0.087948257 101:0.02121589 102:0.0013899221 103:-0.02057904 104:-0.089090445 105:0.00035078671 106:0.026955054 107:0.010220561 108:0.040426883 109:-0.072840176 110:-0.054465356 111:0.013838662 112:0.054021344 113:0.10579825 114:0.0012126999 115:0.050139081 116:-0.015214316 117:0.027559014 118:0.035878567 119:0.059805546 120:0.11320606 
0.471550876722751 1:12 2:16 3:30 4:32 5:36 6:29 7:10 8:29 9:29 10:44 11:17 12:20 13:20 14:14 15:31 16:28 17:26 18:31 19:2 20:20 21:0.06092437 22:0.052631579 23:0.040084388 24:0.063424947 25:0.065677966 26:0.061571125 27:0.070212766 28:0.068230277 29:0.032051282 30:0.062098501 31:0.015473298 32:-0.04454448 33:-0.034205168 34:0.040365541 35:0.033993526 36:0.017214388 37:0.042321057 38:0.071137627 39:-0.085152947 40:-0.066919091 41:-0.0060802324 42:-0.050034846 43:-0.026672222 44:0.070134169 45:0.077023538 46:-0.010620279 47:0.045178129 48:0.05614182 49:-0.091113998 50:-0.027208973 51:0.013865821 52:0.0089038622 53:0.010355034 54:0.048651235 55:0.12350861 56:0.059599654 57:0.09050066 58:0.054938244 59:-0.043036279 60:-0.030591441 61:0.01127267 62:-0.044121482 63:-0.020307161 64:0.091843342 65:0.038938985 66:0.0073584162 67:0.11811842 68:0.047824645 69:-0.07002075 70:-0.026904652 71:-0.011755887 72:0.020981427 73:-0.013118345 74:-0.069343321 75:0.069609356 76:-0.076317768 77:0.046142732 78:-0.0064502451 79:-0.020035163 80:0.021563564 81:0.044128847 82:0.076185186 83:-0.0098037248 84:0.069893065 85:0.033437526 86:-0.022860127 87:0.026667028 88:0.033501911 89:-0.0037288329 90:0.0090670123 91:0.055012129 92:-0.019564329 93:0.017688062 94:0.089446489 95:0.091620639 96:0.040079758 97:0.066363108 98:0.048319159 99:-0.056914506 100:-0.041459754 101:0.033159357 102:0.061793602 103:0.0067835766 104:0.020391854 105:0.034170192 106:-0.0043031869 107:-0.00026591637 108:0.04118872 109:-0.073914 110:-0.042305982 111:-0.055862061 112:-0.08231101 113:-0.050904894 114:-0.083859585 115:0.021090651 116:-0.07013724 117:0.13386404 118:0.035063428 119:-0.095300982 120:0.058411968 
0.7342547884149146 1:23 2:4 3:26 4:37 5:35 6:33 7:20 8:28 9:26 10:69 11:22 12:11 13:30 14:16 15:36 16:37 17:25 18:33 19:6 20:10 21:0.05313093 22:0.041825095 23:0.087619048 24:0.061068702 25:0.061185468 26:0.061302682 27:0.069097889 28:0.078846154 29:0.077071291 30:0.054054054 31:0.0055190808 32:-0.074349041 33:0.099239484 34:0.078610073 35:-0.0061623481 36:0.0074047116 37:0.050803248 38:0.056523189 39:0.007143916 40:-0.069652481 41:0.025833063 42:-0.059109776 43:0.1316663 44:0.064840923 45:0.0078733868 46:0.038348603 47:0.036965939 48:-0.055586443 49:0.028696568 50:0.035218382 51:0.022187361 52:-0.04439601 53:0.10230948 54:0.027256444 55:0.0024008393 56:0.041869318 57:0.049198067 58:-0.023303253 59:-0.036737301 60:0.0089830819 61:0.013758012 62:-0.10161725 63:0.088452935 64:0.048369065 65:-0.011512618 66:0.030010725 67:0.047126525 68:0.037107822 69:-0.051966463 70:-0.040886339 71:0.025499138 72:-0.048033463 73:-0.03877027 74:-0.07404631 75:-0.062523048 76:-0.05572796 77:0.061296797 78:0.004003961 79:-0.0015120908 80:-0.047296005 81:0.051750712 82:-0.0074791973 83:-0.0016353178 84:0.06262738 85:0.069936015 86:0.031706281 87:0.06498038 88:0.10233084 89:-0.022056303 90:0.048615221 91:-0.0049677174 92:-0.042477616 93:-0.011094035 94:-0.025197764 95:0.081350685 96:0.056080523 97:0.022637996 98:0.072161719 99:-0.071593591 100:0.031159485 101:0.023923498 102:-0.076714138 103:-0.064750978 104:0.072259202 105:0.040544226 106:0.011151096 107:0.028062491 108:0.076928943 109:-0.051561787 110:-0.024248113 111:-0.018001458 112:-0.018129289 113:0.022453478 114:0.0038443109 115:-0.027901923 116:0.019985972 117:0.11901424 118:0.040051853 119:-0.0071987449 120:-0.049714834 
1.525486956430937 1:54 2:20 3:55 4:51 5:46 6:36 7:20 8:63 9:60 10:83 11:21 12:36 13:44 14:27 15:43 16:53 17:49 18:52 19:9 20:30 21:0.073943662 22:0.059929495 23:0.061176471 24:0.068315665 25:0.076650943 26:0.064935065 27:0.055555556 28:0.062721893 29:0.08056872 30:0.06405694 31:-0.016720252 32:-0.11860342 33:0.027266776 34:0.087020347 35:-0.069186617 36:0.025150411 37:0.068339099 38:-0.0050117924 39:-0.088195423 40:-0.034279672 41:0.071989094 42:-0.094799968 43:0.0017461395 44:0.03219621 45:-0.0057937615 46:0.012344664 47:0.035861774 48:0.041558473 49:0.006680787 50:-0.013533627 51:0.023275012 52:-0.075020815 53:0.015780055 54:0.072869124 55:0.00035919632 56:0.039396669 57:0.017010792 58:0.03859663 59:0.0087446362 60:0.0057223591 61:0.030822274 62:-0.091076635 63:-0.0089747632 64:0.030669263 65:-0.010211706 66:0.0056637073 67:0.060006772 68:0.047961699 69:-0.059809728 70:0.0023183201 71:0.088257926 72:-0.028607553 73:0.024619191 74:0.038477156 75:0.085488851 76:0.059178041 77:-0.039493153 78:-0.0177969 79:0.057555489 80:-0.041392172 81:0.026787939 82:0.032772979 83:0.032066063 84:0.04354495 85:0.074880858 86:0.053088267 87:0.072766927 88:0.027583672 89:0.052189779 90:0.052397385 91:0.026759133 92:0.039385585 93:0.0081341581 94:0.0061433775 95:-0.00018017169 96:0.009115385 97:0.019454301 98:0.067527582 99:-0.0068171736 100:0.0074805134 101:0.018248008 102:-0.030736245 103:0.008529076 104:0.041152477 105:0.029447424 106:0.028014384 107:0.022734384 108:0.0030457478 109:0.034230355 110:0.018512379 111:0.053836938 112:-0.054368038 113:-0.0049022139 114:0.039135613 115:-0.014876509 116:-0.0076574848 117:0.01221792 118:0.042879201 119:0.058248933 120:0.12880089 
0.6208737680654325 1:33 2:6 3:26 4:38 5:23 6:27 7:10 8:26 9:38 10:44 11:15 12:16 13:21 14:14 15:19 16:21 17:28 18:27 19:4 20:12 21:0.069196429 22:0.058165548 23:0.038116592 24:0.065168539 25:0.040540541 26:0.054176072 27:0.07239819 28:0.070294785 29:0.056818182 30:0.038724374 31:0.038910459 32:-0.011061965 33:-0.073738225 34:-0.016692041 35:-0.073029672 36:0.079488406 37:0.043574446 38:0.0011171726 39:0.024122055 40:-0.048972458 41:0.024610364 42:-0.049374749 43:-0.0092772478 44:-0.048528169 45:-0.092734743 46:0.022835359 47:0.023931207 48:-0.03138497 49:0.013900819 50:-0.053430366 51:0.043622957 52:-0.074864299 53:0.090542918 54:0.044969283 55:-0.0034211765 56:0.07824861 57:0.096809549 58:0.0033746924 59:0.0011980907 60:-0.016251652 61:0.060483102 62:-0.0053415459 63:0.0031897197 64:0.043945794 65:-0.065737912 66:0.076978061 67:0.063467086 68:0.05674015 69:-0.0044464607 70:-0.032875124 71:-0.03614204 72:0.029680875 73:-0.041265503 74:-0.015212617 75:0.0012961436 76:-0.006250062 77:0.02069862 78:-0.0059935541 79:-0.014584532 80:0.0092747724 81:0.11886216 82:0.11311586 83:0.027739446 84:0.075279474 85:0.071441861 86:0.085061512 87:0.11255308 88:0.11967429 89:0.038475612 90:0.055610875 91:0.02901301 92:-0.013525587 93:-0.0033131559 94:0.078797788 95:-0.0090670222 96:0.0015585706 97:0.04687897 98:0.077056089 99:0.059788781 100:0.047947933 101:0.082297013 102:0.043236653 103:-0.036615203 104:0.044773967 105:0.035333359 106:0.057919669 107:0.078627783 108:0.093418008 109:-0.0065279981 110:-0.032476674 111:0.033640521 112:0.0617394 113:-0.028597609 114:0.010622408 115:0.048158845 116:0.0034170725 117:0.11510125 118:-0.0031660802 119:0.052977863 120:-0.044627028 
0.5006461403940333 1:24 2:9 3:22 4:27 5:40 6:16 7:9 8:34 9:45 10:43 11:11 12:28 13:21 14:22 15:14 16:17 17:24 18:27 19:5 20:20 21:0.074235808 22:0.04595186 23:0.063596491 24:0.059340659 25:0.081497797 26:0.059602649 27:0.086283186 28:0.042128603 29:0.051111111 30:0.048997773 31:0.029949185 32:-0.015466872 33:-0.033559881 34:0.015677404 35:0.053153731 36:0.015435697 37:-0.01452693 38:0.12771255 39:-0.028187755 40:-0.03660445 41:0.095059782 42:-0.0066511019 43:0.037738219 44:0.071994848 45:0.0578872 46:-0.053886917 47:0.030927567 48:0.031474193 49:-0.002873596 50:-0.019084692 51:0.058421751 52:0.019410676 53:-0.023072549 54:-0.025254245 55:-0.020171643 56:-0.020806857 57:0.056801991 58:0.066296253 59:-0.0028584817 60:-0.021790042 61:0.023150324 62:0.02051192 63:0.041637114 64:0.065736502 65:-0.0099211188 66:-0.0778285 67:-0.018712764 68:0.050718013 69:-0.091818284 70:-0.013615379 71:0.034265388 72:0.060390335 73:-0.043706711 74:-0.078834817 75:0.00053215395 76:0.026826514 77:0.040850109 78:-0.046239095 79:0.0035139088 80:-0.054212219 81:-0.010315518 82:-0.0034838777 83:0.005270688 84:0.0044501847 85:0.064916831 86:0.0021399766 87:-0.023468251 88:0.0012554563 89:-0.0013132965 90:0.028227855 91:0.033756719 92:0.050916472 93:0.01246467 94:0.018751427 95:0.044765229 96:-0.019287425 97:0.069129806 98:-0.045325536 99:0.001567656 100:-0.011634221 101:0.0081755805 102:-0.027066579 103:-0.0065546356 104:-0.041770414 105:0.075919049 106:0.030512808 107:0.0093072566 108:0.038952646 109:-0.025456563 110:0.020086432 111:0.068324417 112:-0.092874693 113:0.035909504 114:-0.0026212682 115:0.0044694302 116:0.02417395 117:-0.049601684 118:-0.013327187 119:-0.01675507 120:0.0021748855 
0.04944484883497244 1:31 2:4 3:17 4:43 5:24 6:30 7:14 8:35 9:37 10:50 11:13 12:19 13:31 14:11 15:34 16:24 17:24 18:38 19:6 20:23 21:0.07480315 22:0.049309665 23:0.065217391 24:0.057425743 25:0.051587302 26:0.055666004 27:0.071713147 28:0.0499002 29:0.052 30:0.068136273 31:-0.08853814 32:-0.11891777 33:0.014463373 34:0.090606433 35:-0.11464601 36:0.026051446 37:0.068202363 38:0.067908322 39:-0.039001925 40:-0.0047992153 41:-0.064421675 42:-0.00089515112 43:-0.023589282 44:0.15666115 45:-0.021131367 46:0.052952212 47:0.032646807 48:0.10354795 49:-0.096511044 50:-0.017878432 51:-0.043661722 52:-0.074687819 53:0.017449059 54:0.15749578 55:-0.038872455 56:0.009616891 57:0.094564469 58:0.065586784 59:-0.036203776 60:-0.0043838591 61:-0.089993353 62:-0.08481025 63:0.022941334 64:0.092446454 65:-0.026826365 66:0.0074549881 67:0.066152905 68:0.067314338 69:-0.028243448 70:-0.024050234 71:-0.0065776166 72:0.054819816 73:-0.031015967 74:-0.01900603 75:0.0463031 76:0.015540935 77:-0.0041273613 78:-0.0086942559 79:-0.029130268 80:-0.018361218 81:0.041644104 82:-0.010383483 83:0.022492944 84:0.022656976 85:0.0073340701 86:0.0549745 87:0.077625703 88:0.0057195233 89:0.05769747 90:0.080796169 91:-0.027778225 92:-0.0023529075 93:0.017469346 94:0.050753918 95:0.055515274 96:-0.01214281 97:0.05850288 98:0.046875005 99:0.015154865 100:0.014859402 101:0.0039572611 102:-0.046981512 103:-0.0036235041 104:-0.048650517 105:-0.043329801 106:0.022093965 107:0.045502501 108:-0.034594132 109:0.046221231 110:0.055590287 111:0.092708541 112:0.073046202 113:0.063822723 114:0.12569962 115:-0.014777152 116:0.100373 117:0.095470361 118:0.045796174 119:0.036557529 120:0.090267872 
0.9772220189582843 1:32 2:6 3:32 4:29 5:26 6:25 7:13 8:20 9:38 10:53 11:14 12:15 13:17 14:8 15:31 16:32 17:31 18:54 19:10 20:11 21:0.076458753 22:0.054435484 23:0.080808081 24:0.10323887 25:0.062880325 26:0.050813008 27:0.054989817 28:0.063265306 29:0.049079755 30:0.069672131 31:0.04256815 32:-0.036944153 33:0.0074725756 34:0.055300707 35:0.064453449 36:0.016395895 37:0.032041069 38:0.020906665 39:-0.06579296 40:-0.046838093 41:0.077093787 42:-0.055626614 43:0.05827326 44:0.12793718 45:0.029319096 46:-0.0057867779 47:0.012745583 48:0.015160871 49:-0.057493602 50:-0.021091842 51:0.030389635 52:-0.052399015 53:0.019626242 54:0.15980963 55:0.067014381 56:0.04397311 57:0.047149968 58:0.083513654 59:-0.037414815 60:-0.018621541 61:0.045450804 62:-0.11448765 63:0.047883799 64:0.12425795 65:0.077131937 66:0.026331548 67:0.06281305 68:0.071567534 69:-0.061718889 70:-0.032780649 71:0.060741606 72:0.056490123 73:0.10087382 74:0.032751858 75:-0.068789945 76:-0.016553792 77:-0.012285234 78:-0.043808716 79:-0.025199679 80:-0.037994141 81:0.062247478 82:0.089329731 83:0.050593653 84:0.054398822 85:0.093344128 86:0.033409685 87:0.055816216 88:0.0071732586 89:-0.028071608 90:0.046605595 91:0.027353153 92:-0.086957188 93:0.042968082 94:0.017988773 95:0.010610389 96:-0.023955242 97:0.03053389 98:0.05257912 99:-0.041947058 100:0.021991511 101:0.030647169 102:0.091418481 103:0.031273878 104:0.022664426 105:0.05278655 106:-0.029016292 107:-0.030800307 108:-0.065637587 109:-0.095460029 110:0.0086529139 111:0.031564724 112:0.023521779 113:-0.036760698 114:0.022639326 115:0.093066301 116:-0.069551236 117:0.021193755 118:-0.10972011 119:0.018733474 120:-0.009052985 
1.125449273605593 1:43 2:13 3:43 4:57 5:25 6:42 7:18 8:38 9:56 10:68 11:18 12:29 13:34 14:25 15:30 16:42 17:45 18:39 19:9 20:28 21:0.072649573 22:0.075606277 23:0.054285714 24:0.070100143 25:0.050143266 26:0.06312769 27:0.064655172 28:0.047482014 29:0.067723343 30:0.053391053 31:0.0095540905 32:-0.0072005876 33:0.036138918 34:-0.052063812 35:-0.053536329 36:-0.12269459 37:0.032433738 38:-0.037180144 39:-0.038162842 40:-0.034568168 41:0.034771718 42:0.023930328 43:-0.040863224 44:0.016413816 45:0.00057050383 46:-0.088316268 47:0.00013671969 48:0.022531975 49:-0.039285174 50:-0.098466409 51:0.092890679 52:0.023926094 53:0.029591869 54:0.033024092 55:0.036439501 56:-0.068004502 57:0.020857565 58:0.013415534 59:-0.016607398 60:-0.060009092 61:0.072197304 62:0.023099429 63:0.034374268 64:0.020727041 65:-0.025363434 66:-0.098213765 67:0.02449529 68:-0.010509719 69:-0.021880177 70:-0.050749696 71:0.044701717 72:0.041020025 73:-0.029870678 74:0.00026759955 75:-0.0013630434 76:0.011635666 77:-0.017522194 78:-0.019471071 79:-0.0089050704 80:-0.00048139619 81:0.077154225 82:0.079670465 83:0.054678487 84:0.031842025 85:0.0051469276 86:0.052913653 87:0.048544265 88:0.033906937 89:0.017958534 90:0.055352113 91:0.039543638 92:0.043431682 93:0.029363983 94:0.0033925787 95:-0.017759271 96:-0.05827916 97:0.00026563287 98:0.0071997365 99:0.017105932 100:0.033640291 101:0.051192557 102:0.049209466 103:0.0033287693 104:-0.018626744 105:-0.037847106 106:-0.0032780106 107:0.039573608 108:-0.012605353 109:-0.040988351 110:0.03404079 111:0.031306624 112:0.055715606 113:-0.034429104 114:0.03488888 115:0.054418666 116:-0.030839586 117:0.010305308 118:0.052791854 119:0.090061996 120:-0.048254287 
1.531162038661977 1:39 2:6 3:58 4:91 5:29 6:32 7:12 8:45 9:84 10:58 11:25 12:30 13:22 14:19 15:26 16:37 17:34 18:47 19:4 20:22 21:0.094444444 22:0.075104312 23:0.090529248 24:0.085076709 25:0.076815642 26:0.082517483 27:0.089635854 28:0.068723703 29:0.06741573 30:0.071729958 31:0.025739341 32:-0.04969857 33:-0.025716015 34:0.017003319 35:-0.04716998 36:-0.047686205 37:0.011640985 38:0.041106531 39:-0.033850757 40:-0.030550638 41:0.089285847 42:-0.059258628 43:0.077711729 44:0.045445762 45:-0.016468234 46:0.031602493 47:0.060720698 48:0.086656719 49:0.062216826 50:0.053299553 51:0.26885435 52:0.062464553 53:0.24534563 54:0.25839945 55:0.15134694 56:0.1620625 57:0.21098857 58:0.21888257 59:0.21692677 60:0.20099793 61:0.13067103 62:-0.026525483 63:0.1080637 64:0.13458894 65:0.0059788248 66:0.075995942 67:0.096692207 68:0.141128 69:0.083162559 70:0.066766803 71:0.11517129 72:0.097835435 73:0.049684432 74:-0.050244852 75:0.031217532 76:-0.039326737 77:0.061588457 78:-0.082070707 79:-0.028280091 80:-0.027774488 81:0.051967173 82:0.068138331 83:0.093877289 84:0.05389578 85:0.031725207 86:0.065579278 87:0.061915696 88:0.094952707 89:0.055140671 90:0.035185604 91:0.052670581 92:0.023144907 93:0.07056705 94:0.075417972 95:0.033087011 96:0.063533892 97:0.061095058 98:0.10014878 99:0.062764071 100:0.065136677 101:0.0070920444 102:0.05774204 103:0.065436393 104:0.02328829 105:-0.0093994322 106:0.026481607 107:0.0042800123 108:0.062674246 109:0.010602757 110:-0.014386566 111:-0.06555114 112:-0.0093318847 113:0.058998945 114:0.019014778 115:0.00085921696 116:0.051950014 117:0.030335324 118:0.04889209 119:0.023813816 120:-0.032677668 
0.2079110577166395 1:34 2:7 3:36 4:30 5:44 6:23 7:13 8:32 9:42 10:49 11:21 12:27 13:24 14:9 15:32 16:29 17:21 18:38 19:5 20:14 21:0.064150943 22:0.071833648 23:0.051136364 24:0.070208729 25:0.060836502 26:0.068571429 27:0.059160305 28:0.06500956 29:0.044061303 30:0.040307102 31:-0.030670278 32:0.029724731 33:-0.0339956 34:-0.022107597 35:0.03673698 36:-0.01664128 37:-0.022381354 38:0.12145653 39:-0.022274762 40:-0.013674291 41:0.01681011 42:-0.031162225 43:-0.010330249 44:0.065658537 45:0.067928 46:0.028686783 47:-0.025033731 48:0.013868002 49:-0.051158633 50:-0.0067032522 51:-0.013042807 52:0.020643247 53:-0.003823579 54:0.048066108 55:0.086646116 56:0.044502766 57:0.0032293749 58:0.084549675 59:-0.02667544 60:-0.02073576 61:-0.034261286 62:-0.016371377 63:-0.015974059 64:0.031358889 65:0.071111083 66:0.02131174 67:-0.0049355873 68:0.083914025 69:-0.032344268 70:-0.028081276 71:-0.015594252 72:-0.10190515 73:0.031598291 74:-0.058970296 75:-0.039432694 76:-0.0031094077 77:-0.020849665 78:-0.069673973 79:-0.0063634061 80:0.021949628 81:0.033047324 82:0.013486371 83:0.016892616 84:-0.059598515 85:0.015128016 86:-0.030985997 87:0.010177254 88:0.032414029 89:-0.0096355108 90:0.036980699 91:-0.049674771 92:0.032336781 93:-0.025489972 94:0.027167918 95:-0.0049698472 96:0.048688953 97:-0.021899241 98:0.074481149 99:0.00064614335 100:-0.026360795 101:0.030653373 102:0.013044538 103:0.016759414 104:-0.1298637 105:-0.012824303 106:-0.014671514 107:-0.022744876 108:0.012951971 109:-0.043616238 110:-0.0040439272 111:0.0084455219 112:0.048707606 113:0.01977397 114:-0.010445124 115:0.064044434 116:0.057667785 117:0.0045164504 118:-0.059788033 119:-0.0010581572 120:-0.10222549 
1.290044196934363 1:43 2:6 3:29 4:36 5:27 6:47 7:22 8:23 9:18 10:68 11:15 12:17 13:33 14:19 15:52 16:20 17:33 18:39 19:5 20:13 21:0.072566372 22:0.067375887 23:0.085257549 24:0.06227758 25:0.065953654 26:0.067857143 27:0.078711986 28:0.077060932 29:0.062836625 30:0.073741007 31:0.031161942 32:-0.039815648 33:0.082539942 34:0.052442974 35:0.027646309 36:0.053292816 37:0.049712095 38:0.057155494 39:0.033119661 40:0.027430025 41:0.018882669 42:-0.0041668981 43:0.14647712 44:0.017923883 45:0.015338687 46:0.0070337594 47:0.048312223 48:0.037474969 49:0.077347837 50:0.11937462 51:0.0017212189 52:-0.017623787 53:0.1731946 54:0.047944067 55:0.034982417 56:0.075257732 57:0.078570474 58:0.022387635 59:0.03557478 60:0.096403406 61:0.013704168 62:-0.053340562 63:0.073310142 64:0.083279237 65:0.048068482 66:0.058224769 67:0.10456998 68:0.03172311 69:0.022991927 70:0.052281097 71:0.013304659 72:0.039370724 73:0.021628629 74:-0.038552668 75:0.0079826635 76:0.069739568 77:0.013568067 78:-0.077041476 79:0.088748543 80:-0.027526774 81:0.088269796 82:0.11861139 83:0.073746422 84:0.033652209 85:0.09009026 86:0.038982288 87:0.082367393 88:0.097037997 89:0.012473674 90:0.1104247 91:-0.0087429302 92:0.0033619986 93:0.03573233 94:0.08113749 95:0.042456907 96:0.084674997 97:0.085867741 98:0.041551774 99:-0.023374207 100:0.078398592 101:0.023832901 102:0.11165119 103:0.02660025 104:-0.002137885 105:0.022241374 106:-0.0077560684 107:-0.0048988264 108:0.044470637 109:-0.06215992 110:0.051053935 111:-0.0020666805 112:0.028403593 113:0.082246152 114:0.094218613 115:0.00018511007 116:-0.0022638155 117:0.077246115 118:0.061719506 119:-0.045740394 120:0.090376165 
0.1080366649033853 1:17 2:8 3:31 4:30 5:26 6:16 7:10 8:42 9:40 10:60 11:19 12:25 13:24 14:14 15:27 16:43 17:28 18:27 19:6 20:17 21:0.068627451 22:0.074656189 23:0.051181102 24:0.069033531 25:0.055335968 26:0.065346535 27:0.05952381 28:0.053677932 29:0.061752988 30:0.057884232 31:0.096008986 32:-0.032876575 33:-0.0075454006 34:0.060564831 35:-0.005026807 36:0.04245249 37:-0.003630895 38:-0.0018866212 39:-0.067654446 40:-0.012876811 41:0.040734077 42:-0.12446866 43:-0.00084171097 44:0.11436954 45:-0.073585708 46:-0.037156098 47:-0.0010947583 48:0.031051142 49:-0.13084179 50:-0.037737982 51:0.063026427 52:-0.065151656 53:0.079830031 54:0.12262898 55:-0.041444505 56:-0.044547096 57:0.0051656946 58:0.060511726 59:-0.046441252 60:-0.027271638 61:0.021281457 62:-0.11437506 63:-0.0026766665 64:0.15328178 65:-0.061071646 66:-0.018682529 67:0.0064807343 68:0.063928415 69:-0.071039425 70:-0.027151104 71:0.0031849653 72:0.011328711 73:-0.039011505 74:-0.019633903 75:-0.022172963 76:0.019674746 77:0.028308924 78:0.013244135 79:0.0095558644 80:-0.037871628 81:-0.0084606278 82:0.051326723 83:-0.028029387 84:-0.040716714 85:0.056697192 86:0.043011817 87:0.036575274 88:-0.000453201 89:0.013188385 90:0.016460719 91:0.048037189 92:-0.0075917741 93:0.0094979316 94:0.037742699 95:-0.018998366 96:0.023305445 97:0.042073349 98:0.075038891 99:-0.039987636 100:-0.019998539 101:0.0033406725 102:0.045894808 103:-0.035804767 104:-0.085667126 105:0.061153149 106:0.023102567 107:0.0062159672 108:-0.044364963 109:-0.027056562 110:-0.0364449 111:-0.058899189 112:0.0048414711 113:-0.049454379 114:0.0067985154 115:0.0082147939 116:0.008161721 117:0.024761659 118:-0.063734554 119:0.090316249 120:0.027668949 
0.5420169234824526 1:38 2:7 3:27 4:43 5:37 6:26 7:15 8:30 9:44 10:47 11:23 12:25 13:23 14:12 15:26 16:29 17:17 18:39 19:5 20:17 21:0.047169811 22:0.051039698 23:0.045454545 24:0.056925996 25:0.076045627 26:0.060952381 27:0.047709924 28:0.078393881 29:0.055555556 30:0.05950096 31:-0.048271508 32:-0.0049412985 33:0.039029264 34:0.015630089 35:0.068381157 36:-0.051270398 37:-0.050770621 38:0.11042294 39:0.023744993 40:-0.055706574 41:-0.025364291 42:-0.014949636 43:0.010098377 44:0.050750946 45:0.121411 46:0.011087209 47:-0.042763008 48:0.051929774 49:-0.011801415 50:-0.065110185 51:-0.018595577 52:0.044928788 53:0.030130473 54:0.058363234 55:0.11482005 56:0.011391112 57:0.01461464 58:0.071834287 59:0.02402785 60:-0.061579891 61:-0.05913021 62:0.0010537925 63:0.029393693 64:0.061729796 65:0.10802977 66:-0.019584228 67:-0.011033373 68:0.13028136 69:0.0039040974 70:-0.065905153 71:-0.092177356 72:-0.02164407 73:-0.052532421 74:-0.010693043 75:0.046096452 76:0.0049822917 77:-0.06190488 78:-0.011223965 79:-0.064558426 80:-0.050414251 81:-0.021079932 82:0.028686754 83:0.026190681 84:-0.0055328515 85:0.068722177 86:-0.015063764 87:-0.016215661 88:0.045366766 89:0.011223025 90:0.008426553 91:-0.028201663 92:-0.013882919 93:-0.032735955 94:0.018461102 95:0.082116093 96:0.028059819 97:0.039150574 98:0.063759428 99:-0.0070379484 100:-0.073756359 101:-0.044902121 102:6.5190481e-05 103:0.045837196 104:-0.049068027 105:0.037862478 106:-0.0097154639 107:-0.055912521 108:0.026405615 109:-0.022482311 110:-0.046221114 111:0.0045096244 112:-0.018434752 113:-0.039345571 114:0.007573843 115:0.086194651 116:0.0029145337 117:-0.04178616 118:0.10924497 119:0.013984209 120:-0.011835195 
2 1:7 2:0 3:8 4:25 5:5 6:11 7:9 8:18 9:9 10:16 11:6 12:24 13:8 14:8 15:7 16:16 17:15 18:12 19:1 20:5 21:0.047619048 22:0.086124402 23:0.072115385 24:0.06763285 25:0.029126214 26:0.063414634 27:0.078431373 28:0.054187192 29:0.094059406 30:0.054726368 31:-0.060744006 32:0.051468289 33:0.068886944 34:-0.094557387 35:0.085775596 36:0.093630754 37:0.026053163 38:0.036256699 39:0.014621334 40:-0.1363323 41:-0.081429359 42:-0.10633839 43:0.076202805 44:0.052932825 45:-0.057005866 46:0.079712123 47:0.11027732 48:-0.00019183665 49:0.051168702 50:-0.07748689 51:-0.088374341 52:-0.0032464317 53:0.088411861 54:0.0064944773 55:0.025294408 56:0.045530071 57:0.12082393 58:0.015708806 59:-0.0073264346 60:-0.062272503 61:-0.079182917 62:0.099924035 63:0.11184042 64:0.010314519 65:0.049228996 66:0.12396323 67:0.065572883 68:-0.019739594 69:-0.0011080599 70:-0.056044548 71:0.038473573 72:-0.0014540113 73:0.12591925 74:-0.006571205 75:0.14017765 76:0.071978429 77:-0.030400433 78:0.13322573 79:0.13532951 80:-0.026934041 81:0.10794965 82:0.073343467 83:0.1378996 84:0.08782653 85:0.11587398 86:0.12190665 87:0.037788568 88:0.10221364 89:0.11607137 90:0.091007384 91:-0.059258777 92:0.11714586 93:0.082619147 94:0.019228669 95:0.10393894 96:0.10088774 97:0.031196253 98:0.067115439 99:0.079225999 100:0.11454085 101:0.033323403 102:-0.00987232 103:0.081983826 104:0.0045549202 105:0.047481798 106:0.066549287 107:-0.054531283 108:0.014734203 109:0.037677144 110:0.010285527 111:-0.0090039534 112:0.1744419 113:0.027340617 114:0.32927351 115:0.1562844 116:0.052536334 117:0.21758742 118:0.016003286 119:0.14836107 120:0.028595942 
1.426495059760457 1:42 2:13 3:35 4:48 5:40 6:59 7:22 8:38 9:35 10:65 11:23 12:38 13:39 14:28 15:37 16:48 17:40 18:35 19:14 20:29 21:0.068681319 22:0.070151307 23:0.064738292 24:0.066206897 25:0.055248619 26:0.049792531 27:0.048476454 28:0.07073509 29:0.059722222 30:0.065368567 31:0.063534187 32:-0.017565323 33:0.04957898 34:0.021811033 35:-0.028013841 36:-0.0093882693 37:-0.021113791 38:0.0014855468 39:-0.010672515 40:0.022245236 41:0.074672854 42:0.0097953907 43:0.034494738 44:0.026515391 45:0.031497045 46:-0.027165561 47:0.026963665 48:0.086123552 49:0.046814361 50:0.010761083 51:0.06749205 52:-0.034542106 53:0.026688862 54:0.024598614 55:-0.009144621 56:-0.016621569 57:-0.019998845 58:0.038330311 59:0.034298764 60:0.04074243 61:0.034840002 62:-0.067053467 63:0.024215458 64:0.0074308548 65:0.020629517 66:-0.030454443 67:0.018211407 68:0.032046681 69:0.00021917992 70:0.025916032 71:0.035926674 72:0.14032894 73:0.014089061 74:-0.068913645 75:0.017815675 76:0.012409116 77:0.052065038 78:0.11622797 79:0.063546695 80:0.014449733 81:0.077916253 82:0.052803321 83:0.070831011 84:0.07522421 85:0.020188421 86:0.033398654 87:0.041226179 88:0.0098233994 89:0.052524942 90:0.075257597 91:0.019172004 92:-0.0054468101 93:0.059896848 94:0.011165484 95:0.067725958 96:0.015422153 97:0.0033761129 98:0.0071412656 99:-0.0074688841 100:-0.010307006 101:0.090673759 102:0.013559066 103:0.032180043 104:0.055364935 105:-0.00043361737 106:0.021458804 107:0.02804957 108:-0.0012183289 109:0.0062455677 110:0.038665983 111:0.0016865441 112:0.0013800569 113:0.044090672 114:-0.021218273 115:0.064642498 116:-0.060372673 117:0.060968188 118:-0.028246482 119:-0.016257728 120:0.062589915 
2 1:8 2:0 3:7 4:10 5:5 6:4 7:2 8:5 9:8 10:15 11:3 12:8 13:8 14:4 15:3 16:12 17:12 18:6 19:4 20:7 21:0.061068702 22:0.084615385 23:0.054263566 24:0.078125 25:0.05511811 26:0.063492063 27:0.056 28:0.048387097 29:0.040650407 30:0.040983607 31:0.061529967 32:0.022828048 33:-0.15511527 34:-0.012976377 35:-0.20628573 36:-0.039868731 37:0.025025902 38:0.069364074 39:-0.16563704 40:-0.16858577 41:-0.038615197 42:-0.12279167 43:-0.0046585355 44:0.13723843 45:-0.1677093 46:-0.074637004 47:0.010401213 48:0.097511649 49:-0.025114773 50:-0.1037299 51:0.0084269658 52:0.0016231555 53:-0.046477615 54:0.099001061 55:-0.2132597 56:-0.084087226 57:-0.095536077 58:0.11014768 59:-0.049250107 60:-0.058299661 61:0.00071527825 62:-0.047296535 63:-0.12563005 64:0.10602023 65:-0.14108754 66:-0.067818328 67:0.019916712 68:0.14720306 69:-0.083741848 70:-0.11988386 71:0.088306924 72:0.1178989 73:0.082600175 74:0.064083538 75:-0.041183261 76:0.024987477 77:0.016807413 78:-0.15814775 79:-0.12610684 80:0.017108554 81:0.0032814117 82:0.10854464 83:0.037534844 84:0.01688369 85:0.080702396 86:0.072842474 87:0.023847011 88:-0.0090044267 89:-0.035875482 90:-0.046618691 91:-0.071173713 92:0.093770832 93:-0.11971975 94:0.15132917 95:-0.078162143 96:0.055794257 97:-0.0077111399 98:0.050365637 99:-0.016866622 100:-0.12598987 101:-0.058547766 102:0.053393557 103:-0.014428203 104:-0.057101323 105:0.022147637 106:0.018643553 107:-0.020979903 108:-0.034449563 109:-0.094644491 110:-0.11168352 111:-0.045511848 112:-0.22481139 113:0.10107684 114:0.09333177 115:-0.21509834 116:0.045960788 117:0.15027573 118:0.050713994 119:0.094068353 120:-0.011551468 
1.51799248477867 1:25 2:5 3:16 4:24 5:15 6:21 7:10 8:14 9:17 10:41 11:7 12:10 13:25 14:16 15:31 16:23 17:25 18:25 19:3 20:13 21:0.090163934 22:0.093150685 23:0.074175824 24:0.071625344 25:0.066298343 26:0.047091413 27:0.055555556 28:0.066852368 29:0.055865922 30:0.072829132 31:-0.0019346271 32:-0.030730922 33:-0.03034354 34:-0.0097140543 35:-0.055157306 36:-0.13015902 37:0.061605664 38:0.012524795 39:-0.0054188495 40:-0.027780657 41:-0.037549888 42:-0.05214981 43:-0.10149195 44:0.021924478 45:-0.027219728 46:-0.10773812 47:-0.040264129 48:0.13734704 49:-0.0011036465 50:-0.029754931 51:0.064565089 52:-0.072625546 53:-0.0077716956 54:0.031627467 55:0.015736409 56:-0.045693755 57:0.00076580137 58:0.088193753 59:-0.00036067671 60:0.027375095 61:0.015036836 62:-0.029843206 63:-0.064806541 64:0.068683525 65:-0.021055385 66:-0.05442429 67:0.030214121 68:0.033474192 69:0.0050547434 70:-0.0070370838 71:0.069921091 72:0.030280774 73:-0.060265223 74:0.012217688 75:0.026434698 76:-0.0049664244 77:0.051237028 78:0.021239361 79:-0.027158911 80:0.055188974 81:0.10138772 82:0.10141265 83:0.091867002 84:0.10113221 85:0.019473089 86:0.0704529 87:0.07145284 88:0.065748774 89:-0.0018323439 90:0.051136893 91:0.00764183 92:-0.0021746672 93:0.077139619 94:0.06470363 95:0.054769683 96:-0.050131381 97:0.023176138 98:-0.0031139827 99:-0.0082135726 100:0.01662291 101:0.064437305 102:0.05075309 103:0.030466211 104:0.057640352 105:-0.082259716 106:0.023835029 107:-0.0094034231 108:0.043264014 109:-0.10692803 110:-0.0041309066 111:0.075886274 112:-4.2044301e-05 113:-0.1469061 114:-0.088297711 115:0.0038637565 116:-0.10681317 117:0.011128755 118:0.083501701 119:0.041465737 120:-0.043390507 
0.5431164983954311 1:22 2:4 3:29 4:35 5:27 6:18 7:10 8:42 9:42 10:55 11:20 12:25 13:22 14:13 15:25 16:45 17:23 18:27 19:7 20:19 21:0.058823529 22:0.066797642 23:0.05511811 24:0.057199211 25:0.049407115 26:0.067326733 27:0.063492063 28:0.065606362 29:0.073705179 30:0.051896208 31:0.04513888 32:-0.057485594 33:0.029717975 34:0.012096279 35:0.0029314446 36:0.068516475 37:0.0035497821 38:0.013417945 39:-0.068040206 40:-0.059419 41:0.005713311 42:-0.070237012 43:-0.0073505957 44:0.078475599 45:-0.0012361695 46:0.042921775 47:-0.036998062 48:0.058506685 49:-0.094020982 50:-0.042321218 51:0.037547131 52:-0.051483406 53:0.073148206 54:0.099021562 55:0.021191135 56:0.027751199 57:-0.014209728 58:0.041192917 59:-0.048202035 60:-0.026196055 61:0.016756418 62:-0.088198654 63:0.014172239 64:0.065513058 65:0.011643118 66:0.015133927 67:0.010125197 68:0.068670197 69:-0.084600591 70:-0.043871991 71:-0.04631732 72:0.028425069 73:-0.023577061 74:-0.052082028 75:-0.066101827 76:0.023802483 77:0.017673594 78:0.012434811 79:0.011770238 80:0.036740004 81:0.024450261 82:0.028140085 83:0.0068718852 84:-0.043828775 85:0.053517127 86:0.047184191 87:0.047548604 88:0.025237216 89:0.025492275 90:-0.0052888025 91:0.010555017 92:0.044021154 93:0.0030627019 94:0.008944786 95:0.0012880351 96:0.024206796 97:0.036319303 98:0.092103261 99:-0.0021020004 100:-0.015590287 101:0.0025480406 102:0.0094736745 103:-0.018902534 104:-0.098145614 105:0.050312221 106:0.032922586 107:-0.0071300218 108:-0.0046692801 109:-0.0024406475 110:-0.06041258 111:-0.044678749 112:0.068162997 113:-0.0076098253 114:0.034572272 115:-0.047528598 116:-0.052482742 117:0.049406038 118:0.034354863 119:0.072968932 120:-0.025905286 
0.4455720807035114 1:19 2:3 3:27 4:41 5:26 6:30 7:9 8:37 9:47 10:62 11:17 12:34 13:26 14:13 15:20 16:34 17:31 18:35 19:8 20:16 21:0.048598131 22:0.046816479 23:0.069418386 24:0.052631579 25:0.060263653 26:0.060377358 27:0.079395085 28:0.060606061 29:0.058823529 30:0.064638783 31:-0.035133066 32:-0.17440838 33:0.025215282 34:-0.062697593 35:-0.055726558 36:0.032302509 37:0.12018842 38:0.040655063 39:0.021220294 40:-0.0072257532 41:-0.026084518 42:-0.15673347 43:0.047654132 44:0.0036245878 45:-0.084325687 46:-0.00042568617 47:0.036002097 48:-0.0073852206 49:-0.056908799 50:-0.011360412 51:-0.048623982 52:-0.13684904 53:0.077491013 54:0.0080875071 55:-0.053782977 56:0.043929481 57:0.07685409 58:0.0074956036 59:-0.068756712 60:-0.02132954 61:-0.0080862012 62:-0.18739126 63:0.049192766 64:0.011922923 65:-0.066106409 66:0.034912367 67:0.10008358 68:-1.7537104e-05 69:-0.045927635 70:-0.033058526 71:0.018775786 72:0.034661957 73:-0.0053503254 74:-0.041752926 75:-0.059000833 76:-0.067889024 77:-0.078229141 78:-0.009686576 79:-0.010599715 80:0.062518373 81:0.029503596 82:0.048526881 83:0.018222399 84:0.039458154 85:0.066371094 86:0.066583743 87:0.055013402 88:0.02538736 89:0.07760088 90:0.046653033 91:0.015197852 92:-0.046155853 93:0.049948568 94:0.046745693 95:-0.0065025916 96:0.022258182 97:0.080880983 98:0.059991588 99:0.010788863 100:-0.080655211 101:-0.010743549 102:-0.0031413735 103:-0.030821154 104:-0.0068550204 105:0.0068434911 106:0.03985587 107:0.020866925 108:-0.010528539 109:0.05741124 110:0.0016002782 111:0.055625709 112:0.0077691629 113:-0.0033144667 114:0.05024047 115:0.12479641 116:0.002339383 117:0.028863175 118:0.080493868 119:0.036024299 120:0.067993771 
0.5628882237083952 1:37 2:9 3:28 4:30 5:37 6:30 7:10 8:29 9:32 10:40 11:18 12:23 13:32 14:20 15:29 16:25 17:21 18:32 19:6 20:30 21:0.034749035 22:0.067698259 23:0.054263566 24:0.067961165 25:0.070038911 26:0.054580897 27:0.06640625 28:0.062622309 29:0.060784314 30:0.033398821 31:-0.039754693 32:-0.019173771 33:0.008183126 34:-0.034413072 35:-0.037727995 36:0.061444061 37:0.13377471 38:-0.014877191 39:-0.045351371 40:-0.072970417 41:-0.021480755 42:-5.302176e-05 43:0.0065496694 44:-0.010539994 45:0.062459049 46:0.067586992 47:0.036600055 48:0.037060931 49:-0.043974265 50:-0.040809319 51:-0.043187112 52:-0.022152111 53:0.064723063 54:-0.024837291 55:-0.017688795 56:0.042332598 57:0.064909835 58:0.0095140163 59:0.014138164 60:-0.033022788 61:-0.085614336 62:-0.030230244 63:0.022793613 64:-0.038690126 65:-0.070765016 66:0.011165872 67:0.039209995 68:0.020610509 69:-0.024895326 70:-0.058659499 71:0.062160944 72:0.081740284 73:0.00032164176 74:-0.032667888 75:0.081841318 76:-0.0031959235 77:0.011844356 78:-0.043932758 79:-0.067809294 80:-0.057087479 81:0.03874685 82:0.040435738 83:-0.042320619 84:0.062734594 85:0.023936802 86:7.44173e-05 87:0.08273046 88:0.049010453 89:0.077325692 90:-0.073132402 91:-0.038825874 92:0.022507612 93:0.0051547727 94:0.033073739 95:-0.024889179 96:0.01064744 97:0.038369413 98:0.048368199 99:0.016635123 100:-0.052677445 101:-0.012244846 102:0.037490792 103:-0.092151689 104:0.042705409 105:0.025555072 106:0.015453219 107:0.074198348 108:0.0057262916 109:0.065664188 110:-0.14875037 111:0.027108734 112:-0.052038285 113:0.022389207 114:0.016682059 115:0.021524311 116:0.0004602913 117:0.0033480082 118:-0.056107509 119:-0.012639514 120:-0.021685095 
0.2926071305995416 1:18 2:3 3:35 4:29 5:39 6:33 7:12 8:29 9:27 10:58 11:15 12:17 13:28 14:12 15:33 16:29 17:34 18:26 19:7 20:17 21:0.065868263 22:0.068 23:0.072144289 24:0.070281124 25:0.054325956 26:0.052419355 27:0.070707071 28:0.060728745 29:0.068965517 30:0.050813008 31:0.036148027 32:-0.00067240647 33:-0.058920765 34:0.071882624 35:0.071729102 36:0.003648859 37:0.03778735 38:0.082899679 39:-0.0051712452 40:-0.058719149 41:0.1416719 42:-0.0057046102 43:-0.013787437 44:0.05428226 45:-0.01380724 46:-0.015405496 47:0.034781912 48:0.036535913 49:0.038824123 50:-0.042076075 51:0.12082189 52:-0.0495958 53:0.034264125 54:0.09381575 55:0.038084739 56:0.039488008 57:0.036751868 58:0.081308206 59:0.014895087 60:-0.056778864 61:0.086271725 62:-0.086687426 63:-0.055892759 64:0.057539135 65:0.018743085 66:-0.016947193 67:0.048689966 68:0.054557898 69:-0.02767964 70:-0.076703088 71:0.041284552 72:-0.080886708 73:0.033795355 74:-0.0055205093 75:-0.066032052 76:-0.14568311 77:-0.0058722237 78:-0.00431054 79:0.030274946 80:0.040402658 81:0.021434841 82:0.044096826 83:-0.0508148 84:0.068144675 85:-0.013295206 86:0.05687847 87:-0.012833964 88:-0.015545775 89:0.00026215486 90:0.038921203 91:0.10930678 92:-0.048105943 93:0.03897954 94:0.098566343 95:0.026098777 96:0.083051126 97:0.02620587 98:0.042493517 99:0.0080350023 100:0.0099285716 101:-0.030944973 102:0.017531259 103:-0.11163287 104:0.08300783 105:-0.043937619 106:0.042285292 107:-0.054795227 108:-0.031103778 109:-0.036927234 110:0.016905667 111:0.0056795859 112:0.030741604 113:-0.046728139 114:-0.011652293 115:-0.040002828 116:-0.0071849169 117:0.071850092 118:-0.10628343 119:0.062130304 120:-0.024073881 
2 1:13 2:4 3:18 4:19 5:15 6:13 7:7 8:15 9:20 10:26 11:9 12:9 13:6 14:7 15:11 16:21 17:15 18:10 19:5 20:2 21:0.073469388 22:0.077868852 23:0.10288066 24:0.070247934 25:0.045643154 26:0.0875 27:0.050209205 28:0.084033613 29:0.05907173 30:0.059322034 31:0.027839002 32:0.013010773 33:-0.0078254998 34:0.037274086 35:-0.020709773 36:0.022583603 37:-0.061470873 38:-0.063775221 39:-0.021915135 40:-0.064303923 41:0.080612056 42:-0.047815036 43:0.14427991 44:0.049473323 45:-0.047495109 46:0.0087111447 47:-0.032331414 48:-0.025930614 49:0.08184889 50:0.047352352 51:0.15328446 52:0.0019514576 53:0.19013753 54:0.11895194 55:-0.030000803 56:0.058222608 57:0.077404625 58:0.085952114 59:0.079102174 60:0.073201378 61:0.082092914 62:-0.039043152 63:0.091871419 64:0.16071158 65:-0.02693104 66:0.012624257 67:0.035866307 68:0.061246824 69:0.054736078 70:0.026332129 71:0.087382159 72:0.033714137 73:0.19899092 74:0.059941185 75:0.16596654 76:-0.002676218 77:0.02398508 78:0.11574998 79:-0.14090483 80:-0.050585889 81:0.071020528 82:0.088676537 83:0.044618042 84:0.016996443 85:0.085389181 86:0.02345417 87:0.083052337 88:0.075890853 89:-0.0014271443 90:0.01442092 91:0.12421247 92:-0.017839065 93:0.052003101 94:0.083894934 95:0.048150308 96:-0.015253557 97:0.13449227 98:0.13346389 99:0.030308415 100:-0.039611117 101:0.05769775 102:0.10649821 103:0.01675673 104:-0.069969254 105:0.14975883 106:-0.01868738 107:0.048679845 108:0.0084952214 109:-0.098590644 110:-0.033047368 111:0.096045525 112:0.1376192 113:0.055493739 114:0.07182014 115:-0.016278364 116:0.0047093288 117:-0.011775799 118:0.030801791 119:0.016353581 120:0.013538085 
0.2933868631355512 1:28 2:7 3:30 4:26 5:18 6:22 7:13 8:34 9:38 10:65 11:12 12:22 13:27 14:14 15:26 16:33 17:31 18:27 19:9 20:22 21:0.047619048 22:0.067594433 23:0.085657371 24:0.077844311 25:0.074 26:0.064128257 27:0.084337349 28:0.058350101 29:0.046370968 30:0.076767677 31:0.019123207 32:-0.064730273 33:-0.0047650999 34:0.032839168 35:-0.02682974 36:-0.038050386 37:0.06319472 38:-0.042211788 39:-0.033225508 40:-0.0039575025 41:0.086357928 42:-0.10315156 43:0.093735512 44:0.065276649 45:-0.065706466 46:0.0034053716 47:0.05040179 48:0.009146201 49:-0.045507962 50:0.0023596556 51:0.10220255 52:-0.069498057 53:0.12413034 54:0.063456023 55:-0.06907738 56:0.0024059592 57:0.12558962 58:0.05979554 59:-0.065722119 60:0.001650659 61:0.055983064 62:-0.10655224 63:0.08812855 64:0.10640952 65:-0.017490844 66:-0.0092659743 67:0.10899082 68:0.029763607 69:-0.068867281 70:0.059965936 71:-0.050279525 72:0.034019217 73:0.092725498 74:-0.012902786 75:0.091559451 76:-0.08073903 77:0.016050684 78:0.026486208 79:-0.035934412 80:0.037866109 81:0.00042932852 82:0.025953574 83:0.062151043 84:0.047398611 85:0.053185947 86:0.018359332 87:0.049023278 88:0.041493076 89:-0.0040587812 90:0.0028783719 91:0.014610102 92:-0.033468332 93:0.067884989 94:0.056946797 95:-0.023691383 96:-0.024158652 97:0.0031679899 98:0.06251759 99:-0.031827372 100:0.028559419 101:-0.049897598 102:0.021471724 103:0.031874298 104:0.017376203 105:0.018065464 106:-0.020206274 107:0.0035266323 108:0.0011175536 109:-0.041103 110:-0.0464033 111:0.042226197 112:0.024165421 113:0.016027856 114:0.0042920889 115:0.020906634 116:-0.09411514 117:0.14432577 118:0.006684596 119:-0.044472586 120:-0.021195593 
2 1:12 2:2 3:12 4:15 5:6 6:16 7:1 8:10 9:17 10:12 11:6 12:10 13:5 14:5 15:6 16:15 17:9 18:8 19:1 20:9 21:0.084745763 22:0.096590909 23:0.074285714 24:0.040229885 25:0.034682081 26:0.046511628 27:0.10526316 28:0.11176471 29:0.082840237 30:0.053571429 31:-0.095127383 32:0.049362448 33:0.14731727 34:-0.17149749 35:0.082501182 36:-0.11851562 37:-0.044435428 38:0.050885365 39:-0.098428629 40:0.050149673 41:-0.034988338 42:-0.0034683234 43:0.035233514 44:-0.028225617 45:-0.10110144 46:-0.063783761 47:0.027388088 48:0.059456028 49:0.043592838 50:-0.074187568 51:0.039946208 52:0.047637986 53:0.22254788 54:0.016252481 55:0.06328452 56:0.046371739 57:0.057248087 58:0.055778635 59:0.063999478 60:-0.05290955 61:0.036225783 62:0.11689528 63:0.18683291 64:-0.0075956411 65:0.076078268 66:-0.012988367 67:0.015208456 68:0.049265918 69:0.040054919 70:-0.044262674 71:0.064211142 72:-0.022167859 73:-0.05449141 74:0.051906126 75:-0.051060133 76:-0.0078592704 77:0.20277892 78:0.094797401 79:-0.0094882895 80:-0.19611308 81:0.11093365 82:0.13811009 83:0.12641574 84:0.062199088 85:0.036036844 86:0.039064376 87:0.061016578 88:0.10075271 89:0.033130317 90:0.20855677 91:0.091425212 92:0.1208813 93:0.18402199 94:0.054682422 95:0.095685134 96:-0.0041007142 97:0.069129572 98:0.11334133 99:0.0067182804 100:0.058795691 101:0.021329364 102:0.069470928 103:0.12960154 104:-0.02268159 105:0.0095758119 106:-0.028052919 107:0.032253737 108:0.080506303 109:-0.071851285 110:0.17829085 111:0.068126899 112:0.018619793 113:-0.081270046 114:0.018958111 115:-0.084132479 116:-0.041529022 117:-0.0017914893 118:0.093743525 119:-0.042732873 120:0.085251519 
2 1:9 2:4 3:9 4:9 5:9 6:7 7:3 8:4 9:7 10:13 11:3 12:2 13:13 14:5 15:8 16:9 17:7 18:4 19:1 20:7 21:0.052631579 22:0.075757576 23:0.038167939 24:0.046153846 25:0.12403101 26:0.078125 27:0.1023622 28:0.055555556 29:0.048 30:0.056451613 31:-0.053499118 32:0.062905983 33:0.069112841 34:-0.049811929 35:-0.047172348 36:-0.035237935 37:0.011889816 38:-0.25191478 39:-0.069853181 40:-0.11078281 41:0.0862985 42:-0.023881988 43:0.18963595 44:0.14273134 45:-0.083524719 46:-0.085430124 47:0.087988743 48:-0.16334615 49:-0.11288501 50:0.10538904 51:0.093089786 52:-0.0083389754 53:0.12077892 54:0.14819922 55:0.028397263 56:-0.042914199 57:0.026607332 58:-0.018689963 59:0.037059077 60:-0.11014688 61:-0.046327938 62:-0.03317529 63:0.11394674 64:0.13154409 65:-0.14288666 66:0.030826302 67:0.11175375 68:-0.082384967 69:-0.019656536 70:-0.097609846 71:-0.10809583 72:0.014311782 73:-0.077967615 74:-0.17763881 75:-0.041934373 76:-0.095945795 77:0.20268955 78:-0.10704299 79:0.051676455 80:0.11858096 81:0.024015508 82:-0.0097737831 83:0.0030890758 84:-0.020882411 85:0.15403472 86:-0.034730839 87:0.033571915 88:0.069327194 89:-0.02495329 90:-0.0398888 91:-0.047311107 92:-0.024711157 93:0.13489496 94:0.10183255 95:-0.020718288 96:0.20755266 97:0.019236682 98:0.047687546 99:0.06362893 100:-0.1542117 101:-0.025870363 102:-0.047787141 103:-0.060959691 104:-0.12069543 105:0.2024905 106:-0.039279388 107:-0.001408167 108:-0.040098023 109:-0.029858648 110:0.084078569 111:0.038567984 112:-0.043244011 113:-0.13402434 114:0.05539177 115:0.22018629 116:0.048996895 117:0.052709373 118:-0.10554631 119:-0.05422296 120:0.051628084 
1.428300958619547 1:4 2:1 3:4 4:11 5:10 6:12 7:5 8:10 9:11 10:20 11:3 12:10 13:15 14:6 15:13 16:9 17:15 18:12 19:1 20:9 21:0.055248619 22:0.044444444 23:0.05027933 24:0.050561798 25:0.056497175 26:0.0625 27:0.045714286 28:0.063218391 29:0.063583815 30:0.10465116 31:-0.10858569 32:-0.14384228 33:0.23770628 34:-0.13540851 35:-0.024931758 36:0.062494938 37:-0.041377733 38:0.084681019 39:-0.045714629 40:-0.10464095 41:-0.027712824 42:0.0035210042 43:0.14399205 44:-0.0025865024 45:-0.039305423 46:0.020921694 47:0.10624924 48:0.21144085 49:-0.041489971 50:-0.040569243 51:-0.02320857 52:-0.0051310723 53:0.073295172 54:-0.093961234 55:0.016666408 56:0.02383059 57:0.019601098 58:0.14082204 59:-0.055948599 60:-0.079713999 61:-0.023527157 62:-0.11620727 63:0.16301329 64:-0.12336475 65:-0.022112515 66:0.082464757 67:-0.08705156 68:0.10938858 69:-0.063098797 70:-0.05784369 71:-0.052736061 72:-0.03103362 73:0.12443068 74:0.017561977 75:-0.0051403009 76:0.033395546 77:0.051245868 78:0.088793187 79:0.064974158 80:0.12683166 81:0.071923934 82:0.072805837 83:0.0033259644 84:0.023937531 85:-0.069073534 86:0.041351464 87:-0.040188378 88:0.051995602 89:0.085627715 90:0.1293027 91:0.04294353 92:-0.036981057 93:0.12162204 94:-0.048936789 95:0.052192809 96:0.035991846 97:-0.033924543 98:0.061631326 99:0.040652791 100:-0.020552612 101:0.081093094 102:0.021843031 103:-0.011806719 104:-0.040300307 105:-0.12950839 106:-0.030170952 107:-0.090354075 108:0.018431535 109:0.076354246 110:0.10086756 111:-0.0030209853 112:0.037866205 113:0.03162225 114:-0.028616398 115:0.0010561789 116:0.026128465 117:0.12906344 118:0.01215817 119:0.060760391 120:0.16090787 
0.6643530938743256 1:24 2:5 3:29 4:32 5:37 6:27 7:11 8:40 9:46 10:53 11:17 12:29 13:30 14:15 15:20 16:16 17:43 18:27 19:6 20:14 21:0.069097889 22:0.065384615 23:0.065510597 24:0.052123552 25:0.077369439 26:0.058139535 27:0.052427184 28:0.062256809 29:0.072124756 30:0.05859375 31:-0.016945302 32:0.010142099 33:-0.054085113 34:-0.0069711599 35:-0.048226256 36:-0.088678842 37:0.057267605 38:0.074593214 39:0.049187988 40:-0.071635058 41:0.049087272 42:0.017611926 43:-0.015158337 44:0.020138558 45:-0.026140893 46:-0.0012911901 47:-0.0016480389 48:0.082090991 49:0.058418321 50:-0.046088762 51:0.019261312 52:-0.026555736 53:0.011415635 54:-0.050043943 55:0.007549358 56:-0.0022895848 57:0.04601938 58:0.06819687 59:0.065214394 60:-0.025130737 61:-0.020382529 62:0.014952414 63:-0.046230121 64:-0.015828733 65:-0.066472012 66:-0.064921037 67:0.046256592 68:0.063183023 69:0.042180705 70:-0.054638792 71:-0.035580825 72:0.075337785 73:-0.0097106356 74:-0.060127797 75:0.014512221 76:0.012063877 77:-0.084413699 78:0.022262848 79:-0.04467881 80:-0.029490579 81:0.053281917 82:-0.0094457429 83:0.013326256 84:0.0045647576 85:0.069215221 86:-0.0035187082 87:0.026849486 88:0.0071710981 89:-0.01496345 90:0.017133694 91:0.023159216 92:0.041341778 93:-0.0034448817 94:-0.015763743 95:0.015664597 96:-0.046984246 97:0.079788028 98:0.043469526 99:-0.01176678 100:0.008415997 101:0.023086359 102:-0.044526075 103:-0.0010926649 104:-0.05110746 105:0.047689203 106:-0.0236902 107:-0.0097574682 108:-0.0087629159 109:-0.057135335 110:-0.045124197 111:0.034309965 112:0.0096289963 113:0.028582511 114:0.026052561 115:-0.02529839 116:-0.036692577 117:0.025784672 118:-0.084438965 119:0.037530834 120:0.0017746041 
0.4014583816180793 1:17 2:5 3:20 4:30 5:24 6:12 7:13 8:15 9:26 10:32 11:11 12:14 13:23 14:9 15:17 16:26 17:27 18:24 19:2 20:9 21:0.053370787 22:0.061971831 23:0.062146893 24:0.065155807 25:0.073863636 26:0.051282051 27:0.082857143 28:0.063037249 29:0.045977011 30:0.04610951 31:-0.015665487 32:0.026736499 33:0.073276566 34:0.17065487 35:-0.0057625542 36:-0.038560779 37:0.032668273 38:0.080550885 39:-0.011670764 40:-0.13535234 41:0.021189003 42:-0.059122721 43:0.11733981 44:0.19901292 45:0.0052532344 46:-0.039922792 47:0.11283627 48:0.092030009 49:-0.033587448 50:-0.084263076 51:0.04257258 52:0.030553634 53:0.085990958 54:0.21565891 55:0.12757152 56:-0.00032262175 57:0.19068785 58:0.12586269 59:-0.009636763 60:-0.10121281 61:-0.00098470181 62:-0.014500963 63:0.063504794 64:0.17835385 65:-0.026272311 66:-0.018722119 67:0.11829125 68:0.059106289 69:-0.054559822 70:-0.12579147 71:-0.02085404 72:-0.15353542 73:0.089679698 74:0.021134838 75:-0.16255083 76:-0.11799528 77:0.082181444 78:-0.099536719 79:0.00646952 80:0.076280876 81:0.042019637 82:0.061383328 83:0.042063369 84:0.050449886 85:0.012543901 86:0.0089692057 87:0.047522109 88:0.047379979 89:0.013609557 90:0.035230347 91:-0.016501031 92:0.036215699 93:0.051462439 94:0.092970382 95:-0.014262916 96:-0.028645127 97:0.022525647 98:0.059455763 99:-0.074300445 100:-0.038837297 101:-0.0074361496 102:0.013243587 103:0.014282352 104:0.0037726203 105:-0.00206134 106:0.010130234 107:0.011361287 108:0.009764387 109:-0.00099452107 110:-0.074697855 111:-0.0034670077 112:0.0099405558 113:-0.00092228747 114:0.045893039 115:0.050245203 116:0.052775441 117:-0.0026913949 118:0.059121248 119:-0.053039583 120:-0.021591322 
1.355720618656023 1:28 2:6 3:22 4:19 5:23 6:37 7:13 8:38 9:21 10:37 11:14 12:19 13:26 14:14 15:26 16:42 17:26 18:42 19:8 20:21 21:0.078838174 22:0.079002079 23:0.070833333 24:0.087682672 25:0.073221757 26:0.090146751 27:0.073529412 28:0.056842105 29:0.056962025 30:0.048625793 31:-0.049525697 32:0.12290409 33:0.020809475 34:0.046133643 35:0.047877952 36:0.11836151 37:0.073984509 38:0.041001788 39:0.027764618 40:0.0033943786 41:-0.0073441582 42:0.0669597 43:0.02263265 44:0.017677702 45:0.068558831 46:0.11175913 47:0.072089843 48:-0.040288311 49:0.018266701 50:-0.035205723 51:0.02700934 52:0.0398708 53:-0.031347088 54:0.028885586 55:0.083810234 56:0.054981812 57:0.065746141 58:0.014779724 59:0.026355424 60:-0.0055442512 61:-0.044795216 62:0.10104445 63:-0.0083670889 64:0.039682606 65:0.070072278 66:0.10317548 67:0.045630042 68:0.072112963 69:-0.0073596236 70:0.00027374361 71:0.020262423 72:0.061412758 73:-0.0089452081 74:-0.00098742371 75:0.035450695 76:0.013168735 77:0.069951302 78:-0.052196757 79:-0.017463005 80:-0.091528936 81:0.15063801 82:0.16841115 83:0.18493718 84:0.15626876 85:0.16597069 86:0.13394428 87:0.1018201 88:0.089636227 89:0.14292617 90:0.089057415 91:0.076524562 92:0.097317311 93:-0.033387008 94:0.093970788 95:0.16031078 96:0.13447332 97:0.069339207 98:0.015636283 99:0.078113207 100:0.016760852 101:0.12763231 102:0.18253621 103:0.13866391 104:0.10644982 105:0.10694832 106:0.076026293 107:0.053485113 108:0.047984243 109:0.079332177 110:0.051372584 111:0.045226749 112:0.01592543 113:0.041178361 114:0.081499262 115:0.081369567 116:0.055215321 117:0.0084833981 118:0.079223144 119:0.0061026213 120:0.028151069 
0.1483714916422007 1:26 2:7 3:27 4:37 5:23 6:24 7:8 8:38 9:38 10:50 11:17 12:17 13:38 14:22 15:31 16:27 17:23 18:38 19:6 20:25 21:0.055555556 22:0.057581574 23:0.076923077 24:0.061657033 25:0.040540541 26:0.090909091 27:0.071705426 28:0.060194175 29:0.046692607 30:0.056530214 31:-0.071341408 32:-0.12674445 33:0.025775954 34:0.053048372 35:-0.034594717 36:0.0036232704 37:0.062775246 38:0.045958132 39:-0.010207098 40:-0.050191744 41:-0.083362443 42:-0.17136412 43:0.057150073 44:0.061975981 45:-0.039028681 46:0.053683546 47:0.014254485 48:0.041865518 49:-0.06760573 50:-0.069532683 51:-0.11909995 52:-0.097502744 53:0.059030888 54:0.087721144 55:-0.034511496 56:0.070108024 57:0.040725798 58:0.044665612 59:-0.042739137 60:-0.033755716 61:-0.050428257 62:-0.18560171 63:0.054304016 64:0.073015142 65:-0.061169721 66:0.0047920941 67:0.06868806 68:0.0084309525 69:-0.092616358 70:-0.072798147 71:0.012896345 72:-0.024961378 73:-0.013326348 74:-0.019357546 75:-0.09537889 76:0.022950188 77:0.038275361 78:0.043704215 79:-0.028214642 80:0.018109888 81:0.045699056 82:0.03981507 83:0.026527662 84:0.0085452606 85:0.02338602 86:-0.013551607 87:0.037809211 88:0.046750002 89:0.02553809 90:0.011225836 91:0.021803966 92:-0.010631033 93:0.050971396 94:0.10498818 95:-0.045174541 96:0.0087240332 97:0.06642111 98:0.051444885 99:0.010419076 100:0.034255989 101:0.021420596 102:0.020379382 103:-0.00074959748 104:-0.035655009 105:-0.043370548 106:-0.016745223 107:0.044444322 108:0.044082121 109:-0.023807304 110:0.016155593 111:0.07255799 112:0.063806748 113:0.10185643 114:-0.0015521327 115:0.040541943 116:-0.011896338 117:0.033358424 118:0.040245804 119:-0.03522198 120:-0.074299556 
2 1:9 2:1 3:10 4:8 5:10 6:7 7:4 8:6 9:10 10:10 11:3 12:4 13:9 14:3 15:8 16:10 17:8 18:6 19:0 20:7 21:0.060150376 22:0.045454545 23:0.030534351 24:0.015384615 25:0.062015504 26:0.078125 27:0.070866142 28:0.03968254 29:0.016 30:0.048387097 31:-0.021334391 32:-0.036451947 33:0.045730152 34:-0.13697382 35:0.020172421 36:0.043784036 37:-0.0094472822 38:-0.084138231 39:-0.081262944 40:-0.09018034 41:-0.0098367509 42:-0.040909177 43:0.11788938 44:0.058313068 45:-0.071420339 46:-0.025177822 47:0.1984009 48:-0.091067348 49:-0.11564726 50:0.10044943 51:0.060832588 52:-0.027635102 53:0.19613873 54:0.083099325 55:0.049041433 56:0.038443939 57:0.14743083 58:0.031528589 59:0.044172409 60:0.0085910391 61:-0.020406879 62:-0.055920468 63:0.082958394 64:0.09162754 65:-0.015663073 66:0.10167478 67:0.12936745 68:0.0091006897 69:-0.064887534 70:-0.039929076 71:0.0095001982 72:-0.02474522 73:0.050929596 74:-0.08286366 75:-0.0094729724 76:-0.11042938 77:0.21871724 78:-0.092217306 79:-0.12719048 80:0.13846986 81:0.051324678 82:-0.02049832 83:0.037674164 84:-0.01183711 85:0.14616825 86:-0.0045378302 87:0.051451194 88:0.017285325 89:-0.12775884 90:0.050946232 91:0.0091886392 92:-0.01985849 93:-0.030736019 94:-0.017978753 95:0.056458267 96:0.19007604 97:0.091245222 98:0.067535127 99:-0.04368359 100:-0.094899886 101:-0.036221438 102:-0.093857112 103:-0.028399895 104:-0.075335298 105:0.17661508 106:-0.022925701 107:0.02449303 108:-0.048123989 109:-0.16261377 110:0.055510625 111:-0.039003806 112:0.021374882 113:0.088044803 114:-0.077539675 115:0.0052010833 116:0.049861133 117:0.0086906161 118:-0.22251177 119:-0.11737656 120:0.038751911 
1.095192980589991 1:12 2:6 3:8 4:29 5:23 6:11 7:6 8:17 9:20 10:24 11:14 12:16 13:19 14:9 15:18 16:19 17:23 18:18 19:1 20:12 21:0.098360656 22:0.10197368 23:0.052805281 24:0.066225166 25:0.069767442 26:0.066666667 27:0.070234114 28:0.080536913 29:0.074074074 30:0.037162162 31:-0.13990808 32:0.099646707 33:-0.084388094 34:0.028808896 35:-0.088387913 36:-0.010494502 37:0.042272906 38:-0.032300493 39:-0.0090180413 40:-0.060903918 41:-0.049213266 42:0.036495969 43:-0.024337869 44:0.10440341 45:-0.044466498 46:-0.028846487 47:0.014191223 48:0.025763169 49:0.014329754 50:-0.053428027 51:0.0037792756 52:0.03603862 53:-0.023307686 54:0.086885037 55:0.0042711424 56:-0.026927486 57:-0.026624069 58:0.028302863 59:0.044188922 60:-0.020433348 61:-0.048627467 62:0.044059111 63:-0.065032503 64:0.057306275 65:-0.053072898 66:-0.031652727 67:0.010823845 68:-0.0043255106 69:0.028054523 70:-0.07260213 71:0.050883951 72:-0.046913588 73:-0.08902542 74:-0.1507364 75:-0.027562051 76:0.092938221 77:0.065873899 78:0.061539412 79:-0.0095620076 80:-0.1284719 81:-0.010141819 82:0.0025856469 83:-0.069347867 84:-0.044895381 85:0.038288583 86:0.032929675 87:0.050196327 88:0.0087583959 89:0.033631286 90:0.022099866 91:0.051908905 92:0.044489767 93:0.049495604 94:0.059342664 95:0.074803464 96:-0.045727023 97:0.051945046 98:-0.018554101 99:0.047790198 100:-0.028020037 101:-0.033832259 102:-0.016197653 103:-0.086115458 104:-0.089096119 105:0.019584366 106:0.028202674 107:0.077249371 108:0.0064032357 109:-0.0047021636 110:-0.021042692 111:0.0018353576 112:0.067903486 113:0.062444327 114:0.075342563 115:0.036037835 116:0.013503026 117:-0.084047008 118:0.01077289 119:-0.035453414 120:0.0099411793 
2 1:13 2:3 3:17 4:12 5:10 6:11 7:4 8:16 9:9 10:22 11:8 12:7 13:12 14:13 15:19 16:7 17:9 18:13 19:2 20:3 21:0.052380952 22:0.066985646 23:0.057692308 24:0.082125604 25:0.053398058 26:0.082926829 27:0.049019608 28:0.073891626 29:0.024752475 30:0.044776119 31:0.059069664 32:-0.029096552 33:0.093118366 34:0.028622887 35:0.020028453 36:-0.015132718 37:0.059272822 38:0.080606585 39:-0.1209112 40:0.018532286 41:-0.015016165 42:-0.22033165 43:0.0042224209 44:-0.0047823664 45:-0.0036482019 46:0.019480827 47:-0.012348265 48:-0.0013203101 49:-0.10651332 50:-0.069666097 51:-0.019733754 52:-0.057280932 53:0.077482417 54:0.02396866 55:-0.045956262 56:-0.016371703 57:0.032881604 58:0.043392744 59:-0.078779654 60:0.015739437 61:-0.030759135 62:-0.12179842 63:0.079595371 64:0.10986961 65:-0.074688498 66:-0.073913284 67:0.014921274 68:0.066225035 69:-0.1325545 70:-0.044954708 71:-0.0041948816 72:0.035681718 73:0.025343011 74:-0.1006737 75:0.082853478 76:0.051859812 77:-0.15724257 78:-0.013388224 79:-0.10683988 80:-0.12698866 81:0.05395308 82:0.061068542 83:0.019979943 84:0.070377627 85:0.021403995 86:0.14121706 87:0.02832809 88:0.085681551 89:0.055959851 90:0.064403286 91:0.024464867 92:-0.058354978 93:0.10351525 94:0.13528148 95:-0.049192932 96:0.01965879 97:-0.031302967 98:0.12300331 99:-0.029038752 100:-0.040449894 101:0.055881842 102:0.072415961 103:0.039800037 104:0.019639995 105:0.058638254 106:0.068145543 107:-0.010942959 108:0.11248574 109:-0.0080100081 110:0.044373151 111:0.017793847 112:-0.20324459 113:-0.08938922 114:-0.087158059 115:-0.17849834 116:-0.090970877 117:0.11814721 118:-0.019260167 119:-0.10622935 120:0.077395475 
1.997815839952617 1:18 2:1 3:18 4:20 5:16 6:11 7:10 8:13 9:22 10:28 11:10 12:11 13:10 14:12 15:10 16:13 17:12 18:19 19:1 20:9 21:0.041666667 22:0.038022814 23:0.064885496 24:0.088122605 25:0.053846154 26:0.042471042 27:0.03875969 28:0.070038911 29:0.08203125 30:0.050980392 31:0.026864033 32:-0.083266618 33:0.057004201 34:0.064103939 35:-0.002901749 36:-0.13299264 37:0.0090664729 38:0.024634445 39:-0.095276386 40:-0.04420005 41:0.017785092 42:-0.1146901 43:0.024389566 44:0.104024 45:-0.036479861 46:-0.11154707 47:-0.0056117757 48:0.048978976 49:-0.0098439074 50:-0.061475955 51:0.079379687 52:-0.15201032 53:0.033794279 54:0.16903708 55:-0.042641597 56:-0.12085221 57:0.055692835 58:0.091695098 59:-0.0017506587 60:-0.1157077 61:0.026529718 62:-0.11183272 63:0.015427528 64:0.15358754 65:0.0037641307 66:-0.14552547 67:0.0093485017 68:0.070834869 69:-0.046685749 70:-0.080667122 71:-0.0628201 72:0.017648599 73:-0.008055025 74:0.043129394 75:-0.0580475 76:0.037526506 77:-0.061586047 78:-0.079386802 79:0.053952835 80:0.070128852 81:0.077931836 82:0.084903052 83:0.016893259 84:0.043283098 85:0.040844506 86:-0.00838617 87:0.028290654 88:-0.0073610214 89:0.079946224 90:0.096271814 91:0.051479484 92:-0.15310746 93:0.012610801 94:0.1875373 95:0.0007189365 96:-0.10948569 97:-0.049210372 98:0.056708176 99:-0.0013925292 100:-0.09179398 101:0.057286382 102:0.038897447 103:-0.04453476 104:0.016174396 105:0.014657897 106:-0.08303961 107:-0.012505207 108:-0.077358473 109:0.048952479 110:0.05576535 111:-0.048179767 112:0.021006782 113:0.058075569 114:0.067033857 115:-0.10896083 116:0.0091816162 117:-0.024852513 118:0.072878772 119:0.098444806 120:-0.020166494 
0.03953149726154247 1:15 2:6 3:23 4:28 5:39 6:28 7:8 8:32 9:45 10:57 11:7 12:29 13:31 14:11 15:17 16:29 17:28 18:35 19:4 20:21 21:0.042596349 22:0.071138211 23:0.071283096 24:0.07755102 25:0.08793456 26:0.06352459 27:0.075975359 28:0.061728395 29:0.051546392 30:0.059917355 31:-0.036296282 32:-0.031912114 33:-0.015516902 34:0.092725812 35:0.00073253439 36:0.014325197 37:0.031651844 38:0.009751783 39:0.040100287 40:-0.082762263 41:0.0029564082 42:-0.0077669659 43:0.041245267 44:0.087968417 45:0.10299251 46:-0.061581045 47:0.025946761 48:0.021835796 49:-0.02689994 50:-0.14144109 51:0.016891355 52:0.0040574936 53:0.043645521 54:0.074282304 55:0.10139029 56:-0.050654869 57:0.051539077 58:0.02676916 59:-0.0423336 60:-0.15336752 61:-0.0092954644 62:-0.030117346 63:-0.00039125922 64:0.10013671 65:0.065691294 66:-0.077301803 67:0.0015609034 68:0.0011302444 69:-0.034263524 70:-0.12137272 71:-0.026368607 72:0.012405466 73:-0.01230709 74:-0.048032408 75:0.010294481 76:-0.0079894544 77:0.031459264 78:0.02867892 79:-0.074375554 80:0.020499121 81:0.075851105 82:0.021595493 83:0.010589589 84:0.033889056 85:0.073930468 86:0.033806323 87:0.05978919 88:0.0015035731 89:0.018556374 90:0.055970233 91:0.01981426 92:0.017602615 93:-0.00013977713 94:0.05903672 95:0.05779354 96:0.041626084 97:0.059124035 98:-0.015596032 99:-0.0092460386 100:-0.028820231 101:-0.0067156409 102:-0.0030834929 103:-0.042862753 104:-0.050563546 105:0.022165035 106:0.036136463 107:0.0064129825 108:-0.0077206995 109:0.0047637107 110:0.0035080643 111:0.071561007 112:0.031180882 113:0.02189666 114:-0.014966046 115:0.12697625 116:0.073312713 117:0.091317015 118:-0.031173306 119:0.0047988892 120:0.13107129 
0.6153102890529422 1:36 2:10 3:28 4:35 5:21 6:28 7:8 8:35 9:23 10:52 11:13 12:14 13:37 14:16 15:45 16:26 17:25 18:37 19:6 20:24 21:0.055876686 22:0.065637066 23:0.075435203 24:0.065891473 25:0.048543689 26:0.058365759 27:0.066276803 28:0.060546875 29:0.058708415 30:0.064705882 31:-0.10010659 32:-0.13590899 33:0.041715668 34:0.0261746 35:-0.056248441 36:-0.018298432 37:0.015789343 38:0.079889823 39:0.021239667 40:-0.059008377 41:-0.11003652 42:-0.14896677 43:0.07409848 44:0.059453869 45:-0.069711832 46:-0.0099125963 47:-0.012330998 48:0.047983332 49:-0.044007538 50:0.0077130992 51:-0.08972159 52:-0.089535825 53:0.0533758 54:0.10568146 55:-0.052151427 56:0.022407665 57:0.015872441 58:0.086115755 59:0.0029656188 60:0.020579124 61:-0.057625896 62:-0.1320885 63:0.026195791 64:0.065415979 65:-0.050444509 66:-0.024423094 67:0.0064745643 68:0.069955251 69:-0.067054062 70:-0.006437001 71:-0.0194611 72:0.041374491 73:0.0096430902 74:-0.040845981 75:-0.025845635 76:-0.053144672 77:-0.0089478094 78:0.055815586 79:-0.01776163 80:-0.0074772944 81:0.036559144 82:0.016586198 83:0.019988533 84:-0.0011490776 85:0.038892753 86:-0.0047517644 87:0.075313387 88:0.036480329 89:0.054853733 90:0.050948739 91:0.0066620509 92:-0.00090716492 93:0.063397872 94:0.092442135 95:-0.042857565 96:0.013301531 97:0.10249242 98:0.021928584 99:0.0029087749 100:0.091772296 101:0.024196643 102:-0.025231285 103:-0.0040457741 104:-0.03808032 105:-0.031436116 106:-0.026754834 107:0.083743622 108:0.003887726 109:-0.013371328 110:0.066184386 111:-0.077142018 112:0.016732796 113:0.07272051 114:0.034759851 115:-0.077169391 116:-0.033962371 117:0.019779381 118:-0.056084439 119:0.019509281 120:0.018276707 
0.2235165799796088 1:35 2:10 3:27 4:28 5:24 6:31 7:9 8:24 9:31 10:47 11:20 12:20 13:22 14:16 15:34 16:22 17:32 18:48 19:8 20:16 21:0.073412698 22:0.07554672 23:0.055776892 24:0.071856287 25:0.056 26:0.048096192 27:0.068273092 28:0.064386318 29:0.074596774 30:0.042424242 31:-0.0027500283 32:-0.057371199 33:-0.017284075 34:-0.018941187 35:-0.048262442 36:-0.0010854644 37:-0.016995207 38:-0.092226447 39:0.039103929 40:0.041618397 41:0.065790149 42:-0.10662063 43:0.073326808 44:0.098080455 45:-0.055642258 46:-0.083771086 47:-0.050352779 48:-0.00061997757 49:-0.00027806695 50:0.013037296 51:0.05355861 52:-0.070964575 53:0.077224227 54:0.08951887 55:-0.062727975 56:-0.0090164497 57:0.015549956 58:0.026996349 59:0.0010016161 60:0.0004335264 61:-0.0023538878 62:-0.055095239 63:0.027716883 64:0.039370522 65:-0.059796061 66:0.0037091952 67:0.010840812 68:0.018536831 69:0.014754059 70:-0.020483089 71:0.041157301 72:0.037469625 73:-0.017616019 74:-0.051548888 75:0.029048392 76:-0.099324839 77:-0.016357919 78:-0.013951343 79:0.051468338 80:0.025548539 81:0.055836813 82:0.039562389 83:0.013969379 84:0.0071245497 85:0.084977012 86:0.01893422 87:0.079789105 88:0.020517682 89:0.027841715 90:0.022018807 91:0.041912237 92:0.039716948 93:0.11016808 94:0.064946323 95:-0.010004049 96:0.045069256 97:0.047835356 98:0.076157392 99:-0.013165316 100:0.019900493 101:0.071146293 102:0.015497336 103:-0.037299524 104:-0.033116588 105:0.074381903 106:-0.025927878 107:0.016392659 108:0.0039177569 109:0.022044833 110:-0.032084858 111:0.066619026 112:-0.0095981303 113:0.065624488 114:0.090570243 115:-0.038515024 116:-0.10717496 117:0.010474759 118:0.042499491 119:0.015312647 120:-0.021431566 
0.3401720812423039 1:32 2:9 3:21 4:38 5:26 6:22 7:16 8:38 9:39 10:64 11:10 12:19 13:24 14:12 15:25 16:18 17:32 18:33 19:4 20:23 21:0.075247525 22:0.049603175 23:0.06361829 24:0.079681275 25:0.081836327 26:0.08 27:0.0501002 28:0.068273092 29:0.054325956 30:0.064516129 31:0.058444251 32:-0.061345099 33:0.022460412 34:0.0039816654 35:0.0014159851 36:-0.0017402331 37:-0.010219095 38:0.040703066 39:-0.025145384 40:-0.01691015 41:0.084726691 42:-0.11502916 43:-0.0058649757 44:0.12057241 45:0.029559507 46:-0.0010244858 47:0.0017715176 48:0.019362591 49:-0.0037891035 50:-0.033230725 51:0.088747895 52:-0.10150252 53:0.046989266 54:0.078795495 55:0.048494785 56:0.031947107 57:0.014089022 58:0.1041414 59:-0.04985013 60:-0.041556225 61:0.0383472 62:-0.15508673 63:0.0043613826 64:0.065708549 65:0.021646595 66:-0.045833183 67:0.020491985 68:0.05425089 69:-0.05299278 70:-0.040971625 71:0.051138448 72:0.032795781 73:0.019918158 74:-0.014499751 75:0.047446829 76:0.034601107 77:0.065974736 78:-0.067558129 79:-0.077565918 80:0.066970098 81:0.086734828 82:0.021183831 83:0.043789721 84:0.04939414 85:0.094170061 86:0.10037819 87:0.048925966 88:0.0014085179 89:0.0088369199 90:0.010651262 91:0.043004227 92:0.023626808 93:0.019201629 94:0.046915187 95:0.033740232 96:0.061365504 97:0.0084712622 98:0.067561381 99:-0.038377103 100:-0.0051115414 101:0.045494463 102:-0.017149995 103:0.038344959 104:-0.0056508207 105:0.055133764 106:0.081343189 107:0.026171065 108:-0.062843831 109:-0.015420362 110:-0.0037272053 111:0.059438261 112:-0.064670951 113:-0.020455143 114:0.1105956 115:0.045051294 116:0.048721801 117:0.016512054 118:0.19183667 119:0.1635118 120:0.081822895 
1.034437478128927 1:21 2:9 3:26 4:16 5:20 6:22 7:11 8:43 9:40 10:55 11:16 12:39 13:19 14:14 15:17 16:32 17:21 18:29 19:8 20:19 21:0.050314465 22:0.044117647 23:0.054736842 24:0.069620253 25:0.067653277 26:0.065677966 27:0.06581741 28:0.068085106 29:0.063965885 30:0.05982906 31:-0.024548306 32:-0.16976482 33:-0.081833071 34:0.12422683 35:0.015566542 36:-0.07094867 37:0.018073433 38:0.059674897 39:-0.061107889 40:0.0058833257 41:-0.0062183684 42:-0.11936663 43:-0.00029723192 44:0.03150458 45:0.051700905 46:-0.049237732 47:0.041987017 48:0.030089248 49:-0.099399254 50:0.0022075791 51:-0.058294589 52:-0.12944015 53:-0.02713721 54:0.013609812 55:0.014493117 56:-0.056933 57:0.033470342 58:0.021395191 59:-0.1010596 60:-0.031931619 61:-0.045556901 62:-0.15681652 63:-0.016034583 64:0.046548617 65:0.02071877 66:-0.073436867 67:0.027946997 68:-0.001079129 69:-0.12139177 70:0.021712437 71:0.049983886 72:-0.031380346 73:0.024095037 74:0.018160412 75:-0.093084676 76:-0.0045660429 77:-0.024905996 78:0.046808643 79:-0.001870326 80:-0.050918353 81:0.054540616 82:0.0083664448 83:0.014441262 84:0.070554209 85:0.011404892 86:-0.0004407823 87:0.084101008 88:0.031296206 89:0.0293584 90:0.060037433 91:-0.011896791 92:-0.023116067 93:-0.0068037046 94:-0.0080764042 95:-0.009891484 96:-0.024618967 97:0.01883366 98:-0.017868311 99:-0.021014061 100:-0.0055772467 101:0.027027005 102:-0.021198095 103:-0.042963608 104:0.066804086 105:-0.018254937 106:-0.018113455 107:0.031728816 108:0.01794771 109:0.038244327 110:0.0084191726 111:0.076207164 112:0.037270267 113:-0.058354722 114:0.028258002 115:0.12287368 116:0.056861271 117:0.044740541 118:0.029287277 119:-0.047104287 120:0.04284731 
0.1975061010196284 1:17 2:9 3:22 4:37 5:28 6:20 7:9 8:40 9:41 10:53 11:11 12:30 13:21 14:21 15:22 16:30 17:36 18:26 19:3 20:22 21:0.064257028 22:0.058350101 23:0.076612903 24:0.074747475 25:0.066801619 26:0.07505071 27:0.067073171 28:0.077393075 29:0.063265306 30:0.049079755 31:0.029433721 32:-0.082726689 33:0.012414763 34:0.056139409 35:-0.05960523 36:0.062425136 37:0.10727347 38:-0.052956212 39:0.00084630245 40:0.0098052509 41:0.030434762 42:-0.065678211 43:0.068212465 44:0.10833897 45:-0.045229187 46:0.034195293 47:0.064521254 48:0.0074693607 49:-0.062286202 50:0.030540352 51:0.0036093426 52:-0.052760579 53:0.091071917 54:0.1238467 55:-0.040541636 56:0.039673763 57:0.05087021 58:0.052012468 59:-0.099045452 60:0.043914076 61:0.039795057 62:-0.058631187 63:0.052434798 64:0.14159207 65:-0.039701766 66:0.04353535 67:0.10260143 68:-0.0068944279 69:-0.036920651 70:0.033731774 71:-0.015045892 72:0.0095484395 73:0.069287953 74:0.01161153 75:-0.012674659 76:-0.012383054 77:0.04650507 78:-0.012656551 79:-0.08024075 80:-0.049593941 81:0.014220554 82:0.031759392 83:0.018779206 84:0.0022723525 85:0.0029359782 86:0.036301524 87:0.024275488 88:0.0050664388 89:-0.014411848 90:-0.00086688373 91:0.0243104 92:-0.041158957 93:0.069825875 94:0.016901342 95:-0.001429302 96:0.044735593 97:0.02220862 98:0.013388394 99:0.039124393 100:0.059103149 101:-0.0020825436 102:0.017707167 103:-0.012139539 104:-0.025152447 105:0.010529935 106:0.001101052 107:0.036075135 108:-0.025318364 109:-0.023221566 110:-0.039479735 111:-0.018366673 112:-0.0069000458 113:-0.0046626367 114:-0.009147116 115:-0.010246277 116:0.014341509 117:0.071579114 118:0.040527418 119:0.047879944 120:-0.022945971 
1.535927566839955 1:52 2:14 3:66 4:72 5:56 6:56 7:32 8:78 9:68 10:106 11:34 12:40 13:56 14:36 15:64 16:56 17:64 18:46 19:10 20:34 21:0.055769231 22:0.065447546 23:0.048169557 24:0.071359691 25:0.042471042 26:0.063768116 27:0.057059961 28:0.057115198 29:0.052325581 30:0.077594568 31:0.020285328 32:-0.096819126 33:0.034255859 34:0.034544761 35:-0.024747488 36:-0.0060849699 37:-0.048375187 38:-0.072208126 39:0.04454 40:0.035347288 41:0.0044237037 42:-0.10447843 43:0.068648396 44:0.065355828 45:0.010977089 46:0.0343482 47:-0.038462986 48:-0.020312929 49:0.011288896 50:-0.020542004 51:0.040126084 52:-0.039024426 53:0.070534593 54:0.07866896 55:0.036334811 56:0.038015065 57:0.071766148 58:0.0053565149 59:0.027227072 60:-0.0032349433 61:0.045010234 62:-0.095071318 63:0.062882838 64:0.081134168 65:-0.019396524 66:0.045250968 67:-0.015695773 68:-0.020289237 69:0.020659228 70:-0.028526321 71:0.056029381 72:0.053867617 73:0.058360944 74:0.034300111 75:-0.10135876 76:0.067485445 77:0.066258379 78:-0.093962048 79:-0.10542068 80:0.085745295 81:0.023364267 82:-0.0083156902 83:-0.019902346 84:0.041673872 85:0.029534502 86:-0.012035558 87:0.083069575 88:0.034044963 89:-0.0040746415 90:0.054090269 91:0.0366022 92:-0.051403558 93:0.023112849 94:0.057354564 95:0.020262896 96:0.020755471 97:0.019060318 98:0.036276642 99:0.046774372 100:0.0047675494 101:-0.0098773145 102:-0.024909919 103:-0.041888304 104:-0.014486421 105:0.014583531 106:-0.051650012 107:0.071698391 108:0.0055816174 109:-0.046214867 110:0.012646843 111:-0.046410441 112:-0.018540725 113:-0.037156709 114:0.01277363 115:-0.13946763 116:-0.054519634 117:-0.019203516 118:0.019245661 119:0.1358664 120:0.041055287 
1.094300061109345 1:28 2:12 3:21 4:27 5:33 6:20 7:7 8:20 9:24 10:63 11:21 12:15 13:30 14:14 15:37 16:41 17:42 18:29 19:3 20:12 21:0.068136273 22:0.068273092 23:0.08249497 24:0.078629032 25:0.066666667 26:0.066801619 27:0.056795132 28:0.050813008 29:0.069246436 30:0.055102041 31:0.016426895 32:-0.045176392 33:0.056266879 34:0.056264494 35:-0.017617871 36:-0.050543317 37:0.02218795 38:0.065216898 39:0.048464978 40:-0.050487106 41:0.086129903 42:-0.0013521721 43:0.033669344 44:-0.00079514155 45:0.058092818 46:0.012217761 47:-0.026016837 48:0.0065686138 49:0.053776962 50:-0.065067873 51:0.044442735 52:-0.0078955947 53:0.059530408 54:-0.028468728 55:0.022495381 56:-0.01187609 57:-0.0026456395 58:0.038069968 59:0.030877916 60:-0.042863344 61:0.039728702 62:-0.071659449 63:0.043324455 64:0.05676639 65:-0.019842457 66:-0.094153669 67:0.0084179332 68:0.015535807 69:0.023792231 70:-0.069339264 71:-0.021674515 72:-0.022445208 73:0.02021799 74:-0.016762754 75:0.086820788 76:0.03866477 77:-0.031162739 78:0.016395303 79:-0.049280566 80:-0.02192246 81:0.069131312 82:-0.0050915783 83:0.061824828 84:0.044083468 85:0.029217356 86:0.026644578 87:0.058991146 88:0.044678424 89:0.058983281 90:0.050178098 91:0.018262137 92:-0.031771627 93:0.032155954 94:-0.031943234 95:-0.041917684 96:-0.0076904231 97:0.06637482 98:0.014423865 99:0.05847393 100:-0.051143818 101:0.075142487 102:-0.052145505 103:0.080571681 104:0.028687921 105:0.0080390283 106:0.0036728388 107:0.074940961 108:0.022825333 109:0.0029961093 110:0.015308715 111:0.013056807 112:0.055990278 113:0.067949625 114:-0.088660001 115:0.050479178 116:0.032795356 117:-0.037962395 118:-0.028147782 119:-0.02392047 120:-0.023622777 
0.3987404504917202 1:39 2:6 3:21 4:41 5:27 6:40 7:15 8:28 9:19 10:59 11:22 12:18 13:30 14:15 15:43 16:25 17:24 18:42 19:5 20:12 21:0.071563089 22:0.069811321 23:0.073724008 24:0.0625 25:0.072106262 26:0.070342205 27:0.08 28:0.089694656 29:0.089866157 30:0.053639847 31:-0.027719034 32:-0.10294181 33:0.04652541 34:-0.015096294 35:-0.060936887 36:-0.0026846343 37:0.031846216 38:0.014056656 39:0.0093826174 40:-0.091053431 41:-0.069564055 42:0.0030122888 43:0.066901684 44:-0.036625992 45:-0.030632888 46:0.012670345 47:0.10929249 48:-0.09771983 49:0.1057136 50:0.0098041041 51:-0.020792498 52:-0.016498888 53:0.095819284 54:0.0072723933 55:0.019128696 56:0.017682372 57:0.066501291 58:-0.018907602 59:0.038165957 60:-0.034264232 61:-0.041742166 62:-0.035447689 63:0.017994345 64:0.0052192695 65:-0.019512069 66:0.019573983 67:0.069325783 68:0.0076710975 69:0.0018754496 70:-0.074517733 71:0.020137459 72:-0.016450986 73:-0.12436594 74:-0.074197005 75:-0.064190727 76:0.060454877 77:0.056630087 78:0.0052247635 79:-0.032680225 80:-0.048762233 81:0.064529188 82:0.099183813 83:0.056784686 84:0.099093257 85:0.1165219 86:0.060912726 87:0.1409128 88:0.087626106 89:0.036558816 90:0.042771693 91:-0.03700115 92:0.043483558 93:0.011417707 94:0.015772058 95:0.027005422 96:0.072584748 97:0.024004318 98:0.059978183 99:0.02653521 100:-0.021245931 101:0.032739148 102:0.05184964 103:-0.012698157 104:0.076445724 105:0.084189008 106:0.045051699 107:0.088022143 108:0.042060658 109:-0.025235203 110:-0.029782387 111:-0.020616655 112:0.036241303 113:0.090356273 114:0.12000697 115:-0.0020796274 116:0.050016799 117:0.080648607 118:0.090390348 119:0.13729639 120:0.057567085 
0.2875323114371996 1:45 2:10 3:34 4:25 5:30 6:35 7:10 8:31 9:29 10:51 11:17 12:18 13:32 14:15 15:32 16:37 17:31 18:38 19:7 20:18 21:0.073394495 22:0.0625 23:0.073664825 24:0.053505535 25:0.07948244 26:0.059259259 27:0.074211503 28:0.059479554 29:0.074487896 30:0.046641791 31:0.00040904573 32:-0.026730799 33:0.045726265 34:0.033954391 35:-0.069519566 36:0.033793472 37:0.067231737 38:0.020321794 39:-0.1195838 40:-0.088550036 41:0.066828851 42:-0.067915808 43:0.050972828 44:-0.010432539 45:0.04016663 46:0.067233044 47:0.0078746471 48:0.01745473 49:0.0054724881 50:-0.022424595 51:-0.01224645 52:-0.048746665 53:0.064267044 54:-0.02562273 55:-0.007016237 56:0.032268286 57:-0.01784064 58:0.028806483 59:-0.030709526 60:-0.049460081 61:0.034292615 62:-0.022853231 63:0.02679459 64:-0.024769388 65:0.0054042001 66:0.0096308667 67:0.029419064 68:0.046372022 69:-0.050816138 70:-0.024064459 71:0.14492198 72:-0.032962372 73:0.011322853 74:0.060920431 75:0.07140879 76:0.091097922 77:-0.034255225 78:-0.038469513 79:0.036924595 80:0.016183439 81:0.06038126 82:0.086694097 83:0.083824103 84:0.092232901 85:0.10202012 86:0.10997761 87:0.08265428 88:0.05247081 89:0.060001886 90:0.089440966 91:0.046889015 92:0.047339562 93:0.053380537 94:-0.01086364 95:-0.010507622 96:0.0088400201 97:-0.012424346 98:0.056335242 99:-0.037456829 100:-0.0046921384 101:0.055522875 102:0.022235489 103:0.03781239 104:0.062605577 105:0.040489637 106:0.030461779 107:-0.011034941 108:0.035208828 109:-0.0010777305 110:0.038247971 111:0.0047052798 112:-0.04316292 113:0.013000451 114:0.038906486 115:0.031545949 116:-0.067225256 117:0.062049527 118:0.015094151 119:0.030359144 120:0.10148619 
