svm_type c_svc
kernel_type rbf
gamma 0.5
nr_class 2
total_sv 491
rho 0.625036
label 1 -1
nr_sv 203 288
SV
0.8794006116081189 1:0.565 2:0.1225 3:0.33 4:0.4625 5:0.5025 6:0.395 7:0.14 8:0.35 9:0.4025 10:0.545 11:0.2525 12:0.3525 13:0.4025 14:0.2575 15:0.4325 16:0.3575 17:0.325 18:0.4075 19:0.075 20:0.4575 21:0.1225 22:0.04 23:0.0925 24:0.095 25:0.0975 26:0.0925 27:0.0325 28:0.0825 29:0.1025 30:0.1275 31:0.0625 32:0.065 33:0.115 34:0.0675 35:0.095 36:0.06 37:0.0725 38:0.105 39:0.0225 40:0.09 41:0.33 42:0.0925 43:0.3675 44:0.25 45:0.375 46:0.325 47:0.13 48:0.34 49:0.37 50:0.43 51:0.195 52:0.225 53:0.3775 54:0.23 55:0.2725 56:0.2425 57:0.1625 58:0.3375 59:0.06 60:0.2225 61:0.4625 62:0.095 63:0.25 64:0.4825 65:0.415 66:0.3525 67:0.0875 68:0.2925 69:0.295 70:0.4425 71:0.205 72:0.3125 73:0.305 74:0.19 75:0.345 76:0.275 77:0.305 78:0.31 79:0.0525 80:0.365 81:0.5025 82:0.0975 83:0.375 84:0.415 85:0.625 86:0.4425 87:0.1525 88:0.4675 89:0.435 90:0.5625 91:0.225 92:0.345 93:0.4375 94:0.285 95:0.3825 96:0.4375 97:0.26 98:0.4225 99:0.0925 100:0.4875 101:0.395 102:0.0925 103:0.325 104:0.3525 105:0.4425 106:0.3575 107:0.1175 108:0.355 109:0.3525 110:0.4525 111:0.195 112:0.2675 113:0.365 114:0.2225 115:0.3 116:0.295 117:0.22 118:0.34 119:0.0675 120:0.325 121:0.14 122:0.0325 123:0.13 124:0.0875 125:0.1525 126:0.1175 127:0.0625 128:0.12 129:0.14 130:0.165 131:0.0725 132:0.095 133:0.135 134:0.0775 135:0.1 136:0.12 137:0.0575 138:0.12 139:0.025 140:0.1 141:0.35 142:0.0825 143:0.34 144:0.2925 145:0.4675 146:0.355 147:0.12 148:0.39 149:0.36 150:0.4425 151:0.18 152:0.245 153:0.3775 154:0.2425 155:0.2825 156:0.3025 157:0.1775 158:0.3425 159:0.0725 160:0.3225 161:0.4025 162:0.1025 163:0.37 164:0.295 165:0.435 166:0.3525 167:0.14 168:0.36 169:0.4025 170:0.475 171:0.2125 172:0.26 173:0.395 174:0.2425 175:0.3175 176:0.3025 177:0.205 178:0.38 179:0.0725 180:0.3075 181:0.545 182:0.1275 183:0.43 184:0.4425 185:0.5625 186:0.4525 187:0.165 188:0.4425 189:0.475 190:0.6025 191:0.27 192:0.3575 193:0.4825 194:0.3025 195:0.4275 196:0.3825 197:0.295 198:0.4575 199:0.085 200:0.43 201:0.2525 202:0.0625 203:0.195 204:0.205 205:0.225 206:0.195 207:0.0725 208:0.18 209:0.2125 210:0.27 211:0.1325 212:0.165 213:0.2125 214:0.14 215:0.2125 216:0.1475 217:0.145 218:0.2075 219:0.0325 220:0.175 221:0.3525 222:0.065 223:0.225 224:0.3125 225:0.345 226:0.2675 227:0.095 228:0.245 229:0.26 230:0.3575 231:0.165 232:0.25 233:0.2475 234:0.1675 235:0.28 236:0.245 237:0.2025 238:0.2525 239:0.04 240:0.275 241:0.4025 242:0.115 243:0.3775 244:0.305 245:0.4375 246:0.365 247:0.135 248:0.3775 249:0.395 250:0.4825 251:0.2125 252:0.2475 253:0.4375 254:0.2675 255:0.3225 256:0.2725 257:0.205 258:0.3775 259:0.0775 260:0.3225 261:0.2575 262:0.0675 263:0.23 264:0.19 265:0.285 266:0.2225 267:0.0775 268:0.2425 269:0.2425 270:0.3025 271:0.14 272:0.1675 273:0.2675 274:0.1975 275:0.25 276:0.16 277:0.1375 278:0.2425 279:0.0425 280:0.2225 281:0.4325 282:0.095 283:0.2725 284:0.345 285:0.3825 286:0.3 287:0.1 288:0.2825 289:0.3175 290:0.4275 291:0.2125 292:0.28 293:0.3225 294:0.25 295:0.4 296:0.235 297:0.2575 298:0.3325 299:0.0475 300:0.3475 301:0.3575 302:0.06 303:0.2425 304:0.275 305:0.4375 306:0.295 307:0.12 308:0.3025 309:0.3025 310:0.3825 311:0.1475 312:0.245 313:0.2725 314:0.16 315:0.235 316:0.35 317:0.1725 318:0.2825 319:0.0675 320:0.3425 321:0.325 322:0.0725 323:0.1625 324:0.305 325:0.26 326:0.22 327:0.0575 328:0.1775 329:0.205 330:0.295 331:0.145 332:0.2025 333:0.205 334:0.1375 335:0.2575 336:0.1725 337:0.215 338:0.225 339:0.0375 340:0.2575 341:0.4075 342:0.105 343:0.3375 344:0.31 345:0.4225 346:0.34 347:0.12 348:0.3425 349:0.38 350:0.4575 351:0.2075 352:0.2525 353:0.3775 354:0.2425 355:0.3325 356:0.2825 357:0.225 358:0.3775 359:0.0725 360:0.3325 361:0.075 362:0.0225 363:0.06 364:0.0525 365:0.0925 366:0.0675 367:0.025 368:0.0725 369:0.0725 370:0.085 371:0.0325 372:0.04 373:0.0775 374:0.0425 375:0.0475 376:0.0675 377:0.0375 378:0.0725 379:0.0225 380:0.08 381:0.4575 382:0.09 383:0.2225 384:0.365 385:0.4875 386:0.325 387:0.1 388:0.3225 389:0.3075 390:0.43 391:0.175 392:0.275 393:0.3225 394:0.2225 395:0.3475 396:0.3425 397:0.2575 398:0.3325 399:0.08 400:0.4825 
0.9381851267699497 1:0.1875 2:0.1125 3:0.2725 4:0.38 5:0.1825 6:0.305 7:0.1225 8:0.2475 9:0.3175 10:0.3675 11:0.115 12:0.185 13:0.215 14:0.165 15:0.1875 16:0.2525 17:0.17 18:0.275 19:0.05 20:0.16 21:0.1125 22:0.115 23:0.2 24:0.315 25:0.1425 26:0.2575 27:0.0625 28:0.1775 29:0.17 30:0.2725 31:0.0575 32:0.0825 33:0.17 34:0.08 35:0.1275 36:0.2175 37:0.1125 38:0.225 39:0.05 40:0.1025 41:0.2725 42:0.2 43:0.465 44:0.6275 45:0.2925 46:0.47 47:0.195 48:0.3925 49:0.4775 50:0.6175 51:0.16 52:0.29 53:0.3575 54:0.2075 55:0.28 56:0.4825 57:0.27 58:0.4775 59:0.085 60:0.25 61:0.38 62:0.315 63:0.6275 64:1.09 65:0.46 66:0.7575 67:0.235 68:0.6925 69:0.6875 70:0.82 71:0.2325 72:0.34 73:0.475 74:0.3275 75:0.4575 76:0.7275 77:0.3725 78:0.6775 79:0.15 80:0.425 81:0.1825 82:0.1425 83:0.2925 84:0.46 85:0.24 86:0.41 87:0.0875 88:0.2925 89:0.3 90:0.39 91:0.1025 92:0.1675 93:0.23 94:0.14 95:0.225 96:0.2925 97:0.1525 98:0.31 99:0.0575 100:0.175 101:0.305 102:0.2575 103:0.47 104:0.7575 105:0.41 106:0.7775 107:0.1 108:0.4175 109:0.4025 110:0.615 111:0.155 112:0.21 113:0.3425 114:0.2275 115:0.345 116:0.4125 117:0.18 118:0.53 119:0.105 120:0.23 121:0.1225 122:0.0625 123:0.195 124:0.235 125:0.0875 126:0.1 127:0.13 128:0.1825 129:0.27 130:0.2775 131:0.0875 132:0.1675 133:0.175 134:0.1175 135:0.115 136:0.215 137:0.1725 138:0.18 139:0.0275 140:0.13 141:0.2475 142:0.1775 143:0.3925 144:0.6925 145:0.2925 146:0.4175 147:0.1825 148:0.5425 149:0.5575 150:0.5825 151:0.1675 152:0.2875 153:0.3925 154:0.2525 155:0.3575 156:0.5125 157:0.3475 158:0.4175 159:0.0775 160:0.3525 161:0.3175 162:0.17 163:0.4775 164:0.6875 165:0.3 166:0.4025 167:0.27 168:0.5575 169:0.7 170:0.705 171:0.22 172:0.4075 173:0.4625 174:0.3175 175:0.38 176:0.54 177:0.4275 178:0.4625 179:0.0675 180:0.3775 181:0.3675 182:0.2725 183:0.6175 184:0.82 185:0.39 186:0.615 187:0.2775 188:0.5825 189:0.705 190:0.93 191:0.2175 192:0.4225 193:0.61 194:0.32 195:0.42 196:0.6725 197:0.4725 198:0.665 199:0.0975 200:0.375 201:0.115 202:0.0575 203:0.16 204:0.2325 205:0.1025 206:0.155 207:0.0875 208:0.1675 209:0.22 210:0.2175 211:0.08 212:0.13 213:0.1225 214:0.1175 215:0.115 216:0.1575 217:0.1125 218:0.16 219:0.0275 220:0.1125 221:0.185 222:0.0825 223:0.29 224:0.34 225:0.1675 226:0.21 227:0.1675 228:0.2875 229:0.4075 230:0.4225 231:0.13 232:0.275 233:0.255 234:0.18 235:0.2 236:0.3075 237:0.23 238:0.2825 239:0.0275 240:0.2025 241:0.215 242:0.17 243:0.3575 244:0.475 245:0.23 246:0.3425 247:0.175 248:0.3925 249:0.4625 250:0.61 251:0.1225 252:0.255 253:0.48 254:0.1875 255:0.2975 256:0.4175 257:0.3875 258:0.3675 259:0.05 260:0.255 261:0.165 262:0.08 263:0.2075 264:0.3275 265:0.14 266:0.2275 267:0.1175 268:0.2525 269:0.3175 270:0.32 271:0.1175 272:0.18 273:0.1875 274:0.205 275:0.17 276:0.2125 277:0.17 278:0.245 279:0.0375 280:0.17 281:0.1875 282:0.1275 283:0.28 284:0.4575 285:0.225 286:0.345 287:0.115 288:0.3575 289:0.38 290:0.42 291:0.115 292:0.2 293:0.2975 294:0.17 295:0.2675 296:0.32 297:0.2425 298:0.2825 299:0.05 300:0.23 301:0.2525 302:0.2175 303:0.4825 304:0.7275 305:0.2925 306:0.4125 307:0.215 308:0.5125 309:0.54 310:0.6725 311:0.1575 312:0.3075 313:0.4175 314:0.2125 315:0.32 316:0.6375 317:0.3475 318:0.5275 319:0.1 320:0.3375 321:0.17 322:0.1125 323:0.27 324:0.3725 325:0.1525 326:0.18 327:0.1725 328:0.3475 329:0.4275 330:0.4725 331:0.1125 332:0.23 333:0.3875 334:0.17 335:0.2425 336:0.3475 337:0.355 338:0.255 339:0.035 340:0.2375 341:0.275 342:0.225 343:0.4775 344:0.6775 345:0.31 346:0.53 347:0.18 348:0.4175 349:0.4625 350:0.665 351:0.16 352:0.2825 353:0.3675 354:0.245 355:0.2825 356:0.5275 357:0.255 358:0.57 359:0.0975 360:0.2625 361:0.05 362:0.05 363:0.085 364:0.15 365:0.0575 366:0.105 367:0.0275 368:0.0775 369:0.0675 370:0.0975 371:0.0275 372:0.0275 373:0.05 374:0.0375 375:0.05 376:0.1 377:0.035 378:0.0975 379:0.03 380:0.0475 381:0.16 382:0.1025 383:0.25 384:0.425 385:0.175 386:0.23 387:0.13 388:0.3525 389:0.3775 390:0.375 391:0.1125 392:0.2025 393:0.255 394:0.17 395:0.23 396:0.3375 397:0.2375 398:0.2625 399:0.0475 400:0.2375 
0.9016033427778745 1:0.135 2:0.0225 3:0.085 4:0.085 5:0.1225 6:0.0875 7:0.0425 8:0.035 9:0.0875 10:0.105 11:0.0175 12:0.025 13:0.155 14:0.0275 15:0.0925 16:0.0725 17:0.0625 18:0.035 19:0.0075 20:0.075 21:0.0225 22:0.0425 23:0.0625 24:0.0625 25:0.0325 26:0.0325 27:0.0125 28:0.0325 29:0.0325 30:0.1025 31:0.0325 32:0.0125 33:0.0625 34:0.0525 35:0.0425 36:0.0725 37:0.0525 38:0.0325 39:0.0125 40:0.0425 41:0.085 42:0.0625 43:0.115 44:0.115 45:0.0925 46:0.0775 47:0.0325 48:0.055 49:0.0775 50:0.175 51:0.0475 52:0.025 53:0.145 54:0.0775 55:0.0925 56:0.1225 57:0.0925 58:0.055 59:0.0175 60:0.085 61:0.085 62:0.0625 63:0.115 64:0.115 65:0.0925 66:0.0775 67:0.0325 68:0.055 69:0.0775 70:0.175 71:0.0475 72:0.025 73:0.145 74:0.0775 75:0.0925 76:0.1225 77:0.0925 78:0.055 79:0.0175 80:0.085 81:0.1225 82:0.0325 83:0.0925 84:0.0925 85:0.115 86:0.085 87:0.04 88:0.04 89:0.085 90:0.1225 91:0.025 92:0.025 93:0.1525 94:0.04 95:0.0925 96:0.085 97:0.07 98:0.04 99:0.01 100:0.0775 101:0.0875 102:0.0325 103:0.0775 104:0.0775 105:0.085 106:0.065 107:0.03 108:0.035 109:0.065 110:0.1075 111:0.025 112:0.02 113:0.1175 114:0.04 115:0.0725 116:0.075 117:0.06 118:0.035 119:0.01 120:0.0625 121:0.0425 122:0.0125 123:0.0325 124:0.0325 125:0.04 126:0.03 127:0.015 128:0.015 129:0.03 130:0.0425 131:0.01 132:0.01 133:0.0525 134:0.015 135:0.0325 136:0.03 137:0.025 138:0.015 139:0.005 140:0.0275 141:0.035 142:0.0325 143:0.055 144:0.055 145:0.04 146:0.035 147:0.015 148:0.0275 149:0.035 150:0.085 151:0.025 152:0.0125 153:0.065 154:0.04 155:0.0425 156:0.06 157:0.045 158:0.0275 159:0.01 160:0.04 161:0.0875 162:0.0325 163:0.0775 164:0.0775 165:0.085 166:0.065 167:0.03 168:0.035 169:0.065 170:0.1075 171:0.025 172:0.02 173:0.1175 174:0.04 175:0.0725 176:0.075 177:0.06 178:0.035 179:0.01 180:0.0625 181:0.105 182:0.1025 183:0.175 184:0.175 185:0.1225 186:0.1075 187:0.0425 188:0.085 189:0.1075 190:0.275 191:0.0775 192:0.035 193:0.205 194:0.1275 195:0.1325 196:0.1925 197:0.1425 198:0.085 199:0.0275 200:0.125 201:0.0175 202:0.0325 203:0.0475 204:0.0475 205:0.025 206:0.025 207:0.01 208:0.025 209:0.025 210:0.0775 211:0.025 212:0.01 213:0.0475 214:0.04 215:0.0325 216:0.055 217:0.04 218:0.025 219:0.01 220:0.0325 221:0.025 222:0.0125 223:0.025 224:0.025 225:0.025 226:0.02 227:0.01 228:0.0125 229:0.02 230:0.035 231:0.01 232:0.0075 233:0.035 234:0.015 235:0.0225 236:0.025 237:0.02 238:0.0125 239:0.005 240:0.02 241:0.155 242:0.0625 243:0.145 244:0.145 245:0.1525 246:0.1175 247:0.0525 248:0.065 249:0.1175 250:0.205 251:0.0475 252:0.035 253:0.215 254:0.0775 255:0.1325 256:0.1425 257:0.1125 258:0.065 259:0.0175 260:0.115 261:0.0275 262:0.0525 263:0.0775 264:0.0775 265:0.04 266:0.04 267:0.015 268:0.04 269:0.04 270:0.1275 271:0.04 272:0.015 273:0.0775 274:0.065 275:0.0525 276:0.09 277:0.065 278:0.04 279:0.015 280:0.0525 281:0.0925 282:0.0425 283:0.0925 284:0.0925 285:0.0925 286:0.0725 287:0.0325 288:0.0425 289:0.0725 290:0.1325 291:0.0325 292:0.0225 293:0.1325 294:0.0525 295:0.0825 296:0.0925 297:0.0725 298:0.0425 299:0.0125 300:0.0725 301:0.0725 302:0.0725 303:0.1225 304:0.1225 305:0.085 306:0.075 307:0.03 308:0.06 309:0.075 310:0.1925 311:0.055 312:0.025 313:0.1425 314:0.09 315:0.0925 316:0.135 317:0.1 318:0.06 319:0.02 320:0.0875 321:0.0625 322:0.0525 323:0.0925 324:0.0925 325:0.07 326:0.06 327:0.025 328:0.045 329:0.06 330:0.1425 331:0.04 332:0.02 333:0.1125 334:0.065 335:0.0725 336:0.1 337:0.075 338:0.045 339:0.015 340:0.0675 341:0.035 342:0.0325 343:0.055 344:0.055 345:0.04 346:0.035 347:0.015 348:0.0275 349:0.035 350:0.085 351:0.025 352:0.0125 353:0.065 354:0.04 355:0.0425 356:0.06 357:0.045 358:0.0275 359:0.01 360:0.04 361:0.0075 362:0.0125 363:0.0175 364:0.0175 365:0.01 366:0.01 367:0.005 368:0.01 369:0.01 370:0.0275 371:0.01 372:0.005 373:0.0175 374:0.015 375:0.0125 376:0.02 377:0.015 378:0.01 379:0.005 380:0.0125 381:0.075 382:0.0425 383:0.085 384:0.085 385:0.0775 386:0.0625 387:0.0275 388:0.04 389:0.0625 390:0.125 391:0.0325 392:0.02 393:0.115 394:0.0525 395:0.0725 396:0.0875 397:0.0675 398:0.04 399:0.0125 400:0.065 
0.1879958507205706 1:0.34 2:0.1075 3:0.3175 4:0.3775 5:0.1825 6:0.2325 7:0.1275 8:0.4375 9:0.465 10:0.595 11:0.1975 12:0.2275 13:0.365 14:0.2425 15:0.3 16:0.31 17:0.2425 18:0.305 19:0.09 20:0.275 21:0.1075 22:0.0425 23:0.1025 24:0.1125 25:0.075 26:0.0925 27:0.0475 28:0.15 29:0.165 30:0.1875 31:0.075 32:0.0775 33:0.1275 34:0.0875 35:0.11 36:0.1 37:0.1 38:0.1125 39:0.035 40:0.105 41:0.3175 42:0.1025 43:0.3225 44:0.3575 45:0.1725 46:0.2325 47:0.0925 48:0.435 49:0.4675 50:0.5975 51:0.19 52:0.215 53:0.35 54:0.2425 55:0.285 56:0.2925 57:0.21 58:0.3125 59:0.0825 60:0.2975 61:0.3775 62:0.1125 63:0.3575 64:0.565 65:0.235 66:0.31 67:0.1425 68:0.5175 69:0.5775 70:0.6725 71:0.2525 72:0.23 73:0.42 74:0.3075 75:0.355 76:0.33 77:0.2675 78:0.4425 79:0.09 80:0.3 81:0.1825 82:0.075 83:0.1725 84:0.235 85:0.1775 86:0.2225 87:0.1 88:0.255 89:0.325 90:0.3225 91:0.1575 92:0.1225 93:0.2575 94:0.18 95:0.2375 96:0.1675 97:0.185 98:0.25 99:0.065 100:0.21 101:0.2325 102:0.0925 103:0.2325 104:0.31 105:0.2225 106:0.3025 107:0.1225 108:0.3575 109:0.4075 110:0.4125 111:0.1925 112:0.155 113:0.3375 114:0.2525 115:0.305 116:0.2275 117:0.2375 118:0.345 119:0.08 120:0.275 121:0.1275 122:0.0475 123:0.0925 124:0.1425 125:0.1 126:0.1225 127:0.1025 128:0.1625 129:0.155 130:0.1775 131:0.0875 132:0.08 133:0.16 134:0.1025 135:0.1425 136:0.13 137:0.1575 138:0.1225 139:0.04 140:0.085 141:0.4375 142:0.15 143:0.435 144:0.5175 145:0.255 146:0.3575 147:0.1625 148:0.6675 149:0.635 150:0.76 151:0.2675 152:0.305 153:0.495 154:0.375 155:0.405 156:0.42 157:0.375 158:0.4875 159:0.12 160:0.385 161:0.465 162:0.165 163:0.4675 164:0.5775 165:0.325 166:0.4075 167:0.155 168:0.635 169:0.78 170:0.89 171:0.3375 172:0.3125 173:0.5525 174:0.38 175:0.4775 176:0.4075 177:0.345 178:0.53 179:0.1325 180:0.4825 181:0.595 182:0.1875 183:0.5975 184:0.6725 185:0.3225 186:0.4125 187:0.1775 188:0.76 189:0.89 190:1.21 191:0.375 192:0.37 193:0.6525 194:0.4025 195:0.5325 196:0.55 197:0.38 198:0.525 199:0.13 200:0.57 201:0.1975 202:0.075 203:0.19 204:0.2525 205:0.1575 206:0.1925 207:0.0875 208:0.2675 209:0.3375 210:0.375 211:0.1575 212:0.1275 213:0.2475 214:0.165 215:0.22 216:0.1775 217:0.175 218:0.2325 219:0.0575 220:0.2075 221:0.2275 222:0.0775 223:0.215 224:0.23 225:0.1225 226:0.155 227:0.08 228:0.305 229:0.3125 230:0.37 231:0.1275 232:0.17 233:0.2425 234:0.1725 235:0.2 236:0.2025 237:0.1675 238:0.2125 239:0.0725 240:0.1875 241:0.365 242:0.1275 243:0.35 244:0.42 245:0.2575 246:0.3375 247:0.16 248:0.495 249:0.5525 250:0.6525 251:0.2475 252:0.2425 253:0.45 254:0.3075 255:0.3875 256:0.345 257:0.3025 258:0.3975 259:0.1075 260:0.3575 261:0.2425 262:0.0875 263:0.2425 264:0.3075 265:0.18 266:0.2525 267:0.1025 268:0.375 269:0.38 270:0.4025 271:0.165 272:0.1725 273:0.3075 274:0.2425 275:0.265 276:0.23 277:0.215 278:0.3225 279:0.08 280:0.24 281:0.3 282:0.11 283:0.285 284:0.355 285:0.2375 286:0.305 287:0.1425 288:0.405 289:0.4775 290:0.5325 291:0.22 292:0.2 293:0.3875 294:0.265 295:0.3425 296:0.28 297:0.2625 298:0.35 299:0.095 300:0.31 301:0.31 302:0.1 303:0.2925 304:0.33 305:0.1675 306:0.2275 307:0.13 308:0.42 309:0.4075 310:0.55 311:0.1775 312:0.2025 313:0.345 314:0.23 315:0.28 316:0.305 317:0.25 318:0.2775 319:0.0775 320:0.2575 321:0.2425 322:0.1 323:0.21 324:0.2675 325:0.185 326:0.2375 327:0.1575 328:0.375 329:0.345 330:0.38 331:0.175 332:0.1675 333:0.3025 334:0.215 335:0.2625 336:0.25 337:0.3125 338:0.2725 339:0.075 340:0.205 341:0.305 342:0.1125 343:0.3125 344:0.4425 345:0.25 346:0.345 347:0.1225 348:0.4875 349:0.53 350:0.525 351:0.2325 352:0.2125 353:0.3975 354:0.3225 355:0.35 356:0.2775 357:0.2725 358:0.4575 359:0.1 360:0.32 361:0.09 362:0.035 363:0.0825 364:0.09 365:0.065 366:0.08 367:0.04 368:0.12 369:0.1325 370:0.13 371:0.0575 372:0.0725 373:0.1075 374:0.08 375:0.095 376:0.0775 377:0.075 378:0.1 379:0.0375 380:0.0825 381:0.275 382:0.105 383:0.2975 384:0.3 385:0.21 386:0.275 387:0.085 388:0.385 389:0.4825 390:0.57 391:0.2075 392:0.1875 393:0.3575 394:0.24 395:0.31 396:0.2575 397:0.205 398:0.32 399:0.0825 400:0.3475 
2 1:0.2575 2:0.05 3:0.2525 4:0.11 5:0.1475 6:0.235 7:0.13 8:0.1975 9:0.1475 10:0.3375 11:0.04 12:0.0325 13:0.1275 14:0.13 15:0.25 16:0.1675 17:0.135 18:0.2 19:0.085 20:0.1275 21:0.05 22:0.015 23:0.0475 24:0.01 25:0.03 26:0.045 27:0.03 28:0.0375 29:0.0225 30:0.06 31:0.005 32:0.0075 33:0.0275 34:0.0175 35:0.0575 36:0.02 37:0.02 38:0.02 39:0.0175 40:0.02 41:0.2525 42:0.0475 43:0.275 44:0.1475 45:0.1675 46:0.2325 47:0.1725 48:0.225 49:0.2125 50:0.44 51:0.05 52:0.06 53:0.1375 54:0.1525 55:0.275 56:0.2 57:0.1675 58:0.225 59:0.1 60:0.13 61:0.11 62:0.01 63:0.1475 64:0.225 65:0.07 66:0.11 67:0.085 68:0.1275 69:0.2125 70:0.38 71:0.08 72:0.0675 73:0.0775 74:0.1225 75:0.1025 76:0.2 77:0.185 78:0.315 79:0.0325 80:0.12 81:0.1475 82:0.03 83:0.1675 84:0.07 85:0.11 86:0.135 87:0.12 88:0.14 89:0.13 90:0.265 91:0.0225 92:0.04 93:0.0825 94:0.09 95:0.1775 96:0.11 97:0.09 98:0.0975 99:0.07 100:0.065 101:0.235 102:0.045 103:0.2325 104:0.11 105:0.135 106:0.215 107:0.12 108:0.1825 109:0.1425 110:0.32 111:0.04 112:0.0325 113:0.1175 114:0.1225 115:0.2275 116:0.16 117:0.13 118:0.195 119:0.0775 120:0.12 121:0.13 122:0.03 123:0.1725 124:0.085 125:0.12 126:0.12 127:0.155 128:0.1525 129:0.1725 130:0.335 131:0.025 132:0.0625 133:0.0875 134:0.0925 135:0.1975 136:0.115 137:0.105 138:0.09 139:0.0775 140:0.055 141:0.1975 142:0.0375 143:0.225 144:0.1275 145:0.14 146:0.1825 147:0.1525 148:0.1875 149:0.19 150:0.3825 151:0.0425 152:0.0575 153:0.1125 154:0.1275 155:0.2275 156:0.1675 157:0.1425 158:0.1825 159:0.085 160:0.1025 161:0.1475 162:0.0225 163:0.2125 164:0.2125 165:0.13 166:0.1425 167:0.1725 168:0.19 169:0.275 170:0.5 171:0.07 172:0.095 173:0.1075 174:0.1475 175:0.2 176:0.215 177:0.1975 178:0.265 179:0.0775 180:0.11 181:0.3375 182:0.06 183:0.44 184:0.38 185:0.265 186:0.32 187:0.335 188:0.3825 189:0.5 190:0.9525 191:0.125 192:0.1675 193:0.2275 194:0.275 195:0.435 196:0.3975 197:0.37 198:0.495 199:0.1525 200:0.2225 201:0.04 202:0.005 203:0.05 204:0.08 205:0.0225 206:0.04 207:0.025 208:0.0425 209:0.07 210:0.125 211:0.03 212:0.0225 213:0.0275 214:0.0425 215:0.0325 216:0.07 217:0.065 218:0.115 219:0.01 220:0.045 221:0.0325 222:0.0075 223:0.06 224:0.0675 225:0.04 226:0.0325 227:0.0625 228:0.0575 229:0.095 230:0.1675 231:0.0225 232:0.0375 233:0.0325 234:0.0425 235:0.0625 236:0.0625 237:0.0625 238:0.0725 239:0.025 240:0.0275 241:0.1275 242:0.0275 243:0.1375 244:0.0775 245:0.0825 246:0.1175 247:0.0875 248:0.1125 249:0.1075 250:0.2275 251:0.0275 252:0.0325 253:0.0725 254:0.0725 255:0.1425 256:0.0975 257:0.0875 258:0.1175 259:0.0475 260:0.0675 261:0.13 262:0.0175 263:0.1525 264:0.1225 265:0.09 266:0.1225 267:0.0925 268:0.1275 269:0.1475 270:0.275 271:0.0425 272:0.0425 273:0.0725 274:0.105 275:0.13 276:0.145 277:0.1175 278:0.1775 279:0.055 280:0.085 281:0.25 282:0.0575 283:0.275 284:0.1025 285:0.1775 286:0.2275 287:0.1975 288:0.2275 289:0.2 290:0.435 291:0.0325 292:0.0625 293:0.1425 294:0.13 295:0.31 296:0.16 297:0.1425 298:0.1475 299:0.1075 300:0.105 301:0.1675 302:0.02 303:0.2 304:0.2 305:0.11 306:0.16 307:0.115 308:0.1675 309:0.215 310:0.3975 311:0.07 312:0.0625 313:0.0975 314:0.145 315:0.16 316:0.2125 317:0.18 318:0.29 319:0.0625 320:0.1275 321:0.135 322:0.02 323:0.1675 324:0.185 325:0.09 326:0.13 327:0.105 328:0.1425 329:0.1975 330:0.37 331:0.065 332:0.0625 333:0.0875 334:0.1175 335:0.1425 336:0.18 337:0.165 338:0.26 339:0.0475 340:0.11 341:0.2 342:0.02 343:0.225 344:0.315 345:0.0975 346:0.195 347:0.09 348:0.1825 349:0.265 350:0.495 351:0.115 352:0.0725 353:0.1175 354:0.1775 355:0.1475 356:0.29 357:0.26 358:0.48 359:0.04 360:0.195 361:0.085 362:0.0175 363:0.1 364:0.0325 365:0.07 366:0.0775 367:0.0775 368:0.085 369:0.0775 370:0.1525 371:0.01 372:0.025 373:0.0475 374:0.055 375:0.1075 376:0.0625 377:0.0475 378:0.04 379:0.0475 380:0.0325 381:0.1275 382:0.02 383:0.13 384:0.12 385:0.065 386:0.12 387:0.055 388:0.1025 389:0.11 390:0.2225 391:0.045 392:0.0275 393:0.0675 394:0.085 395:0.105 396:0.1275 397:0.11 398:0.195 399:0.0325 400:0.0925 
1.477735682959273 1:0.2325 2:0.115 3:0.1975 4:0.31 5:0.3275 6:0.2725 7:0.1225 8:0.3825 9:0.38 10:0.5975 11:0.1375 12:0.39 13:0.235 14:0.1575 15:0.1575 16:0.4175 17:0.235 18:0.24 19:0.0525 20:0.15 21:0.115 22:0.0825 23:0.1125 24:0.1475 25:0.1675 26:0.1675 27:0.0675 28:0.2125 29:0.1925 30:0.3175 31:0.0925 32:0.2075 33:0.14 34:0.085 35:0.0825 36:0.255 37:0.1125 38:0.1525 39:0.03 40:0.11 41:0.1975 42:0.1125 43:0.3525 44:0.325 45:0.3375 46:0.31 47:0.115 48:0.46 49:0.4925 50:0.7525 51:0.13 52:0.39 53:0.2625 54:0.195 55:0.18 56:0.3375 57:0.35 58:0.36 59:0.05 60:0.2 61:0.31 62:0.1475 63:0.325 64:0.4775 65:0.445 66:0.395 67:0.1775 68:0.56 69:0.5525 70:0.8575 71:0.175 72:0.53 73:0.33 74:0.2125 75:0.19 76:0.515 77:0.3825 78:0.3975 79:0.07 80:0.2 81:0.3275 82:0.1675 83:0.3375 84:0.445 85:0.565 86:0.4225 87:0.1725 88:0.5925 89:0.6825 90:0.965 91:0.2125 92:0.655 93:0.405 94:0.245 95:0.2775 96:0.5875 97:0.3325 98:0.365 99:0.1025 100:0.25 101:0.2725 102:0.1675 103:0.31 104:0.395 105:0.4225 106:0.4225 107:0.15 108:0.5475 109:0.525 110:0.82 111:0.1725 112:0.5075 113:0.36 114:0.2175 115:0.2025 116:0.5225 117:0.3175 118:0.4325 119:0.0925 120:0.2525 121:0.1225 122:0.0675 123:0.115 124:0.1775 125:0.1725 126:0.15 127:0.0975 128:0.215 129:0.19 130:0.315 131:0.075 132:0.215 133:0.15 134:0.085 135:0.095 136:0.2425 137:0.13 138:0.12 139:0.02 140:0.095 141:0.3825 142:0.2125 143:0.46 144:0.56 145:0.5925 146:0.5475 147:0.215 148:0.7825 149:0.76 150:1.195 151:0.2275 152:0.6925 153:0.49 154:0.3275 155:0.2825 156:0.6825 157:0.4925 158:0.5575 159:0.1125 160:0.3375 161:0.38 162:0.1925 163:0.4925 164:0.5525 165:0.6825 166:0.525 167:0.19 168:0.76 169:0.8925 170:1.2525 171:0.2475 172:0.78 173:0.49 174:0.3175 175:0.335 176:0.645 177:0.48 178:0.515 179:0.1225 180:0.3175 181:0.5975 182:0.3175 183:0.7525 184:0.8575 185:0.965 186:0.82 187:0.315 188:1.195 189:1.2525 190:1.9325 191:0.3625 192:1.11 193:0.7225 194:0.515 195:0.4775 196:1.0425 197:0.7825 198:0.825 199:0.1675 200:0.5 201:0.1375 202:0.0925 203:0.13 204:0.175 205:0.2125 206:0.1725 207:0.075 208:0.2275 209:0.2475 210:0.3625 211:0.1325 212:0.2625 213:0.1425 214:0.0825 215:0.095 216:0.3025 217:0.1275 218:0.14 219:0.0225 220:0.11 221:0.39 222:0.2075 223:0.39 224:0.53 225:0.655 226:0.5075 227:0.215 228:0.6925 229:0.78 230:1.11 231:0.2625 232:0.775 233:0.48 234:0.2775 235:0.33 236:0.7325 237:0.385 238:0.435 239:0.1125 240:0.3025 241:0.235 242:0.14 243:0.2625 244:0.33 245:0.405 246:0.36 247:0.15 248:0.49 249:0.49 250:0.7225 251:0.1425 252:0.48 253:0.37 254:0.205 255:0.2175 256:0.4575 257:0.25 258:0.33 259:0.09 260:0.2425 261:0.1575 262:0.085 263:0.195 264:0.2125 265:0.245 266:0.2175 267:0.085 268:0.3275 269:0.3175 270:0.515 271:0.0825 272:0.2775 273:0.205 274:0.155 275:0.135 276:0.275 277:0.2075 278:0.2175 279:0.05 280:0.1475 281:0.1575 282:0.0825 283:0.18 284:0.19 285:0.2775 286:0.2025 287:0.095 288:0.2825 289:0.335 290:0.4775 291:0.095 292:0.33 293:0.2175 294:0.135 295:0.2 296:0.3175 297:0.16 298:0.16 299:0.045 300:0.15 301:0.4175 302:0.255 303:0.3375 304:0.515 305:0.5875 306:0.5225 307:0.2425 308:0.6825 309:0.645 310:1.0425 311:0.3025 312:0.7325 313:0.4575 314:0.275 315:0.3175 316:0.895 317:0.365 318:0.4225 319:0.0825 320:0.3325 321:0.235 322:0.1125 323:0.35 324:0.3825 325:0.3325 326:0.3175 327:0.13 328:0.4925 329:0.48 330:0.7825 331:0.1275 332:0.385 333:0.25 334:0.2075 335:0.16 336:0.365 337:0.4 338:0.375 339:0.0425 340:0.1825 341:0.24 342:0.1525 343:0.36 344:0.3975 345:0.365 346:0.4325 347:0.12 348:0.5575 349:0.515 350:0.825 351:0.14 352:0.435 353:0.33 354:0.2175 355:0.16 356:0.4225 357:0.375 358:0.525 359:0.0925 360:0.2475 361:0.0525 362:0.03 363:0.05 364:0.07 365:0.1025 366:0.0925 367:0.02 368:0.1125 369:0.1225 370:0.1675 371:0.0225 372:0.1125 373:0.09 374:0.05 375:0.045 376:0.0825 377:0.0425 378:0.0925 379:0.04 380:0.0525 381:0.15 382:0.11 383:0.2 384:0.2 385:0.25 386:0.2525 387:0.095 388:0.3375 389:0.3175 390:0.5 391:0.11 392:0.3025 393:0.2425 394:0.1475 395:0.15 396:0.3325 397:0.1825 398:0.2475 399:0.0525 400:0.19 
2 1:0.125 2:0.02 3:0.055 4:0.16 5:0.1075 6:0.1075 7:0.02 8:0.0375 9:0.09 10:0.0725 11:0.0375 12:0.055 13:0.1425 14:0.09 15:0.09 16:0.055 17:0.055 18:0.0725 19:0.0025 20:0.055 21:0.02 22:0.005 23:0.01 24:0.025 25:0.0175 26:0.0175 27:0.005 28:0.0075 29:0.015 30:0.0125 31:0.0075 32:0.01 33:0.0225 34:0.015 35:0.015 36:0.01 37:0.01 38:0.0125 39:0.0025 40:0.01 41:0.055 42:0.01 43:0.025 44:0.07 45:0.0475 46:0.0475 47:0.01 48:0.0175 49:0.04 50:0.0325 51:0.0175 52:0.025 53:0.0625 54:0.04 55:0.04 56:0.025 57:0.025 58:0.0325 59:0.0025 60:0.025 61:0.16 62:0.025 63:0.07 64:0.205 65:0.1375 66:0.1375 67:0.025 68:0.0475 69:0.115 70:0.0925 71:0.0475 72:0.07 73:0.1825 74:0.115 75:0.115 76:0.07 77:0.07 78:0.0925 79:0.0025 80:0.07 81:0.1075 82:0.0175 83:0.0475 84:0.1375 85:0.0925 86:0.0925 87:0.0175 88:0.0325 89:0.0775 90:0.0625 91:0.0325 92:0.0475 93:0.1225 94:0.0775 95:0.0775 96:0.0475 97:0.0475 98:0.0625 99:0.0025 100:0.0475 101:0.1075 102:0.0175 103:0.0475 104:0.1375 105:0.0925 106:0.115 107:0.025 108:0.04 109:0.1 110:0.085 111:0.0325 112:0.07 113:0.13 114:0.085 115:0.085 116:0.07 117:0.0625 118:0.07 119:0.0025 120:0.0475 121:0.02 122:0.005 123:0.01 124:0.025 125:0.0175 126:0.025 127:0.0075 128:0.01 129:0.0225 130:0.02 131:0.0075 132:0.0175 133:0.025 134:0.0175 135:0.0175 136:0.0175 137:0.015 138:0.015 139:0.0025 140:0.01 141:0.0375 142:0.0075 143:0.0175 144:0.0475 145:0.0325 146:0.04 147:0.01 148:0.015 149:0.035 150:0.03 151:0.0125 152:0.025 153:0.045 154:0.03 155:0.03 156:0.025 157:0.0225 158:0.025 159:0.0025 160:0.0175 161:0.09 162:0.015 163:0.04 164:0.115 165:0.0775 166:0.1 167:0.0225 168:0.035 169:0.0875 170:0.075 171:0.0275 172:0.0625 173:0.11 174:0.0725 175:0.0725 176:0.0625 177:0.055 178:0.06 179:0.0025 180:0.04 181:0.0725 182:0.0125 183:0.0325 184:0.0925 185:0.0625 186:0.085 187:0.02 188:0.03 189:0.075 190:0.065 191:0.0225 192:0.055 193:0.09 194:0.06 195:0.06 196:0.055 197:0.0475 198:0.05 199:0.0025 200:0.0325 201:0.0375 202:0.0075 203:0.0175 204:0.0475 205:0.0325 206:0.0325 207:0.0075 208:0.0125 209:0.0275 210:0.0225 211:0.0125 212:0.0175 213:0.0425 214:0.0275 215:0.0275 216:0.0175 217:0.0175 218:0.0225 219:0.0025 220:0.0175 221:0.055 222:0.01 223:0.025 224:0.07 225:0.0475 226:0.07 227:0.0175 228:0.025 229:0.0625 230:0.055 231:0.0175 232:0.0475 233:0.07 234:0.0475 235:0.0475 236:0.0475 237:0.04 238:0.04 239:0.0025 240:0.025 241:0.1425 242:0.0225 243:0.0625 244:0.1825 245:0.1225 246:0.13 247:0.025 248:0.045 249:0.11 250:0.09 251:0.0425 252:0.07 253:0.165 254:0.105 255:0.105 256:0.07 257:0.0675 258:0.085 259:0.0025 260:0.0625 261:0.09 262:0.015 263:0.04 264:0.115 265:0.0775 266:0.085 267:0.0175 268:0.03 269:0.0725 270:0.06 271:0.0275 272:0.0475 273:0.105 274:0.0675 275:0.0675 276:0.0475 277:0.045 278:0.055 279:0.0025 280:0.04 281:0.09 282:0.015 283:0.04 284:0.115 285:0.0775 286:0.085 287:0.0175 288:0.03 289:0.0725 290:0.06 291:0.0275 292:0.0475 293:0.105 294:0.0675 295:0.0675 296:0.0475 297:0.045 298:0.055 299:0.0025 300:0.04 301:0.055 302:0.01 303:0.025 304:0.07 305:0.0475 306:0.07 307:0.0175 308:0.025 309:0.0625 310:0.055 311:0.0175 312:0.0475 313:0.07 314:0.0475 315:0.0475 316:0.0475 317:0.04 318:0.04 319:0.0025 320:0.025 321:0.055 322:0.01 323:0.025 324:0.07 325:0.0475 326:0.0625 327:0.015 328:0.0225 329:0.055 330:0.0475 331:0.0175 332:0.04 333:0.0675 334:0.045 335:0.045 336:0.04 337:0.035 338:0.0375 339:0.0025 340:0.025 341:0.0725 342:0.0125 343:0.0325 344:0.0925 345:0.0625 346:0.07 347:0.015 348:0.025 349:0.06 350:0.05 351:0.0225 352:0.04 353:0.085 354:0.055 355:0.055 356:0.04 357:0.0375 358:0.045 359:0.0025 360:0.0325 361:0.0025 362:0.0025 363:0.0025 364:0.0025 365:0.0025 366:0.0025 367:0.0025 368:0.0025 369:0.0025 370:0.0025 371:0.0025 372:0.0025 373:0.0025 374:0.0025 375:0.0025 376:0.0025 377:0.0025 378:0.0025 379:0.0025 380:0.0025 381:0.055 382:0.01 383:0.025 384:0.07 385:0.0475 386:0.0475 387:0.01 388:0.0175 389:0.04 390:0.0325 391:0.0175 392:0.025 393:0.0625 394:0.04 395:0.04 396:0.025 397:0.025 398:0.0325 399:0.0025 400:0.025 
1.294389318821072 1:0.075 2:0.0425 3:0.14 4:0.1425 5:0.11 6:0.1075 7:0.025 8:0.135 9:0.125 10:0.1025 11:0.045 12:0.1275 13:0.085 14:0.0125 15:0.085 16:0.115 17:0.1125 18:0.095 19:0.0075 20:0.05 21:0.0425 22:0.0275 23:0.1 24:0.1 25:0.0675 26:0.07 27:0.0175 28:0.1025 29:0.08 30:0.0775 31:0.025 32:0.0725 33:0.06 34:0.015 35:0.0625 36:0.0725 37:0.08 38:0.075 39:0.005 40:0.0425 41:0.14 42:0.1 43:0.48 44:0.415 45:0.2425 46:0.255 47:0.0525 48:0.4575 49:0.3275 50:0.415 51:0.0875 52:0.2575 53:0.2 54:0.0925 55:0.235 56:0.27 57:0.3525 58:0.3625 59:0.0075 60:0.19 61:0.1425 62:0.1 63:0.415 64:0.415 65:0.2525 66:0.275 67:0.07 68:0.4525 69:0.3075 70:0.33 71:0.0775 72:0.255 73:0.2625 74:0.07 75:0.2625 76:0.28 77:0.3275 78:0.3275 79:0.0125 80:0.195 81:0.11 82:0.0675 83:0.2425 84:0.2525 85:0.1775 86:0.1825 87:0.05 88:0.2625 89:0.2025 90:0.1825 91:0.0625 92:0.195 93:0.175 94:0.03 95:0.155 96:0.1925 97:0.1925 98:0.1775 99:0.0125 100:0.1075 101:0.1075 102:0.07 103:0.255 104:0.275 105:0.1825 106:0.195 107:0.055 108:0.2925 109:0.2075 110:0.19 111:0.0575 112:0.19 113:0.1975 114:0.035 115:0.1775 116:0.2 117:0.2075 118:0.1975 119:0.0125 120:0.125 121:0.025 122:0.0175 123:0.0525 124:0.07 125:0.05 126:0.055 127:0.03 128:0.09 129:0.0475 130:0.0375 131:0.0125 132:0.0525 133:0.0925 134:0.01 135:0.045 136:0.06 137:0.04 138:0.0425 139:0.01 140:0.045 141:0.135 142:0.1025 143:0.4575 144:0.4525 145:0.2625 146:0.2925 147:0.09 148:0.5275 149:0.3225 150:0.3775 151:0.0725 152:0.26 153:0.325 154:0.09 155:0.28 156:0.3025 157:0.3475 158:0.3675 159:0.0175 160:0.2375 161:0.125 162:0.08 163:0.3275 164:0.3075 165:0.2025 166:0.2075 167:0.0475 168:0.3225 169:0.25 170:0.265 171:0.075 172:0.2225 173:0.1725 174:0.05 175:0.18 176:0.22 177:0.25 178:0.24 179:0.01 180:0.13 181:0.1025 182:0.0775 183:0.415 184:0.33 185:0.1825 186:0.19 187:0.0375 188:0.3775 189:0.265 190:0.3775 191:0.07 192:0.1975 193:0.14 194:0.09 195:0.1725 196:0.2075 197:0.29 198:0.31 199:0.005 200:0.1575 201:0.045 202:0.025 203:0.0875 204:0.0775 205:0.0625 206:0.0575 207:0.0125 208:0.0725 209:0.075 210:0.07 211:0.03 212:0.0775 213:0.0375 214:0.01 215:0.04 216:0.065 217:0.065 218:0.055 219:0.005 220:0.025 221:0.1275 222:0.0725 223:0.2575 224:0.255 225:0.195 226:0.19 227:0.0525 228:0.26 229:0.2225 230:0.1975 231:0.0775 232:0.23 233:0.175 234:0.0275 235:0.1425 236:0.21 237:0.195 238:0.1725 239:0.015 240:0.1 241:0.085 242:0.06 243:0.2 244:0.2625 245:0.175 246:0.1975 247:0.0925 248:0.325 249:0.1725 250:0.14 251:0.0375 252:0.175 253:0.3075 254:0.0325 255:0.175 256:0.2075 257:0.16 258:0.1675 259:0.025 260:0.1575 261:0.0125 262:0.015 263:0.0925 264:0.07 265:0.03 266:0.035 267:0.01 268:0.09 269:0.05 270:0.09 271:0.01 272:0.0275 273:0.0325 274:0.0275 275:0.0375 276:0.0375 277:0.0625 278:0.075 279:0.0025 280:0.0425 281:0.085 282:0.0625 283:0.235 284:0.2625 285:0.155 286:0.1775 287:0.045 288:0.28 289:0.18 290:0.1725 291:0.04 292:0.1425 293:0.175 294:0.0375 295:0.185 296:0.17 297:0.2025 298:0.2 299:0.0075 300:0.125 301:0.115 302:0.0725 303:0.27 304:0.28 305:0.1925 306:0.2 307:0.06 308:0.3025 309:0.22 310:0.2075 311:0.065 312:0.21 313:0.2075 314:0.0375 315:0.17 316:0.2125 317:0.21 318:0.2 319:0.015 320:0.1275 321:0.1125 322:0.08 323:0.3525 324:0.3275 325:0.1925 326:0.2075 327:0.04 328:0.3475 329:0.25 330:0.29 331:0.065 332:0.195 333:0.16 334:0.0625 335:0.2025 336:0.21 337:0.275 338:0.275 339:0.005 340:0.145 341:0.095 342:0.075 343:0.3625 344:0.3275 345:0.1775 346:0.1975 347:0.0425 348:0.3675 349:0.24 350:0.31 351:0.055 352:0.1725 353:0.1675 354:0.075 355:0.2 356:0.2 357:0.275 358:0.29 359:0.005 360:0.16 361:0.0075 362:0.005 363:0.0075 364:0.0125 365:0.0125 366:0.0125 367:0.01 368:0.0175 369:0.01 370:0.005 371:0.005 372:0.015 373:0.025 374:0.0025 375:0.0075 376:0.015 377:0.005 378:0.005 379:0.005 380:0.01 381:0.05 382:0.0425 383:0.19 384:0.195 385:0.1075 386:0.125 387:0.045 388:0.2375 389:0.13 390:0.1575 391:0.025 392:0.1 393:0.1575 394:0.0425 395:0.125 396:0.1275 397:0.145 398:0.16 399:0.01 400:0.1125 
1.238387377661817 1:0.065 2:0.0475 3:0.0525 4:0.0575 5:0.0725 6:0.0925 7:0.06 8:0.09 9:0.045 10:0.105 11:0.0475 12:0.0475 13:0.11 14:0.06 15:0.0825 16:0.08 17:0.0775 18:0.06 19:0.0025 20:0.055 21:0.0475 22:0.035 23:0.0375 24:0.04 25:0.0525 26:0.0675 27:0.045 28:0.065 29:0.0325 30:0.075 31:0.0325 32:0.035 33:0.08 34:0.0425 35:0.06 36:0.0575 37:0.055 38:0.0425 39:0.0025 40:0.04 41:0.0525 42:0.0375 43:0.0525 44:0.0675 45:0.0625 46:0.0725 47:0.0375 48:0.0775 49:0.0425 50:0.0975 51:0.0625 52:0.0375 53:0.0875 54:0.0625 55:0.0675 56:0.0725 57:0.0775 58:0.0625 59:0.0025 60:0.0475 61:0.0575 62:0.04 63:0.0675 64:0.095 65:0.0725 66:0.0775 67:0.03 68:0.09 69:0.0525 70:0.12 71:0.0925 72:0.04 73:0.095 74:0.0825 75:0.075 76:0.0875 77:0.1 78:0.0825 79:0.0025 80:0.055 81:0.0725 82:0.0525 83:0.0625 84:0.0725 85:0.0825 86:0.1025 87:0.0625 88:0.1025 89:0.0525 90:0.1225 91:0.0625 92:0.0525 93:0.1225 94:0.0725 95:0.0925 96:0.0925 97:0.0925 98:0.0725 99:0.0025 100:0.0625 101:0.0925 102:0.0675 103:0.0725 104:0.0775 105:0.1025 106:0.1325 107:0.0875 108:0.1275 109:0.0625 110:0.1475 111:0.0625 112:0.0675 113:0.1575 114:0.0825 115:0.1175 116:0.1125 117:0.1075 118:0.0825 119:0.0025 120:0.0775 121:0.06 122:0.045 123:0.0375 124:0.03 125:0.0625 126:0.0875 127:0.0675 128:0.0775 129:0.035 130:0.0825 131:0.0175 132:0.045 133:0.1025 134:0.04 135:0.075 136:0.065 137:0.055 138:0.04 139:0.0025 140:0.0475 141:0.09 142:0.065 143:0.0775 144:0.09 145:0.1025 146:0.1275 147:0.0775 148:0.1275 149:0.065 150:0.1525 151:0.0775 152:0.065 153:0.1525 154:0.09 155:0.115 156:0.115 157:0.115 158:0.09 159:0.0025 160:0.0775 161:0.045 162:0.0325 163:0.0425 164:0.0525 165:0.0525 166:0.0625 167:0.035 168:0.065 169:0.035 170:0.08 171:0.0475 172:0.0325 173:0.075 174:0.05 175:0.0575 176:0.06 177:0.0625 178:0.05 179:0.0025 180:0.04 181:0.105 182:0.075 183:0.0975 184:0.12 185:0.1225 186:0.1475 187:0.0825 188:0.1525 189:0.08 190:0.1875 191:0.1075 192:0.075 193:0.1775 194:0.115 195:0.135 196:0.14 197:0.145 198:0.115 199:0.0025 200:0.0925 201:0.0475 202:0.0325 203:0.0625 204:0.0925 205:0.0625 206:0.0625 207:0.0175 208:0.0775 209:0.0475 210:0.1075 211:0.0925 212:0.0325 213:0.0775 214:0.0775 215:0.0625 216:0.0775 217:0.0925 218:0.0775 219:0.0025 220:0.0475 221:0.0475 222:0.035 223:0.0375 224:0.04 225:0.0525 226:0.0675 227:0.045 228:0.065 229:0.0325 230:0.075 231:0.0325 232:0.035 233:0.08 234:0.0425 235:0.06 236:0.0575 237:0.055 238:0.0425 239:0.0025 240:0.04 241:0.11 242:0.08 243:0.0875 244:0.095 245:0.1225 246:0.1575 247:0.1025 248:0.1525 249:0.075 250:0.1775 251:0.0775 252:0.08 253:0.1875 254:0.1 255:0.14 256:0.135 257:0.13 258:0.1 259:0.0025 260:0.0925 261:0.06 262:0.0425 263:0.0625 264:0.0825 265:0.0725 266:0.0825 267:0.04 268:0.09 269:0.05 270:0.115 271:0.0775 272:0.0425 273:0.1 274:0.075 275:0.0775 276:0.085 277:0.0925 278:0.075 279:0.0025 280:0.055 281:0.0825 282:0.06 283:0.0675 284:0.075 285:0.0925 286:0.1175 287:0.075 288:0.115 289:0.0575 290:0.135 291:0.0625 292:0.06 293:0.14 294:0.0775 295:0.105 296:0.1025 297:0.1 298:0.0775 299:0.0025 300:0.07 301:0.08 302:0.0575 303:0.0725 304:0.0875 305:0.0925 306:0.1125 307:0.065 308:0.115 309:0.06 310:0.14 311:0.0775 312:0.0575 313:0.135 314:0.085 315:0.1025 316:0.105 317:0.1075 318:0.085 319:0.0025 320:0.07 321:0.0775 322:0.055 323:0.0775 324:0.1 325:0.0925 326:0.1075 327:0.055 328:0.115 329:0.0625 330:0.145 331:0.0925 332:0.055 333:0.13 334:0.0925 335:0.1 336:0.1075 337:0.115 338:0.0925 339:0.0025 340:0.07 341:0.06 342:0.0425 343:0.0625 344:0.0825 345:0.0725 346:0.0825 347:0.04 348:0.09 349:0.05 350:0.115 351:0.0775 352:0.0425 353:0.1 354:0.075 355:0.0775 356:0.085 357:0.0925 358:0.075 359:0.0025 360:0.055 361:0.0025 362:0.0025 363:0.0025 364:0.0025 365:0.0025 366:0.0025 367:0.0025 368:0.0025 369:0.0025 370:0.0025 371:0.0025 372:0.0025 373:0.0025 374:0.0025 375:0.0025 376:0.0025 377:0.0025 378:0.0025 379:0.0025 380:0.0025 381:0.055 382:0.04 383:0.0475 384:0.055 385:0.0625 386:0.0775 387:0.0475 388:0.0775 389:0.04 390:0.0925 391:0.0475 392:0.04 393:0.0925 394:0.055 395:0.07 396:0.07 397:0.07 398:0.055 399:0.0025 400:0.0475 
0.1137330093711376 1:0.0875 2:0.0225 3:0.05 4:0.175 5:0.0925 6:0.075 7:0.035 8:0.0875 9:0.085 10:0.13 11:0.0475 12:0.055 13:0.0975 14:0.09 15:0.05 16:0.0825 17:0.08 18:0.0475 19:0.0025 20:0.0925 21:0.0225 22:0.0075 23:0.015 24:0.04 25:0.0275 26:0.02 27:0.01 28:0.0225 29:0.025 30:0.03 31:0.0125 32:0.015 33:0.0275 34:0.025 35:0.015 36:0.0225 37:0.02 38:0.0125 39:0.0025 40:0.0225 41:0.05 42:0.015 43:0.035 44:0.085 45:0.07 46:0.045 47:0.02 48:0.05 49:0.0625 50:0.0625 51:0.025 52:0.0325 53:0.0675 54:0.06 55:0.035 56:0.0525 57:0.0425 58:0.025 59:0.0025 60:0.0475 61:0.175 62:0.04 63:0.085 64:0.385 65:0.145 66:0.145 67:0.07 68:0.175 69:0.1375 70:0.2875 71:0.1 72:0.1075 73:0.1675 74:0.16 75:0.085 76:0.1525 77:0.1675 78:0.1 79:0.0025 80:0.1975 81:0.0925 82:0.0275 83:0.07 84:0.145 85:0.1475 86:0.085 87:0.035 88:0.0925 89:0.13 90:0.105 91:0.0425 92:0.06 93:0.1375 94:0.12 95:0.07 96:0.1025 97:0.075 98:0.0425 99:0.0025 100:0.0825 101:0.075 102:0.02 103:0.045 104:0.145 105:0.085 106:0.065 107:0.03 108:0.075 109:0.0775 110:0.1075 111:0.04 112:0.0475 113:0.0875 114:0.08 115:0.045 116:0.0725 117:0.0675 118:0.04 119:0.0025 120:0.0775 121:0.035 122:0.01 123:0.02 124:0.07 125:0.035 126:0.03 127:0.015 128:0.035 129:0.0325 130:0.0525 131:0.02 132:0.0225 133:0.0375 134:0.035 135:0.02 136:0.0325 137:0.0325 138:0.02 139:0.0025 140:0.0375 141:0.0875 142:0.0225 143:0.05 144:0.175 145:0.0925 146:0.075 147:0.035 148:0.0875 149:0.085 150:0.13 151:0.0475 152:0.055 153:0.0975 154:0.09 155:0.05 156:0.0825 157:0.08 158:0.0475 159:0.0025 160:0.0925 161:0.085 162:0.025 163:0.0625 164:0.1375 165:0.13 166:0.0775 167:0.0325 168:0.085 169:0.115 170:0.1 171:0.04 172:0.055 173:0.1225 174:0.1075 175:0.0625 176:0.0925 177:0.07 178:0.04 179:0.0025 180:0.0775 181:0.13 182:0.03 183:0.0625 184:0.2875 185:0.105 186:0.1075 187:0.0525 188:0.13 189:0.1 190:0.215 191:0.075 192:0.08 193:0.1225 194:0.1175 195:0.0625 196:0.1125 197:0.125 198:0.075 199:0.0025 200:0.1475 201:0.0475 202:0.0125 203:0.025 204:0.1 205:0.0425 206:0.04 207:0.02 208:0.0475 209:0.04 210:0.075 211:0.0275 212:0.03 213:0.0475 214:0.045 215:0.025 216:0.0425 217:0.045 218:0.0275 219:0.0025 220:0.0525 221:0.055 222:0.015 223:0.0325 224:0.1075 225:0.06 226:0.0475 227:0.0225 228:0.055 229:0.055 230:0.08 231:0.03 232:0.035 233:0.0625 234:0.0575 235:0.0325 236:0.0525 237:0.05 238:0.03 239:0.0025 240:0.0575 241:0.0975 242:0.0275 243:0.0675 244:0.1675 245:0.1375 246:0.0875 247:0.0375 248:0.0975 249:0.1225 250:0.1225 251:0.0475 252:0.0625 253:0.1325 254:0.1175 255:0.0675 256:0.1025 257:0.0825 258:0.0475 259:0.0025 260:0.0925 261:0.09 262:0.025 263:0.06 264:0.16 265:0.12 266:0.08 267:0.035 268:0.09 269:0.1075 270:0.1175 271:0.045 272:0.0575 273:0.1175 274:0.105 275:0.06 276:0.0925 277:0.0775 278:0.045 279:0.0025 280:0.0875 281:0.05 282:0.015 283:0.035 284:0.085 285:0.07 286:0.045 287:0.02 288:0.05 289:0.0625 290:0.0625 291:0.025 292:0.0325 293:0.0675 294:0.06 295:0.035 296:0.0525 297:0.0425 298:0.025 299:0.0025 300:0.0475 301:0.0825 302:0.0225 303:0.0525 304:0.1525 305:0.1025 306:0.0725 307:0.0325 308:0.0825 309:0.0925 310:0.1125 311:0.0425 312:0.0525 313:0.1025 314:0.0925 315:0.0525 316:0.0825 317:0.0725 318:0.0425 319:0.0025 320:0.0825 321:0.08 322:0.02 323:0.0425 324:0.1675 325:0.075 326:0.0675 327:0.0325 328:0.08 329:0.07 330:0.125 331:0.045 332:0.05 333:0.0825 334:0.0775 335:0.0425 336:0.0725 337:0.075 338:0.045 339:0.0025 340:0.0875 341:0.0475 342:0.0125 343:0.025 344:0.1 345:0.0425 346:0.04 347:0.02 348:0.0475 349:0.04 350:0.075 351:0.0275 352:0.03 353:0.0475 354:0.045 355:0.025 356:0.0425 357:0.045 358:0.0275 359:0.0025 360:0.0525 361:0.0025 362:0.0025 363:0.0025 364:0.0025 365:0.0025 366:0.0025 367:0.0025 368:0.0025 369:0.0025 370:0.0025 371:0.0025 372:0.0025 373:0.0025 374:0.0025 375:0.0025 376:0.0025 377:0.0025 378:0.0025 379:0.0025 380:0.0025 381:0.0925 382:0.0225 383:0.0475 384:0.1975 385:0.0825 386:0.0775 387:0.0375 388:0.0925 389:0.0775 390:0.1475 391:0.0525 392:0.0575 393:0.0925 394:0.0875 395:0.0475 396:0.0825 397:0.0875 398:0.0525 399:0.0025 400:0.1025 
0.5895992413905625 1:0.3175 2:0.09 3:0.2125 4:0.2875 5:0.465 6:0.1575 7:0.1 8:0.3675 9:0.455 10:0.4225 11:0.1275 12:0.295 13:0.1475 14:0.2725 15:0.1125 16:0.17 17:0.285 18:0.325 19:0.05 20:0.19 21:0.09 22:0.05 23:0.0975 24:0.0925 25:0.135 26:0.06 27:0.045 28:0.13 29:0.17 30:0.16 31:0.0475 32:0.1375 33:0.0675 34:0.0725 35:0.0475 36:0.0725 37:0.09 38:0.1 39:0.01 40:0.065 41:0.2125 42:0.0975 43:0.2575 44:0.285 45:0.3075 46:0.1125 47:0.08 48:0.3025 49:0.405 50:0.38 51:0.0975 52:0.255 53:0.1675 54:0.1925 55:0.1425 56:0.1875 57:0.23 58:0.2875 59:0.03 60:0.2 61:0.2875 62:0.0925 63:0.285 64:0.41 65:0.3925 66:0.1475 67:0.085 68:0.355 69:0.4775 70:0.4525 71:0.11 72:0.2675 73:0.2 74:0.28 75:0.1925 76:0.2 77:0.29 78:0.4025 79:0.0475 80:0.255 81:0.465 82:0.135 83:0.3075 84:0.3925 85:0.8625 86:0.2875 87:0.1725 88:0.6025 89:0.7675 90:0.7425 91:0.2075 92:0.46 93:0.34 94:0.4425 95:0.1925 96:0.285 97:0.4 98:0.37 99:0.1025 100:0.295 101:0.1575 102:0.06 103:0.1125 104:0.1475 105:0.2875 106:0.1425 107:0.0675 108:0.2375 109:0.3125 110:0.3025 111:0.08 112:0.21 113:0.17 114:0.1375 115:0.0875 116:0.09 117:0.155 118:0.155 119:0.0475 120:0.125 121:0.1 122:0.045 123:0.08 124:0.085 125:0.1725 126:0.0675 127:0.05 128:0.13 129:0.1675 130:0.1625 131:0.05 132:0.135 133:0.0675 134:0.09 135:0.0425 136:0.0675 137:0.0825 138:0.08 139:0.0125 140:0.0525 141:0.3675 142:0.13 143:0.3025 144:0.355 145:0.6025 146:0.2375 147:0.13 148:0.5175 149:0.665 150:0.625 151:0.17 152:0.4125 153:0.295 154:0.3125 155:0.1775 156:0.24 157:0.3725 158:0.395 159:0.085 160:0.2925 161:0.455 162:0.17 163:0.405 164:0.4775 165:0.7675 166:0.3125 167:0.1675 168:0.665 169:0.87 170:0.825 171:0.215 172:0.5325 173:0.4125 174:0.4 175:0.2525 176:0.3175 177:0.47 178:0.505 179:0.11 180:0.39 181:0.4225 182:0.16 183:0.38 184:0.4525 185:0.7425 186:0.3025 187:0.1625 188:0.625 189:0.825 190:0.79 191:0.2025 192:0.5025 193:0.4075 194:0.385 195:0.2475 196:0.3025 197:0.43 198:0.455 199:0.105 200:0.365 201:0.1275 202:0.0475 203:0.0975 204:0.11 205:0.2075 206:0.08 207:0.05 208:0.17 209:0.215 210:0.2025 211:0.06 212:0.1475 213:0.0875 214:0.1075 215:0.0525 216:0.08 217:0.12 218:0.1225 219:0.025 220:0.085 221:0.295 222:0.1375 223:0.255 224:0.2675 225:0.46 226:0.21 227:0.135 228:0.4125 229:0.5325 230:0.5025 231:0.1475 232:0.4225 233:0.2175 234:0.235 235:0.1325 236:0.1925 237:0.2825 238:0.3025 239:0.0425 240:0.1925 241:0.1475 242:0.0675 243:0.1675 244:0.2 245:0.34 246:0.17 247:0.0675 248:0.295 249:0.4125 250:0.4075 251:0.0875 252:0.2175 253:0.28 254:0.1525 255:0.1475 256:0.135 257:0.18 258:0.1725 259:0.0725 260:0.2 261:0.2725 262:0.0725 263:0.1925 264:0.28 265:0.4425 266:0.1375 267:0.09 268:0.3125 269:0.4 270:0.385 271:0.1075 272:0.235 273:0.1525 274:0.2675 275:0.1225 276:0.1625 277:0.23 278:0.2625 279:0.045 280:0.17 281:0.1125 282:0.0475 283:0.1425 284:0.1925 285:0.1925 286:0.0875 287:0.0425 288:0.1775 289:0.2525 290:0.2475 291:0.0525 292:0.1325 293:0.1475 294:0.1225 295:0.1125 296:0.1025 297:0.1275 298:0.1675 299:0.0325 300:0.1375 301:0.17 302:0.0725 303:0.1875 304:0.2 305:0.285 306:0.09 307:0.0675 308:0.24 309:0.3175 310:0.3025 311:0.08 312:0.1925 313:0.135 314:0.1625 315:0.1025 316:0.15 317:0.17 318:0.1875 319:0.0275 320:0.145 321:0.285 322:0.09 323:0.23 324:0.29 325:0.4 326:0.155 327:0.0825 328:0.3725 329:0.47 330:0.43 331:0.12 332:0.2825 333:0.18 334:0.23 335:0.1275 336:0.17 337:0.2975 338:0.35 339:0.06 340:0.2275 341:0.325 342:0.1 343:0.2875 344:0.4025 345:0.37 346:0.155 347:0.08 348:0.395 349:0.505 350:0.455 351:0.1225 352:0.3025 353:0.1725 354:0.2625 355:0.1675 356:0.1875 357:0.35 358:0.48 359:0.055 360:0.275 361:0.05 362:0.01 363:0.03 364:0.0475 365:0.1025 366:0.0475 367:0.0125 368:0.085 369:0.11 370:0.105 371:0.025 372:0.0425 373:0.0725 374:0.045 375:0.0325 376:0.0275 377:0.06 378:0.055 379:0.03 380:0.06 381:0.19 382:0.065 383:0.2 384:0.255 385:0.295 386:0.125 387:0.0525 388:0.2925 389:0.39 390:0.365 391:0.085 392:0.1925 393:0.2 394:0.17 395:0.1375 396:0.145 397:0.2275 398:0.275 399:0.06 400:0.2175 
1.624902963352756 1:0.71 2:0.07 3:0.65 4:0.705 5:0.28 6:0.435 7:0.1375 8:0.4725 9:0.6825 10:0.65 11:0.365 12:0.3175 13:0.22 14:0.2075 15:0.2625 16:0.4725 17:0.3975 18:0.57 19:0.0525 20:0.1925 21:0.07 22:0.0275 23:0.085 24:0.1175 25:0.05 26:0.0375 27:0.0225 28:0.0625 29:0.1625 30:0.11 31:0.0475 32:0.065 33:0.035 34:0.0475 35:0.06 36:0.055 37:0.0425 38:0.095 39:0.0075 40:0.05 41:0.65 42:0.085 43:1.0025 44:1.5625 45:0.4475 46:0.535 47:0.2125 48:0.6875 49:1.36 50:0.915 51:0.4 52:0.445 53:0.3675 54:0.2775 55:0.3975 56:0.5775 57:0.5775 58:0.7375 59:0.075 60:0.3375 61:0.705 62:0.1175 63:1.5625 64:2.865 65:0.69 66:0.7675 67:0.3475 68:1.1 69:2.4 70:1.335 71:0.5525 72:0.635 73:0.5825 74:0.41 75:0.6225 76:0.875 77:0.91 78:1.0875 79:0.1125 80:0.5725 81:0.28 82:0.05 83:0.4475 84:0.69 85:0.3 86:0.26 87:0.08 88:0.3825 89:0.6725 90:0.5325 91:0.1675 92:0.295 93:0.1725 94:0.1825 95:0.225 96:0.285 97:0.2525 98:0.36 99:0.0225 100:0.1925 101:0.435 102:0.0375 103:0.535 104:0.7675 105:0.26 106:0.4125 107:0.1175 108:0.4025 109:0.6775 110:0.4775 111:0.2425 112:0.2075 113:0.16 114:0.155 115:0.1775 116:0.3525 117:0.3625 118:0.4575 119:0.04 120:0.1725 121:0.1375 122:0.0225 123:0.2125 124:0.3475 125:0.08 126:0.1175 127:0.0675 128:0.14 129:0.3225 130:0.1775 131:0.0925 132:0.07 133:0.0675 134:0.05 135:0.085 136:0.1175 137:0.125 138:0.1375 139:0.02 140:0.06 141:0.4725 142:0.0625 143:0.6875 144:1.1 145:0.3825 146:0.4025 147:0.14 148:0.655 149:1.0025 150:0.745 151:0.3275 152:0.405 153:0.2975 154:0.2375 155:0.34 156:0.4975 157:0.4125 158:0.575 159:0.05 160:0.2575 161:0.6825 162:0.1625 163:1.36 164:2.4 165:0.6725 166:0.6775 167:0.3225 168:1.0025 169:2.2775 170:1.295 171:0.505 172:0.6675 173:0.5 174:0.4325 175:0.6175 176:0.765 177:0.805 178:1.0425 179:0.105 180:0.5575 181:0.65 182:0.11 183:0.915 184:1.335 185:0.5325 186:0.4775 187:0.1775 188:0.745 189:1.295 190:1.0775 191:0.41 192:0.565 193:0.385 194:0.3475 195:0.485 196:0.58 197:0.445 198:0.7325 199:0.0425 200:0.3425 201:0.365 202:0.0475 203:0.4 204:0.5525 205:0.1675 206:0.2425 207:0.0925 208:0.3275 209:0.505 210:0.41 211:0.245 212:0.185 213:0.17 214:0.13 215:0.1975 216:0.295 217:0.205 218:0.365 219:0.025 220:0.1225 221:0.3175 222:0.065 223:0.445 224:0.635 225:0.295 226:0.2075 227:0.07 228:0.405 229:0.6675 230:0.565 231:0.185 232:0.3575 233:0.2 234:0.1975 235:0.255 236:0.305 237:0.2525 238:0.3825 239:0.0325 240:0.21 241:0.22 242:0.035 243:0.3675 244:0.5825 245:0.1725 246:0.16 247:0.0675 248:0.2975 249:0.5 250:0.385 251:0.17 252:0.2 253:0.1925 254:0.1075 255:0.1875 256:0.2075 257:0.1625 258:0.2925 259:0.025 260:0.1175 261:0.2075 262:0.0475 263:0.2775 264:0.41 265:0.1825 266:0.155 267:0.05 268:0.2375 269:0.4325 270:0.3475 271:0.13 272:0.1975 273:0.1075 274:0.135 275:0.16 276:0.205 277:0.1525 278:0.2625 279:0.0125 280:0.14 281:0.2625 282:0.06 283:0.3975 284:0.6225 285:0.225 286:0.1775 287:0.085 288:0.34 289:0.6175 290:0.485 291:0.1975 292:0.255 293:0.1875 294:0.16 295:0.2425 296:0.26 297:0.17 298:0.33 299:0.0175 300:0.1575 301:0.4725 302:0.055 303:0.5775 304:0.875 305:0.285 306:0.3525 307:0.1175 308:0.4975 309:0.765 310:0.58 311:0.295 312:0.305 313:0.2075 314:0.205 315:0.26 316:0.47 317:0.3725 318:0.49 319:0.04 320:0.2275 321:0.3975 322:0.0425 323:0.5775 324:0.91 325:0.2525 326:0.3625 327:0.125 328:0.4125 329:0.805 330:0.445 331:0.205 332:0.2525 333:0.1625 334:0.1525 335:0.17 336:0.3725 337:0.4625 338:0.445 339:0.07 340:0.2275 341:0.57 342:0.095 343:0.7375 344:1.0875 345:0.36 346:0.4575 347:0.1375 348:0.575 349:1.0425 350:0.7325 351:0.365 352:0.3825 353:0.2925 354:0.2625 355:0.33 356:0.49 357:0.445 358:0.73 359:0.055 360:0.3025 361:0.0525 362:0.0075 363:0.075 364:0.1125 365:0.0225 366:0.04 367:0.02 368:0.05 369:0.105 370:0.0425 371:0.025 372:0.0325 373:0.025 374:0.0125 375:0.0175 376:0.04 377:0.07 378:0.055 379:0.0175 380:0.0275 381:0.1925 382:0.05 383:0.3375 384:0.5725 385:0.1925 386:0.1725 387:0.06 388:0.2575 389:0.5575 390:0.3425 391:0.1225 392:0.21 393:0.1175 394:0.14 395:0.1575 396:0.2275 397:0.2275 398:0.3025 399:0.0275 400:0.1825 
0.5976062621498702 1:0.1525 2:0.0475 3:0.19 4:0.19 5:0.18 6:0.1475 7:0.085 8:0.2575 9:0.29 10:0.285 11:0.1425 12:0.18 13:0.11 14:0.0975 15:0.1425 16:0.185 17:0.23 18:0.13 19:0.02 20:0.1075 21:0.0475 22:0.05 23:0.1075 24:0.105 25:0.1525 26:0.075 27:0.045 28:0.14 29:0.175 30:0.1525 31:0.06 32:0.09 33:0.0925 34:0.035 35:0.0725 36:0.1275 37:0.155 38:0.0625 39:0.0175 40:0.0875 41:0.19 42:0.1075 43:0.4175 44:0.315 45:0.4375 46:0.27 47:0.1625 48:0.46 49:0.5925 50:0.55 51:0.2725 52:0.275 53:0.2425 54:0.17 55:0.2675 56:0.43 57:0.46 58:0.1975 59:0.0325 60:0.2 61:0.19 62:0.105 63:0.315 64:0.48 65:0.3225 66:0.225 67:0.1325 68:0.3975 69:0.4775 70:0.5075 71:0.1975 72:0.255 73:0.295 74:0.1275 75:0.26 76:0.38 77:0.37 78:0.2025 79:0.01 80:0.2 81:0.18 82:0.1525 83:0.4375 84:0.3225 85:0.61 86:0.3075 87:0.1775 88:0.52 89:0.6575 90:0.6 91:0.3 92:0.3375 93:0.32 94:0.1675 95:0.285 96:0.52 97:0.5775 98:0.22 99:0.07 100:0.2875 101:0.1475 102:0.075 103:0.27 104:0.225 105:0.3075 106:0.2225 107:0.1275 108:0.335 109:0.4175 110:0.395 111:0.1775 112:0.205 113:0.2025 114:0.1275 115:0.19 116:0.295 117:0.315 118:0.1475 119:0.0375 120:0.15 121:0.085 122:0.045 123:0.1625 124:0.1325 125:0.1775 126:0.1275 127:0.09 128:0.1975 129:0.2525 130:0.2425 131:0.105 132:0.1225 133:0.115 134:0.09 135:0.12 136:0.165 137:0.1975 138:0.105 139:0.02 140:0.0975 141:0.2575 142:0.14 143:0.46 144:0.3975 145:0.52 146:0.335 147:0.1975 148:0.575 149:0.705 150:0.6525 151:0.3 152:0.3675 153:0.3075 154:0.1975 155:0.315 156:0.485 157:0.5675 158:0.2625 159:0.0525 160:0.275 161:0.29 162:0.175 163:0.5925 164:0.4775 165:0.6575 166:0.4175 167:0.2525 168:0.705 169:0.895 170:0.8175 171:0.3675 172:0.4275 173:0.39 174:0.2475 175:0.3925 176:0.6175 177:0.7025 178:0.3125 179:0.06 180:0.3325 181:0.285 182:0.1525 183:0.55 184:0.5075 185:0.6 186:0.395 187:0.2425 188:0.6525 189:0.8175 190:0.7925 191:0.365 192:0.4075 193:0.385 194:0.2475 195:0.39 196:0.595 197:0.6425 198:0.3075 199:0.05 200:0.305 201:0.1425 202:0.06 203:0.2725 204:0.1975 205:0.3 206:0.1775 207:0.105 208:0.3 209:0.3675 210:0.365 211:0.2175 212:0.2025 213:0.1425 214:0.125 215:0.1825 216:0.2925 217:0.3075 218:0.1375 219:0.0275 220:0.1275 221:0.18 222:0.09 223:0.275 224:0.255 225:0.3375 226:0.205 227:0.1225 228:0.3675 229:0.4275 230:0.4075 231:0.2025 232:0.26 233:0.185 234:0.1275 235:0.2 236:0.3 237:0.375 238:0.1825 239:0.04 240:0.19 241:0.11 242:0.0925 243:0.2425 244:0.295 245:0.32 246:0.2025 247:0.115 248:0.3075 249:0.39 250:0.385 251:0.1425 252:0.185 253:0.2575 254:0.0975 255:0.1875 256:0.315 257:0.305 258:0.1375 259:0.0325 260:0.17 261:0.0975 262:0.035 263:0.17 264:0.1275 265:0.1675 266:0.1275 267:0.09 268:0.1975 269:0.2475 270:0.2475 271:0.125 272:0.1275 273:0.0975 274:0.1 275:0.125 276:0.165 277:0.1925 278:0.1075 279:0.0175 280:0.085 281:0.1425 282:0.0725 283:0.2675 284:0.26 285:0.285 286:0.19 287:0.12 288:0.315 289:0.3925 290:0.39 291:0.1825 292:0.2 293:0.1875 294:0.125 295:0.195 296:0.29 297:0.31 298:0.155 299:0.0225 300:0.1475 301:0.185 302:0.1275 303:0.43 304:0.38 305:0.52 306:0.295 307:0.165 308:0.485 309:0.6175 310:0.595 311:0.2925 312:0.3 313:0.315 314:0.165 315:0.29 316:0.505 317:0.5 318:0.2025 319:0.045 320:0.235 321:0.23 322:0.155 323:0.46 324:0.37 325:0.5775 326:0.315 327:0.1975 328:0.5675 329:0.7025 330:0.6425 331:0.3075 332:0.375 333:0.305 334:0.1925 335:0.31 336:0.5 337:0.61 338:0.2675 339:0.06 340:0.305 341:0.13 342:0.0625 343:0.1975 344:0.2025 345:0.22 346:0.1475 347:0.105 348:0.2625 349:0.3125 350:0.3075 351:0.1375 352:0.1825 353:0.1375 354:0.1075 355:0.155 356:0.2025 357:0.2675 358:0.15 359:0.0225 360:0.14 361:0.02 362:0.0175 363:0.0325 364:0.01 365:0.07 366:0.0375 367:0.02 368:0.0525 369:0.06 370:0.05 371:0.0275 372:0.04 373:0.0325 374:0.0175 375:0.0225 376:0.045 377:0.06 378:0.0225 379:0.0175 380:0.035 381:0.1075 382:0.0875 383:0.2 384:0.2 385:0.2875 386:0.15 387:0.0975 388:0.275 389:0.3325 390:0.305 391:0.1275 392:0.19 393:0.17 394:0.085 395:0.1475 396:0.235 397:0.305 398:0.14 399:0.035 400:0.1725 
0.2903326122861533 1:0.195 2:0.035 3:0.15 4:0.1925 5:0.24 6:0.1825 7:0.0425 8:0.2675 9:0.2325 10:0.3275 11:0.02 12:0.2425 13:0.1225 14:0.0725 15:0.095 16:0.1925 17:0.16 18:0.1675 19:0.0275 20:0.085 21:0.035 22:0.0275 23:0.0575 24:0.0725 25:0.1025 26:0.0625 27:0.0325 28:0.07 29:0.1075 30:0.155 31:0.0125 32:0.075 33:0.065 34:0.03 35:0.0425 36:0.0725 37:0.06 38:0.085 39:0.0125 40:0.0725 41:0.15 42:0.0575 43:0.285 44:0.2825 45:0.355 46:0.24 47:0.0525 48:0.285 49:0.3725 50:0.5725 51:0.0625 52:0.2775 53:0.2825 54:0.1225 55:0.1925 56:0.2775 57:0.265 58:0.3125 59:0.02 60:0.185 61:0.1925 62:0.0725 63:0.2825 64:0.3375 65:0.4675 66:0.285 67:0.0925 68:0.36 69:0.47 70:0.62 71:0.085 72:0.325 73:0.32 74:0.125 75:0.2 76:0.36 77:0.295 78:0.34 79:0.04 80:0.2125 81:0.24 82:0.1025 83:0.355 84:0.4675 85:0.73 86:0.4225 87:0.1475 88:0.4925 89:0.7125 90:0.85 91:0.15 92:0.43 93:0.5275 94:0.165 95:0.2775 96:0.5475 97:0.4125 98:0.44 99:0.07 100:0.31 101:0.1825 102:0.0625 103:0.24 104:0.285 105:0.4225 106:0.3475 107:0.0775 108:0.3625 109:0.4875 110:0.64 111:0.07 112:0.345 113:0.375 114:0.13 115:0.1875 116:0.305 117:0.315 118:0.3575 119:0.0525 120:0.2375 121:0.0425 122:0.0325 123:0.0525 124:0.0925 125:0.1475 126:0.0775 127:0.0625 128:0.1125 129:0.1575 130:0.1725 131:0.0325 132:0.0975 133:0.0675 134:0.0275 135:0.0425 136:0.1075 137:0.0875 138:0.1125 139:0.0275 140:0.0975 141:0.2675 142:0.07 143:0.285 144:0.36 145:0.4925 146:0.3625 147:0.1125 148:0.4825 149:0.5375 150:0.6875 151:0.085 152:0.4275 153:0.32 154:0.1375 155:0.2 156:0.38 157:0.3625 158:0.405 159:0.065 160:0.2425 161:0.2325 162:0.1075 163:0.3725 164:0.47 165:0.7125 166:0.4875 167:0.1575 168:0.5375 169:0.79 170:0.9675 171:0.145 172:0.485 173:0.57 174:0.185 175:0.2925 176:0.5225 177:0.4825 178:0.565 179:0.0825 180:0.3825 181:0.3275 182:0.155 183:0.5725 184:0.62 185:0.85 186:0.64 187:0.1725 188:0.6875 189:0.9675 190:1.4 191:0.13 192:0.69 193:0.7075 194:0.28 195:0.415 196:0.62 197:0.6375 198:0.7875 199:0.0825 200:0.54 201:0.02 202:0.0125 203:0.0625 204:0.085 205:0.15 206:0.07 207:0.0325 208:0.085 209:0.145 210:0.13 211:0.055 212:0.055 213:0.1175 214:0.025 215:0.055 216:0.1175 217:0.0875 218:0.0775 219:0.0175 220:0.05 221:0.2425 222:0.075 223:0.2775 224:0.325 225:0.43 226:0.345 227:0.0975 228:0.4275 229:0.485 230:0.69 231:0.055 232:0.41 233:0.3 234:0.14 235:0.1925 236:0.3225 237:0.3325 238:0.3925 239:0.055 240:0.255 241:0.1225 242:0.065 243:0.2825 244:0.32 245:0.5275 246:0.375 247:0.0675 248:0.32 249:0.57 250:0.7075 251:0.1175 252:0.3 253:0.54 254:0.145 255:0.24 256:0.3775 257:0.3425 258:0.365 259:0.045 260:0.2525 261:0.0725 262:0.03 263:0.1225 264:0.125 265:0.165 266:0.13 267:0.0275 268:0.1375 269:0.185 270:0.28 271:0.025 272:0.14 273:0.145 274:0.06 275:0.0875 276:0.1225 277:0.1275 278:0.1525 279:0.015 280:0.1 281:0.095 282:0.0425 283:0.1925 284:0.2 285:0.2775 286:0.1875 287:0.0425 288:0.2 289:0.2925 290:0.415 291:0.055 292:0.1925 293:0.24 294:0.0875 295:0.14 296:0.21 297:0.195 298:0.2225 299:0.02 300:0.1425 301:0.1925 302:0.0725 303:0.2775 304:0.36 305:0.5475 306:0.305 307:0.1075 308:0.38 309:0.5225 310:0.62 311:0.1175 312:0.3225 313:0.3775 314:0.1225 315:0.21 316:0.42 317:0.31 318:0.3225 319:0.05 320:0.2125 321:0.16 322:0.06 323:0.265 324:0.295 325:0.4125 326:0.315 327:0.0875 328:0.3625 329:0.4825 330:0.6375 331:0.0875 332:0.3325 333:0.3425 334:0.1275 335:0.195 336:0.31 337:0.3325 338:0.385 339:0.05 340:0.2425 341:0.1675 342:0.085 343:0.3125 344:0.34 345:0.44 346:0.3575 347:0.1125 348:0.405 349:0.565 350:0.7875 351:0.0775 352:0.3925 353:0.365 354:0.1525 355:0.2225 356:0.3225 357:0.385 358:0.51 359:0.055 360:0.325 361:0.0275 362:0.0125 363:0.02 364:0.04 365:0.07 366:0.0525 367:0.0275 368:0.065 369:0.0825 370:0.0825 371:0.0175 372:0.055 373:0.045 374:0.015 375:0.02 376:0.05 377:0.05 378:0.055 379:0.0175 380:0.045 381:0.085 382:0.0725 383:0.185 384:0.2125 385:0.31 386:0.2375 387:0.0975 388:0.2425 389:0.3825 390:0.54 391:0.05 392:0.255 393:0.2525 394:0.1 395:0.1425 396:0.2125 397:0.2425 398:0.325 399:0.045 400:0.26 
1.625156363550633 1:0.11 2:0.06 3:0.185 4:0.3225 5:0.155 6:0.12 7:0.085 8:0.32 9:0.4075 10:0.2425 11:0.075 12:0.3 13:0.175 14:0.155 15:0.2475 16:0.18 17:0.1975 18:0.24 19:0.0325 20:0.1275 21:0.06 22:0.0425 23:0.1 24:0.1725 25:0.0725 26:0.075 27:0.0425 28:0.17 29:0.235 30:0.135 31:0.04 32:0.1575 33:0.0825 34:0.08 35:0.1425 36:0.095 37:0.105 38:0.135 39:0.0275 40:0.08 41:0.185 42:0.1 43:0.4 44:0.6475 45:0.265 46:0.27 47:0.1325 48:0.6775 49:0.74 50:0.4875 51:0.125 52:0.6 53:0.305 54:0.2575 55:0.4325 56:0.3325 57:0.39 58:0.465 59:0.0475 60:0.2525 61:0.3225 62:0.1725 63:0.6475 64:1.415 65:0.495 66:0.505 67:0.1625 68:1.1225 69:1.5825 70:0.9025 71:0.235 72:1.21 73:0.515 74:0.6075 75:0.8925 76:0.61 77:0.7025 78:0.9375 79:0.1325 80:0.455 81:0.155 82:0.0725 83:0.265 84:0.495 85:0.255 86:0.175 87:0.1225 88:0.4625 89:0.56 90:0.3375 91:0.11 92:0.4625 93:0.285 94:0.22 95:0.35 96:0.2475 97:0.2925 98:0.3625 99:0.0325 100:0.1875 101:0.12 102:0.075 103:0.27 104:0.505 105:0.175 106:0.2575 107:0.08 108:0.5375 109:0.6 110:0.3725 111:0.095 112:0.45 113:0.2425 114:0.1825 115:0.3875 116:0.255 117:0.315 118:0.3325 119:0.0425 120:0.2425 121:0.085 122:0.0425 123:0.1325 124:0.1625 125:0.1225 126:0.08 127:0.12 128:0.2725 129:0.19 130:0.1475 131:0.0525 132:0.19 133:0.1725 134:0.1025 135:0.195 136:0.155 137:0.1575 138:0.145 139:0.0125 140:0.1125 141:0.32 142:0.17 143:0.6775 144:1.1225 145:0.4625 146:0.5375 147:0.2725 148:1.325 149:1.3475 150:0.88 151:0.2375 152:1.0525 153:0.62 154:0.4675 155:0.8975 156:0.6625 157:0.7625 158:0.755 159:0.0775 160:0.5275 161:0.4075 162:0.235 163:0.74 164:1.5825 165:0.56 166:0.6 167:0.19 168:1.3475 169:2.1 170:1.105 171:0.3225 172:1.365 173:0.59 174:0.705 175:1.16 176:0.785 177:0.86 178:0.9925 179:0.1675 180:0.56 181:0.2425 182:0.135 183:0.4875 184:0.9025 185:0.3375 186:0.3725 187:0.1475 188:0.88 189:1.105 190:0.67 191:0.175 192:0.795 193:0.4025 194:0.385 195:0.635 196:0.455 197:0.5225 198:0.6125 199:0.0825 200:0.3425 201:0.075 202:0.04 203:0.125 204:0.235 205:0.11 206:0.095 207:0.0525 208:0.2375 209:0.3225 210:0.175 211:0.0625 212:0.2125 213:0.1275 214:0.11 215:0.195 216:0.1375 217:0.15 218:0.15 219:0.0225 220:0.1025 221:0.3 222:0.1575 223:0.6 224:1.21 225:0.4625 226:0.45 227:0.19 228:1.0525 229:1.365 230:0.795 231:0.2125 232:1.11 233:0.47 234:0.51 235:0.8125 236:0.5675 237:0.6625 238:0.8125 239:0.0975 240:0.4125 241:0.175 242:0.0825 243:0.305 244:0.515 245:0.285 246:0.2425 247:0.1725 248:0.62 249:0.59 250:0.4025 251:0.1275 252:0.47 253:0.42 254:0.225 255:0.435 256:0.3025 257:0.36 258:0.3925 259:0.0275 260:0.275 261:0.155 262:0.08 263:0.2575 264:0.6075 265:0.22 266:0.1825 267:0.1025 268:0.4675 269:0.705 270:0.385 271:0.11 272:0.51 273:0.225 274:0.335 275:0.4225 276:0.305 277:0.3 278:0.3975 279:0.0775 280:0.18 281:0.2475 282:0.1425 283:0.4325 284:0.8925 285:0.35 286:0.3875 287:0.195 288:0.8975 289:1.16 290:0.635 291:0.195 292:0.8125 293:0.435 294:0.4225 295:0.78 296:0.525 297:0.5625 298:0.5675 299:0.0925 300:0.405 301:0.18 302:0.095 303:0.3325 304:0.61 305:0.2475 306:0.255 307:0.155 308:0.6625 309:0.785 310:0.455 311:0.1375 312:0.5675 313:0.3025 314:0.305 315:0.525 316:0.39 317:0.4 318:0.385 319:0.0575 320:0.265 321:0.1975 322:0.105 323:0.39 324:0.7025 325:0.2925 326:0.315 327:0.1575 328:0.7625 329:0.86 330:0.5225 331:0.15 332:0.6625 333:0.36 334:0.3 335:0.5625 336:0.4 337:0.46 338:0.4625 339:0.0525 340:0.31 341:0.24 342:0.135 343:0.465 344:0.9375 345:0.3625 346:0.3325 347:0.145 348:0.755 349:0.9925 350:0.6125 351:0.15 352:0.8125 353:0.3925 354:0.3975 355:0.5675 356:0.385 357:0.4625 358:0.7025 359:0.0925 360:0.31 361:0.0325 362:0.0275 363:0.0475 364:0.1325 365:0.0325 366:0.0425 367:0.0125 368:0.0775 369:0.1675 370:0.0825 371:0.0225 372:0.0975 373:0.0275 374:0.0775 375:0.0925 376:0.0575 377:0.0525 378:0.0925 379:0.0325 380:0.0425 381:0.1275 382:0.08 383:0.2525 384:0.455 385:0.1875 386:0.2425 387:0.1125 388:0.5275 389:0.56 390:0.3425 391:0.1025 392:0.4125 393:0.275 394:0.18 395:0.405 396:0.265 397:0.31 398:0.31 399:0.0425 400:0.26 
1.910258382657038 1:0.1475 2:0.0275 3:0.155 4:0.0975 5:0.1125 6:0.095 7:0.0425 8:0.11 9:0.095 10:0.1825 11:0.045 12:0.0875 13:0.125 14:0.045 15:0.095 16:0.0775 17:0.16 18:0.145 19:0.0025 20:0.135 21:0.0275 22:0.0075 23:0.03 24:0.0175 25:0.0225 26:0.02 27:0.0125 28:0.025 29:0.02 30:0.0325 31:0.01 32:0.0275 33:0.03 34:0.01 35:0.02 36:0.0175 37:0.035 38:0.03 39:0.0025 40:0.03 41:0.155 42:0.03 43:0.165 44:0.1 45:0.12 46:0.1025 47:0.05 48:0.1225 49:0.1025 50:0.19 51:0.0475 52:0.11 53:0.1425 54:0.0475 55:0.1025 56:0.085 57:0.1775 58:0.1575 59:0.0025 60:0.15 61:0.0975 62:0.0175 63:0.1 64:0.0675 65:0.0725 66:0.06 67:0.0225 68:0.065 69:0.06 70:0.1225 71:0.03 72:0.0375 73:0.07 74:0.03 75:0.06 76:0.0475 77:0.095 78:0.09 79:0.0025 80:0.08 81:0.1125 82:0.0225 83:0.12 84:0.0725 85:0.0875 86:0.075 87:0.0375 88:0.09 89:0.075 90:0.1375 91:0.035 92:0.0825 93:0.105 94:0.035 95:0.075 96:0.0625 97:0.13 98:0.115 99:0.0025 100:0.11 101:0.095 102:0.02 103:0.1025 104:0.06 105:0.075 106:0.065 107:0.035 108:0.08 109:0.065 110:0.115 111:0.03 112:0.08 113:0.095 114:0.03 115:0.065 116:0.055 117:0.115 118:0.1 119:0.0025 120:0.0975 121:0.0425 122:0.0125 123:0.05 124:0.0225 125:0.0375 126:0.035 127:0.0275 128:0.05 129:0.035 130:0.0475 131:0.015 132:0.0725 133:0.065 134:0.015 135:0.035 136:0.0325 137:0.07 138:0.055 139:0.0025 140:0.06 141:0.11 142:0.025 143:0.1225 144:0.065 145:0.09 146:0.08 147:0.05 148:0.105 149:0.08 150:0.13 151:0.035 152:0.125 153:0.13 154:0.035 155:0.08 156:0.07 157:0.15 158:0.125 159:0.0025 160:0.1275 161:0.095 162:0.02 163:0.1025 164:0.06 165:0.075 166:0.065 167:0.035 168:0.08 169:0.065 170:0.115 171:0.03 172:0.08 173:0.095 174:0.03 175:0.065 176:0.055 177:0.115 178:0.1 179:0.0025 180:0.0975 181:0.1825 182:0.0325 183:0.19 184:0.1225 185:0.1375 186:0.115 187:0.0475 188:0.13 189:0.115 190:0.2275 191:0.055 192:0.0925 193:0.145 194:0.055 195:0.115 196:0.0925 197:0.19 198:0.175 199:0.0025 200:0.16 201:0.045 202:0.01 203:0.0475 204:0.03 205:0.035 206:0.03 207:0.015 208:0.035 209:0.03 210:0.055 211:0.015 212:0.03 213:0.04 214:0.015 215:0.03 216:0.025 217:0.05 218:0.045 219:0.0025 220:0.0425 221:0.0875 222:0.0275 223:0.11 224:0.0375 225:0.0825 226:0.08 227:0.0725 228:0.125 229:0.08 230:0.0925 231:0.03 232:0.2075 233:0.17 234:0.03 235:0.08 236:0.0775 237:0.175 238:0.13 239:0.0025 240:0.15 241:0.125 242:0.03 243:0.1425 244:0.07 245:0.105 246:0.095 247:0.065 248:0.13 249:0.095 250:0.145 251:0.04 252:0.17 253:0.165 254:0.04 255:0.095 256:0.085 257:0.185 258:0.15 259:0.0025 260:0.1575 261:0.045 262:0.01 263:0.0475 264:0.03 265:0.035 266:0.03 267:0.015 268:0.035 269:0.03 270:0.055 271:0.015 272:0.03 273:0.04 274:0.015 275:0.03 276:0.025 277:0.05 278:0.045 279:0.0025 280:0.0425 281:0.095 282:0.02 283:0.1025 284:0.06 285:0.075 286:0.065 287:0.035 288:0.08 289:0.065 290:0.115 291:0.03 292:0.08 293:0.095 294:0.03 295:0.065 296:0.055 297:0.115 298:0.1 299:0.0025 300:0.0975 301:0.0775 302:0.0175 303:0.085 304:0.0475 305:0.0625 306:0.055 307:0.0325 308:0.07 309:0.055 310:0.0925 311:0.025 312:0.0775 313:0.085 314:0.025 315:0.055 316:0.0475 317:0.1 318:0.085 319:0.0025 320:0.085 321:0.16 322:0.035 323:0.1775 324:0.095 325:0.13 326:0.115 327:0.07 328:0.15 329:0.115 330:0.19 331:0.05 332:0.175 333:0.185 334:0.05 335:0.115 336:0.1 337:0.215 338:0.18 339:0.0025 340:0.1825 341:0.145 342:0.03 343:0.1575 344:0.09 345:0.115 346:0.1 347:0.055 348:0.125 349:0.1 350:0.175 351:0.045 352:0.13 353:0.15 354:0.045 355:0.1 356:0.085 357:0.18 358:0.155 359:0.0025 360:0.1525 361:0.0025 362:0.0025 363:0.0025 364:0.0025 365:0.0025 366:0.0025 367:0.0025 368:0.0025 369:0.0025 370:0.0025 371:0.0025 372:0.0025 373:0.0025 374:0.0025 375:0.0025 376:0.0025 377:0.0025 378:0.0025 379:0.0025 380:0.0025 381:0.135 382:0.03 383:0.15 384:0.08 385:0.11 386:0.0975 387:0.06 388:0.1275 389:0.0975 390:0.16 391:0.0425 392:0.15 393:0.1575 394:0.0425 395:0.0975 396:0.085 397:0.1825 398:0.1525 399:0.0025 400:0.155 
0.03421356087613135 1:0.25 2:0.095 3:0.22 4:0.3275 5:0.2225 6:0.1975 7:0.075 8:0.3325 9:0.3825 10:0.405 11:0.085 12:0.1575 13:0.25 14:0.1475 15:0.2375 16:0.1675 17:0.2075 18:0.32 19:0.0475 20:0.1225 21:0.095 22:0.055 23:0.06 24:0.1 25:0.0625 26:0.07 27:0.02 28:0.1075 29:0.145 30:0.1625 31:0.03 32:0.055 33:0.09 34:0.0775 35:0.0825 36:0.05 37:0.0625 38:0.09 39:0.015 40:0.02 41:0.22 42:0.06 43:0.27 44:0.4225 45:0.2275 46:0.1825 47:0.085 48:0.2975 49:0.3325 50:0.42 51:0.065 52:0.1375 53:0.2 54:0.1325 55:0.2125 56:0.1725 57:0.2425 58:0.35 59:0.0425 60:0.1775 61:0.3275 62:0.1 63:0.4225 64:0.7325 65:0.345 66:0.3275 67:0.1275 68:0.435 69:0.535 70:0.7525 71:0.1125 72:0.215 73:0.2975 74:0.225 75:0.34 76:0.2825 77:0.38 78:0.5525 79:0.0575 80:0.2825 81:0.2225 82:0.0625 83:0.2275 84:0.345 85:0.31 86:0.205 87:0.0825 88:0.3075 89:0.395 90:0.3575 91:0.1325 92:0.2 93:0.1925 94:0.1175 95:0.24 96:0.21 97:0.25 98:0.4075 99:0.05 100:0.145 101:0.1975 102:0.07 103:0.1825 104:0.3275 105:0.205 106:0.2525 107:0.0675 108:0.3 109:0.365 110:0.4175 111:0.1125 112:0.155 113:0.2425 114:0.095 115:0.245 116:0.1825 117:0.165 118:0.3025 119:0.0425 120:0.1225 121:0.075 122:0.02 123:0.085 124:0.1275 125:0.0825 126:0.0675 127:0.03 128:0.1075 129:0.1175 130:0.13 131:0.03 132:0.0525 133:0.075 134:0.0375 135:0.0775 136:0.0625 137:0.0775 138:0.12 139:0.0175 140:0.0575 141:0.3325 142:0.1075 143:0.2975 144:0.435 145:0.3075 146:0.3 147:0.1075 148:0.485 149:0.5225 150:0.535 151:0.1275 152:0.2175 153:0.375 154:0.1525 155:0.345 156:0.2425 157:0.265 158:0.4425 159:0.07 160:0.1825 161:0.3825 162:0.145 163:0.3325 164:0.535 165:0.395 166:0.365 167:0.1175 168:0.5225 169:0.65 170:0.67 171:0.1825 172:0.285 173:0.39 174:0.22 175:0.4025 176:0.3025 177:0.3325 178:0.5525 179:0.075 180:0.1925 181:0.405 182:0.1625 183:0.42 184:0.7525 185:0.3575 186:0.4175 187:0.13 188:0.535 189:0.67 190:0.9025 191:0.145 192:0.255 193:0.415 194:0.28 195:0.4275 196:0.3125 197:0.3775 198:0.57 199:0.0675 200:0.2575 201:0.085 202:0.03 203:0.065 204:0.1125 205:0.1325 206:0.1125 207:0.03 208:0.1275 209:0.1825 210:0.145 211:0.08 212:0.0975 213:0.09 214:0.0375 215:0.1125 216:0.0975 217:0.0825 218:0.165 219:0.0225 220:0.0425 221:0.1575 222:0.055 223:0.1375 224:0.215 225:0.2 226:0.155 227:0.0525 228:0.2175 229:0.285 230:0.255 231:0.0975 232:0.14 233:0.15 234:0.085 235:0.1725 236:0.1425 237:0.1525 238:0.2625 239:0.035 240:0.0825 241:0.25 242:0.09 243:0.2 244:0.2975 245:0.1925 246:0.2425 247:0.075 248:0.375 249:0.39 250:0.415 251:0.09 252:0.15 253:0.315 254:0.1075 255:0.2675 256:0.17 257:0.1625 258:0.2875 259:0.0525 260:0.12 261:0.1475 262:0.0775 263:0.1325 264:0.225 265:0.1175 266:0.095 267:0.0375 268:0.1525 269:0.22 270:0.28 271:0.0375 272:0.085 273:0.1075 274:0.1375 275:0.1175 276:0.085 277:0.1375 278:0.1775 279:0.02 280:0.06 281:0.2375 282:0.0825 283:0.2125 284:0.34 285:0.24 286:0.245 287:0.0775 288:0.345 289:0.4025 290:0.4275 291:0.1125 292:0.1725 293:0.2675 294:0.1175 295:0.265 296:0.1925 297:0.2 298:0.34 299:0.05 300:0.1325 301:0.1675 302:0.05 303:0.1725 304:0.2825 305:0.21 306:0.1825 307:0.0625 308:0.2425 309:0.3025 310:0.3125 311:0.0975 312:0.1425 313:0.17 314:0.085 315:0.1925 316:0.16 317:0.1725 318:0.2925 319:0.0375 320:0.115 321:0.2075 322:0.0625 323:0.2425 324:0.38 325:0.25 326:0.165 327:0.0775 328:0.265 329:0.3325 330:0.3775 331:0.0825 332:0.1525 333:0.1625 334:0.1375 335:0.2 336:0.1725 337:0.245 338:0.355 339:0.04 340:0.1525 341:0.32 342:0.09 343:0.35 344:0.5525 345:0.4075 346:0.3025 347:0.12 348:0.4425 349:0.5525 350:0.57 351:0.165 352:0.2625 353:0.2875 354:0.1775 355:0.34 356:0.2925 357:0.355 358:0.5675 359:0.0675 360:0.2275 361:0.0475 362:0.015 363:0.0425 364:0.0575 365:0.05 366:0.0425 367:0.0175 368:0.07 369:0.075 370:0.0675 371:0.0225 372:0.035 373:0.0525 374:0.02 375:0.05 376:0.0375 377:0.04 378:0.0675 379:0.0125 380:0.0275 381:0.1225 382:0.02 383:0.1775 384:0.2825 385:0.145 386:0.1225 387:0.0575 388:0.1825 389:0.1925 390:0.2575 391:0.0425 392:0.0825 393:0.12 394:0.06 395:0.1325 396:0.115 397:0.1525 398:0.2275 399:0.0275 400:0.13 
1.072925590881989 1:0.7075 2:0.1375 3:0.555 4:0.275 5:0.3575 6:0.48 7:0.16 8:0.475 9:0.5475 10:0.945 11:0.21 12:0.1775 13:0.345 14:0.3425 15:0.355 16:0.4475 17:0.49 18:0.48 19:0.16 20:0.2525 21:0.1375 22:0.0475 23:0.115 24:0.0675 25:0.0825 26:0.115 27:0.045 28:0.1175 29:0.1225 30:0.185 31:0.04 32:0.0425 33:0.0825 34:0.055 35:0.0775 36:0.1025 37:0.1 38:0.1175 39:0.035 40:0.0625 41:0.555 42:0.115 43:0.5525 44:0.33 45:0.3175 46:0.44 47:0.13 48:0.4625 49:0.535 50:0.7725 51:0.175 52:0.155 53:0.3025 54:0.2975 55:0.3075 56:0.3875 57:0.4475 58:0.4475 59:0.125 60:0.245 61:0.275 62:0.0675 63:0.33 64:0.2575 65:0.1825 66:0.2625 67:0.0825 68:0.33 69:0.34 70:0.425 71:0.0875 72:0.0875 73:0.1425 74:0.1525 75:0.1575 76:0.2425 77:0.2625 78:0.27 79:0.0625 80:0.1325 81:0.3575 82:0.0825 83:0.3175 84:0.1825 85:0.2125 86:0.2825 87:0.1075 88:0.295 89:0.3225 90:0.4975 91:0.1125 92:0.0975 93:0.1875 94:0.165 95:0.19 96:0.245 97:0.27 98:0.2875 99:0.085 100:0.1525 101:0.48 102:0.115 103:0.44 104:0.2625 105:0.2825 106:0.4125 107:0.1425 108:0.42 109:0.46 110:0.66 111:0.1675 112:0.125 113:0.25 114:0.2175 115:0.28 116:0.3675 117:0.35 118:0.405 119:0.1125 120:0.2 121:0.16 122:0.045 123:0.13 124:0.0825 125:0.1075 126:0.1425 127:0.0725 128:0.1475 129:0.15 130:0.22 131:0.0575 132:0.045 133:0.075 134:0.055 135:0.0825 136:0.12 137:0.1175 138:0.135 139:0.04 140:0.065 141:0.475 142:0.1175 143:0.4625 144:0.33 145:0.295 146:0.42 147:0.1475 148:0.5225 149:0.4975 150:0.7375 151:0.145 152:0.125 153:0.235 154:0.22 155:0.2725 156:0.4025 157:0.37 158:0.4525 159:0.1175 160:0.205 161:0.5475 162:0.1225 163:0.535 164:0.34 165:0.3225 166:0.46 167:0.15 168:0.4975 169:0.545 170:0.7725 171:0.18 172:0.15 173:0.2825 174:0.2725 175:0.3075 176:0.415 177:0.4325 178:0.46 179:0.125 180:0.2325 181:0.945 182:0.185 183:0.7725 184:0.425 185:0.4975 186:0.66 187:0.22 188:0.7375 189:0.7725 190:1.35 191:0.265 192:0.2325 193:0.46 194:0.46 195:0.4825 196:0.6325 197:0.6675 198:0.7075 199:0.2225 200:0.355 201:0.21 202:0.04 203:0.175 204:0.0875 205:0.1125 206:0.1675 207:0.0575 208:0.145 209:0.18 210:0.265 211:0.0825 212:0.05 213:0.1 214:0.0975 215:0.12 216:0.1475 217:0.14 218:0.15 219:0.0475 220:0.075 221:0.1775 222:0.0425 223:0.155 224:0.0875 225:0.0975 226:0.125 227:0.045 228:0.125 229:0.15 230:0.2325 231:0.05 232:0.055 233:0.095 234:0.09 235:0.085 236:0.11 237:0.1425 238:0.1225 239:0.04 240:0.0725 241:0.345 242:0.0825 243:0.3025 244:0.1425 245:0.1875 246:0.25 247:0.075 248:0.235 249:0.2825 250:0.46 251:0.1 252:0.095 253:0.21 254:0.1725 255:0.1925 256:0.2125 257:0.25 258:0.265 259:0.0825 260:0.1575 261:0.3425 262:0.055 263:0.2975 264:0.1525 265:0.165 266:0.2175 267:0.055 268:0.22 269:0.2725 270:0.46 271:0.0975 272:0.09 273:0.1725 274:0.195 275:0.17 276:0.205 277:0.2575 278:0.2225 279:0.075 280:0.1275 281:0.355 282:0.0775 283:0.3075 284:0.1575 285:0.19 286:0.28 287:0.0825 288:0.2725 289:0.3075 290:0.4825 291:0.12 292:0.085 293:0.1925 294:0.17 295:0.2125 296:0.255 297:0.2375 298:0.285 299:0.085 300:0.145 301:0.4475 302:0.1025 303:0.3875 304:0.2425 305:0.245 306:0.3675 307:0.12 308:0.4025 309:0.415 310:0.6325 311:0.1475 312:0.11 313:0.2125 314:0.205 315:0.255 316:0.3575 317:0.3125 318:0.3675 319:0.105 320:0.165 321:0.49 322:0.1 323:0.4475 324:0.2625 325:0.27 326:0.35 327:0.1175 328:0.37 329:0.4325 330:0.6675 331:0.14 332:0.1425 333:0.25 334:0.2575 335:0.2375 336:0.3125 337:0.3975 338:0.35 339:0.1075 340:0.1975 341:0.48 342:0.1175 343:0.4475 344:0.27 345:0.2875 346:0.405 347:0.135 348:0.4525 349:0.46 350:0.7075 351:0.15 352:0.1225 353:0.265 354:0.2225 355:0.285 356:0.3675 357:0.35 358:0.4375 359:0.12 360:0.2175 361:0.16 362:0.035 363:0.125 364:0.0625 365:0.085 366:0.1125 367:0.04 368:0.1175 369:0.125 370:0.2225 371:0.0475 372:0.04 373:0.0825 374:0.075 375:0.085 376:0.105 377:0.1075 378:0.12 379:0.04 380:0.0625 381:0.2525 382:0.0625 383:0.245 384:0.1325 385:0.1525 386:0.2 387:0.065 388:0.205 389:0.2325 390:0.355 391:0.075 392:0.0725 393:0.1575 394:0.1275 395:0.145 396:0.165 397:0.1975 398:0.2175 399:0.0625 400:0.1275 
1.232613687422214 1:0.35 2:0.06 3:0.2875 4:0.4425 5:0.29 6:0.305 7:0.0475 8:0.345 9:0.2275 10:0.5025 11:0.1375 12:0.1875 13:0.2375 14:0.1425 15:0.265 16:0.245 17:0.36 18:0.3275 19:0.09 20:0.155 21:0.06 22:0.0475 23:0.0475 24:0.06 25:0.085 26:0.1475 27:0.0125 28:0.0375 29:0.025 30:0.1 31:0.03 32:0.08 33:0.055 34:0.05 35:0.03 36:0.0575 37:0.08 38:0.06 39:0.0425 40:0.0825 41:0.2875 42:0.0475 43:0.27 44:0.445 45:0.235 46:0.2575 47:0.05 48:0.2575 49:0.2275 50:0.4025 51:0.0925 52:0.15 53:0.21 54:0.135 55:0.2425 56:0.2275 57:0.255 58:0.2225 59:0.065 60:0.125 61:0.4425 62:0.06 63:0.445 64:0.8375 65:0.265 66:0.355 67:0.065 68:0.295 69:0.41 70:0.525 71:0.12 72:0.1825 73:0.2525 74:0.2075 75:0.3925 76:0.335 77:0.32 78:0.25 79:0.0725 80:0.1575 81:0.29 82:0.085 83:0.235 84:0.265 85:0.365 86:0.3675 87:0.0625 88:0.3575 89:0.15 90:0.52 91:0.1225 92:0.235 93:0.295 94:0.15 95:0.21 96:0.2525 97:0.3525 98:0.3325 99:0.1125 100:0.2 101:0.305 102:0.1475 103:0.2575 104:0.355 105:0.3675 106:0.5375 107:0.055 108:0.2625 109:0.1775 110:0.5125 111:0.1325 112:0.3025 113:0.265 114:0.2 115:0.205 116:0.2775 117:0.3575 118:0.3225 119:0.15 120:0.28 121:0.0475 122:0.0125 123:0.05 124:0.065 125:0.0625 126:0.055 127:0.0175 128:0.055 129:0.035 130:0.08 131:0.0125 132:0.035 133:0.06 134:0.03 135:0.0425 136:0.05 137:0.045 138:0.0325 139:0.015 140:0.0325 141:0.345 142:0.0375 143:0.2575 144:0.295 145:0.3575 146:0.2625 147:0.055 148:0.4775 149:0.1875 150:0.6025 151:0.1575 152:0.1975 153:0.295 154:0.12 155:0.265 156:0.2525 157:0.4125 158:0.4475 159:0.095 160:0.13 161:0.2275 162:0.025 163:0.2275 164:0.41 165:0.15 166:0.1775 167:0.035 168:0.1875 169:0.2175 170:0.3075 171:0.07 172:0.1 173:0.14 174:0.105 175:0.2125 176:0.1825 177:0.1725 178:0.18 179:0.04 180:0.0675 181:0.5025 182:0.1 183:0.4025 184:0.525 185:0.52 186:0.5125 187:0.08 188:0.6025 189:0.3075 190:0.8575 191:0.22 192:0.335 193:0.415 194:0.22 195:0.3875 196:0.3975 197:0.5725 198:0.61 199:0.16 200:0.2475 201:0.1375 202:0.03 203:0.0925 204:0.12 205:0.1225 206:0.1325 207:0.0125 208:0.1575 209:0.07 210:0.22 211:0.0725 212:0.0875 213:0.085 214:0.05 215:0.0925 216:0.0875 217:0.17 218:0.1825 219:0.0475 220:0.065 221:0.1875 222:0.08 223:0.15 224:0.1825 225:0.235 226:0.3025 227:0.035 228:0.1975 229:0.1 230:0.335 231:0.0875 232:0.18 233:0.1725 234:0.1125 235:0.1275 236:0.1675 237:0.2325 238:0.2275 239:0.09 240:0.1575 241:0.2375 242:0.055 243:0.21 244:0.2525 245:0.295 246:0.265 247:0.06 248:0.295 249:0.14 250:0.415 251:0.085 252:0.1725 253:0.2575 254:0.1225 255:0.1875 256:0.215 257:0.265 258:0.235 259:0.0775 260:0.1475 261:0.1425 262:0.05 263:0.135 264:0.2075 265:0.15 266:0.2 267:0.03 268:0.12 269:0.105 270:0.22 271:0.05 272:0.1125 273:0.1225 274:0.0875 275:0.1125 276:0.13 277:0.14 278:0.12 279:0.0525 280:0.1025 281:0.265 282:0.03 283:0.2425 284:0.3925 285:0.21 286:0.205 287:0.0425 288:0.265 289:0.2125 290:0.3875 291:0.0925 292:0.1275 293:0.1875 294:0.1125 295:0.23 296:0.205 297:0.24 298:0.2425 299:0.055 300:0.09 301:0.245 302:0.0575 303:0.2275 304:0.335 305:0.2525 306:0.2775 307:0.05 308:0.2525 309:0.1825 310:0.3975 311:0.0875 312:0.1675 313:0.215 314:0.13 315:0.205 316:0.2175 317:0.2425 318:0.2375 319:0.075 320:0.135 321:0.36 322:0.08 323:0.255 324:0.32 325:0.3525 326:0.3575 327:0.045 328:0.4125 329:0.1725 330:0.5725 331:0.17 332:0.2325 333:0.265 334:0.14 335:0.24 336:0.2425 337:0.44 338:0.42 339:0.12 340:0.1925 341:0.3275 342:0.06 343:0.2225 344:0.25 345:0.3325 346:0.3225 347:0.0325 348:0.4475 349:0.18 350:0.61 351:0.1825 352:0.2275 353:0.235 354:0.12 355:0.2425 356:0.2375 357:0.42 358:0.5325 359:0.1175 360:0.135 361:0.09 362:0.0425 363:0.065 364:0.0725 365:0.1125 366:0.15 367:0.015 368:0.095 369:0.04 370:0.16 371:0.0475 372:0.09 373:0.0775 374:0.0525 375:0.055 376:0.075 377:0.12 378:0.1175 379:0.0475 380:0.08 381:0.155 382:0.0825 383:0.125 384:0.1575 385:0.2 386:0.28 387:0.0325 388:0.13 389:0.0675 390:0.2475 391:0.065 392:0.1575 393:0.1475 394:0.1025 395:0.09 396:0.135 397:0.1925 398:0.135 399:0.08 400:0.1625 
0.1639185256706386 1:0.4775 2:0.1225 3:0.29 4:0.4775 5:0.3525 6:0.27 7:0.2325 8:0.465 9:0.46 10:0.82 11:0.1225 12:0.2775 13:0.3375 14:0.1575 15:0.2925 16:0.245 17:0.415 18:0.31 19:0.0625 20:0.2625 21:0.1225 22:0.055 23:0.0675 24:0.115 25:0.11 26:0.07 27:0.0625 28:0.1475 29:0.1375 30:0.225 31:0.0375 32:0.085 33:0.1175 34:0.045 35:0.08 36:0.065 37:0.0975 38:0.09 39:0.0175 40:0.1025 41:0.29 42:0.0675 43:0.225 44:0.36 45:0.2125 46:0.1975 47:0.1575 48:0.275 49:0.3325 50:0.4775 51:0.09 52:0.1525 53:0.205 54:0.0925 55:0.215 56:0.1275 57:0.2425 58:0.24 59:0.0225 60:0.13 61:0.4775 62:0.115 63:0.36 64:0.6775 65:0.3625 66:0.35 67:0.2475 68:0.465 69:0.63 70:0.8725 71:0.175 72:0.2425 73:0.2675 74:0.1775 75:0.41 76:0.2275 77:0.5 78:0.5025 79:0.0475 80:0.2675 81:0.3525 82:0.11 83:0.2125 84:0.3625 85:0.2875 86:0.205 87:0.165 88:0.3925 89:0.37 90:0.635 91:0.0975 92:0.22 93:0.28 94:0.1175 95:0.2425 96:0.1825 97:0.32 98:0.2675 99:0.045 100:0.2475 101:0.27 102:0.07 103:0.1975 104:0.35 105:0.205 106:0.2125 107:0.155 108:0.285 109:0.36 110:0.55 111:0.1 112:0.15 113:0.19 114:0.1125 115:0.2025 116:0.1575 117:0.25 118:0.28 119:0.03 120:0.185 121:0.2325 122:0.0625 123:0.1575 124:0.2475 125:0.165 126:0.155 127:0.1375 128:0.2175 129:0.255 130:0.415 131:0.07 132:0.13 133:0.175 134:0.0875 135:0.135 136:0.125 137:0.1725 138:0.1675 139:0.0275 140:0.115 141:0.465 142:0.1475 143:0.275 144:0.465 145:0.3925 146:0.285 147:0.2175 148:0.5775 149:0.5025 150:0.9125 151:0.1275 152:0.305 153:0.405 154:0.1625 155:0.325 156:0.2675 157:0.43 158:0.3975 159:0.0625 160:0.3775 161:0.46 162:0.1375 163:0.3325 164:0.63 165:0.37 166:0.36 167:0.255 168:0.5025 169:0.65 170:0.9375 171:0.18 172:0.2575 173:0.315 174:0.1925 175:0.38 176:0.255 177:0.4575 178:0.515 179:0.05 180:0.3375 181:0.82 182:0.225 183:0.4775 184:0.8725 185:0.635 186:0.55 187:0.415 188:0.9125 189:0.9375 190:1.7125 191:0.2525 192:0.5025 193:0.5975 194:0.335 195:0.53 196:0.525 197:0.7875 198:0.7175 199:0.125 200:0.645 201:0.1225 202:0.0375 203:0.09 204:0.175 205:0.0975 206:0.1 207:0.07 208:0.1275 209:0.18 210:0.2525 211:0.0525 212:0.0675 213:0.0775 214:0.055 215:0.1025 216:0.07 217:0.125 218:0.14 219:0.015 220:0.0925 221:0.2775 222:0.085 223:0.1525 224:0.2425 225:0.22 226:0.15 227:0.13 228:0.305 229:0.2575 230:0.5025 231:0.0675 232:0.18 233:0.2325 234:0.0925 235:0.16 236:0.155 237:0.2325 238:0.17 239:0.04 240:0.1975 241:0.3375 242:0.1175 243:0.205 244:0.2675 245:0.28 246:0.19 247:0.175 248:0.405 249:0.315 250:0.5975 251:0.0775 252:0.2325 253:0.3625 254:0.1025 255:0.1825 256:0.18 257:0.2125 258:0.1925 259:0.035 260:0.245 261:0.1575 262:0.045 263:0.0925 264:0.1775 265:0.1175 266:0.1125 267:0.0875 268:0.1625 269:0.1925 270:0.335 271:0.055 272:0.0925 273:0.1025 274:0.0725 275:0.1 276:0.105 277:0.1525 278:0.145 279:0.0275 280:0.1175 281:0.2925 282:0.08 283:0.215 284:0.41 285:0.2425 286:0.2025 287:0.135 288:0.325 289:0.38 290:0.53 291:0.1025 292:0.16 293:0.1825 294:0.1 295:0.275 296:0.1325 297:0.3275 298:0.325 299:0.03 300:0.19 301:0.245 302:0.065 303:0.1275 304:0.2275 305:0.1825 306:0.1575 307:0.125 308:0.2675 309:0.255 310:0.525 311:0.07 312:0.155 313:0.18 314:0.105 315:0.1325 316:0.1725 317:0.2275 318:0.1875 319:0.045 320:0.1975 321:0.415 322:0.0975 323:0.2425 324:0.5 325:0.32 326:0.25 327:0.1725 328:0.43 329:0.4575 330:0.7875 331:0.125 332:0.2325 333:0.2125 334:0.1525 335:0.3275 336:0.2275 337:0.4925 338:0.385 339:0.0675 340:0.28 341:0.31 342:0.09 343:0.24 344:0.5025 345:0.2675 346:0.28 347:0.1675 348:0.3975 349:0.515 350:0.7175 351:0.14 352:0.17 353:0.1925 354:0.145 355:0.325 356:0.1875 357:0.385 358:0.485 359:0.0375 360:0.27 361:0.0625 362:0.0175 363:0.0225 364:0.0475 365:0.045 366:0.03 367:0.0275 368:0.0625 369:0.05 370:0.125 371:0.015 372:0.04 373:0.035 374:0.0275 375:0.03 376:0.045 377:0.0675 378:0.0375 379:0.0175 380:0.045 381:0.2625 382:0.1025 383:0.13 384:0.2675 385:0.2475 386:0.185 387:0.115 388:0.3775 389:0.3375 390:0.645 391:0.0925 392:0.1975 393:0.245 394:0.1175 395:0.19 396:0.1975 397:0.28 398:0.27 399:0.045 400:0.345 
1.04208561792782 1:0.63 2:0.145 3:0.38 4:0.425 5:0.2925 6:0.29 7:0.1425 8:0.2875 9:0.365 10:0.555 11:0.2325 12:0.1725 13:0.2125 14:0.2825 15:0.325 16:0.2225 17:0.28 18:0.34 19:0.0325 20:0.1325 21:0.145 22:0.05 23:0.08 24:0.0975 25:0.07 26:0.065 27:0.035 28:0.065 29:0.0775 30:0.115 31:0.0625 32:0.0475 33:0.0475 34:0.0475 35:0.0975 36:0.055 37:0.07 38:0.08 39:0.0075 40:0.03 41:0.38 42:0.08 43:0.37 44:0.305 45:0.2475 46:0.275 47:0.1175 48:0.2325 49:0.32 50:0.48 51:0.2375 52:0.0975 53:0.2175 54:0.2575 55:0.27 56:0.1925 57:0.225 58:0.305 59:0.0225 60:0.1025 61:0.425 62:0.0975 63:0.305 64:0.3475 65:0.2525 66:0.2525 67:0.1075 68:0.2475 69:0.3225 70:0.47 71:0.185 72:0.1325 73:0.2425 74:0.2175 75:0.2525 76:0.195 77:0.2425 78:0.3 79:0.035 80:0.115 81:0.2925 82:0.07 83:0.2475 84:0.2525 85:0.195 86:0.2 87:0.085 88:0.185 89:0.2525 90:0.3625 91:0.155 92:0.0925 93:0.1925 94:0.1675 95:0.2025 96:0.1525 97:0.185 98:0.2375 99:0.025 100:0.0875 101:0.29 102:0.065 103:0.275 104:0.2525 105:0.2 106:0.22 107:0.085 108:0.195 109:0.2475 110:0.375 111:0.1825 112:0.0825 113:0.1925 114:0.1925 115:0.2075 116:0.155 117:0.185 118:0.24 119:0.0225 120:0.08 121:0.1425 122:0.035 123:0.1175 124:0.1075 125:0.085 126:0.085 127:0.045 128:0.075 129:0.1175 130:0.1625 131:0.07 132:0.0425 133:0.0725 134:0.0775 135:0.0975 136:0.0675 137:0.08 138:0.1075 139:0.01 140:0.0425 141:0.2875 142:0.065 143:0.2325 144:0.2475 145:0.185 146:0.195 147:0.075 148:0.185 149:0.2275 150:0.3425 151:0.15 152:0.0875 153:0.1825 154:0.1675 155:0.1825 156:0.1425 157:0.175 158:0.2175 159:0.025 160:0.0775 161:0.365 162:0.0775 163:0.32 164:0.3225 165:0.2525 166:0.2475 167:0.1175 168:0.2275 169:0.3625 170:0.4875 171:0.1725 172:0.12 173:0.2625 174:0.2125 175:0.25 176:0.2 177:0.24 178:0.3225 179:0.035 180:0.13 181:0.555 182:0.115 183:0.48 184:0.47 185:0.3625 186:0.375 187:0.1625 188:0.3425 189:0.4875 190:0.6975 191:0.2825 192:0.165 193:0.355 194:0.335 195:0.3625 196:0.2825 197:0.34 198:0.4475 199:0.045 200:0.1675 201:0.2325 202:0.0625 203:0.2375 204:0.185 205:0.155 206:0.1825 207:0.07 208:0.15 209:0.1725 210:0.2825 211:0.18 212:0.0575 213:0.125 214:0.16 215:0.19 216:0.12 217:0.14 218:0.1825 219:0.01 220:0.05 221:0.1725 222:0.0475 223:0.0975 224:0.1325 225:0.0925 226:0.0825 227:0.0425 228:0.0875 229:0.12 230:0.165 231:0.0575 232:0.06 233:0.085 234:0.065 235:0.1 236:0.0725 237:0.0925 238:0.11 239:0.015 240:0.0475 241:0.2125 242:0.0475 243:0.2175 244:0.2425 245:0.1925 246:0.1925 247:0.0725 248:0.1825 249:0.2625 250:0.355 251:0.125 252:0.085 253:0.2375 254:0.1425 255:0.17 256:0.1525 257:0.185 258:0.24 259:0.0325 260:0.0925 261:0.2825 262:0.0475 263:0.2575 264:0.2175 265:0.1675 266:0.1925 267:0.0775 268:0.1675 269:0.2125 270:0.335 271:0.16 272:0.065 273:0.1425 274:0.1975 275:0.165 276:0.1275 277:0.15 278:0.2 279:0.0175 280:0.0675 281:0.325 282:0.0975 283:0.27 284:0.2525 285:0.2025 286:0.2075 287:0.0975 288:0.1825 289:0.25 290:0.3625 291:0.19 292:0.1 293:0.17 294:0.165 295:0.255 296:0.16 297:0.1925 298:0.2475 299:0.0175 300:0.085 301:0.2225 302:0.055 303:0.1925 304:0.195 305:0.1525 306:0.155 307:0.0675 308:0.1425 309:0.2 310:0.2825 311:0.12 312:0.0725 313:0.1525 314:0.1275 315:0.16 316:0.12 317:0.145 318:0.1875 319:0.02 320:0.07 321:0.28 322:0.07 323:0.225 324:0.2425 325:0.185 326:0.185 327:0.08 328:0.175 329:0.24 330:0.34 331:0.14 332:0.0925 333:0.185 334:0.15 335:0.1925 336:0.145 337:0.1775 338:0.225 339:0.025 340:0.085 341:0.34 342:0.08 343:0.305 344:0.3 345:0.2375 346:0.24 347:0.1075 348:0.2175 349:0.3225 350:0.4475 351:0.1825 352:0.11 353:0.24 354:0.2 355:0.2475 356:0.1875 357:0.225 358:0.2975 359:0.03 360:0.1125 361:0.0325 362:0.0075 363:0.0225 364:0.035 365:0.025 366:0.0225 367:0.01 368:0.025 369:0.035 370:0.045 371:0.01 372:0.015 373:0.0325 374:0.0175 375:0.0175 376:0.02 377:0.025 378:0.03 379:0.0075 380:0.015 381:0.1325 382:0.03 383:0.1025 384:0.115 385:0.0875 386:0.08 387:0.0425 388:0.0775 389:0.13 390:0.1675 391:0.05 392:0.0475 393:0.0925 394:0.0675 395:0.085 396:0.07 397:0.085 398:0.1125 399:0.015 400:0.05 
0.2259548309624088 1:0.27 2:0.035 3:0.2775 4:0.3125 5:0.36 6:0.275 7:0.085 8:0.1725 9:0.2775 10:0.425 11:0.1675 12:0.14 13:0.2775 14:0.155 15:0.335 16:0.2275 17:0.2675 18:0.42 19:0.0475 20:0.2375 21:0.035 22:0.015 23:0.025 24:0.03 25:0.045 26:0.0325 27:0.0175 28:0.0225 29:0.0325 30:0.04 31:0.0175 32:0.02 33:0.0675 34:0.025 35:0.0575 36:0.025 37:0.035 38:0.0525 39:0.01 40:0.045 41:0.2775 42:0.025 43:0.4425 44:0.36 45:0.4375 46:0.3625 47:0.1175 48:0.215 49:0.34 50:0.6625 51:0.1925 52:0.1475 53:0.3275 54:0.2725 55:0.4 56:0.325 57:0.3375 58:0.5475 59:0.03 60:0.2025 61:0.3125 62:0.03 63:0.36 64:0.4325 65:0.4075 66:0.37 67:0.1025 68:0.21 69:0.3425 70:0.6075 71:0.22 72:0.15 73:0.31 74:0.2225 75:0.415 76:0.295 77:0.37 78:0.55 79:0.05 80:0.2925 81:0.36 82:0.045 83:0.4375 84:0.4075 85:0.54 86:0.385 87:0.12 88:0.2425 89:0.3975 90:0.645 91:0.2175 92:0.2 93:0.3875 94:0.255 95:0.455 96:0.3575 97:0.3725 98:0.595 99:0.0575 100:0.2875 101:0.275 102:0.0325 103:0.3625 104:0.37 105:0.385 106:0.35 107:0.1075 108:0.2025 109:0.32 110:0.5925 111:0.19 112:0.1375 113:0.32 114:0.2325 115:0.405 116:0.2675 117:0.3375 118:0.515 119:0.0475 120:0.2575 121:0.085 122:0.0175 123:0.1175 124:0.1025 125:0.12 126:0.1075 127:0.05 128:0.055 129:0.1 130:0.1475 131:0.06 132:0.04 133:0.115 134:0.0725 135:0.14 136:0.0775 137:0.075 138:0.155 139:0.0075 140:0.0625 141:0.1725 142:0.0225 143:0.215 144:0.21 145:0.2425 146:0.2025 147:0.055 148:0.14 149:0.1875 150:0.3825 151:0.1075 152:0.095 153:0.2225 154:0.1425 155:0.24 156:0.165 157:0.23 158:0.3125 159:0.04 160:0.18 161:0.2775 162:0.0325 163:0.34 164:0.3425 165:0.3975 166:0.32 167:0.1 168:0.1875 169:0.315 170:0.5125 171:0.18 172:0.145 173:0.285 174:0.1975 175:0.3725 176:0.2575 177:0.2925 178:0.4725 179:0.0475 180:0.2325 181:0.425 182:0.04 183:0.6625 184:0.6075 185:0.645 186:0.5925 187:0.1475 188:0.3825 189:0.5125 190:1.2275 191:0.295 192:0.23 193:0.595 194:0.4825 195:0.6475 196:0.525 197:0.6975 198:0.9175 199:0.08 200:0.4525 201:0.1675 202:0.0175 203:0.1925 204:0.22 205:0.2175 206:0.19 207:0.06 208:0.1075 209:0.18 210:0.295 211:0.1175 212:0.08 213:0.1625 214:0.11 215:0.2175 216:0.1525 217:0.175 218:0.2825 219:0.0225 220:0.14 221:0.14 222:0.02 223:0.1475 224:0.15 225:0.2 226:0.1375 227:0.04 228:0.095 229:0.145 230:0.23 231:0.08 232:0.08 233:0.15 234:0.085 235:0.1675 236:0.125 237:0.145 238:0.215 239:0.03 240:0.125 241:0.2775 242:0.0675 243:0.3275 244:0.31 245:0.3875 246:0.32 247:0.115 248:0.2225 249:0.285 250:0.595 251:0.1625 252:0.15 253:0.5075 254:0.27 255:0.4475 256:0.2825 257:0.385 258:0.5275 259:0.0525 260:0.33 261:0.155 262:0.025 263:0.2725 264:0.2225 265:0.255 266:0.2325 267:0.0725 268:0.1425 269:0.1975 270:0.4825 271:0.11 272:0.085 273:0.27 274:0.2175 275:0.2675 276:0.225 277:0.2675 278:0.3675 279:0.02 280:0.1625 281:0.335 282:0.0575 283:0.4 284:0.415 285:0.455 286:0.405 287:0.14 288:0.24 289:0.3725 290:0.6475 291:0.2175 292:0.1675 293:0.4475 294:0.2675 295:0.515 296:0.2925 297:0.3875 298:0.6025 299:0.0625 300:0.3375 301:0.2275 302:0.025 303:0.325 304:0.295 305:0.3575 306:0.2675 307:0.0775 308:0.165 309:0.2575 310:0.525 311:0.1525 312:0.125 313:0.2825 314:0.225 315:0.2925 316:0.3075 317:0.3025 318:0.44 319:0.0175 320:0.1825 321:0.2675 322:0.035 323:0.3375 324:0.37 325:0.3725 326:0.3375 327:0.075 328:0.23 329:0.2925 330:0.6975 331:0.175 332:0.145 333:0.385 334:0.2675 335:0.3875 336:0.3025 337:0.4425 338:0.5375 339:0.0625 340:0.33 341:0.42 342:0.0525 343:0.5475 344:0.55 345:0.595 346:0.515 347:0.155 348:0.3125 349:0.4725 350:0.9175 351:0.2825 352:0.215 353:0.5275 354:0.3675 355:0.6025 356:0.44 357:0.5375 358:0.79 359:0.065 360:0.4 361:0.0475 362:0.01 363:0.03 364:0.05 365:0.0575 366:0.0475 367:0.0075 368:0.04 369:0.0475 370:0.08 371:0.0225 372:0.03 373:0.0525 374:0.02 375:0.0625 376:0.0175 377:0.0625 378:0.065 379:0.0275 380:0.0725 381:0.2375 382:0.045 383:0.2025 384:0.2925 385:0.2875 386:0.2575 387:0.0625 388:0.18 389:0.2325 390:0.4525 391:0.14 392:0.125 393:0.33 394:0.1625 395:0.3375 396:0.1825 397:0.33 398:0.4 399:0.0725 400:0.32 
0.0005591765617154631 1:0.2325 2:0.0675 3:0.2225 4:0.36 5:0.2075 6:0.285 7:0.0925 8:0.1975 9:0.2825 10:0.4775 11:0.2 12:0.1325 13:0.2525 14:0.0925 15:0.2475 16:0.135 17:0.165 18:0.2725 19:0.03 20:0.0975 21:0.0675 22:0.055 23:0.0575 24:0.12 25:0.085 26:0.095 27:0.0375 28:0.0875 29:0.1125 30:0.195 31:0.08 32:0.0375 33:0.1425 34:0.0625 35:0.1025 36:0.07 37:0.0875 38:0.11 39:0.01 40:0.06 41:0.2225 42:0.0575 43:0.2725 44:0.4275 45:0.195 46:0.305 47:0.115 48:0.2525 49:0.32 50:0.505 51:0.2 52:0.1475 53:0.2 54:0.095 55:0.25 56:0.1875 57:0.23 58:0.305 59:0.0425 60:0.12 61:0.36 62:0.12 63:0.4275 64:0.71 65:0.3525 66:0.5175 67:0.1975 68:0.455 69:0.5625 70:0.9275 71:0.3425 72:0.2425 73:0.4175 74:0.1725 75:0.4675 76:0.3325 77:0.3975 78:0.545 79:0.065 80:0.2375 81:0.2075 82:0.085 83:0.195 84:0.3525 85:0.245 86:0.315 87:0.1125 88:0.235 89:0.3525 90:0.585 91:0.1975 92:0.1675 93:0.325 94:0.0975 95:0.315 96:0.1825 97:0.1925 98:0.3125 99:0.04 100:0.135 101:0.285 102:0.095 103:0.305 104:0.5175 105:0.315 106:0.47 107:0.17 108:0.3475 109:0.505 110:0.82 111:0.2775 112:0.2475 113:0.3475 114:0.12 115:0.4225 116:0.245 117:0.3 118:0.44 119:0.065 120:0.18 121:0.0925 122:0.0375 123:0.115 124:0.1975 125:0.1125 126:0.17 127:0.07 128:0.1425 129:0.195 130:0.305 131:0.0975 132:0.0925 133:0.1275 134:0.0475 135:0.16 136:0.11 137:0.125 138:0.1725 139:0.0275 140:0.0775 141:0.1975 142:0.0875 143:0.2525 144:0.455 145:0.235 146:0.3475 147:0.1425 148:0.35 149:0.3975 150:0.6925 151:0.2175 152:0.1575 153:0.2975 154:0.11 155:0.35 156:0.2375 157:0.2875 158:0.3925 159:0.0425 160:0.2 161:0.2825 162:0.1125 163:0.32 164:0.5625 165:0.3525 166:0.505 167:0.195 168:0.3975 169:0.58 170:0.915 171:0.2875 172:0.2825 173:0.4125 174:0.1375 175:0.48 176:0.315 177:0.35 178:0.4925 179:0.0775 180:0.2175 181:0.4775 182:0.195 183:0.505 184:0.9275 185:0.585 186:0.82 187:0.305 188:0.6925 189:0.915 190:1.5825 191:0.4925 192:0.4075 193:0.7425 194:0.2225 195:0.825 196:0.47 197:0.5475 198:0.845 199:0.0975 200:0.395 201:0.2 202:0.08 203:0.2 204:0.3425 205:0.1975 206:0.2775 207:0.0975 208:0.2175 209:0.2875 210:0.4925 211:0.195 212:0.1225 213:0.25 214:0.1025 215:0.25 216:0.145 217:0.1925 218:0.2775 219:0.03 220:0.1175 221:0.1325 222:0.0375 223:0.1475 224:0.2425 225:0.1675 226:0.2475 227:0.0925 228:0.1575 229:0.2825 230:0.4075 231:0.1225 232:0.1625 233:0.1625 234:0.0475 235:0.2175 236:0.1425 237:0.1475 238:0.2075 239:0.0475 240:0.0775 241:0.2525 242:0.1425 243:0.2 244:0.4175 245:0.325 246:0.3475 247:0.1275 248:0.2975 249:0.4125 250:0.7425 251:0.25 252:0.1625 253:0.5425 254:0.1475 255:0.4225 256:0.235 257:0.21 258:0.4125 259:0.0275 260:0.2 261:0.0925 262:0.0625 263:0.095 264:0.1725 265:0.0975 266:0.12 267:0.0475 268:0.11 269:0.1375 270:0.2225 271:0.1025 272:0.0475 273:0.1475 274:0.08 275:0.11 276:0.0925 277:0.1225 278:0.1325 279:0.015 280:0.0675 281:0.2475 282:0.1025 283:0.25 284:0.4675 285:0.315 286:0.4225 287:0.16 288:0.35 289:0.48 290:0.825 291:0.25 292:0.2175 293:0.4225 294:0.11 295:0.4475 296:0.2475 297:0.2575 298:0.4475 299:0.05 300:0.205 301:0.135 302:0.07 303:0.1875 304:0.3325 305:0.1825 306:0.245 307:0.11 308:0.2375 309:0.315 310:0.47 311:0.145 312:0.1425 313:0.235 314:0.0925 315:0.2475 316:0.2225 317:0.225 318:0.2725 319:0.045 320:0.1375 321:0.165 322:0.0875 323:0.23 324:0.3975 325:0.1925 326:0.3 327:0.125 328:0.2875 329:0.35 330:0.5475 331:0.1925 332:0.1475 333:0.21 334:0.1225 335:0.2575 336:0.225 337:0.3 338:0.305 339:0.05 340:0.1575 341:0.2725 342:0.11 343:0.305 344:0.545 345:0.3125 346:0.44 347:0.1725 348:0.3925 349:0.4925 350:0.845 351:0.2775 352:0.2075 353:0.4125 354:0.1325 355:0.4475 356:0.2725 357:0.305 358:0.485 359:0.05 360:0.2225 361:0.03 362:0.01 363:0.0425 364:0.065 365:0.04 366:0.065 367:0.0275 368:0.0425 369:0.0775 370:0.0975 371:0.03 372:0.0475 373:0.0275 374:0.015 375:0.05 376:0.045 377:0.05 378:0.05 379:0.0175 380:0.02 381:0.0975 382:0.06 383:0.12 384:0.2375 385:0.135 386:0.18 387:0.0775 388:0.2 389:0.2175 390:0.395 391:0.1175 392:0.0775 393:0.2 394:0.0675 395:0.205 396:0.1375 397:0.1575 398:0.2225 399:0.02 400:0.125 
2 1:0.0475 2:0.0325 3:0.0325 4:0.0475 5:0.1 6:0.07 7:0.025 8:0.085 9:0.04 10:0.1675 11:0.04 12:0.0775 13:0.04 14:0.01 15:0.025 16:0.07 17:0.0625 18:0.0775 19:0.0325 20:0.0175 21:0.0325 22:0.0225 23:0.0225 24:0.0325 25:0.0675 26:0.0475 27:0.0175 28:0.0575 29:0.0275 30:0.1125 31:0.0275 32:0.0525 33:0.0275 34:0.0075 35:0.0175 36:0.0475 37:0.0425 38:0.0525 39:0.0225 40:0.0125 41:0.0325 42:0.0225 43:0.0225 44:0.0325 45:0.0675 46:0.0475 47:0.0175 48:0.0575 49:0.0275 50:0.1125 51:0.0275 52:0.0525 53:0.0275 54:0.0075 55:0.0175 56:0.0475 57:0.0425 58:0.0525 59:0.0225 60:0.0125 61:0.0475 62:0.0325 63:0.0325 64:0.0525 65:0.0875 66:0.0625 67:0.0225 68:0.0725 69:0.0325 70:0.1625 71:0.0325 72:0.0825 73:0.0425 74:0.0075 75:0.0175 76:0.0775 77:0.0575 78:0.0825 79:0.0325 80:0.0125 81:0.1 82:0.0675 83:0.0675 84:0.0875 85:0.245 86:0.1675 87:0.0575 88:0.2125 89:0.1025 90:0.3725 91:0.1025 92:0.1525 93:0.0775 94:0.025 95:0.07 96:0.13 97:0.145 98:0.1525 99:0.0675 100:0.0475 101:0.07 102:0.0475 103:0.0475 104:0.0625 105:0.1675 106:0.115 107:0.04 108:0.145 109:0.07 110:0.2575 111:0.07 112:0.1075 113:0.055 114:0.0175 115:0.0475 116:0.0925 117:0.1 118:0.1075 119:0.0475 120:0.0325 121:0.025 122:0.0175 123:0.0175 124:0.0225 125:0.0575 126:0.04 127:0.015 128:0.05 129:0.025 130:0.0875 131:0.025 132:0.0375 133:0.02 134:0.0075 135:0.0175 136:0.0325 137:0.035 138:0.0375 139:0.0175 140:0.0125 141:0.085 142:0.0575 143:0.0575 144:0.0725 145:0.2125 146:0.145 147:0.05 148:0.185 149:0.09 150:0.3175 151:0.09 152:0.1275 153:0.065 154:0.0225 155:0.0625 156:0.1075 157:0.125 158:0.1275 159:0.0575 160:0.0425 161:0.04 162:0.0275 163:0.0275 164:0.0325 165:0.1025 166:0.07 167:0.025 168:0.09 169:0.045 170:0.1475 171:0.045 172:0.0575 173:0.03 174:0.0125 175:0.0325 176:0.0475 177:0.06 178:0.0575 179:0.0275 180:0.0225 181:0.1675 182:0.1125 183:0.1125 184:0.1625 185:0.3725 186:0.2575 187:0.0875 188:0.3175 189:0.1475 190:0.6125 191:0.1475 192:0.2725 193:0.1375 194:0.0325 195:0.0925 196:0.2425 197:0.2275 198:0.2725 199:0.1125 200:0.0625 201:0.04 202:0.0275 203:0.0275 204:0.0325 205:0.1025 206:0.07 207:0.025 208:0.09 209:0.045 210:0.1475 211:0.045 212:0.0575 213:0.03 214:0.0125 215:0.0325 216:0.0475 217:0.06 218:0.0575 219:0.0275 220:0.0225 221:0.0775 222:0.0525 223:0.0525 224:0.0825 225:0.1525 226:0.1075 227:0.0375 228:0.1275 229:0.0575 230:0.2725 231:0.0575 232:0.1325 233:0.0675 234:0.0125 235:0.0325 236:0.1225 237:0.0975 238:0.1325 239:0.0525 240:0.0225 241:0.04 242:0.0275 243:0.0275 244:0.0425 245:0.0775 246:0.055 247:0.02 248:0.065 249:0.03 250:0.1375 251:0.03 252:0.0675 253:0.035 254:0.0075 255:0.0175 256:0.0625 257:0.05 258:0.0675 259:0.0275 260:0.0125 261:0.01 262:0.0075 263:0.0075 264:0.0075 265:0.025 266:0.0175 267:0.0075 268:0.0225 269:0.0125 270:0.0325 271:0.0125 272:0.0125 273:0.0075 274:0.005 275:0.01 276:0.01 277:0.015 278:0.0125 279:0.0075 280:0.0075 281:0.025 282:0.0175 283:0.0175 284:0.0175 285:0.07 286:0.0475 287:0.0175 288:0.0625 289:0.0325 290:0.0925 291:0.0325 292:0.0325 293:0.0175 294:0.01 295:0.025 296:0.025 297:0.04 298:0.0325 299:0.0175 300:0.0175 301:0.07 302:0.0475 303:0.0475 304:0.0775 305:0.13 306:0.0925 307:0.0325 308:0.1075 309:0.0475 310:0.2425 311:0.0475 312:0.1225 313:0.0625 314:0.01 315:0.025 316:0.115 317:0.085 318:0.1225 319:0.0475 320:0.0175 321:0.0625 322:0.0425 323:0.0425 324:0.0575 325:0.145 326:0.1 327:0.035 328:0.125 329:0.06 330:0.2275 331:0.06 332:0.0975 333:0.05 334:0.015 335:0.04 336:0.085 337:0.0875 338:0.0975 339:0.0425 340:0.0275 341:0.0775 342:0.0525 343:0.0525 344:0.0825 345:0.1525 346:0.1075 347:0.0375 348:0.1275 349:0.0575 350:0.2725 351:0.0575 352:0.1325 353:0.0675 354:0.0125 355:0.0325 356:0.1225 357:0.0975 358:0.1325 359:0.0525 360:0.0225 361:0.0325 362:0.0225 363:0.0225 364:0.0325 365:0.0675 366:0.0475 367:0.0175 368:0.0575 369:0.0275 370:0.1125 371:0.0275 372:0.0525 373:0.0275 374:0.0075 375:0.0175 376:0.0475 377:0.0425 378:0.0525 379:0.0225 380:0.0125 381:0.0175 382:0.0125 383:0.0125 384:0.0125 385:0.0475 386:0.0325 387:0.0125 388:0.0425 389:0.0225 390:0.0625 391:0.0225 392:0.0225 393:0.0125 394:0.0075 395:0.0175 396:0.0175 397:0.0275 398:0.0225 399:0.0125 400:0.0125 
