svm_type c_svc
kernel_type rbf
gamma 0.00195312
nr_class 2
total_sv 442
rho 0.698784
label 1 -1
nr_sv 170 272
SV
0.7407173561126879 1:37 2:9 3:28 4:30 5:37 6:30 7:10 8:29 9:32 10:40 11:18 12:23 13:32 14:20 15:29 16:25 17:21 18:32 19:6 20:30 
1.127997550966266 1:22 2:15 3:35 4:51 5:23 6:36 7:15 8:36 9:41 10:49 11:13 12:23 13:31 14:19 15:26 16:40 17:25 18:37 19:7 20:24 
2 1:16 2:3 3:19 4:15 5:11 6:15 7:13 8:16 9:19 10:38 11:5 12:6 13:10 14:11 15:19 16:16 17:15 18:21 19:6 20:10 
1.567698197251229 1:26 2:14 3:30 4:36 5:41 6:36 7:14 8:50 9:52 10:78 11:16 12:49 13:33 14:21 15:23 16:49 17:31 18:35 19:7 20:23 
2 1:7 2:1 3:3 4:9 5:6 6:9 7:2 8:3 9:8 10:7 11:2 12:6 13:9 14:6 15:6 16:6 17:5 18:5 19:0 20:3 
1.25014215843155 1:9 2:6 3:25 4:25 5:16 6:17 7:5 8:28 9:19 10:20 11:5 12:17 13:18 14:4 15:15 16:18 17:19 18:19 19:1 20:12 
2 1:7 2:5 3:6 4:7 5:8 6:10 7:6 8:10 9:5 10:12 11:6 12:5 13:12 14:7 15:9 16:9 17:9 18:7 19:0 20:6 
0.1953342372255719 1:8 2:2 3:5 4:15 5:10 6:7 7:3 8:8 9:9 10:11 11:4 12:5 13:10 14:9 15:5 16:8 17:7 18:4 19:0 20:8 
0.4662131896492515 1:24 2:9 3:22 4:27 5:40 6:16 7:9 8:34 9:45 10:43 11:11 12:28 13:21 14:22 15:14 16:17 17:24 18:27 19:5 20:20 
1.692815850122612 1:39 2:6 3:58 4:91 5:29 6:32 7:12 8:45 9:84 10:58 11:25 12:30 13:22 14:19 15:26 16:37 17:34 18:47 19:4 20:22 
0.4060840514257368 1:18 2:9 3:30 4:27 5:35 6:24 7:13 8:39 9:47 10:44 11:20 12:25 13:22 14:13 15:21 16:33 17:37 18:17 19:4 20:18 
0.1853668754133335 1:15 2:6 3:23 4:28 5:39 6:28 7:8 8:32 9:45 10:57 11:7 12:29 13:31 14:11 15:17 16:29 17:28 18:35 19:4 20:21 
1.698913123927459 1:19 2:10 3:37 4:69 5:27 6:28 7:13 8:69 9:85 10:51 11:14 12:61 13:33 14:31 15:51 16:37 17:41 18:46 19:6 20:27 
1.140443626394923 1:10 2:2 3:11 4:6 5:8 6:7 7:4 8:9 9:7 10:12 11:3 12:10 13:11 14:3 15:7 16:6 17:13 18:11 19:0 20:11 
1.256441137884974 1:40 2:10 3:36 4:22 5:22 6:32 7:10 8:34 9:37 10:55 11:12 12:11 13:21 14:19 15:22 16:30 17:30 18:32 19:9 20:16 
1.602463232317545 1:25 2:6 3:21 4:30 5:25 6:28 7:4 8:26 9:16 10:40 11:10 12:17 13:20 14:12 15:19 16:20 17:27 18:26 19:8 20:14 
1.451852714631325 1:29 2:7 3:25 4:24 5:19 6:19 7:9 8:17 9:26 10:36 11:15 12:9 13:18 14:16 15:21 16:15 17:18 18:24 19:2 20:9 
2 1:6 2:4 3:4 4:6 5:13 6:9 7:3 8:11 9:5 10:22 11:5 12:10 13:5 14:1 15:3 16:9 17:8 18:10 19:4 20:2 
2 1:18 2:6 3:10 4:9 5:19 6:19 7:7 8:22 9:16 10:26 11:8 12:19 13:15 14:14 15:4 16:11 17:14 18:18 19:1 20:13 
0.1247784056726274 1:38 2:13 3:26 4:37 5:24 6:24 7:6 8:35 9:31 10:54 11:6 12:25 13:25 14:15 15:34 16:27 17:31 18:38 19:7 20:22 
1.180532017615958 1:15 2:3 3:14 4:24 5:23 6:18 7:4 8:28 9:18 10:30 11:8 12:12 13:14 14:15 15:19 16:22 17:18 18:15 19:4 20:8 
0.3336063055155392 1:39 2:6 3:21 4:41 5:27 6:40 7:15 8:28 9:19 10:59 11:22 12:18 13:30 14:15 15:43 16:25 17:24 18:42 19:5 20:12 
2 1:5 2:2 3:7 4:12 5:3 6:4 7:1 8:4 9:7 10:14 11:2 12:6 13:11 14:4 15:8 16:5 17:3 18:8 19:0 20:9 
0.6416760771003527 1:43 2:7 3:30 4:32 5:33 6:35 7:14 8:23 9:28 10:48 11:21 12:16 13:30 14:15 15:33 16:17 17:37 18:32 19:6 20:18 
1.087598898817673 1:38 2:1 3:25 4:42 5:32 6:30 7:7 8:31 9:44 10:50 11:9 12:26 13:23 14:19 15:18 16:32 17:29 18:42 19:2 20:16 
0.2795772517064577 1:12 2:16 3:30 4:32 5:36 6:29 7:10 8:29 9:29 10:44 11:17 12:20 13:20 14:14 15:31 16:28 17:26 18:31 19:2 20:20 
0.1205324314002968 1:16 2:5 3:26 4:29 5:47 6:28 7:7 8:34 9:44 10:53 11:7 12:24 13:30 14:14 15:19 16:35 17:27 18:33 19:4 20:21 
0.09046365532609527 1:23 2:7 3:27 4:21 5:28 6:27 7:12 8:34 9:31 10:59 11:20 12:34 13:23 14:18 15:25 16:33 17:32 18:31 19:8 20:15 
0.3456600200329817 1:22 2:9 3:21 4:29 5:38 6:20 7:13 8:32 9:33 10:36 11:11 12:22 13:22 14:19 15:23 16:21 17:21 18:25 19:4 20:21 
2 1:6 2:5 3:12 4:14 5:6 6:8 7:10 8:16 9:9 10:22 11:8 12:7 13:15 14:14 15:11 16:18 17:11 18:15 19:0 20:7 
1.054876343743155 1:36 2:7 3:22 4:18 5:20 6:39 7:18 8:37 9:20 10:39 11:17 12:17 13:44 14:13 15:30 16:45 17:29 18:40 19:6 20:23 
0.04296155485282865 1:18 2:9 3:25 4:34 5:28 6:30 7:10 8:34 9:43 10:54 11:15 12:30 13:22 14:16 15:23 16:19 17:40 18:26 19:5 20:26 
1.26497885217871 1:24 2:4 3:23 4:25 5:20 6:22 7:10 8:19 9:29 10:43 11:11 12:16 13:12 14:15 15:20 16:24 17:22 18:41 19:6 20:15 
0.8859696681850431 1:43 2:13 3:43 4:57 5:25 6:42 7:18 8:38 9:56 10:68 11:18 12:29 13:34 14:25 15:30 16:42 17:45 18:39 19:9 20:28 
1.955112129101816 1:6 2:1 3:9 4:12 5:16 6:10 7:5 8:10 9:13 10:22 11:8 12:7 13:8 14:6 15:12 16:20 17:13 18:12 19:2 20:7 
2 1:30 2:6 3:21 4:28 5:12 6:28 7:9 8:27 9:19 10:28 11:16 12:10 13:19 14:12 15:18 16:25 17:25 18:23 19:4 20:16 
1.861969359306273 1:30 2:5 3:22 4:35 5:21 6:17 7:11 8:28 9:30 10:44 11:13 12:16 13:16 14:13 15:20 16:35 17:25 18:31 19:5 20:16 
2 1:13 2:3 3:11 4:12 5:13 6:16 7:5 8:16 9:7 10:19 11:6 12:10 13:12 14:6 15:17 16:27 17:15 18:21 19:4 20:10 
0.9401085838614646 1:25 2:12 3:31 4:47 5:26 6:41 7:12 8:50 9:45 10:68 11:12 12:20 13:25 14:15 15:34 16:35 17:21 18:42 19:6 20:22 
0.4765992928017033 1:31 2:8 3:25 4:36 5:33 6:35 7:17 8:30 9:36 10:49 11:11 12:31 13:24 14:20 15:31 16:39 17:30 18:39 19:6 20:24 
1.685532700810609 1:54 2:20 3:55 4:51 5:46 6:36 7:20 8:63 9:60 10:83 11:21 12:36 13:44 14:27 15:43 16:53 17:49 18:52 19:9 20:30 
2 1:7 2:0 3:8 4:25 5:5 6:11 7:9 8:18 9:9 10:16 11:6 12:24 13:8 14:8 15:7 16:16 17:15 18:12 19:1 20:5 
0.2746738927855976 1:45 2:9 3:34 4:38 5:30 6:32 7:16 8:30 9:45 10:55 11:19 12:18 13:37 14:9 15:31 16:39 17:29 18:39 19:6 20:17 
0.3366750425457432 1:16 2:9 3:17 4:27 5:21 6:20 7:7 8:20 9:19 10:32 11:9 12:19 13:20 14:8 15:21 16:26 17:18 18:27 19:1 20:12 
2 1:25 2:5 3:16 4:24 5:15 6:21 7:10 8:14 9:17 10:41 11:7 12:10 13:25 14:16 15:31 16:23 17:25 18:25 19:3 20:13 
2 1:32 2:5 3:25 4:22 5:22 6:37 7:11 8:22 9:26 10:42 11:8 12:18 13:28 14:10 15:12 16:24 17:15 18:27 19:7 20:11 
0.4643831463201187 1:21 2:9 3:28 4:47 5:33 6:20 7:18 8:44 9:35 10:61 11:18 12:13 13:35 14:14 15:31 16:29 17:33 18:34 19:8 20:10 
2 1:58 2:8 3:32 4:48 5:33 6:47 7:22 8:33 9:30 10:52 11:17 12:40 13:55 14:17 15:39 16:40 17:36 18:45 19:14 20:29 
0.4911549844593125 1:25 2:7 3:25 4:38 5:28 6:20 7:19 8:49 9:44 10:56 11:10 12:21 13:30 14:14 15:25 16:16 17:31 18:24 19:3 20:19 
0.6535364528190128 1:31 2:5 3:32 4:24 5:44 6:15 7:6 8:36 9:36 10:48 11:10 12:29 13:22 14:11 15:27 16:28 17:33 18:29 19:2 20:26 
0.509505270012093 1:23 2:8 3:29 4:28 5:31 6:22 7:8 8:45 9:35 10:41 11:6 12:20 13:25 14:7 15:21 16:22 17:22 18:29 19:9 20:14 
1.358224299468876 1:9 2:4 3:8 4:11 5:21 6:13 7:2 8:20 9:14 10:16 11:6 12:13 13:12 14:7 15:8 16:5 17:7 18:19 19:5 20:10 
0.2060951098818771 1:23 2:8 3:22 4:19 5:24 6:39 7:12 8:35 9:23 10:42 11:18 12:17 13:30 14:12 15:25 16:42 17:28 18:39 19:6 20:21 
0.2304812031337826 1:24 2:5 3:29 4:32 5:37 6:27 7:11 8:40 9:46 10:53 11:17 12:29 13:30 14:15 15:20 16:16 17:43 18:27 19:6 20:14 
2 1:7 2:2 3:9 4:14 5:11 6:15 7:5 8:26 9:29 10:30 11:11 12:16 13:10 14:11 15:12 16:18 17:11 18:19 19:5 20:9 
0.2004777569584282 1:19 2:3 3:27 4:41 5:26 6:30 7:9 8:37 9:47 10:62 11:17 12:34 13:26 14:13 15:20 16:34 17:31 18:35 19:8 20:16 
0.4077467149799816 1:29 2:13 3:25 4:24 5:30 6:29 7:15 8:27 9:25 10:47 11:10 12:19 13:30 14:18 15:23 16:31 17:28 18:37 19:9 20:13 
0.6159513286307856 1:9 2:8 3:15 4:25 5:20 6:17 7:10 8:18 9:25 10:31 11:9 12:8 13:18 14:15 15:15 16:22 17:15 18:22 19:2 20:8 
1.621110657669895 1:51 2:8 3:59 4:67 5:76 6:43 7:15 8:65 9:88 10:97 11:34 12:39 13:60 14:25 15:47 16:60 17:47 18:70 19:15 20:36 
0.3278989326140627 1:26 2:7 3:29 4:28 5:25 6:35 7:16 8:29 9:25 10:54 11:20 12:24 13:29 14:21 15:28 16:27 17:37 18:27 19:5 20:20 
0.9698363074924783 1:30 2:7 3:15 4:27 5:24 6:24 7:13 8:34 9:37 10:43 11:16 12:29 13:27 14:10 15:20 16:25 17:31 18:17 19:4 20:18 
0.8618722784764594 1:49 2:9 3:32 4:36 5:36 6:45 7:16 8:39 9:26 10:58 11:17 12:39 13:38 14:21 15:32 16:50 17:40 18:32 19:13 20:25 
1.871476027464054 1:18 2:1 3:18 4:20 5:16 6:11 7:10 8:13 9:22 10:28 11:10 12:11 13:10 14:12 15:10 16:13 17:12 18:19 19:1 20:9 
1.034516448203923 1:9 2:1 3:10 4:8 5:10 6:7 7:4 8:6 9:10 10:10 11:3 12:4 13:9 14:3 15:8 16:10 17:8 18:6 19:0 20:7 
2 1:3 2:1 3:3 4:6 5:7 6:4 7:4 8:4 9:2 10:9 11:2 12:2 13:9 14:4 15:9 16:7 17:7 18:3 19:2 20:5 
0.1981061022735094 1:28 2:6 3:28 4:30 5:37 6:31 7:12 8:29 9:36 10:50 11:7 12:20 13:25 14:22 15:26 16:13 17:35 18:34 19:4 20:22 
0.1885340155330504 1:34 2:7 3:28 4:35 5:41 6:36 7:16 8:32 9:32 10:48 11:14 12:26 13:42 14:14 15:30 16:35 17:25 18:31 19:10 20:24 
0.7380686592292559 1:32 2:6 3:32 4:29 5:26 6:25 7:13 8:20 9:38 10:53 11:14 12:15 13:17 14:8 15:31 16:32 17:31 18:54 19:10 20:11 
1.211269765621677 1:43 2:6 3:29 4:36 5:27 6:47 7:22 8:23 9:18 10:68 11:15 12:17 13:33 14:19 15:52 16:20 17:33 18:39 19:5 20:13 
1.683127497790897 1:15 2:11 3:26 4:20 5:15 6:12 7:15 8:31 9:31 10:33 11:16 12:12 13:17 14:13 15:17 16:18 17:17 18:23 19:2 20:10 
1.568161237909246 1:15 2:6 3:16 4:12 5:11 6:16 7:4 8:11 9:17 10:30 11:9 12:10 13:12 14:7 15:17 16:16 17:19 18:17 19:2 20:8 
0.1909841489106485 1:36 2:10 3:28 4:35 5:21 6:28 7:8 8:35 9:23 10:52 11:13 12:14 13:37 14:16 15:45 16:26 17:25 18:37 19:6 20:24 
2 1:8 2:2 3:11 4:9 5:6 6:7 7:3 8:9 9:11 10:6 11:9 12:10 13:11 14:2 15:5 16:5 17:3 18:7 19:2 20:5 
0.001897925177314304 1:7 2:5 3:11 4:11 5:12 6:6 7:5 8:9 9:5 10:11 11:7 12:3 13:10 14:6 15:10 16:10 17:8 18:5 19:1 20:3 
1.4991019786291 1:14 2:3 3:14 4:12 5:20 6:6 7:4 8:17 9:17 10:23 11:6 12:14 13:10 14:6 15:12 16:14 17:14 18:13 19:1 20:8 
1.456134352428649 1:18 2:8 3:38 4:21 5:43 6:18 7:7 8:40 9:43 10:47 11:15 12:35 13:24 14:7 15:22 16:30 17:23 18:31 19:3 20:21 
0.2433544292535783 1:29 2:6 3:23 4:22 5:24 6:41 7:14 8:41 9:23 10:40 11:15 12:22 13:27 14:15 15:31 16:45 17:30 18:48 19:9 20:23 
2 1:13 2:4 3:18 4:19 5:15 6:13 7:7 8:15 9:20 10:26 11:9 12:9 13:6 14:7 15:11 16:21 17:15 18:10 19:5 20:2 
1.68700481333112 1:54 2:8 3:46 4:29 5:43 6:49 7:19 8:47 9:39 10:63 11:24 12:54 13:60 14:40 15:34 16:53 17:50 18:50 19:18 20:50 
0.4020041299985367 1:24 2:9 3:35 4:23 5:37 6:23 7:11 8:23 9:25 10:56 11:14 12:26 13:28 14:11 15:37 16:35 17:29 18:38 19:6 20:17 
2 1:13 2:8 3:17 4:11 5:15 6:14 7:9 8:12 9:14 10:31 11:10 12:7 13:14 14:12 15:13 16:17 17:14 18:11 19:2 20:8 
0.0209284298173396 1:34 2:7 3:36 4:30 5:44 6:23 7:13 8:32 9:42 10:49 11:21 12:27 13:24 14:9 15:32 16:29 17:21 18:38 19:5 20:14 
1.887128305627367 1:13 2:3 3:17 4:12 5:10 6:11 7:4 8:16 9:9 10:22 11:8 12:7 13:12 14:13 15:19 16:7 17:9 18:13 19:2 20:3 
1.418447513758916 1:11 2:2 3:11 4:22 5:14 6:16 7:8 8:11 9:13 10:25 11:11 12:2 13:8 14:14 15:13 16:13 17:9 18:14 19:6 20:4 
1.62913263768785 1:21 2:9 3:26 4:16 5:20 6:22 7:11 8:43 9:40 10:55 11:16 12:39 13:19 14:14 15:17 16:32 17:21 18:29 19:8 20:19 
1.67215251053985 1:52 2:14 3:66 4:72 5:56 6:56 7:32 8:78 9:68 10:106 11:34 12:40 13:56 14:36 15:64 16:56 17:64 18:46 19:10 20:34 
1.634685372964499 1:57 2:7 3:25 4:37 5:16 6:35 7:22 8:24 9:20 10:59 11:10 12:12 13:37 14:19 15:45 16:38 17:25 18:31 19:7 20:13 
0.7998101545193004 1:37 2:6 3:24 4:32 5:15 6:30 7:15 8:30 9:30 10:67 11:12 12:20 13:23 14:12 15:21 16:31 17:28 18:34 19:10 20:14 
2 1:18 2:8 3:16 4:16 5:12 6:8 7:7 8:16 9:14 10:25 11:8 12:10 13:17 14:7 15:12 16:13 17:8 18:12 19:1 20:8 
0.4671781537797537 1:30 2:5 3:33 4:35 5:40 6:34 7:11 8:41 9:43 10:51 11:30 12:18 13:26 14:23 15:28 16:39 17:24 18:32 19:2 20:15 
0.8917277674321867 1:23 2:4 3:22 4:22 5:25 6:25 7:11 8:13 9:18 10:44 11:12 12:10 13:21 14:10 15:27 16:16 17:12 18:26 19:7 20:15 
1.611517821275787 1:20 2:3 3:14 4:22 5:24 6:16 7:10 8:30 9:31 10:44 11:8 12:20 13:10 14:12 15:15 16:16 17:23 18:18 19:10 20:7 
0.3049653579816778 1:28 2:9 3:42 4:33 5:28 6:30 7:14 8:29 9:45 10:59 11:21 12:26 13:22 14:14 15:36 16:33 17:39 18:35 19:5 20:24 
0.7675685560056993 1:22 2:8 3:22 4:25 5:31 6:12 7:12 8:26 9:36 10:44 11:17 12:19 13:20 14:22 15:16 16:25 17:24 18:23 19:3 20:18 
1.699099159863768 1:55 2:7 3:25 4:15 5:8 6:24 7:10 8:11 9:11 10:30 11:7 12:8 13:12 14:11 15:31 16:16 17:25 18:39 19:6 20:8 
1.369088281578359 1:39 2:6 3:27 4:31 5:29 6:32 7:15 8:27 9:24 10:55 11:18 12:23 13:24 14:18 15:27 16:35 17:18 18:34 19:7 20:18 
0.8735270271583455 1:17 2:4 3:31 4:25 5:21 6:22 7:15 8:51 9:37 10:60 11:13 12:29 13:21 14:16 15:30 16:41 17:36 18:32 19:6 20:18 
2 1:9 2:5 3:10 4:8 5:7 6:9 7:4 8:9 9:10 10:14 11:5 12:5 13:11 14:4 15:8 16:7 17:6 18:7 19:0 20:7 
0.957927411078726 1:16 2:8 3:25 4:26 5:39 6:24 7:13 8:40 9:36 10:49 11:17 12:27 13:29 14:26 15:29 16:37 17:38 18:41 19:5 20:29 
0.4888104439458674 1:3 2:5 3:16 4:20 5:16 6:12 7:3 8:26 9:27 10:28 11:7 12:17 13:14 14:7 15:13 16:13 17:14 18:16 19:1 20:7 
0.1481909006020676 1:12 2:3 3:23 4:14 5:16 6:9 7:6 8:15 9:17 10:24 11:9 12:14 13:8 14:10 15:12 16:14 17:12 18:11 19:3 20:3 
1.302157026616335 1:20 2:6 3:15 4:26 5:16 6:11 7:12 8:21 9:23 10:27 11:7 12:13 13:17 14:8 15:15 16:20 17:20 18:21 19:2 20:11 
1.528551909008519 1:2 2:0 3:6 4:7 5:8 6:2 7:2 8:5 9:7 10:6 11:0 12:2 13:10 14:2 15:6 16:5 17:5 18:3 19:0 20:6 
1.657733596328859 1:52 2:10 3:19 4:26 5:37 6:42 7:12 8:43 9:26 10:60 11:23 12:23 13:26 14:11 15:17 16:47 17:30 18:43 19:8 20:17 
0.5981305610283482 1:40 2:12 3:28 4:28 5:24 6:32 7:13 8:48 9:42 10:64 11:20 12:24 13:35 14:21 15:31 16:37 17:28 18:28 19:9 20:18 
0.08906630808564693 1:16 2:4 3:19 4:22 5:25 6:18 7:8 8:17 9:27 10:27 11:5 12:10 13:18 14:13 15:14 16:13 17:16 18:26 19:0 20:11 
1.303235967489336 1:11 2:8 3:19 4:23 5:19 6:16 7:14 8:33 9:33 10:58 11:13 12:19 13:11 14:13 15:18 16:35 17:29 18:17 19:4 20:12 
2 1:8 2:0 3:7 4:10 5:5 6:4 7:2 8:5 9:8 10:15 11:3 12:8 13:8 14:4 15:3 16:12 17:12 18:6 19:4 20:7 
0.8551911236979479 1:14 2:4 3:21 4:17 5:15 6:9 7:7 8:23 9:14 10:17 11:9 12:15 13:17 14:10 15:23 16:15 17:23 18:22 19:1 20:11 
0.8944748361309756 1:16 2:5 3:17 4:33 5:30 6:29 7:6 8:38 9:32 10:46 11:10 12:21 13:20 14:19 15:25 16:32 17:20 18:28 19:7 20:16 
0.8652199166503856 1:33 2:12 3:19 4:32 5:30 6:28 7:7 8:49 9:38 10:42 11:14 12:26 13:24 14:15 15:34 16:29 17:31 18:33 19:7 20:19 
1.203091366474736 1:18 2:3 3:12 4:18 5:8 6:12 7:7 8:16 9:19 10:26 11:13 12:6 13:15 14:4 15:15 16:16 17:18 18:21 19:3 20:10 
1.350542826755186 1:19 2:2 3:21 4:27 5:32 6:19 7:10 8:28 9:32 10:28 11:12 12:19 13:7 14:17 15:10 16:20 17:18 18:20 19:2 20:12 
1.605376214757241 1:27 2:10 3:28 4:51 5:21 6:21 7:15 8:41 9:63 10:80 11:24 12:33 13:27 14:37 15:32 16:57 17:32 18:35 19:6 20:18 
0.6724138520093296 1:32 2:8 3:30 4:41 5:20 6:25 7:15 8:35 9:33 10:48 11:18 12:14 13:34 14:22 15:45 16:42 17:30 18:40 19:8 20:23 
0.09307473344192609 1:29 2:5 3:22 4:30 5:41 6:28 7:13 8:29 9:28 10:44 11:9 12:20 13:22 14:17 15:28 16:36 17:30 18:36 19:3 20:17 
1.125847817690647 1:32 2:11 3:43 4:65 5:21 6:39 7:16 8:48 9:51 10:59 11:16 12:29 13:31 14:23 15:31 16:54 17:34 18:37 19:7 20:34 
2 1:5 2:0 3:10 4:12 5:7 6:7 7:4 8:5 9:9 10:9 11:2 12:3 13:2 14:3 15:6 16:10 17:8 18:18 19:3 20:4 
0.4211427648510698 1:39 2:13 3:40 4:58 5:22 6:47 7:15 8:36 9:49 10:59 11:17 12:33 13:39 14:22 15:29 16:46 17:43 18:38 19:9 20:35 
0.05942269104746426 1:7 2:2 3:9 4:17 5:8 6:9 7:6 8:8 9:7 10:15 11:8 12:2 13:8 14:3 15:7 16:4 17:10 18:10 19:0 20:6 
1.471587659973824 1:7 2:3 3:15 4:11 5:18 6:16 7:7 8:10 9:21 10:25 11:11 12:11 13:9 14:6 15:8 16:5 17:15 18:11 19:3 20:6 
0.3074598526779447 1:29 2:8 3:33 4:35 5:19 6:26 7:9 8:29 9:35 10:58 11:17 12:16 13:40 14:14 15:36 16:21 17:23 18:40 19:6 20:27 
2 1:7 2:4 3:10 4:10 5:14 6:9 7:7 8:19 9:17 10:34 11:8 12:15 13:13 14:8 15:10 16:22 17:11 18:19 19:7 20:16 
0.5955024800111324 1:22 2:5 3:28 4:32 5:25 6:19 7:11 8:41 9:38 10:58 11:21 12:32 13:21 14:17 15:22 16:45 17:24 18:25 19:7 20:17 
2 1:2 2:0 3:4 4:5 5:8 6:4 7:1 8:7 9:7 10:2 11:3 12:4 13:10 14:3 15:5 16:6 17:5 18:2 19:0 20:6 
0.1874077293926966 1:12 2:8 3:17 4:26 5:20 6:18 7:6 8:34 9:35 10:37 11:9 12:22 13:22 14:4 15:17 16:17 17:22 18:23 19:3 20:11 
2 1:15 2:2 3:21 4:29 5:17 6:18 7:9 8:14 9:15 10:27 11:6 12:31 13:18 14:22 15:16 16:20 17:18 18:13 19:5 20:14 
1.374557428958398 1:19 2:4 3:22 4:25 5:22 6:11 7:3 8:31 9:31 10:37 11:9 12:23 13:16 14:12 15:19 16:20 17:15 18:20 19:1 20:15 
2 1:29 2:8 3:8 4:21 5:11 6:17 7:12 8:12 9:14 10:27 11:8 12:7 13:15 14:5 15:23 16:14 17:11 18:17 19:5 20:5 
1.41624211404632 1:48 2:12 3:42 4:30 5:33 6:68 7:12 8:40 9:23 10:49 11:18 12:30 13:37 14:17 15:26 16:49 17:43 18:43 19:14 20:30 
1.10202119307965 1:20 2:9 3:20 4:32 5:35 6:26 7:12 8:24 9:41 10:53 11:6 12:30 13:29 14:17 15:20 16:19 17:27 18:48 19:5 20:20 
0.5621210805489398 1:25 2:5 3:25 4:24 5:26 6:27 7:9 8:33 9:30 10:60 11:16 12:24 13:22 14:20 15:33 16:18 17:40 18:26 19:7 20:18 
0.5935986995402102 1:39 2:6 3:23 4:36 5:16 6:32 7:16 8:27 9:25 10:64 11:14 12:16 13:31 14:18 15:46 16:29 17:33 18:52 19:14 20:19 
0.9517984448974759 1:42 2:13 3:35 4:48 5:40 6:59 7:22 8:38 9:35 10:65 11:23 12:38 13:39 14:28 15:37 16:48 17:40 18:35 19:14 20:29 
0.01187188899095711 1:28 2:7 3:19 4:36 5:32 6:31 7:4 8:35 9:33 10:53 11:9 12:29 13:24 14:18 15:28 16:32 17:21 18:30 19:8 20:11 
2 1:11 2:3 3:10 4:7 5:9 6:8 7:3 8:8 9:8 10:12 11:2 12:8 13:11 14:2 15:8 16:8 17:10 18:12 19:0 20:10 
0.6198272625955009 1:39 2:8 3:33 4:31 5:22 6:25 7:12 8:29 9:23 10:48 11:19 12:15 13:34 14:24 15:41 16:29 17:27 18:51 19:6 20:16 
1.071243537590191 1:28 2:12 3:21 4:27 5:33 6:20 7:7 8:20 9:24 10:63 11:21 12:15 13:30 14:14 15:37 16:41 17:42 18:29 19:3 20:12 
0.2743405665175957 1:38 2:7 3:27 4:43 5:37 6:26 7:15 8:30 9:44 10:47 11:23 12:25 13:23 14:12 15:26 16:29 17:17 18:39 19:5 20:17 
2 1:6 2:5 3:11 4:10 5:9 6:7 7:6 8:12 9:9 10:16 11:4 12:8 13:10 14:3 15:7 16:8 17:6 18:4 19:0 20:7 
0.3595715450992628 1:23 2:4 3:26 4:37 5:35 6:33 7:20 8:28 9:26 10:69 11:22 12:11 13:30 14:16 15:36 16:37 17:25 18:33 19:6 20:10 
2 1:18 2:2 3:21 4:27 5:24 6:20 7:13 8:23 9:29 10:44 11:11 12:29 13:21 14:17 15:24 16:40 17:26 18:33 19:6 20:22 
0.774514972514363 1:28 2:7 3:26 4:35 5:42 6:27 7:11 8:30 9:48 10:73 11:13 12:17 13:22 14:15 15:25 16:27 17:26 18:21 19:4 20:16 
2 1:7 2:1 3:9 4:8 5:7 6:4 7:8 8:7 9:11 10:19 11:3 12:7 13:9 14:8 15:7 16:7 17:6 18:9 19:0 20:6 
2 1:12 2:1 3:6 4:4 5:8 6:10 7:2 8:6 9:3 10:7 11:5 12:3 13:9 14:5 15:10 16:7 17:5 18:7 19:3 20:3 
0.06382947044796666 1:25 2:11 3:18 4:29 5:26 6:15 7:13 8:29 9:33 10:47 11:17 12:13 13:27 14:20 15:21 16:25 17:24 18:24 19:4 20:17 
2 1:8 2:0 3:9 4:13 5:12 6:7 7:4 8:5 9:7 10:17 11:6 12:6 13:8 14:7 15:8 16:11 17:10 18:4 19:4 20:12 
0.2019226724928291 1:39 2:9 3:27 4:31 5:32 6:29 7:17 8:30 9:23 10:53 11:7 12:18 13:29 14:16 15:38 16:30 17:38 18:33 19:7 20:14 
1.010875673139374 1:23 2:7 3:17 4:32 5:24 6:18 7:9 8:22 9:19 10:36 11:14 12:13 13:19 14:14 15:25 16:13 17:19 18:20 19:2 20:11 
0.9483250575279727 1:41 2:10 3:37 4:34 5:35 6:52 7:18 8:27 9:29 10:56 11:23 12:26 13:41 14:17 15:24 16:41 17:50 18:41 19:15 20:30 
1.118210823826405 1:11 2:6 3:13 4:3 5:19 6:12 7:4 8:13 9:5 10:18 11:5 12:8 13:12 14:6 15:16 16:11 17:10 18:18 19:3 20:11 
2 1:12 2:2 3:12 4:15 5:6 6:16 7:1 8:10 9:17 10:12 11:6 12:10 13:5 14:5 15:6 16:15 17:9 18:8 19:1 20:9 
0.05987465885631212 1:20 2:12 3:23 4:32 5:31 6:25 7:10 8:43 9:43 10:63 11:12 12:15 13:21 14:14 15:23 16:28 17:23 18:24 19:10 20:27 
2 1:7 2:1 3:11 4:11 5:14 6:13 7:8 8:15 9:12 10:18 11:3 12:8 13:10 14:4 15:11 16:10 17:9 18:12 19:3 20:5 
0.2421652559215498 1:4 2:3 3:9 4:14 5:10 6:8 7:2 8:11 9:6 10:12 11:7 12:4 13:8 14:9 15:11 16:8 17:9 18:5 19:0 20:7 
0.8343093529674929 1:41 2:10 3:20 4:29 5:27 6:34 7:10 8:25 9:25 10:59 11:10 12:21 13:27 14:22 15:32 16:25 17:30 18:34 19:7 20:17 
0.7070478718445656 1:21 2:1 3:19 4:18 5:18 6:20 7:7 8:16 9:16 10:36 11:9 12:14 13:16 14:12 15:14 16:14 17:19 18:18 19:5 20:11 
0.2403670645202634 1:37 2:6 3:27 4:37 5:37 6:34 7:8 8:44 9:35 10:46 11:17 12:17 13:29 14:8 15:31 16:22 17:32 18:23 19:4 20:20 
1.59827032626284 1:51 2:15 3:49 4:53 5:71 6:43 7:26 8:72 9:77 10:107 11:29 12:38 13:51 14:46 15:46 16:68 17:53 18:62 19:12 20:25 
1.665306634980491 1:35 2:9 3:26 4:43 5:20 6:29 7:10 8:30 9:38 10:46 11:17 12:20 13:24 14:19 15:21 16:23 17:25 18:21 19:3 20:14 
0.4458530498976203 1:31 2:8 3:32 4:43 5:35 6:34 7:22 8:43 9:37 10:61 11:16 12:23 13:25 14:24 15:39 16:36 17:16 18:38 19:10 20:12 
0.2403546686648518 1:21 2:10 3:29 4:27 5:34 6:29 7:7 8:29 9:36 10:60 11:12 12:25 13:24 14:17 15:21 16:38 17:21 18:32 19:5 20:23 
1.286530888412117 1:10 2:4 3:7 4:12 5:7 6:7 7:5 8:9 9:4 10:13 11:3 12:3 13:14 14:4 15:10 16:7 17:6 18:10 19:1 20:6 
0.5244207245925609 1:23 2:11 3:23 4:27 5:28 6:32 7:12 8:25 9:26 10:71 11:13 12:24 13:30 14:20 15:26 16:28 17:31 18:29 19:6 20:9 
0.01148673675950014 1:31 2:3 3:41 4:28 5:42 6:25 7:14 8:42 9:46 10:54 11:18 12:18 13:19 14:16 15:26 16:29 17:33 18:28 19:3 20:16 
0.9676742561910913 1:15 2:4 3:19 4:20 5:15 6:11 7:5 8:16 9:21 10:35 11:12 12:14 13:6 14:7 15:11 16:18 17:14 18:8 19:4 20:3 
1.468648578753247 1:28 2:6 3:22 4:19 5:23 6:37 7:13 8:38 9:21 10:37 11:14 12:19 13:26 14:14 15:26 16:42 17:26 18:42 19:8 20:21 
1.080485932452085 1:38 2:9 3:35 4:42 5:36 6:42 7:14 8:34 9:38 10:53 11:20 12:48 13:38 14:17 15:28 16:48 17:48 18:45 19:17 20:26 
1.412660233750479 1:54 2:13 3:38 4:57 5:26 6:45 7:17 8:25 9:36 10:73 11:14 12:24 13:35 14:28 15:42 16:42 17:37 18:39 19:8 20:25 
0.28962923638201 1:26 2:8 3:29 4:29 5:36 6:30 7:15 8:40 9:30 10:54 11:15 12:15 13:21 14:17 15:32 16:29 17:13 18:36 19:6 20:13 
-0.2621478295900252 1:9 2:1 3:10 4:15 5:16 6:15 7:4 8:36 9:22 10:19 11:6 12:11 13:6 14:8 15:5 16:13 17:6 18:9 19:2 20:5 
-0.1083050590295513 1:22 2:8 3:7 4:23 5:9 6:11 7:4 8:14 9:13 10:13 11:5 12:9 13:12 14:5 15:16 16:15 17:13 18:8 19:2 20:10 
-2 1:23 2:3 3:13 4:19 5:14 6:12 7:5 8:8 9:20 10:30 11:6 12:11 13:16 14:11 15:11 16:14 17:8 18:14 19:2 20:15 
-0.2255422990230097 1:10 2:3 3:1 4:4 5:5 6:10 7:5 8:13 9:0 10:14 11:3 12:13 13:8 14:4 15:8 16:9 17:11 18:11 19:1 20:4 
-0.2050527030857699 1:30 2:10 3:34 4:35 5:24 6:16 7:4 8:34 9:22 10:53 11:20 12:48 13:16 14:18 15:22 16:34 17:33 18:34 19:2 20:21 
-0.1864866258349325 1:33 2:6 3:21 4:16 5:21 6:19 7:15 8:27 9:18 10:40 11:5 12:19 13:17 14:9 15:19 16:19 17:22 18:23 19:12 20:15 
-0.3303969974927679 1:18 2:2 3:8 4:16 5:7 6:16 7:5 8:14 9:14 10:29 11:5 12:6 13:15 14:13 15:14 16:9 17:15 18:10 19:6 20:5 
-0.0362049338504924 1:26 2:7 3:25 4:18 5:19 6:12 7:5 8:26 9:25 10:36 11:17 12:27 13:15 14:12 15:16 16:44 17:23 18:19 19:1 20:15 
-0.2837215808929338 1:10 2:1 3:24 4:42 5:37 6:9 7:11 8:93 9:101 10:48 11:3 12:64 13:14 14:29 15:15 16:42 17:28 18:20 19:3 20:29 
-0.418818952964928 1:39 2:22 3:25 4:48 5:12 6:31 7:5 8:19 9:27 10:59 11:29 12:21 13:45 14:35 15:38 16:46 17:31 18:32 19:5 20:21 
-0.2846840955541702 1:53 2:1 3:26 4:47 5:12 6:28 7:6 8:43 9:59 10:57 11:22 12:31 13:11 14:23 15:13 16:41 17:23 18:32 19:0 20:8 
-0.447680979165345 1:45 2:5 3:24 4:40 5:35 6:44 7:21 8:54 9:45 10:64 11:6 12:36 13:23 14:29 15:28 16:34 17:32 18:28 19:1 20:22 
-0.7225307597043754 1:29 2:1 3:22 4:29 5:17 6:34 7:7 8:29 9:44 10:48 11:27 12:20 13:15 14:21 15:23 16:24 17:26 18:33 19:0 20:4 
-0.3014637135880978 1:105 2:12 3:68 4:84 5:40 6:99 7:35 8:63 9:89 10:100 11:22 12:51 13:95 14:63 15:89 16:107 17:56 18:68 19:13 20:34 
-1.256282883942083 1:59 2:6 3:21 4:34 5:27 6:30 7:12 8:15 9:18 10:62 11:13 12:10 13:34 14:11 15:45 16:26 17:32 18:36 19:11 20:14 
-0.3204009822987579 1:14 2:7 3:23 4:15 5:15 6:10 7:8 8:18 9:28 10:36 11:5 12:19 13:37 14:3 15:6 16:31 17:34 18:33 19:0 20:9 
-0.2892570702195951 1:0 2:0 3:0 4:0 5:0 6:39 7:0 8:0 9:0 10:0 11:1 12:2 13:1 14:1 15:41 16:26 17:1 18:0 19:0 20:4 
-0.1954882636113621 1:19 2:6 3:10 4:12 5:16 6:18 7:7 8:53 9:58 10:39 11:1 12:27 13:10 14:11 15:6 16:21 17:8 18:17 19:4 20:13 
-0.07512085609989813 1:31 2:7 3:33 4:22 5:19 6:34 7:12 8:33 9:32 10:39 11:11 12:19 13:17 14:23 15:26 16:37 17:22 18:25 19:5 20:24 
-1.463483932182837 1:7 2:3 3:7 4:6 5:6 6:11 7:5 8:4 9:6 10:11 11:0 12:6 13:4 14:4 15:5 16:6 17:5 18:10 19:0 20:6 
-0.2994736976627457 1:79 2:9 3:41 4:49 5:15 6:53 7:22 8:35 9:24 10:93 11:30 12:38 13:34 14:55 15:39 16:57 17:35 18:62 19:6 20:17 
-0.3302006736797266 1:58 2:11 3:44 4:49 5:33 6:51 7:11 8:49 9:51 10:76 11:23 12:31 13:33 14:33 15:42 16:48 17:26 18:49 19:3 20:11 
-0.7365829648290981 1:39 2:4 3:23 4:32 5:13 6:22 7:12 8:33 9:45 10:47 11:8 12:11 13:21 14:15 15:34 16:26 17:29 18:23 19:1 20:12 
-0.1171311551546911 1:10 2:13 3:7 4:5 5:6 6:11 7:6 8:10 9:10 10:38 11:3 12:8 13:13 14:8 15:19 16:22 17:10 18:11 19:5 20:4 
-0.1666857963445671 1:29 2:6 3:16 4:34 5:10 6:28 7:4 8:29 9:35 10:41 11:7 12:26 13:13 14:11 15:15 16:36 17:15 18:23 19:9 20:16 
-2 1:5 2:0 3:8 4:10 5:10 6:5 7:4 8:6 9:12 10:9 11:2 12:3 13:7 14:3 15:8 16:5 17:4 18:8 19:0 20:8 
-0.5913197101923484 1:10 2:3 3:5 4:12 5:10 6:8 7:4 8:14 9:12 10:23 11:6 12:8 13:8 14:7 15:4 16:22 17:10 18:12 19:1 20:7 
-2 1:13 2:4 3:9 4:11 5:6 6:8 7:7 8:11 9:7 10:19 11:2 12:1 13:11 14:6 15:7 16:8 17:8 18:3 19:3 20:6 
-1.978817664132654 1:8 2:3 3:6 4:11 5:4 6:11 7:1 8:12 9:6 10:11 11:5 12:7 13:7 14:6 15:9 16:15 17:6 18:12 19:2 20:10 
-1.301758455862235 1:28 2:6 3:20 4:28 5:19 6:19 7:13 8:16 9:35 10:46 11:19 12:17 13:17 14:22 15:23 16:20 17:39 18:21 19:4 20:15 
-2 1:24 2:2 3:14 4:32 5:25 6:23 7:14 8:23 9:23 10:33 11:8 12:17 13:22 14:14 15:21 16:10 17:17 18:25 19:5 20:14 
-0.1060618015026942 1:14 2:2 3:14 4:10 5:8 6:22 7:2 8:19 9:8 10:20 11:6 12:24 13:10 14:22 15:17 16:26 17:17 18:11 19:7 20:24 
-0.4587453918018389 1:17 2:8 3:14 4:16 5:17 6:17 7:5 8:36 9:30 10:33 11:5 12:29 13:15 14:4 15:8 16:24 17:18 18:11 19:4 20:15 
-0.3011765711617477 1:101 2:15 3:55 4:75 5:54 6:76 7:37 8:103 9:83 10:127 11:24 12:40 13:43 14:53 15:42 16:51 17:63 18:53 19:3 20:47 
-0.4182953935804254 1:14 2:10 3:20 4:17 5:23 6:10 7:7 8:32 9:25 10:31 11:8 12:32 13:29 14:15 15:17 16:30 17:20 18:30 19:2 20:18 
-0.8001395771173466 1:49 2:4 3:23 4:47 5:20 6:23 7:20 8:40 9:34 10:74 11:11 12:26 13:28 14:27 15:40 16:43 17:30 18:31 19:6 20:17 
-1.019291597187782 1:11 2:4 3:12 4:15 5:13 6:12 7:2 8:17 9:18 10:12 11:3 12:14 13:7 14:5 15:13 16:10 17:9 18:15 19:3 20:12 
-0.1537610436481146 1:33 2:2 3:22 4:26 5:12 6:9 7:7 8:19 9:46 10:28 11:12 12:22 13:20 14:13 15:14 16:26 17:34 18:39 19:1 20:15 
-0.3465881612179085 1:51 2:13 3:41 4:43 5:42 6:41 7:18 8:49 9:55 10:67 11:16 12:55 13:62 14:38 15:59 16:39 17:48 18:62 19:7 20:28 
-0.1274498658497103 1:26 2:9 3:14 4:26 5:11 6:20 7:4 8:15 9:28 10:20 11:8 12:11 13:17 14:12 15:19 16:21 17:12 18:19 19:1 20:6 
-0.1026951004032491 1:24 2:2 3:18 4:11 5:12 6:17 7:6 8:24 9:14 10:47 11:4 12:9 13:11 14:10 15:12 16:17 17:21 18:21 19:1 20:8 
-0.9460494442681637 1:20 2:3 3:15 4:35 5:5 6:21 7:9 8:25 9:20 10:41 11:6 12:14 13:16 14:12 15:19 16:18 17:16 18:27 19:1 20:7 
-0.2513942615676695 1:30 2:4 3:22 4:18 5:20 6:39 7:11 8:12 9:10 10:24 11:7 12:27 13:24 14:7 15:24 16:30 17:19 18:22 19:20 20:13 
-0.1188212470273938 1:18 2:4 3:12 4:31 5:10 6:14 7:1 8:19 9:22 10:38 11:2 12:10 13:7 14:15 15:24 16:24 17:9 18:18 19:2 20:7 
-1.28759860531516 1:14 2:8 3:22 4:29 5:24 6:24 7:5 8:47 9:44 10:34 11:12 12:27 13:14 14:16 15:19 16:32 17:24 18:24 19:3 20:17 
-1.323802985216578 1:7 2:2 3:9 4:6 5:7 6:0 7:0 8:11 9:4 10:8 11:2 12:6 13:5 14:2 15:1 16:3 17:4 18:8 19:0 20:4 
-0.1525881301739581 1:4 2:3 3:7 4:8 5:5 6:2 7:3 8:10 9:10 10:9 11:2 12:3 13:4 14:2 15:4 16:5 17:2 18:15 19:0 20:5 
-2 1:10 2:6 3:7 4:10 5:17 6:12 7:6 8:8 9:14 10:17 11:5 12:13 13:8 14:7 15:10 16:13 17:8 18:11 19:6 20:7 
-1.988457092978809 1:17 2:2 3:16 4:15 5:16 6:12 7:13 8:16 9:25 10:34 11:8 12:9 13:9 14:19 15:9 16:22 17:15 18:14 19:1 20:5 
-0.5473799748215913 1:20 2:3 3:25 4:21 5:21 6:6 7:14 8:34 9:33 10:36 11:16 12:27 13:10 14:15 15:20 16:13 17:17 18:27 19:1 20:32 
-0.355025482099468 1:43 2:5 3:26 4:52 5:17 6:25 7:5 8:48 9:37 10:42 11:15 12:31 13:11 14:19 15:30 16:20 17:26 18:34 19:4 20:6 
-0.5196183182345462 1:47 2:1 3:48 4:28 5:27 6:52 7:7 8:34 9:43 10:57 11:14 12:40 13:36 14:28 15:33 16:53 17:62 18:33 19:11 20:28 
-0.3016261698575038 1:35 2:17 3:78 4:77 5:34 6:44 7:27 8:72 9:83 10:105 11:23 12:70 13:44 14:50 15:24 16:116 17:57 18:62 19:11 20:25 
-0.3016515483158096 1:137 2:11 3:41 4:46 5:41 6:33 7:37 8:52 9:85 10:108 11:15 12:28 13:35 14:78 15:31 16:48 17:48 18:29 19:6 20:86 
-0.0486442475909575 1:7 2:6 3:13 4:8 5:13 6:17 7:7 8:29 9:26 10:28 11:5 12:17 13:12 14:13 15:9 16:14 17:11 18:10 19:7 20:12 
-0.3150156946449308 1:65 2:20 3:37 4:38 5:38 6:54 7:24 8:40 9:36 10:98 11:26 12:39 13:27 14:25 15:36 16:44 17:54 18:56 19:5 20:23 
-2 1:32 2:8 3:25 4:29 5:30 6:37 7:8 8:30 9:33 10:49 11:19 12:31 13:28 14:14 15:20 16:37 17:18 18:43 19:7 20:22 
-0.3019370253021842 1:26 2:9 3:52 4:47 5:57 6:22 7:16 8:59 9:70 10:53 11:27 12:51 13:22 14:12 15:48 16:41 17:27 18:35 19:2 20:53 
-2 1:9 2:3 3:12 4:15 5:11 6:14 7:6 8:17 9:15 10:25 11:3 12:6 13:11 14:3 15:15 16:21 17:14 18:20 19:5 20:7 
-0.299365581200506 1:71 2:14 3:69 4:65 5:41 6:73 7:17 8:43 9:75 10:73 11:26 12:45 13:51 14:25 15:49 16:72 17:52 18:59 19:24 20:44 
-1.248980894623704 1:8 2:5 3:10 4:4 5:20 6:17 7:11 8:19 9:17 10:28 11:3 12:9 13:13 14:11 15:3 16:9 17:14 18:8 19:1 20:8 
-0.4215019089229687 1:16 2:12 3:21 4:15 5:14 6:12 7:5 8:9 9:20 10:35 11:8 12:17 13:6 14:11 15:15 16:13 17:14 18:20 19:4 20:21 
-0.2449241716651457 1:36 2:6 3:31 4:14 5:13 6:19 7:20 8:14 9:16 10:38 11:28 12:20 13:51 14:31 15:21 16:43 17:16 18:30 19:3 20:9 
-0.3242804584503385 1:29 2:6 3:40 4:38 5:36 6:26 7:17 8:76 9:64 10:60 11:8 12:47 13:28 14:15 15:37 16:42 17:27 18:29 19:9 20:15 
-0.311240202971981 1:17 2:2 3:18 4:15 5:15 6:16 7:6 8:11 9:16 10:18 11:6 12:10 13:13 14:10 15:20 16:31 17:6 18:15 19:0 20:12 
-0.1433188956859243 1:37 2:9 3:22 4:13 5:23 6:13 7:11 8:28 9:20 10:55 11:18 12:21 13:10 14:14 15:21 16:35 17:26 18:36 19:7 20:30 
-2 1:23 2:8 3:17 4:18 5:11 6:20 7:10 8:20 9:20 10:29 11:14 12:11 13:22 14:16 15:25 16:18 17:19 18:19 19:1 20:7 
-0.1751017061382307 1:12 2:2 3:13 4:5 5:3 6:14 7:7 8:7 9:5 10:10 11:6 12:4 13:7 14:7 15:9 16:11 17:4 18:7 19:1 20:7 
-0.9659692912561529 1:37 2:4 3:40 4:32 5:21 6:28 7:9 8:28 9:39 10:34 11:13 12:20 13:21 14:11 15:28 16:37 17:17 18:31 19:9 20:21 
-0.1680290183913467 1:12 2:3 3:7 4:2 5:39 6:14 7:3 8:36 9:18 10:28 11:6 12:17 13:4 14:1 15:8 16:33 17:12 18:24 19:2 20:16 
-1.553752760084783 1:22 2:8 3:18 4:23 5:32 6:20 7:10 8:35 9:18 10:47 11:19 12:15 13:16 14:15 15:18 16:30 17:24 18:32 19:5 20:17 
-0.2890063955133759 1:75 2:7 3:60 4:46 5:50 6:50 7:23 8:69 9:34 10:89 11:15 12:70 13:48 14:39 15:46 16:61 17:91 18:63 19:18 20:52 
-0.569698461136656 1:54 2:3 3:23 4:20 5:24 6:21 7:16 8:33 9:38 10:53 11:16 12:22 13:42 14:15 15:14 16:34 17:23 18:44 19:7 20:17 
-0.492524587809001 1:16 2:6 3:6 4:17 5:16 6:20 7:12 8:25 9:21 10:36 11:8 12:13 13:15 14:9 15:23 16:16 17:12 18:14 19:9 20:13 
-0.3006273763170347 1:48 2:7 3:52 4:42 5:17 6:33 7:20 8:43 9:54 10:70 11:21 12:66 13:44 14:46 15:31 16:98 17:42 18:37 19:2 20:11 
-0.5890651073996921 1:61 2:15 3:39 4:37 5:20 6:61 7:20 8:35 9:32 10:55 11:18 12:33 13:25 14:22 15:37 16:40 17:42 18:38 19:5 20:24 
-0.7317726819081494 1:10 2:2 3:15 4:14 5:10 6:12 7:4 8:16 9:16 10:19 11:4 12:17 13:9 14:6 15:5 16:20 17:7 18:16 19:0 20:3 
-0.2826278363837821 1:19 2:5 3:15 4:32 5:36 6:20 7:7 8:90 9:80 10:57 11:14 12:79 13:11 14:18 15:9 16:37 17:31 18:20 19:5 20:24 
-0.05572987532648744 1:21 2:4 3:9 4:14 5:12 6:12 7:4 8:17 9:17 10:38 11:6 12:15 13:22 14:19 15:16 16:15 17:9 18:10 19:8 20:10 
-0.6494435151524927 1:10 2:2 3:10 4:25 5:11 6:10 7:5 8:12 9:16 10:9 11:7 12:22 13:20 14:23 15:11 16:17 17:17 18:12 19:5 20:19 
-0.3010112102490426 1:106 2:10 3:141 4:145 5:93 6:102 7:35 8:130 9:38 10:122 11:34 12:96 13:101 14:73 15:101 16:78 17:138 18:144 19:13 20:57 
-0.2315835041436599 1:8 2:4 3:10 4:15 5:4 6:9 7:6 8:11 9:12 10:26 11:4 12:3 13:11 14:5 15:12 16:13 17:8 18:5 19:5 20:4 
-0.1537090594981369 1:19 2:3 3:7 4:8 5:25 6:26 7:8 8:58 9:11 10:61 11:11 12:11 13:15 14:9 15:9 16:27 17:13 18:20 19:11 20:8 
-0.6761221239283352 1:22 2:7 3:22 4:34 5:18 6:6 7:9 8:17 9:38 10:30 11:13 12:21 13:10 14:21 15:22 16:16 17:22 18:22 19:4 20:14 
-0.4714383648875409 1:5 2:0 3:6 4:7 5:4 6:4 7:0 8:2 9:5 10:9 11:4 12:4 13:4 14:1 15:7 16:2 17:5 18:7 19:1 20:0 
-1.099134641810052 1:3 2:6 3:10 4:14 5:16 6:13 7:6 8:25 9:27 10:29 11:6 12:17 13:11 14:2 15:9 16:20 17:13 18:11 19:2 20:16 
-0.4437015369577668 1:22 2:13 3:20 4:23 5:19 6:14 7:6 8:10 9:28 10:33 11:13 12:29 13:11 14:21 15:24 16:25 17:20 18:41 19:3 20:20 
-0.5482383399472476 1:17 2:4 3:6 4:9 5:10 6:4 7:1 8:4 9:12 10:6 11:3 12:4 13:6 14:8 15:2 16:4 17:4 18:12 19:0 20:6 
-0.210947677514336 1:41 2:11 3:10 4:5 5:26 6:25 7:10 8:44 9:18 10:62 11:21 12:9 13:17 14:12 15:17 16:38 17:33 18:45 19:8 20:18 
-0.3011739371341735 1:50 2:26 3:79 4:64 5:79 6:36 7:36 8:77 9:113 10:119 11:33 12:110 13:39 14:33 15:40 16:70 17:65 18:71 19:13 20:68 
-0.1211526234162324 1:27 2:7 3:11 4:20 5:14 6:20 7:7 8:19 9:22 10:29 11:15 12:6 13:13 14:14 15:16 16:28 17:12 18:14 19:2 20:4 
-0.58348106743321 1:53 2:5 3:33 4:54 5:34 6:40 7:9 8:49 9:58 10:64 11:16 12:26 13:31 14:24 15:35 16:33 17:34 18:48 19:4 20:17 
-0.3009322600818525 1:110 2:23 3:86 4:94 5:100 6:104 7:36 8:99 9:66 10:199 11:66 12:72 13:68 14:63 15:81 16:136 17:113 18:133 19:27 20:66 
-0.01285969268928766 1:10 2:3 3:9 4:12 5:9 6:10 7:1 8:19 9:13 10:17 11:7 12:20 13:6 14:18 15:9 16:22 17:19 18:18 19:2 20:8 
-0.2933924075647332 1:72 2:1 3:39 4:52 5:8 6:59 7:1 8:41 9:51 10:49 11:22 12:22 13:13 14:14 15:24 16:29 17:27 18:55 19:0 20:7 
-0.3013983961473997 1:84 2:36 3:95 4:128 5:80 6:60 7:27 8:117 9:127 10:167 11:37 12:83 13:82 14:65 15:76 16:113 17:71 18:121 19:14 20:64 
-0.3560467815845119 1:14 2:4 3:18 4:19 5:10 6:29 7:4 8:42 9:25 10:38 11:12 12:25 13:11 14:12 15:16 16:31 17:20 18:24 19:8 20:9 
-2 1:15 2:5 3:21 4:13 5:12 6:13 7:10 8:16 9:22 10:30 11:11 12:18 13:10 14:8 15:7 16:20 17:23 18:16 19:1 20:10 
-0.5546037914572348 1:15 2:10 3:17 4:23 5:18 6:14 7:15 8:28 9:39 10:31 11:10 12:19 13:15 14:15 15:16 16:34 17:18 18:10 19:0 20:6 
-0.3008509535309306 1:82 2:14 3:50 4:72 5:39 6:54 7:24 8:47 9:101 10:81 11:38 12:49 13:88 14:51 15:57 16:66 17:53 18:80 19:6 20:33 
-0.04980187066548991 1:18 2:12 3:21 4:26 5:18 6:5 7:4 8:25 9:37 10:29 11:5 12:24 13:4 14:12 15:13 16:20 17:28 18:28 19:2 20:20 
-0.3011769283196998 1:68 2:10 3:70 4:77 5:45 6:75 7:26 8:53 9:73 10:96 11:15 12:55 13:33 14:65 15:65 16:74 17:63 18:70 19:21 20:37 
-1.901886840414718 1:63 2:9 3:36 4:39 5:28 6:45 7:24 8:33 9:28 10:50 11:16 12:36 13:49 14:20 15:39 16:42 17:33 18:46 19:13 20:30 
-0.2891241466769225 1:28 2:3 3:23 4:23 5:20 6:39 7:9 8:54 9:35 10:40 11:10 12:42 13:18 14:14 15:20 16:45 17:15 18:31 19:1 20:8 
-0.408090666531741 1:52 2:20 3:16 4:18 5:8 6:24 7:13 8:7 9:13 10:41 11:12 12:9 13:41 14:11 15:37 16:24 17:15 18:34 19:3 20:9 
-0.9293291957699555 1:40 2:16 3:32 4:41 5:20 6:50 7:11 8:32 9:35 10:57 11:14 12:30 13:40 14:26 15:20 16:34 17:32 18:41 19:11 20:26 
-0.211639479708071 1:27 2:1 3:21 4:23 5:15 6:18 7:8 8:36 9:16 10:25 11:11 12:45 13:15 14:12 15:21 16:36 17:47 18:29 19:0 20:20 
-0.7933774082391918 1:15 2:8 3:11 4:4 5:18 6:21 7:2 8:16 9:6 10:25 11:5 12:5 13:8 14:7 15:17 16:15 17:12 18:16 19:5 20:6 
-0.9863443498807648 1:17 2:2 3:18 4:31 5:13 6:20 7:6 8:22 9:29 10:30 11:20 12:7 13:11 14:23 15:13 16:22 17:19 18:13 19:3 20:12 
-0.2771760344856868 1:36 2:4 3:26 4:26 5:10 6:19 7:27 8:31 9:45 10:44 11:5 12:46 13:15 14:8 15:9 16:11 17:20 18:36 19:7 20:10 
-2 1:9 2:1 3:5 4:8 5:15 6:4 7:3 8:7 9:7 10:26 11:4 12:10 13:6 14:8 15:9 16:10 17:8 18:7 19:0 20:7 
-0.4095470295650561 1:26 2:11 3:27 4:42 5:26 6:37 7:8 8:50 9:16 10:50 11:7 12:34 13:36 14:14 15:31 16:21 17:31 18:50 19:4 20:20 
-1.242543390008553 1:8 2:5 3:5 4:5 5:0 6:2 7:3 8:6 9:6 10:18 11:3 12:5 13:13 14:4 15:9 16:4 17:5 18:4 19:1 20:3 
-0.1430599320622966 1:22 2:1 3:24 4:14 5:15 6:29 7:9 8:31 9:23 10:35 11:6 12:44 13:12 14:17 15:9 16:33 17:20 18:12 19:2 20:24 
-0.3038671810589968 1:50 2:10 3:27 4:43 5:31 6:22 7:18 8:83 9:49 10:89 11:15 12:41 13:29 14:27 15:31 16:39 17:40 18:41 19:7 20:40 
-0.1107837920951823 1:14 2:8 3:24 4:23 5:16 6:20 7:14 8:34 9:24 10:35 11:7 12:34 13:3 14:14 15:16 16:34 17:16 18:11 19:0 20:12 
-0.6674404863328892 1:27 2:11 3:17 4:31 5:15 6:38 7:8 8:34 9:28 10:61 11:9 12:19 13:16 14:21 15:22 16:32 17:27 18:25 19:2 20:9 
-0.268552174447362 1:22 2:4 3:9 4:3 5:27 6:15 7:5 8:19 9:8 10:27 11:8 12:10 13:2 14:7 15:10 16:16 17:22 18:16 19:3 20:15 
-0.3276833159948294 1:27 2:6 3:15 4:17 5:18 6:20 7:7 8:28 9:18 10:40 11:15 12:10 13:19 14:11 15:21 16:24 17:13 18:20 19:4 20:18 
-0.003789774355929311 1:4 2:2 3:6 4:3 5:2 6:1 7:7 8:9 9:5 10:10 11:2 12:4 13:7 14:5 15:10 16:6 17:3 18:3 19:1 20:6 
-0.02507650487872215 1:51 2:7 3:15 4:14 5:15 6:27 7:20 8:31 9:20 10:53 11:9 12:13 13:20 14:23 15:14 16:21 17:42 18:18 19:1 20:22 
-0.8572615791764531 1:12 2:3 3:7 4:15 5:12 6:13 7:13 8:17 9:12 10:27 11:5 12:7 13:11 14:17 15:10 16:15 17:13 18:8 19:0 20:10 
-1.841204331267381 1:14 2:10 3:11 4:7 5:16 6:18 7:5 8:15 9:5 10:28 11:12 12:4 13:7 14:7 15:16 16:19 17:9 18:20 19:2 20:10 
-0.06238205760614191 1:23 2:5 3:43 4:25 5:11 6:22 7:2 8:23 9:38 10:36 11:5 12:27 13:28 14:22 15:14 16:44 17:21 18:21 19:2 20:7 
-0.7956743530622886 1:6 2:0 3:10 4:2 5:0 6:2 7:2 8:2 9:5 10:2 11:5 12:6 13:5 14:3 15:4 16:9 17:6 18:6 19:2 20:10 
-0.7489523695322593 1:34 2:6 3:18 4:36 5:16 6:26 7:14 8:30 9:32 10:51 11:9 12:20 13:19 14:22 15:22 16:34 17:18 18:21 19:3 20:22 
-0.2989308884555346 1:74 2:12 3:59 4:52 5:55 6:72 7:40 8:43 9:51 10:83 11:38 12:40 13:56 14:24 15:42 16:56 17:74 18:68 19:32 20:48 
-0.2787837747777654 1:25 2:3 3:19 4:19 5:13 6:25 7:10 8:18 9:20 10:37 11:10 12:12 13:12 14:15 15:12 16:22 17:15 18:20 19:4 20:9 
-1.752747753404627 1:17 2:2 3:14 4:18 5:5 6:15 7:7 8:26 9:16 10:19 11:7 12:9 13:16 14:6 15:16 16:11 17:10 18:24 19:3 20:7 
-0.9619936619291954 1:20 2:7 3:13 4:16 5:17 6:13 7:14 8:26 9:15 10:44 11:6 12:11 13:13 14:9 15:15 16:17 17:22 18:17 19:12 20:17 
-0.5922857116332816 1:38 2:13 3:36 4:25 5:22 6:38 7:22 8:24 9:29 10:48 11:22 12:20 13:30 14:35 15:28 16:46 17:24 18:34 19:3 20:19 
-2 1:3 2:3 3:4 4:2 5:5 6:5 7:1 8:9 9:1 10:9 11:4 12:5 13:10 14:0 15:8 16:9 17:8 18:3 19:2 20:0 
-0.3344876726916673 1:54 2:8 3:55 4:54 5:27 6:49 7:15 8:42 9:54 10:77 11:27 12:22 13:35 14:33 15:66 16:46 17:35 18:50 19:7 20:26 
-1.0739272781873 1:11 2:5 3:11 4:10 5:3 6:13 7:12 8:6 9:16 10:19 11:10 12:4 13:27 14:17 15:12 16:17 17:18 18:7 19:0 20:11 
-0.295251718345129 1:105 2:21 3:70 4:75 5:56 6:86 7:27 8:84 9:67 10:157 11:45 12:51 13:45 14:51 15:74 16:93 17:84 18:124 19:22 20:42 
-1.340928950848931 1:14 2:10 3:17 4:15 5:15 6:6 7:4 8:13 9:16 10:30 11:10 12:15 13:6 14:5 15:10 16:20 17:18 18:14 19:2 20:15 
-0.3129634003229445 1:54 2:4 3:27 4:23 5:15 6:39 7:19 8:30 9:26 10:59 11:11 12:21 13:17 14:31 15:16 16:26 17:33 18:33 19:7 20:11 
-0.3351386200377349 1:10 2:1 3:9 4:15 5:10 6:10 7:9 8:29 9:23 10:22 11:8 12:40 13:4 14:13 15:4 16:15 17:11 18:8 19:2 20:8 
-1.332280978475443 1:26 2:10 3:40 4:35 5:27 6:43 7:11 8:31 9:48 10:52 11:12 12:20 13:29 14:14 15:13 16:30 17:25 18:33 19:6 20:26 
-1.429992594616542 1:25 2:9 3:21 4:19 5:39 6:29 7:10 8:35 9:29 10:53 11:11 12:21 13:18 14:11 15:18 16:21 17:22 18:42 19:10 20:17 
-0.1602549465496498 1:21 2:2 3:16 4:30 5:13 6:25 7:8 8:45 9:17 10:56 11:17 12:21 13:13 14:16 15:27 16:33 17:19 18:29 19:2 20:9 
-0.6362521076172529 1:12 2:0 3:13 4:11 5:16 6:6 7:6 8:14 9:31 10:21 11:6 12:10 13:20 14:10 15:8 16:25 17:10 18:15 19:3 20:4 
-1.302382987713738 1:14 2:2 3:8 4:12 5:7 6:7 7:2 8:4 9:5 10:12 11:7 12:9 13:6 14:4 15:12 16:6 17:6 18:9 19:2 20:1 
-0.2636505712637395 1:40 2:9 3:10 4:14 5:46 6:44 7:9 8:38 9:14 10:71 11:13 12:14 13:16 14:10 15:20 16:26 17:35 18:34 19:10 20:10 
-2 1:28 2:11 3:17 4:30 5:25 6:22 7:12 8:38 9:34 10:40 11:6 12:14 13:17 14:17 15:25 16:22 17:29 18:33 19:2 20:15 
-0.9859093005689346 1:21 2:5 3:8 4:9 5:9 6:13 7:6 8:11 9:14 10:19 11:9 12:13 13:14 14:7 15:14 16:27 17:19 18:28 19:2 20:7 
-0.8226285702092769 1:11 2:3 3:13 4:12 5:8 6:15 7:6 8:14 9:13 10:22 11:6 12:13 13:10 14:6 15:8 16:13 17:13 18:9 19:7 20:11 
-1.110744301988648 1:12 2:5 3:12 4:15 5:4 6:10 7:9 8:15 9:10 10:12 11:4 12:4 13:8 14:9 15:7 16:9 17:9 18:13 19:1 20:6 
-0.2839736546621314 1:5 2:2 3:2 4:6 5:5 6:6 7:2 8:11 9:7 10:7 11:0 12:3 13:4 14:3 15:6 16:9 17:7 18:9 19:0 20:6 
-2 1:37 2:5 3:21 4:29 5:30 6:33 7:17 8:29 9:19 10:54 11:9 12:21 13:24 14:17 15:28 16:23 17:30 18:27 19:5 20:14 
-0.4781381014781629 1:37 2:8 3:23 4:34 5:10 6:38 7:15 8:28 9:38 10:43 11:17 12:15 13:19 14:16 15:22 16:19 17:34 18:41 19:1 20:7 
-0.4581859502780189 1:30 2:2 3:22 4:22 5:12 6:24 7:7 8:28 9:20 10:44 11:4 12:15 13:18 14:11 15:19 16:10 17:25 18:15 19:1 20:11 
-0.2998707066087285 1:53 2:14 3:45 4:54 5:35 6:36 7:28 8:63 9:67 10:142 11:15 12:47 13:35 14:52 15:33 16:59 17:47 18:38 19:7 20:18 
-0.01372857982254657 1:38 2:2 3:31 4:33 5:15 6:13 7:12 8:39 9:16 10:53 11:9 12:14 13:9 14:34 15:29 16:34 17:16 18:22 19:7 20:16 
-1.357851260553755 1:4 2:0 3:6 4:10 5:7 6:4 7:4 8:9 9:12 10:16 11:2 12:8 13:4 14:6 15:8 16:7 17:5 18:5 19:1 20:4 
-0.09289518182821402 1:12 2:5 3:23 4:11 5:9 6:3 7:4 8:24 9:15 10:21 11:9 12:17 13:7 14:4 15:10 16:15 17:20 18:22 19:1 20:17 
-2 1:19 2:5 3:31 4:19 5:37 6:18 7:9 8:28 9:34 10:51 11:19 12:38 13:25 14:11 15:21 16:29 17:24 18:32 19:2 20:25 
-0.6496342397017533 1:6 2:7 3:15 4:8 5:9 6:3 7:4 8:11 9:18 10:24 11:8 12:10 13:3 14:11 15:11 16:9 17:11 18:11 19:1 20:6 
-1.827337551962938 1:8 2:3 3:14 4:8 5:9 6:23 7:3 8:9 9:16 10:17 11:9 12:5 13:7 14:4 15:4 16:7 17:6 18:11 19:3 20:5 
-0.5993221945052646 1:44 2:3 3:35 4:28 5:30 6:36 7:12 8:48 9:39 10:64 11:12 12:42 13:24 14:31 15:25 16:44 17:27 18:39 19:10 20:21 
-0.309084716122139 1:50 2:4 3:3 4:8 5:20 6:39 7:6 8:48 9:14 10:63 11:17 12:9 13:26 14:6 15:9 16:45 17:22 18:35 19:4 20:8 
-0.4942833119581015 1:25 2:6 3:19 4:14 5:23 6:35 7:6 8:47 9:31 10:63 11:14 12:17 13:19 14:19 15:15 16:24 17:17 18:19 19:7 20:14 
-1.224731433397182 1:36 2:1 3:23 4:31 5:22 6:17 7:4 8:21 9:37 10:45 11:11 12:22 13:16 14:14 15:6 16:30 17:20 18:28 19:2 20:9 
-0.2930739433896566 1:6 2:7 3:28 4:43 5:22 6:28 7:14 8:76 9:92 10:78 11:5 12:59 13:10 14:19 15:18 16:33 17:25 18:20 19:5 20:17 
-0.9680676234239981 1:30 2:8 3:27 4:36 5:22 6:34 7:12 8:21 9:15 10:34 11:18 12:22 13:20 14:23 15:22 16:27 17:28 18:28 19:4 20:17 
-0.2664396662924631 1:53 2:7 3:28 4:21 5:19 6:20 7:21 8:31 9:43 10:62 11:6 12:18 13:23 14:33 15:24 16:34 17:17 18:26 19:7 20:45 
-0.401567197146235 1:15 2:4 3:16 4:15 5:12 6:14 7:1 8:12 9:13 10:12 11:8 12:9 13:2 14:12 15:11 16:16 17:17 18:16 19:4 20:9 
-0.2996343786813526 1:68 2:4 3:54 4:56 5:21 6:39 7:8 8:39 9:42 10:51 11:23 12:31 13:30 14:51 15:46 16:44 17:32 18:52 19:8 20:24 
-0.7645829712887504 1:8 2:0 3:6 4:8 5:4 6:7 7:2 8:4 9:12 10:8 11:2 12:7 13:5 14:3 15:16 16:6 17:7 18:15 19:1 20:3 
-0.9172997472709561 1:36 2:4 3:25 4:25 5:27 6:29 7:20 8:29 9:30 10:47 11:14 12:18 13:21 14:26 15:17 16:41 17:26 18:27 19:12 20:26 
-0.7499980783632688 1:6 2:3 3:7 4:11 5:9 6:8 7:1 8:16 9:13 10:21 11:7 12:7 13:6 14:4 15:5 16:17 17:11 18:7 19:3 20:6 
-0.1265924384322065 1:26 2:3 3:12 4:5 5:19 6:20 7:3 8:31 9:16 10:61 11:13 12:13 13:15 14:13 15:10 16:18 17:10 18:46 19:10 20:10 
-1.062084909969646 1:4 2:4 3:10 4:2 5:7 6:4 7:6 8:2 9:1 10:13 11:2 12:11 13:6 14:3 15:11 16:7 17:7 18:12 19:1 20:6 
-0.3043706692935234 1:74 2:11 3:54 4:56 5:43 6:59 7:24 8:57 9:43 10:82 11:27 12:43 13:36 14:25 15:57 16:67 17:48 18:77 19:14 20:35 
-0.03135718376038606 1:19 2:7 3:24 4:21 5:20 6:6 7:14 8:21 9:21 10:37 11:15 12:28 13:12 14:16 15:26 16:22 17:21 18:29 19:4 20:24 
-0.7544026506433463 1:31 2:3 3:31 4:39 5:27 6:26 7:8 8:47 9:44 10:54 11:15 12:26 13:14 14:22 15:22 16:48 17:31 18:19 19:5 20:33 
-2 1:6 2:14 3:12 4:9 5:13 6:6 7:1 8:12 9:3 10:11 11:5 12:15 13:15 14:2 15:9 16:5 17:15 18:6 19:1 20:4 
-0.3305897540010561 1:32 2:3 3:36 4:24 5:16 6:10 7:4 8:43 9:37 10:61 11:13 12:46 13:22 14:25 15:21 16:43 17:38 18:41 19:2 20:31 
-0.1259933628470701 1:15 2:6 3:15 4:15 5:13 6:15 7:13 8:13 9:10 10:16 11:5 12:16 13:15 14:5 15:14 16:15 17:8 18:17 19:6 20:20 
-0.1314210128955425 1:23 2:2 3:22 4:10 5:14 6:39 7:7 8:30 9:18 10:46 11:4 12:25 13:11 14:17 15:15 16:34 17:23 18:33 19:10 20:12 
-0.3481412529832889 1:31 2:10 3:10 4:22 5:26 6:15 7:10 8:27 9:28 10:41 11:10 12:21 13:17 14:21 15:10 16:24 17:19 18:15 19:3 20:15 
-0.153381477890895 1:19 2:11 3:8 4:5 5:18 6:11 7:14 8:25 9:11 10:28 11:14 12:12 13:10 14:8 15:14 16:18 17:19 18:31 19:8 20:17 
-0.3519398854519661 1:48 2:2 3:35 4:49 5:30 6:28 7:15 8:50 9:57 10:62 11:10 12:26 13:20 14:31 15:10 16:26 17:39 18:32 19:6 20:27 
-2 1:15 2:0 3:5 4:8 5:3 6:10 7:1 8:5 9:4 10:10 11:1 12:4 13:14 14:11 15:3 16:13 17:6 18:14 19:0 20:8 
-0.3127544486117211 1:30 2:15 3:42 4:45 5:38 6:30 7:17 8:41 9:46 10:83 11:20 12:37 13:41 14:26 15:38 16:93 17:37 18:46 19:16 20:29 
-1.414164379014464 1:16 2:5 3:17 4:13 5:20 6:23 7:11 8:23 9:23 10:39 11:5 12:7 13:15 14:15 15:22 16:15 17:12 18:23 19:0 20:10 
-0.3335631374669657 1:57 2:7 3:38 4:45 5:36 6:38 7:22 8:53 9:18 10:69 11:14 12:49 13:31 14:21 15:37 16:71 17:54 18:48 19:14 20:44 
-1.73646781809901 1:39 2:5 3:29 4:34 5:22 6:34 7:8 8:41 9:22 10:44 11:14 12:20 13:28 14:21 15:28 16:30 17:25 18:33 19:2 20:15 
-0.7967482246805782 1:18 2:6 3:33 4:20 5:23 6:7 7:25 8:36 9:39 10:42 11:15 12:30 13:21 14:18 15:19 16:42 17:39 18:25 19:6 20:21 
-0.3483325066026823 1:43 2:4 3:16 4:30 5:19 6:14 7:8 8:25 9:47 10:61 11:8 12:23 13:10 14:16 15:15 16:27 17:22 18:25 19:8 20:10 
-0.7661084335676588 1:8 2:0 3:14 4:16 5:7 6:14 7:3 8:17 9:27 10:17 11:5 12:6 13:12 14:6 15:11 16:14 17:11 18:20 19:4 20:6 
-1.130710763276145 1:31 2:17 3:25 4:44 5:16 6:25 7:11 8:28 9:33 10:44 11:11 12:21 13:23 14:19 15:31 16:48 17:24 18:34 19:4 20:16 
-1.652095436117722 1:3 2:2 3:13 4:13 5:13 6:7 7:2 8:12 9:15 10:18 11:3 12:10 13:5 14:7 15:6 16:22 17:15 18:5 19:2 20:4 
-0.2878778633407202 1:68 2:5 3:50 4:63 5:49 6:36 7:26 8:55 9:39 10:89 11:26 12:63 13:45 14:31 15:49 16:63 17:69 18:63 19:19 20:49 
-0.2069034735101418 1:21 2:8 3:18 4:32 5:12 6:25 7:4 8:45 9:53 10:48 11:4 12:32 13:15 14:18 15:9 16:25 17:23 18:23 19:0 20:14 
-0.2993331523166157 1:31 2:0 3:30 4:27 5:13 6:3 7:6 8:36 9:30 10:52 11:10 12:32 13:75 14:20 15:19 16:47 17:50 18:31 19:1 20:9 
-0.3254227442474178 1:15 2:4 3:16 4:17 5:13 6:9 7:6 8:21 9:32 10:46 11:3 12:18 13:23 14:14 15:11 16:34 17:24 18:11 19:1 20:6 
-0.3008449403118474 1:14 2:7 3:63 4:47 5:38 6:48 7:32 8:115 9:56 10:80 11:15 12:125 13:24 14:26 15:34 16:84 17:66 18:38 19:2 20:53 
-0.468505542126985 1:29 2:6 3:10 4:22 5:27 6:17 7:9 8:39 9:24 10:60 11:18 12:26 13:24 14:14 15:13 16:33 17:41 18:39 19:5 20:20 
-0.2652125484033879 1:10 2:3 3:1 4:3 5:5 6:10 7:0 8:7 9:0 10:14 11:5 12:2 13:7 14:0 15:4 16:2 17:5 18:9 19:2 20:3 
-0.454358623762445 1:27 2:15 3:36 4:31 5:15 6:25 7:16 8:36 9:36 10:40 11:17 12:41 13:12 14:16 15:21 16:32 17:36 18:31 19:10 20:19 
-0.2619021183982077 1:29 2:7 3:31 4:30 5:16 6:10 7:6 8:42 9:20 10:43 11:7 12:34 13:21 14:14 15:34 16:32 17:28 18:38 19:2 20:13 
-2 1:0 2:0 3:3 4:7 5:4 6:2 7:3 8:6 9:10 10:5 11:3 12:8 13:5 14:4 15:4 16:8 17:3 18:3 19:0 20:4 
-0.5374028867780382 1:60 2:7 3:23 4:27 5:26 6:37 7:12 8:49 9:41 10:54 11:11 12:26 13:18 14:15 15:20 16:49 17:29 18:39 19:2 20:27 
-0.1787713518995324 1:13 2:0 3:11 4:21 5:11 6:22 7:2 8:15 9:34 10:25 11:5 12:12 13:9 14:9 15:3 16:15 17:24 18:14 19:1 20:6 
-0.522315301168759 1:16 2:2 3:14 4:10 5:13 6:15 7:16 8:27 9:14 10:30 11:11 12:10 13:14 14:12 15:10 16:14 17:7 18:14 19:4 20:7 
-0.905344583788624 1:20 2:3 3:17 4:28 5:13 6:13 7:4 8:12 9:24 10:15 11:10 12:19 13:7 14:11 15:10 16:14 17:13 18:17 19:1 20:7 
-1.862774665376722 1:16 2:2 3:20 4:16 5:16 6:20 7:16 8:18 9:14 10:25 11:5 12:7 13:16 14:12 15:19 16:15 17:8 18:12 19:5 20:10 
-0.4464206119566189 1:45 2:10 3:42 4:41 5:30 6:47 7:15 8:21 9:35 10:45 11:19 12:60 13:49 14:16 15:37 16:67 17:53 18:44 19:12 20:33 
-1.283011844482157 1:10 2:14 3:16 4:22 5:25 6:10 7:14 8:18 9:28 10:29 11:10 12:17 13:18 14:15 15:22 16:18 17:23 18:26 19:2 20:22 
-0.09723707459234576 1:17 2:5 3:31 4:28 5:12 6:17 7:18 8:21 9:47 10:31 11:9 12:41 13:17 14:29 15:16 16:31 17:39 18:21 19:4 20:16 
-0.3002181626505426 1:44 2:16 3:60 4:52 5:51 6:21 7:39 8:73 9:51 10:81 11:23 12:66 13:22 14:31 15:47 16:63 17:67 18:68 19:9 20:63 
-0.7658264918793262 1:42 2:6 3:16 4:15 5:13 6:32 7:8 8:19 9:10 10:39 11:15 12:12 13:28 14:13 15:21 16:30 17:26 18:33 19:6 20:11 
-2 1:10 2:0 3:9 4:11 5:5 6:6 7:4 8:5 9:4 10:15 11:5 12:6 13:12 14:7 15:17 16:16 17:5 18:6 19:2 20:5 
-0.2234135430006292 1:18 2:16 3:24 4:23 5:7 6:20 7:30 8:14 9:29 10:24 11:12 12:25 13:36 14:36 15:17 16:44 17:19 18:29 19:1 20:18 
-0.6276435499374496 1:28 2:6 3:26 4:28 5:17 6:24 7:15 8:29 9:18 10:49 11:12 12:24 13:25 14:22 15:23 16:40 17:21 18:28 19:4 20:17 
-0.2992919363419377 1:51 2:12 3:29 4:35 5:29 6:47 7:28 8:61 9:60 10:113 11:16 12:25 13:43 14:44 15:37 16:55 17:47 18:32 19:6 20:34 
-2 1:8 2:6 3:9 4:7 5:11 6:5 7:4 8:9 9:7 10:7 11:4 12:4 13:4 14:4 15:6 16:5 17:5 18:6 19:1 20:12 
-0.230856702754915 1:19 2:1 3:26 4:16 5:4 6:6 7:2 8:36 9:29 10:39 11:9 12:22 13:40 14:36 15:13 16:45 17:33 18:25 19:2 20:11 
-2 1:23 2:7 3:23 4:23 5:17 6:22 7:10 8:16 9:17 10:31 11:12 12:14 13:25 14:15 15:21 16:27 17:19 18:19 19:10 20:10 
-0.5525741665249077 1:11 2:2 3:8 4:6 5:25 6:16 7:5 8:26 9:9 10:32 11:5 12:9 13:8 14:3 15:8 16:13 17:9 18:11 19:4 20:12 
-0.2995952563322019 1:41 2:15 3:24 4:12 5:34 6:28 7:23 8:68 9:39 10:113 11:11 12:22 13:24 14:23 15:29 16:32 17:44 18:28 19:20 20:36 
-2 1:14 2:3 3:15 4:13 5:11 6:14 7:11 8:16 9:11 10:26 11:8 12:9 13:14 14:4 15:13 16:10 17:10 18:9 19:3 20:3 
-0.06087872632422618 1:19 2:11 3:18 4:28 5:18 6:37 7:8 8:26 9:37 10:22 11:4 12:25 13:13 14:18 15:25 16:21 17:15 18:20 19:0 20:13 
-0.07288817810785433 1:5 2:2 3:5 4:4 5:19 6:20 7:3 8:33 9:19 10:42 11:8 12:6 13:12 14:4 15:5 16:23 17:17 18:9 19:11 20:9 
-0.03595077230689522 1:21 2:7 3:12 4:19 5:24 6:18 7:7 8:45 9:21 10:65 11:16 12:20 13:17 14:20 15:14 16:34 17:34 18:46 19:6 20:17 
-2 1:4 2:5 3:19 4:13 5:16 6:10 7:3 8:21 9:23 10:23 11:13 12:20 13:8 14:10 15:11 16:21 17:16 18:24 19:2 20:8 
-0.3014639643352465 1:87 2:26 3:53 4:56 5:34 6:85 7:5 8:58 9:28 10:76 11:6 12:79 13:43 14:65 15:49 16:92 17:99 18:92 19:16 20:64 
-0.3074451453650861 1:41 2:9 3:37 4:33 5:35 6:51 7:23 8:70 9:76 10:89 11:14 12:40 13:34 14:24 15:32 16:37 17:41 18:35 19:6 20:49 
-0.1925276364377033 1:9 2:0 3:11 4:11 5:3 6:9 7:5 8:18 9:23 10:17 11:9 12:9 13:9 14:8 15:13 16:11 17:12 18:9 19:2 20:10 
-1.083811539784195 1:34 2:7 3:25 4:23 5:20 6:30 7:10 8:28 9:26 10:38 11:10 12:21 13:16 14:17 15:19 16:15 17:23 18:20 19:4 20:10 
-0.7706242618335183 1:6 2:7 3:2 4:1 5:7 6:5 7:1 8:3 9:5 10:11 11:2 12:2 13:7 14:1 15:6 16:6 17:2 18:0 19:3 20:6 
-0.3103416784151215 1:45 2:0 3:33 4:47 5:59 6:27 7:17 8:30 9:46 10:47 11:18 12:50 13:33 14:30 15:24 16:27 17:45 18:52 19:11 20:58 
-0.304666097649622 1:15 2:14 3:31 4:49 5:36 6:27 7:18 8:73 9:60 10:56 11:13 12:43 13:16 14:26 15:33 16:47 17:18 18:26 19:10 20:31 
-0.2588410710163448 1:11 2:3 3:11 4:12 5:21 6:13 7:4 8:40 9:42 10:30 11:7 12:24 13:14 14:11 15:4 16:13 17:11 18:3 19:0 20:17 
-0.3651880829523001 1:7 2:15 3:24 4:16 5:21 6:11 7:7 8:19 9:27 10:20 11:10 12:15 13:8 14:8 15:24 16:13 17:15 18:18 19:4 20:19 
-0.5853087520461687 1:28 2:4 3:8 4:22 5:15 6:17 7:8 8:22 9:13 10:21 11:4 12:15 13:14 14:15 15:13 16:18 17:18 18:21 19:6 20:13 
-1.012109718658657 1:13 2:3 3:17 4:17 5:10 6:12 7:5 8:12 9:9 10:18 11:2 12:15 13:12 14:6 15:8 16:9 17:5 18:13 19:10 20:13 
-0.2945335370751054 1:28 2:29 3:33 4:24 5:18 6:29 7:18 8:27 9:8 10:34 11:13 12:42 13:34 14:26 15:34 16:29 17:31 18:47 19:5 20:31 
-0.3778648223993344 1:22 2:2 3:27 4:16 5:21 6:22 7:21 8:18 9:26 10:37 11:6 12:29 13:12 14:8 15:28 16:21 17:29 18:25 19:6 20:27 
-1.203702293015447 1:5 2:7 3:7 4:6 5:7 6:10 7:8 8:7 9:12 10:7 11:2 12:8 13:6 14:5 15:3 16:11 17:10 18:4 19:1 20:3 
-0.756871988295277 1:17 2:8 3:26 4:14 5:21 6:12 7:5 8:29 9:16 10:32 11:9 12:26 13:20 14:13 15:21 16:23 17:19 18:30 19:2 20:18 
-0.2363454121099544 1:35 2:2 3:27 4:15 5:21 6:31 7:15 8:28 9:9 10:40 11:14 12:25 13:20 14:11 15:31 16:35 17:16 18:28 19:5 20:22 
-0.2346191400085705 1:7 2:7 3:13 4:17 5:11 6:8 7:15 8:33 9:14 10:26 11:6 12:23 13:6 14:10 15:10 16:21 17:11 18:14 19:1 20:14 
-0.04029685387984011 1:7 2:2 3:15 4:7 5:3 6:9 7:3 8:13 9:7 10:27 11:1 12:5 13:11 14:8 15:11 16:17 17:10 18:7 19:1 20:6 
-1.081235176034568 1:25 2:17 3:25 4:20 5:14 6:37 7:10 8:24 9:24 10:37 11:3 12:10 13:29 14:10 15:15 16:32 17:30 18:32 19:6 20:19 
-0.5943749015133033 1:19 2:4 3:17 4:9 5:23 6:21 7:10 8:38 9:29 10:32 11:4 12:19 13:10 14:14 15:6 16:17 17:29 18:17 19:4 20:5 
-0.05563672928088063 1:14 2:8 3:23 4:33 5:19 6:19 7:5 8:45 9:42 10:36 11:3 12:28 13:4 14:10 15:20 16:28 17:14 18:14 19:5 20:23 
-0.3484146101705405 1:4 2:6 3:12 4:10 5:8 6:8 7:5 8:9 9:8 10:18 11:3 12:8 13:4 14:4 15:12 16:11 17:7 18:9 19:2 20:9 
-0.1426908271604896 1:21 2:19 3:24 4:19 5:14 6:18 7:10 8:13 9:12 10:31 11:4 12:35 13:17 14:10 15:28 16:31 17:33 18:21 19:7 20:22 
-0.6239190741160269 1:25 2:9 3:9 4:13 5:27 6:11 7:6 8:26 9:21 10:38 11:18 12:15 13:10 14:9 15:14 16:22 17:15 18:27 19:1 20:15 
-0.4686343659699039 1:1 2:1 3:2 4:6 5:2 6:2 7:1 8:0 9:5 10:5 11:2 12:3 13:4 14:3 15:4 16:5 17:3 18:2 19:1 20:3 
-0.3127502932264142 1:48 2:8 3:55 4:33 5:23 6:44 7:7 8:45 9:74 10:76 11:8 12:42 13:22 14:26 15:16 16:60 17:30 18:34 19:2 20:17 
-1.694960238408169 1:8 2:9 3:20 4:16 5:14 6:4 7:6 8:13 9:13 10:18 11:10 12:15 13:11 14:5 15:13 16:17 17:10 18:8 19:6 20:15 
-2 1:20 2:4 3:22 4:30 5:26 6:25 7:13 8:30 9:32 10:53 11:11 12:33 13:25 14:19 15:30 16:42 17:29 18:36 19:7 20:23 
-1.78942057786169 1:20 2:5 3:22 4:36 5:18 6:12 7:5 8:31 9:21 10:30 11:11 12:14 13:10 14:16 15:25 16:25 17:16 18:16 19:3 20:17 
-0.468664442165605 1:40 2:6 3:31 4:39 5:30 6:46 7:15 8:34 9:24 10:58 11:9 12:38 13:30 14:17 15:18 16:30 17:28 18:43 19:6 20:25 
-0.5368251436700866 1:13 2:7 3:14 4:19 5:8 6:3 7:4 8:12 9:18 10:14 11:9 12:8 13:5 14:10 15:8 16:7 17:8 18:11 19:0 20:3 
-0.4828555326685276 1:42 2:7 3:46 4:42 5:42 6:31 7:17 8:36 9:22 10:57 11:17 12:47 13:48 14:31 15:53 16:47 17:45 18:37 19:11 20:20 
-0.06979105687659938 1:39 2:4 3:23 4:33 5:6 6:27 7:12 8:33 9:15 10:37 11:7 12:20 13:15 14:14 15:26 16:27 17:22 18:29 19:9 20:26 
-0.7535286061546328 1:18 2:4 3:10 4:21 5:13 6:12 7:10 8:13 9:22 10:22 11:6 12:15 13:7 14:6 15:8 16:13 17:12 18:20 19:0 20:12 
-2 1:12 2:1 3:11 4:12 5:5 6:8 7:5 8:4 9:3 10:15 11:5 12:3 13:5 14:4 15:13 16:8 17:14 18:6 19:3 20:7 
-0.8153743302168641 1:19 2:1 3:8 4:25 5:7 6:19 7:3 8:17 9:18 10:32 11:5 12:9 13:8 14:7 15:15 16:12 17:15 18:15 19:0 20:8 
-0.2952532613678559 1:130 2:13 3:56 4:84 5:59 6:90 7:30 8:80 9:54 10:153 11:44 12:45 13:58 14:52 15:90 16:106 17:78 18:113 19:18 20:42 
-0.7555072042580907 1:16 2:5 3:7 4:20 5:9 6:15 7:8 8:17 9:10 10:35 11:7 12:11 13:10 14:14 15:15 16:13 17:8 18:13 19:2 20:7 
-0.5545507602228444 1:24 2:7 3:31 4:29 5:14 6:18 7:8 8:29 9:47 10:33 11:9 12:31 13:20 14:11 15:13 16:24 17:23 18:26 19:2 20:8 
-2 1:11 2:4 3:8 4:9 5:7 6:10 7:6 8:10 9:15 10:22 11:4 12:6 13:10 14:5 15:4 16:2 17:12 18:11 19:3 20:3 
-1.409925693743896 1:22 2:4 3:19 4:22 5:17 6:21 7:9 8:21 9:26 10:42 11:4 12:9 13:12 14:19 15:17 16:22 17:14 18:23 19:4 20:9 
-0.17490395683669 1:28 2:7 3:6 4:2 5:11 6:30 7:5 8:18 9:0 10:11 11:4 12:31 13:8 14:11 15:16 16:19 17:11 18:23 19:6 20:6 
-0.3189932738576953 1:38 2:5 3:29 4:25 5:48 6:28 7:16 8:66 9:42 10:84 11:19 12:39 13:17 14:31 15:24 16:75 17:27 18:48 19:5 20:21 
-0.3187562413623797 1:13 2:6 3:24 4:23 5:17 6:23 7:7 8:60 9:51 10:48 11:5 12:41 13:9 14:13 15:18 16:38 17:15 18:19 19:4 20:19 
-0.9947359182004299 1:39 2:0 3:23 4:25 5:29 6:19 7:4 8:24 9:24 10:45 11:9 12:22 13:25 14:21 15:21 16:37 17:33 18:31 19:3 20:16 
