svm_type c_svc
kernel_type rbf
gamma 0.00195312
nr_class 2
total_sv 163
rho 0.534812
label 1 -1
nr_sv 68 95
SV
0.7840832896847287 1:8 2:6 3:13 4:20 5:12 6:11 7:10 8:13 9:14 10:23 11:6 12:3 13:16 14:5 15:15 16:16 17:8 18:16 19:1 20:9 
0.6929708698715078 1:10 2:2 3:11 4:6 5:8 6:7 7:4 8:9 9:7 10:12 11:3 12:10 13:11 14:3 15:7 16:6 17:13 18:11 19:0 20:11 
2 1:9 2:5 3:10 4:8 5:7 6:9 7:4 8:9 9:10 10:14 11:5 12:5 13:11 14:4 15:8 16:7 17:6 18:7 19:0 20:7 
0.3635660557591269 1:41 2:10 3:20 4:29 5:27 6:34 7:10 8:25 9:25 10:59 11:10 12:21 13:27 14:22 15:32 16:25 17:30 18:34 19:7 20:17 
2 1:21 2:1 3:19 4:18 5:18 6:20 7:7 8:16 9:16 10:36 11:9 12:14 13:16 14:12 15:14 16:14 17:19 18:18 19:5 20:11 
0.6874692293289504 1:18 2:8 3:38 4:21 5:43 6:18 7:7 8:40 9:43 10:47 11:15 12:35 13:24 14:7 15:22 16:30 17:23 18:31 19:3 20:21 
0.5974700132895553 1:22 2:8 3:22 4:25 5:31 6:12 7:12 8:26 9:36 10:44 11:17 12:19 13:20 14:22 15:16 16:25 17:24 18:23 19:3 20:18 
1.446712654500755 1:52 2:10 3:19 4:26 5:37 6:42 7:12 8:43 9:26 10:60 11:23 12:23 13:26 14:11 15:17 16:47 17:30 18:43 19:8 20:17 
2 1:6 2:5 3:11 4:10 5:9 6:7 7:6 8:12 9:9 10:16 11:4 12:8 13:10 14:3 15:7 16:8 17:6 18:4 19:0 20:7 
0.6142492262758171 1:25 2:7 3:25 4:38 5:28 6:20 7:19 8:49 9:44 10:56 11:10 12:21 13:30 14:14 15:25 16:16 17:31 18:24 19:3 20:19 
0.1986548131344368 1:26 2:8 3:29 4:29 5:36 6:30 7:15 8:40 9:30 10:54 11:15 12:15 13:21 14:17 15:32 16:29 17:13 18:36 19:6 20:13 
0.6210729374130605 1:36 2:4 3:21 4:34 5:15 6:31 7:13 8:27 9:25 10:59 11:14 12:12 13:28 14:17 15:42 16:29 17:29 18:51 19:10 20:17 
0.1379603275245574 1:30 2:7 3:23 4:39 5:30 6:22 7:9 8:27 9:31 10:42 11:19 12:23 13:19 14:10 15:26 16:22 17:18 18:23 19:5 20:10 
1.206601300813169 1:15 2:6 3:16 4:12 5:11 6:16 7:4 8:11 9:17 10:30 11:9 12:10 13:12 14:7 15:17 16:16 17:19 18:17 19:2 20:8 
0.02876379054537079 1:28 2:5 3:30 4:32 5:43 6:31 7:11 8:31 9:34 10:36 11:21 12:24 13:29 14:18 15:29 16:30 17:28 18:36 19:5 20:20 
0.4692506867519645 1:12 2:16 3:30 4:32 5:36 6:29 7:10 8:29 9:29 10:44 11:17 12:20 13:20 14:14 15:31 16:28 17:26 18:31 19:2 20:20 
0.7426533693608413 1:23 2:4 3:26 4:37 5:35 6:33 7:20 8:28 9:26 10:69 11:22 12:11 13:30 14:16 15:36 16:37 17:25 18:33 19:6 20:10 
1.522048228702209 1:54 2:20 3:55 4:51 5:46 6:36 7:20 8:63 9:60 10:83 11:21 12:36 13:44 14:27 15:43 16:53 17:49 18:52 19:9 20:30 
0.6226330479345512 1:33 2:6 3:26 4:38 5:23 6:27 7:10 8:26 9:38 10:44 11:15 12:16 13:21 14:14 15:19 16:21 17:28 18:27 19:4 20:12 
0.4987849914307663 1:24 2:9 3:22 4:27 5:40 6:16 7:9 8:34 9:45 10:43 11:11 12:28 13:21 14:22 15:14 16:17 17:24 18:27 19:5 20:20 
0.06268877820307328 1:31 2:4 3:17 4:43 5:24 6:30 7:14 8:35 9:37 10:50 11:13 12:19 13:31 14:11 15:34 16:24 17:24 18:38 19:6 20:23 
0.9721983669979521 1:32 2:6 3:32 4:29 5:26 6:25 7:13 8:20 9:38 10:53 11:14 12:15 13:17 14:8 15:31 16:32 17:31 18:54 19:10 20:11 
1.122981867030867 1:43 2:13 3:43 4:57 5:25 6:42 7:18 8:38 9:56 10:68 11:18 12:29 13:34 14:25 15:30 16:42 17:45 18:39 19:9 20:28 
1.528054551046006 1:39 2:6 3:58 4:91 5:29 6:32 7:12 8:45 9:84 10:58 11:25 12:30 13:22 14:19 15:26 16:37 17:34 18:47 19:4 20:22 
0.2071494489941791 1:34 2:7 3:36 4:30 5:44 6:23 7:13 8:32 9:42 10:49 11:21 12:27 13:24 14:9 15:32 16:29 17:21 18:38 19:5 20:14 
1.204924831100122 1:43 2:6 3:29 4:36 5:27 6:47 7:22 8:23 9:18 10:68 11:15 12:17 13:33 14:19 15:52 16:20 17:33 18:39 19:5 20:13 
0.1054614228645077 1:17 2:8 3:31 4:30 5:26 6:16 7:10 8:42 9:40 10:60 11:19 12:25 13:24 14:14 15:27 16:43 17:28 18:27 19:6 20:17 
0.5386129618266055 1:38 2:7 3:27 4:43 5:37 6:26 7:15 8:30 9:44 10:47 11:23 12:25 13:23 14:12 15:26 16:29 17:17 18:39 19:5 20:17 
2 1:7 2:0 3:8 4:25 5:5 6:11 7:9 8:18 9:9 10:16 11:6 12:24 13:8 14:8 15:7 16:16 17:15 18:12 19:1 20:5 
1.423655416495683 1:42 2:13 3:35 4:48 5:40 6:59 7:22 8:38 9:35 10:65 11:23 12:38 13:39 14:28 15:37 16:48 17:40 18:35 19:14 20:29 
2 1:8 2:0 3:7 4:10 5:5 6:4 7:2 8:5 9:8 10:15 11:3 12:8 13:8 14:4 15:3 16:12 17:12 18:6 19:4 20:7 
1.517127161635696 1:25 2:5 3:16 4:24 5:15 6:21 7:10 8:14 9:17 10:41 11:7 12:10 13:25 14:16 15:31 16:23 17:25 18:25 19:3 20:13 
0.5416563761623142 1:22 2:4 3:29 4:35 5:27 6:18 7:10 8:42 9:42 10:55 11:20 12:25 13:22 14:13 15:25 16:45 17:23 18:27 19:7 20:19 
0.4434718946441868 1:19 2:3 3:27 4:41 5:26 6:30 7:9 8:37 9:47 10:62 11:17 12:34 13:26 14:13 15:20 16:34 17:31 18:35 19:8 20:16 
0.5696250822337361 1:37 2:9 3:28 4:30 5:37 6:30 7:10 8:29 9:32 10:40 11:18 12:23 13:32 14:20 15:29 16:25 17:21 18:32 19:6 20:30 
0.2971465911902171 1:18 2:3 3:35 4:29 5:39 6:33 7:12 8:29 9:27 10:58 11:15 12:17 13:28 14:12 15:33 16:29 17:34 18:26 19:7 20:17 
2 1:13 2:4 3:18 4:19 5:15 6:13 7:7 8:15 9:20 10:26 11:9 12:9 13:6 14:7 15:11 16:21 17:15 18:10 19:5 20:2 
0.3021951614399505 1:28 2:7 3:30 4:26 5:18 6:22 7:13 8:34 9:38 10:65 11:12 12:22 13:27 14:14 15:26 16:33 17:31 18:27 19:9 20:22 
2 1:12 2:2 3:12 4:15 5:6 6:16 7:1 8:10 9:17 10:12 11:6 12:10 13:5 14:5 15:6 16:15 17:9 18:8 19:1 20:9 
2 1:9 2:4 3:9 4:9 5:9 6:7 7:3 8:4 9:7 10:13 11:3 12:2 13:13 14:5 15:8 16:9 17:7 18:4 19:1 20:7 
1.42672937952345 1:4 2:1 3:4 4:11 5:10 6:12 7:5 8:10 9:11 10:20 11:3 12:10 13:15 14:6 15:13 16:9 17:15 18:12 19:1 20:9 
0.6626467637023032 1:24 2:5 3:29 4:32 5:37 6:27 7:11 8:40 9:46 10:53 11:17 12:29 13:30 14:15 15:20 16:16 17:43 18:27 19:6 20:14 
0.39848560970214 1:17 2:5 3:20 4:30 5:24 6:12 7:13 8:15 9:26 10:32 11:11 12:14 13:23 14:9 15:17 16:26 17:27 18:24 19:2 20:9 
1.359994253819596 1:28 2:6 3:22 4:19 5:23 6:37 7:13 8:38 9:21 10:37 11:14 12:19 13:26 14:14 15:26 16:42 17:26 18:42 19:8 20:21 
0.1547621403640024 1:26 2:7 3:27 4:37 5:23 6:24 7:8 8:38 9:38 10:50 11:17 12:17 13:38 14:22 15:31 16:27 17:23 18:38 19:6 20:25 
2 1:9 2:1 3:10 4:8 5:10 6:7 7:4 8:6 9:10 10:10 11:3 12:4 13:9 14:3 15:8 16:10 17:8 18:6 19:0 20:7 
1.095035622025764 1:12 2:6 3:8 4:29 5:23 6:11 7:6 8:17 9:20 10:24 11:14 12:16 13:19 14:9 15:18 16:19 17:23 18:18 19:1 20:12 
2 1:13 2:3 3:17 4:12 5:10 6:11 7:4 8:16 9:9 10:22 11:8 12:7 13:12 14:13 15:19 16:7 17:9 18:13 19:2 20:3 
2 1:18 2:1 3:18 4:20 5:16 6:11 7:10 8:13 9:22 10:28 11:10 12:11 13:10 14:12 15:10 16:13 17:12 18:19 19:1 20:9 
0.03854727785233689 1:15 2:6 3:23 4:28 5:39 6:28 7:8 8:32 9:45 10:57 11:7 12:29 13:31 14:11 15:17 16:29 17:28 18:35 19:4 20:21 
0.5956924101591075 1:36 2:10 3:28 4:35 5:21 6:28 7:8 8:35 9:23 10:52 11:13 12:14 13:37 14:16 15:45 16:26 17:25 18:37 19:6 20:24 
0.2449692701225508 1:35 2:10 3:27 4:28 5:24 6:31 7:9 8:24 9:31 10:47 11:20 12:20 13:22 14:16 15:34 16:22 17:32 18:48 19:8 20:16 
0.3449183158266954 1:32 2:9 3:21 4:38 5:26 6:22 7:16 8:38 9:39 10:64 11:10 12:19 13:24 14:12 15:25 16:18 17:32 18:33 19:4 20:23 
1.031722620963078 1:21 2:9 3:26 4:16 5:20 6:22 7:11 8:43 9:40 10:55 11:16 12:39 13:19 14:14 15:17 16:32 17:21 18:29 19:8 20:19 
0.1973271333999278 1:17 2:9 3:22 4:37 5:28 6:20 7:9 8:40 9:41 10:53 11:11 12:30 13:21 14:21 15:22 16:30 17:36 18:26 19:3 20:22 
1.532001524116281 1:52 2:14 3:66 4:72 5:56 6:56 7:32 8:78 9:68 10:106 11:34 12:40 13:56 14:36 15:64 16:56 17:64 18:46 19:10 20:34 
1.080070891938713 1:28 2:12 3:21 4:27 5:33 6:20 7:7 8:20 9:24 10:63 11:21 12:15 13:30 14:14 15:37 16:41 17:42 18:29 19:3 20:12 
0.3403090739096634 1:39 2:6 3:21 4:41 5:27 6:40 7:15 8:28 9:19 10:59 11:22 12:18 13:30 14:15 15:43 16:25 17:24 18:42 19:5 20:12 
0.2619297453308695 1:45 2:10 3:34 4:25 5:30 6:35 7:10 8:31 9:29 10:51 11:17 12:18 13:32 14:15 15:32 16:37 17:31 18:38 19:7 20:18 
2 1:18 2:8 3:16 4:16 5:12 6:8 7:7 8:16 9:14 10:25 11:8 12:10 13:17 14:7 15:12 16:13 17:8 18:12 19:1 20:8 
2 1:11 2:3 3:10 4:7 5:9 6:8 7:3 8:8 9:8 10:12 11:2 12:8 13:11 14:2 15:8 16:8 17:10 18:12 19:0 20:10 
1.157690134698153 1:25 2:12 3:31 4:47 5:26 6:41 7:12 8:50 9:45 10:68 11:12 12:20 13:25 14:15 15:34 16:35 17:21 18:42 19:6 20:22 
0.5178499068253526 1:16 2:5 3:26 4:29 5:47 6:28 7:7 8:34 9:44 10:53 11:7 12:24 13:30 14:14 15:19 16:35 17:27 18:33 19:4 20:21 
2 1:16 2:3 3:19 4:15 5:11 6:15 7:13 8:16 9:19 10:38 11:5 12:6 13:10 14:11 15:19 16:16 17:15 18:21 19:6 20:10 
2 1:5 2:0 3:10 4:12 5:7 6:7 7:4 8:5 9:9 10:9 11:2 12:3 13:2 14:3 15:6 16:10 17:8 18:18 19:3 20:4 
1.204011327246755 1:32 2:11 3:43 4:65 5:21 6:39 7:16 8:48 9:51 10:59 11:16 12:29 13:31 14:23 15:31 16:54 17:34 18:37 19:7 20:34 
0.5378386533875948 1:7 2:3 3:20 4:17 5:17 6:12 7:9 8:22 9:23 10:33 11:11 12:14 13:15 14:9 15:17 16:25 17:18 18:21 19:2 20:10 
1.738112398056336 1:19 2:4 3:22 4:25 5:22 6:11 7:3 8:31 9:31 10:37 11:9 12:23 13:16 14:12 15:19 16:20 17:15 18:20 19:1 20:15 
-0.20378993213913 1:10 2:16 3:18 4:21 5:7 6:13 7:5 8:14 9:19 10:21 11:8 12:15 13:4 14:19 15:10 16:11 17:13 18:13 19:0 20:5 
-0.4655199303819316 1:44 2:16 3:60 4:52 5:51 6:21 7:39 8:73 9:51 10:81 11:23 12:66 13:22 14:31 15:47 16:63 17:67 18:68 19:9 20:63 
-0.2302619654825764 1:33 2:6 3:8 4:21 5:26 6:34 7:12 8:38 9:22 10:43 11:17 12:12 13:10 14:17 15:15 16:26 17:17 18:30 19:3 20:11 
-0.7453082012474532 1:6 2:3 3:10 4:6 5:3 6:12 7:4 8:7 9:6 10:7 11:6 12:15 13:2 14:3 15:18 16:11 17:6 18:8 19:2 20:10 
-0.4650272422891286 1:130 2:13 3:56 4:84 5:59 6:90 7:30 8:80 9:54 10:153 11:44 12:45 13:58 14:52 15:90 16:106 17:78 18:113 19:18 20:42 
-0.4507041517232616 1:13 2:2 3:10 4:22 5:5 6:10 7:5 8:14 9:23 10:25 11:9 12:18 13:10 14:13 15:8 16:31 17:20 18:20 19:8 20:9 
-1.06279521875662 1:17 2:4 3:6 4:9 5:10 6:4 7:1 8:4 9:12 10:6 11:3 12:4 13:6 14:8 15:2 16:4 17:4 18:12 19:0 20:6 
-0.5291225126165413 1:39 2:22 3:25 4:48 5:12 6:31 7:5 8:19 9:27 10:59 11:29 12:21 13:45 14:35 15:38 16:46 17:31 18:32 19:5 20:21 
-0.1716830226385649 1:8 2:5 3:17 4:11 5:14 6:11 7:5 8:32 9:27 10:29 11:7 12:32 13:4 14:9 15:9 16:20 17:11 18:10 19:2 20:12 
-0.71936086669578 1:22 2:8 3:7 4:23 5:9 6:11 7:4 8:14 9:13 10:13 11:5 12:9 13:12 14:5 15:16 16:15 17:13 18:8 19:2 20:10 
-0.8059620679236681 1:24 2:4 3:15 4:15 5:14 6:24 7:11 8:17 9:20 10:34 11:5 12:9 13:14 14:17 15:17 16:12 17:14 18:18 19:9 20:6 
-0.700412234015296 1:18 2:4 3:12 4:31 5:10 6:14 7:1 8:19 9:22 10:38 11:2 12:10 13:7 14:15 15:24 16:24 17:9 18:18 19:2 20:7 
-1.076118793002079 1:15 2:4 3:16 4:15 5:12 6:14 7:1 8:12 9:13 10:12 11:8 12:9 13:2 14:12 15:11 16:16 17:17 18:16 19:4 20:9 
-0.6538969731578588 1:21 2:4 3:9 4:14 5:12 6:12 7:4 8:17 9:17 10:38 11:6 12:15 13:22 14:19 15:16 16:15 17:9 18:10 19:8 20:10 
-1.520584738993261 1:16 2:5 3:17 4:13 5:20 6:23 7:11 8:23 9:23 10:39 11:5 12:7 13:15 14:15 15:22 16:15 17:12 18:23 19:0 20:10 
-0.4636549822101818 1:16 2:2 3:14 4:10 5:13 6:15 7:16 8:27 9:14 10:30 11:11 12:10 13:14 14:12 15:10 16:14 17:7 18:14 19:4 20:7 
-2 1:10 2:0 3:9 4:11 5:5 6:6 7:4 8:5 9:4 10:15 11:5 12:6 13:12 14:7 15:17 16:16 17:5 18:6 19:2 20:5 
-0.182962425051335 1:3 2:5 3:6 4:18 5:15 6:7 7:2 8:34 9:33 10:16 11:3 12:13 13:4 14:7 15:2 16:14 17:9 18:7 19:2 20:12 
-0.4945774562348225 1:36 2:4 3:26 4:26 5:10 6:19 7:27 8:31 9:45 10:44 11:5 12:46 13:15 14:8 15:9 16:11 17:20 18:36 19:7 20:10 
-0.4185858706515504 1:10 2:1 3:9 4:15 5:10 6:10 7:9 8:29 9:23 10:22 11:8 12:40 13:4 14:13 15:4 16:15 17:11 18:8 19:2 20:8 
-0.4517186255667169 1:0 2:13 3:17 4:9 5:11 6:6 7:5 8:16 9:12 10:8 11:1 12:15 13:8 14:1 15:5 16:9 17:10 18:10 19:0 20:5 
-1.431918126309539 1:5 2:2 3:2 4:6 5:5 6:6 7:2 8:11 9:7 10:7 11:0 12:3 13:4 14:3 15:6 16:9 17:7 18:9 19:0 20:6 
-0.5437619836211556 1:23 2:5 3:43 4:25 5:11 6:22 7:2 8:23 9:38 10:36 11:5 12:27 13:28 14:22 15:14 16:44 17:21 18:21 19:2 20:7 
-0.4652947625989087 1:14 2:7 3:63 4:47 5:38 6:48 7:32 8:115 9:56 10:80 11:15 12:125 13:24 14:26 15:34 16:84 17:66 18:38 19:2 20:53 
-0.2082452613026602 1:14 2:10 3:26 4:16 5:23 6:8 7:9 8:20 9:31 10:33 11:14 12:24 13:11 14:14 15:18 16:32 17:18 18:22 19:4 20:34 
-1.499071083238557 1:25 2:3 3:19 4:19 5:13 6:25 7:10 8:18 9:20 10:37 11:10 12:12 13:12 14:15 15:12 16:22 17:15 18:20 19:4 20:9 
-1.331043724326889 1:8 2:1 3:9 4:11 5:9 6:6 7:3 8:5 9:22 10:23 11:3 12:5 13:3 14:6 15:7 16:15 17:7 18:14 19:2 20:5 
-0.6899226959275184 1:54 2:3 3:23 4:20 5:24 6:21 7:16 8:33 9:38 10:53 11:16 12:22 13:42 14:15 15:14 16:34 17:23 18:44 19:7 20:17 
-0.9416254350362597 1:7 2:3 3:14 4:16 5:2 6:3 7:0 8:17 9:16 10:8 11:4 12:11 13:8 14:10 15:1 16:12 17:10 18:9 19:3 20:6 
-0.740367382055642 1:20 2:1 3:15 4:19 5:10 6:6 7:11 8:12 9:35 10:28 11:8 12:21 13:16 14:10 15:7 16:23 17:21 18:17 19:2 20:11 
-0.3493816946670993 1:22 2:13 3:20 4:23 5:19 6:14 7:6 8:10 9:28 10:33 11:13 12:29 13:11 14:21 15:24 16:25 17:20 18:41 19:3 20:20 
-0.4651029374619468 1:101 2:15 3:55 4:75 5:54 6:76 7:37 8:103 9:83 10:127 11:24 12:40 13:43 14:53 15:42 16:51 17:63 18:53 19:3 20:47 
-0.3032524399395455 1:10 2:3 3:5 4:12 5:10 6:8 7:4 8:14 9:12 10:23 11:6 12:8 13:8 14:7 15:4 16:22 17:10 18:12 19:1 20:7 
-0.3787830149119483 1:19 2:3 3:7 4:8 5:25 6:26 7:8 8:58 9:11 10:61 11:11 12:11 13:15 14:9 15:9 16:27 17:13 18:20 19:11 20:8 
-1.463039669834765 1:20 2:3 3:17 4:28 5:13 6:13 7:4 8:12 9:24 10:15 11:10 12:19 13:7 14:11 15:10 16:14 17:13 18:17 19:1 20:7 
-1.238305384642451 1:19 2:1 3:8 4:25 5:7 6:19 7:3 8:17 9:18 10:32 11:5 12:9 13:8 14:7 15:15 16:12 17:15 18:15 19:0 20:8 
-0.7649205691525114 1:20 2:3 3:25 4:21 5:21 6:6 7:14 8:34 9:33 10:36 11:16 12:27 13:10 14:15 15:20 16:13 17:17 18:27 19:1 20:32 
-0.503932903237832 1:39 2:4 3:16 4:26 5:15 6:21 7:16 8:20 9:20 10:44 11:11 12:22 13:19 14:26 15:11 16:17 17:31 18:30 19:4 20:20 
-0.7473981387438007 1:11 2:5 3:12 4:14 5:4 6:9 7:1 8:21 9:12 10:23 11:4 12:11 13:8 14:13 15:6 16:8 17:14 18:13 19:0 20:10 
-0.957152470407222 1:13 2:2 3:12 4:9 5:2 6:15 7:3 8:9 9:8 10:12 11:2 12:3 13:15 14:3 15:8 16:25 17:7 18:10 19:2 20:6 
-0.4832986063708855 1:39 2:4 3:23 4:33 5:6 6:27 7:12 8:33 9:15 10:37 11:7 12:20 13:15 14:14 15:26 16:27 17:22 18:29 19:9 20:26 
-0.02176491272153831 1:8 2:7 3:9 4:7 5:11 6:3 7:2 8:14 9:18 10:20 11:6 12:13 13:5 14:8 15:11 16:12 17:9 18:16 19:1 20:12 
-0.3879560848822068 1:18 2:12 3:21 4:26 5:18 6:5 7:4 8:25 9:37 10:29 11:5 12:24 13:4 14:12 15:13 16:20 17:28 18:28 19:2 20:20 
-0.6157326618659629 1:8 2:3 3:6 4:11 5:4 6:11 7:1 8:12 9:6 10:11 11:5 12:7 13:7 14:6 15:9 16:15 17:6 18:12 19:2 20:10 
-0.06752557567074637 1:15 2:3 3:11 4:19 5:9 6:12 7:4 8:30 9:28 10:26 11:9 12:25 13:6 14:13 15:13 16:22 17:17 18:15 19:1 20:12 
-0.1505355470712182 1:27 2:7 3:11 4:20 5:14 6:20 7:7 8:19 9:22 10:29 11:15 12:6 13:13 14:14 15:16 16:28 17:12 18:14 19:2 20:4 
-0.4702371198903408 1:30 2:15 3:42 4:45 5:38 6:30 7:17 8:41 9:46 10:83 11:20 12:37 13:41 14:26 15:38 16:93 17:37 18:46 19:16 20:29 
-0.4649602284508437 1:35 2:17 3:78 4:77 5:34 6:44 7:27 8:72 9:83 10:105 11:23 12:70 13:44 14:50 15:24 16:116 17:57 18:62 19:11 20:25 
-1.023165057727948 1:12 2:0 3:13 4:11 5:16 6:6 7:6 8:14 9:31 10:21 11:6 12:10 13:20 14:10 15:8 16:25 17:10 18:15 19:3 20:4 
-1.043299823925975 1:12 2:5 3:12 4:15 5:4 6:10 7:9 8:15 9:10 10:12 11:4 12:4 13:8 14:9 15:7 16:9 17:9 18:13 19:1 20:6 
-0.4939015183481695 1:14 2:10 3:11 4:7 5:16 6:18 7:5 8:15 9:5 10:28 11:12 12:4 13:7 14:7 15:16 16:19 17:9 18:20 19:2 20:10 
-0.9477469661754748 1:20 2:7 3:13 4:16 5:17 6:13 7:14 8:26 9:15 10:44 11:6 12:11 13:13 14:9 15:15 16:17 17:22 18:17 19:12 20:17 
-1.921896795967081 1:10 2:6 3:7 4:10 5:17 6:12 7:6 8:8 9:14 10:17 11:5 12:13 13:8 14:7 15:10 16:13 17:8 18:11 19:6 20:7 
-1.520625047134047 1:16 2:12 3:21 4:15 5:14 6:12 7:5 8:9 9:20 10:35 11:8 12:17 13:6 14:11 15:15 16:13 17:14 18:20 19:4 20:21 
-0.5034635115371586 1:54 2:8 3:55 4:54 5:27 6:49 7:15 8:42 9:54 10:77 11:27 12:22 13:35 14:33 15:66 16:46 17:35 18:50 19:7 20:26 
-0.2723421009011431 1:28 2:7 3:6 4:2 5:11 6:30 7:5 8:18 9:0 10:11 11:4 12:31 13:8 14:11 15:16 16:19 17:11 18:23 19:6 20:6 
-0.442563553199044 1:10 2:1 3:24 4:42 5:37 6:9 7:11 8:93 9:101 10:48 11:3 12:64 13:14 14:29 15:15 16:42 17:28 18:20 19:3 20:29 
-0.2787437093033641 1:4 2:2 3:1 4:0 5:1 6:4 7:0 8:2 9:4 10:4 11:1 12:6 13:3 14:2 15:2 16:4 17:2 18:3 19:0 20:11 
-0.5489675887639403 1:14 2:8 3:24 4:23 5:16 6:20 7:14 8:34 9:24 10:35 11:7 12:34 13:3 14:14 15:16 16:34 17:16 18:11 19:0 20:12 
-0.461776081964702 1:17 2:5 3:31 4:28 5:12 6:17 7:18 8:21 9:47 10:31 11:9 12:41 13:17 14:29 15:16 16:31 17:39 18:21 19:4 20:16 
-0.4657653674013701 1:87 2:11 3:51 4:66 5:70 6:61 7:23 8:46 9:52 10:98 11:34 12:34 13:63 14:29 15:74 16:56 17:60 18:72 19:16 20:34 
-0.4747842582719348 1:53 2:7 3:28 4:21 5:19 6:20 7:21 8:31 9:43 10:62 11:6 12:18 13:23 14:33 15:24 16:34 17:17 18:26 19:7 20:45 
-0.4461363160626313 1:18 2:16 3:24 4:23 5:7 6:20 7:30 8:14 9:29 10:24 11:12 12:25 13:36 14:36 15:17 16:44 17:19 18:29 19:1 20:18 
-1.285238621112591 1:10 2:14 3:16 4:22 5:25 6:10 7:14 8:18 9:28 10:29 11:10 12:17 13:18 14:15 15:22 16:18 17:23 18:26 19:2 20:22 
-0.4653472972678444 1:68 2:10 3:70 4:77 5:45 6:75 7:26 8:53 9:73 10:96 11:15 12:55 13:33 14:65 15:65 16:74 17:63 18:70 19:21 20:37 
-0.6958752103228365 1:26 2:11 3:27 4:42 5:26 6:37 7:8 8:50 9:16 10:50 11:7 12:34 13:36 14:14 15:31 16:21 17:31 18:50 19:4 20:20 
-0.9154492847939145 1:4 2:3 3:7 4:8 5:5 6:2 7:3 8:10 9:10 10:9 11:2 12:3 13:4 14:2 15:4 16:5 17:2 18:15 19:0 20:5 
-0.6554905534119354 1:49 2:4 3:23 4:47 5:20 6:23 7:20 8:40 9:34 10:74 11:11 12:26 13:28 14:27 15:40 16:43 17:30 18:31 19:6 20:17 
-1.95478262156785 1:6 2:14 3:12 4:9 5:13 6:6 7:1 8:12 9:3 10:11 11:5 12:15 13:15 14:2 15:9 16:5 17:15 18:6 19:1 20:4 
-0.9066829218375998 1:31 2:3 3:31 4:39 5:27 6:26 7:8 8:47 9:44 10:54 11:15 12:26 13:14 14:22 15:22 16:48 17:31 18:19 19:5 20:33 
-1.3857946169372 1:8 2:5 3:5 4:5 5:0 6:2 7:3 8:6 9:6 10:18 11:3 12:5 13:13 14:4 15:9 16:4 17:5 18:4 19:1 20:3 
-1.250510616554374 1:8 2:3 3:14 4:8 5:9 6:23 7:3 8:9 9:16 10:17 11:9 12:5 13:7 14:4 15:4 16:7 17:6 18:11 19:3 20:5 
-0.7649177249608367 1:35 2:2 3:27 4:15 5:21 6:31 7:15 8:28 9:9 10:40 11:14 12:25 13:20 14:11 15:31 16:35 17:16 18:28 19:5 20:22 
-0.1618087556978024 1:22 2:4 3:2 4:7 5:19 6:22 7:14 8:10 9:5 10:48 11:10 12:6 13:6 14:4 15:5 16:21 17:13 18:14 19:3 20:7 
-0.3237723167093579 1:9 2:8 3:6 4:3 5:5 6:8 7:0 8:7 9:7 10:10 11:2 12:11 13:4 14:3 15:6 16:7 17:7 18:6 19:1 20:9 
-0.5713699240325461 1:3 2:8 3:14 4:2 5:9 6:5 7:0 8:14 9:3 10:9 11:2 12:7 13:4 14:1 15:5 16:7 17:4 18:6 19:0 20:7 
-0.4985529978564383 1:27 2:6 3:15 4:17 5:18 6:20 7:7 8:28 9:18 10:40 11:15 12:10 13:19 14:11 15:21 16:24 17:13 18:20 19:4 20:18 
-0.4865111553101337 1:50 2:4 3:3 4:8 5:20 6:39 7:6 8:48 9:14 10:63 11:17 12:9 13:26 14:6 15:9 16:45 17:22 18:35 19:4 20:8 
-0.3417507008783068 1:26 2:3 3:12 4:5 5:19 6:20 7:3 8:31 9:16 10:61 11:13 12:13 13:15 14:13 15:10 16:18 17:10 18:46 19:10 20:10 
-0.1992896740745552 1:5 2:2 3:5 4:4 5:19 6:20 7:3 8:33 9:19 10:42 11:8 12:6 13:12 14:4 15:5 16:23 17:17 18:9 19:11 20:9 
-1.885505032774661 1:15 2:0 3:9 4:8 5:7 6:11 7:3 8:9 9:12 10:17 11:3 12:7 13:5 14:2 15:5 16:6 17:6 18:9 19:1 20:5 
-0.4922666038278615 1:19 2:6 3:10 4:12 5:16 6:18 7:7 8:53 9:58 10:39 11:1 12:27 13:10 14:11 15:6 16:21 17:8 18:17 19:4 20:13 
-0.4423475325734927 1:19 2:5 3:15 4:32 5:36 6:20 7:7 8:90 9:80 10:57 11:14 12:79 13:11 14:18 15:9 16:37 17:31 18:20 19:5 20:24 
-0.6358499858715166 1:5 2:17 3:18 4:18 5:14 6:4 7:4 8:10 9:15 10:11 11:6 12:8 13:4 14:4 15:17 16:14 17:7 18:16 19:5 20:11 
-0.5038073771631669 1:21 2:5 3:8 4:9 5:9 6:13 7:6 8:11 9:14 10:19 11:9 12:13 13:14 14:7 15:14 16:27 17:19 18:28 19:2 20:7 
-0.3969336183104707 1:12 2:3 3:7 4:2 5:39 6:14 7:3 8:36 9:18 10:28 11:6 12:17 13:4 14:1 15:8 16:33 17:12 18:24 19:2 20:16 
-2 1:14 2:3 3:15 4:13 5:11 6:14 7:11 8:16 9:11 10:26 11:8 12:9 13:14 14:4 15:13 16:10 17:10 18:9 19:3 20:3 
-0.4956570390604084 1:54 2:4 3:27 4:23 5:15 6:39 7:19 8:30 9:26 10:59 11:11 12:21 13:17 14:31 15:16 16:26 17:33 18:33 19:7 20:11 
-0.4680114930258517 1:51 2:12 3:29 4:35 5:29 6:47 7:28 8:61 9:60 10:113 11:16 12:25 13:43 14:44 15:37 16:55 17:47 18:32 19:6 20:34 
-2 1:13 2:4 3:9 4:11 5:6 6:8 7:7 8:11 9:7 10:19 11:2 12:1 13:11 14:6 15:7 16:8 17:8 18:3 19:3 20:6 
-0.4651912122964867 1:82 2:14 3:50 4:72 5:39 6:54 7:24 8:47 9:101 10:81 11:38 12:49 13:88 14:51 15:57 16:66 17:53 18:80 19:6 20:33 
-0.3154745084553454 1:38 2:12 3:8 4:11 5:31 6:28 7:4 8:36 9:23 10:55 11:17 12:9 13:20 14:7 15:11 16:24 17:19 18:29 19:9 20:21 
-0.9495228920142527 1:37 2:8 3:23 4:34 5:10 6:38 7:15 8:28 9:38 10:43 11:17 12:15 13:19 14:16 15:22 16:19 17:34 18:41 19:1 20:7 
-0.8705027072247771 1:29 2:6 3:10 4:22 5:27 6:17 7:9 8:39 9:24 10:60 11:18 12:26 13:24 14:14 15:13 16:33 17:41 18:39 19:5 20:20 
-0.8665688794309893 1:12 2:3 3:7 4:15 5:12 6:13 7:13 8:17 9:12 10:27 11:5 12:7 13:11 14:17 15:10 16:15 17:13 18:8 19:0 20:10 
