svm_type c_svc
kernel_type rbf
gamma 0.5
nr_class 2
total_sv 179
rho 0.460998
label 1 -1
nr_sv 78 101
SV
0.263015963342921 1:0.0875 2:0.0375 3:0.105 4:0.1425 5:0.065 6:0.075 7:0.08 8:0.0875 9:0.1325 10:0.1425 11:0.0675 12:0.0275 13:0.0725 14:0.0475 15:0.0775 16:0.115 17:0.0375 18:0.08 19:0.0025 20:0.055 21:0.0375 22:0.0375 23:0.055 24:0.0825 25:0.07 26:0.055 27:0.045 28:0.0625 29:0.0625 30:0.1175 31:0.0275 32:0.0125 33:0.0925 34:0.0225 35:0.0825 36:0.08 37:0.0475 38:0.095 39:0.0075 40:0.045 41:0.105 42:0.055 43:0.175 44:0.2675 45:0.1125 46:0.1275 47:0.13 48:0.155 49:0.1825 50:0.25 51:0.0825 52:0.0475 53:0.1475 54:0.07 55:0.15 56:0.1825 57:0.075 58:0.1425 59:0.0125 60:0.105 61:0.1425 62:0.0825 63:0.2675 64:0.4225 65:0.1775 66:0.1975 67:0.1975 68:0.2425 69:0.2625 70:0.3925 71:0.1125 72:0.0725 73:0.2425 74:0.1025 75:0.2425 76:0.2775 77:0.1225 78:0.2275 79:0.0225 80:0.1675 81:0.065 82:0.07 83:0.1125 84:0.1775 85:0.1375 86:0.11 87:0.09 88:0.1275 89:0.1175 90:0.2375 91:0.0475 92:0.025 93:0.1875 94:0.0425 95:0.1675 96:0.1575 97:0.095 98:0.1875 99:0.015 100:0.0925 101:0.075 102:0.055 103:0.1275 104:0.1975 105:0.11 106:0.105 107:0.0975 108:0.125 109:0.1325 110:0.215 111:0.0575 112:0.0325 113:0.1475 114:0.05 115:0.14 116:0.15 117:0.075 118:0.145 119:0.0125 120:0.0875 121:0.08 122:0.045 123:0.13 124:0.1975 125:0.09 126:0.0975 127:0.0975 128:0.1175 129:0.1375 130:0.1925 131:0.0625 132:0.035 133:0.1175 134:0.0525 135:0.1175 136:0.14 137:0.06 138:0.115 139:0.01 140:0.08 141:0.0875 142:0.0625 143:0.155 144:0.2425 145:0.1275 146:0.125 147:0.1175 148:0.15 149:0.1575 150:0.255 151:0.0675 152:0.04 153:0.1725 154:0.06 155:0.165 156:0.1775 157:0.0875 158:0.1675 159:0.015 160:0.105 161:0.1325 162:0.0625 163:0.1825 164:0.2625 165:0.1175 166:0.1325 167:0.1375 168:0.1575 169:0.2125 170:0.2575 171:0.1025 172:0.0475 173:0.1425 174:0.0775 175:0.1475 176:0.1975 177:0.0725 178:0.1475 179:0.0075 180:0.1025 181:0.1425 182:0.1175 183:0.25 184:0.3925 185:0.2375 186:0.215 187:0.1925 188:0.255 189:0.2575 190:0.45 191:0.1075 192:0.06 193:0.3225 194:0.095 195:0.3 196:0.3075 197:0.1625 198:0.3175 199:0.025 200:0.18 201:0.0675 202:0.0275 203:0.0825 204:0.1125 205:0.0475 206:0.0575 207:0.0625 208:0.0675 209:0.1025 210:0.1075 211:0.0525 212:0.0225 213:0.0525 214:0.0375 215:0.0575 216:0.0875 217:0.0275 218:0.0575 219:0.0025 220:0.0425 221:0.0275 222:0.0125 223:0.0475 224:0.0725 225:0.025 226:0.0325 227:0.035 228:0.04 229:0.0475 230:0.06 231:0.0225 232:0.015 233:0.0325 234:0.02 235:0.035 236:0.045 237:0.0175 238:0.03 239:0.005 240:0.0275 241:0.0725 242:0.0925 243:0.1475 244:0.2425 245:0.1875 246:0.1475 247:0.1175 248:0.1725 249:0.1425 250:0.3225 251:0.0525 252:0.0325 253:0.2625 254:0.0525 255:0.2325 256:0.2075 257:0.1325 258:0.2575 259:0.0225 260:0.1275 261:0.0475 262:0.0225 263:0.07 264:0.1025 265:0.0425 266:0.05 267:0.0525 268:0.06 269:0.0775 270:0.095 271:0.0375 272:0.02 273:0.0525 274:0.03 275:0.055 276:0.0725 277:0.0275 278:0.0525 279:0.005 280:0.04 281:0.0775 282:0.0825 283:0.15 284:0.2425 285:0.1675 286:0.14 287:0.1175 288:0.165 289:0.1475 290:0.3 291:0.0575 292:0.035 293:0.2325 294:0.055 295:0.21 296:0.1975 297:0.1175 298:0.2275 299:0.02 300:0.12 301:0.115 302:0.08 303:0.1825 304:0.2775 305:0.1575 306:0.15 307:0.14 308:0.1775 309:0.1975 310:0.3075 311:0.0875 312:0.045 313:0.2075 314:0.0725 315:0.1975 316:0.2175 317:0.105 318:0.2075 319:0.015 320:0.1225 321:0.0375 322:0.0475 323:0.075 324:0.1225 325:0.095 326:0.075 327:0.06 328:0.0875 329:0.0725 330:0.1625 331:0.0275 332:0.0175 333:0.1325 334:0.0275 335:0.1175 336:0.105 337:0.0675 338:0.13 339:0.0125 340:0.065 341:0.08 342:0.095 343:0.1425 344:0.2275 345:0.1875 346:0.145 347:0.115 348:0.1675 349:0.1475 350:0.3175 351:0.0575 352:0.03 353:0.2575 354:0.0525 355:0.2275 356:0.2075 357:0.13 358:0.2575 359:0.02 360:0.1225 361:0.0025 362:0.0075 363:0.0125 364:0.0225 365:0.015 366:0.0125 367:0.01 368:0.015 369:0.0075 370:0.025 371:0.0025 372:0.005 373:0.0225 374:0.005 375:0.02 376:0.015 377:0.0125 378:0.02 379:0.005 380:0.0125 381:0.055 382:0.045 383:0.105 384:0.1675 385:0.0925 386:0.0875 387:0.08 388:0.105 389:0.1025 390:0.18 391:0.0425 392:0.0275 393:0.1275 394:0.04 395:0.12 396:0.1225 397:0.065 398:0.1225 399:0.0125 400:0.075 
0.02619985453097919 1:0.5125 2:0.055 3:0.265 4:0.4525 5:0.335 6:0.2875 7:0.1875 8:0.37 9:0.375 10:0.71 11:0.21 12:0.26 13:0.28 14:0.1375 15:0.37 16:0.4275 17:0.31 18:0.4325 19:0.0675 20:0.19 21:0.055 22:0.0125 23:0.03 24:0.0425 25:0.0375 26:0.035 27:0.025 28:0.04 29:0.04 30:0.09 31:0.025 32:0.025 33:0.05 34:0.015 35:0.045 36:0.045 37:0.0375 38:0.045 39:0.01 40:0.0375 41:0.265 42:0.03 43:0.2275 44:0.3275 45:0.1525 46:0.19 47:0.085 48:0.22 49:0.2475 50:0.365 51:0.16 52:0.165 53:0.1725 54:0.0775 55:0.2425 56:0.25 57:0.21 58:0.2925 59:0.02 60:0.135 61:0.4525 62:0.0425 63:0.3275 64:0.5175 65:0.285 66:0.2875 67:0.1425 68:0.3625 69:0.4125 70:0.6175 71:0.2275 72:0.2975 73:0.2475 74:0.1225 75:0.3725 76:0.4175 77:0.31 78:0.4575 79:0.0425 80:0.185 81:0.335 82:0.0375 83:0.1525 84:0.285 85:0.31 86:0.1975 87:0.16 88:0.305 89:0.255 90:0.475 91:0.1125 92:0.2 93:0.205 94:0.0975 95:0.2425 96:0.355 97:0.1925 98:0.2925 99:0.065 100:0.16 101:0.2875 102:0.035 103:0.19 104:0.2875 105:0.1975 106:0.1925 107:0.1175 108:0.2375 109:0.23 110:0.4025 111:0.1425 112:0.1475 113:0.195 114:0.085 115:0.24 116:0.2725 117:0.21 118:0.28 119:0.0375 120:0.155 121:0.1875 122:0.025 123:0.085 124:0.1425 125:0.16 126:0.1175 127:0.0975 128:0.1625 129:0.12 130:0.2625 131:0.0725 132:0.0775 133:0.13 134:0.06 135:0.14 136:0.1875 137:0.1225 138:0.16 139:0.0375 140:0.1025 141:0.37 142:0.04 143:0.22 144:0.3625 145:0.305 146:0.2375 147:0.1625 148:0.3375 149:0.2825 150:0.5025 151:0.165 152:0.2125 153:0.2225 154:0.1175 155:0.29 156:0.3875 157:0.24 158:0.3575 159:0.0575 160:0.165 161:0.375 162:0.04 163:0.2475 164:0.4125 165:0.255 166:0.23 167:0.12 168:0.2825 169:0.4375 170:0.5925 171:0.1375 172:0.2975 173:0.2625 174:0.06 175:0.3175 176:0.34 177:0.26 178:0.355 179:0.045 180:0.26 181:0.71 182:0.09 183:0.365 184:0.6175 185:0.475 186:0.4025 187:0.2625 188:0.5025 189:0.5925 190:1.0775 191:0.265 192:0.3975 193:0.4725 194:0.1575 195:0.535 196:0.5875 197:0.44 198:0.5875 199:0.0975 200:0.37 201:0.21 202:0.025 203:0.16 204:0.2275 205:0.1125 206:0.1425 207:0.0725 208:0.165 209:0.1375 210:0.265 211:0.1325 212:0.09 213:0.1175 214:0.075 215:0.175 216:0.1825 217:0.155 218:0.215 219:0.0175 220:0.065 221:0.26 222:0.025 223:0.165 224:0.2975 225:0.2 226:0.1475 227:0.0775 228:0.2125 229:0.2975 230:0.3975 231:0.09 232:0.2375 233:0.1475 234:0.0475 235:0.205 236:0.2525 237:0.15 238:0.2475 239:0.0325 240:0.13 241:0.28 242:0.05 243:0.1725 244:0.2475 245:0.205 246:0.195 247:0.13 248:0.2225 249:0.2625 250:0.4725 251:0.1175 252:0.1475 253:0.2775 254:0.06 255:0.2525 256:0.26 257:0.22 258:0.255 259:0.045 260:0.255 261:0.1375 262:0.015 263:0.0775 264:0.1225 265:0.0975 266:0.085 267:0.06 268:0.1175 269:0.06 270:0.1575 271:0.075 272:0.0475 273:0.06 274:0.0575 275:0.0975 276:0.13 277:0.085 278:0.1275 279:0.02 280:0.02 281:0.37 282:0.045 283:0.2425 284:0.3725 285:0.2425 286:0.24 287:0.14 288:0.29 289:0.3175 290:0.535 291:0.175 292:0.205 293:0.2525 294:0.0975 295:0.3075 296:0.335 297:0.265 298:0.3525 299:0.045 300:0.205 301:0.4275 302:0.045 303:0.25 304:0.4175 305:0.355 306:0.2725 307:0.1875 308:0.3875 309:0.34 310:0.5875 311:0.1825 312:0.2525 313:0.26 314:0.13 315:0.335 316:0.4475 317:0.2775 318:0.41 319:0.0675 320:0.2025 321:0.31 322:0.0375 323:0.21 324:0.31 325:0.1925 326:0.21 327:0.1225 328:0.24 329:0.26 330:0.44 331:0.155 332:0.15 333:0.22 334:0.085 335:0.265 336:0.2775 337:0.24 338:0.3 339:0.0375 340:0.1875 341:0.4325 342:0.045 343:0.2925 344:0.4575 345:0.2925 346:0.28 347:0.16 348:0.3575 349:0.355 350:0.5875 351:0.215 352:0.2475 353:0.255 354:0.1275 355:0.3525 356:0.41 357:0.3 358:0.4275 359:0.05 360:0.19 361:0.0675 362:0.01 363:0.02 364:0.0425 365:0.065 366:0.0375 367:0.0375 368:0.0575 369:0.045 370:0.0975 371:0.0175 372:0.0325 373:0.045 374:0.02 375:0.045 376:0.0675 377:0.0375 378:0.05 379:0.0175 380:0.0375 381:0.19 382:0.0375 383:0.135 384:0.185 385:0.16 386:0.155 387:0.1025 388:0.165 389:0.26 390:0.37 391:0.065 392:0.13 393:0.255 394:0.02 395:0.205 396:0.2025 397:0.1875 398:0.19 399:0.0375 400:0.29 
0.05813655058167018 1:0.245 2:0.0275 3:0.2275 4:0.335 5:0.37 6:0.265 7:0.0875 8:0.26 9:0.3625 10:0.35 11:0.14 12:0.18 13:0.235 14:0.1675 15:0.175 16:0.275 17:0.305 18:0.3175 19:0.035 20:0.185 21:0.0275 22:0.02 23:0.0375 24:0.065 25:0.055 26:0.0425 27:0.025 28:0.045 29:0.065 30:0.0775 31:0.0225 32:0.0275 33:0.055 34:0.0325 35:0.0525 36:0.045 37:0.05 38:0.055 39:0.0125 40:0.0275 41:0.2275 42:0.0375 43:0.27 44:0.33 45:0.395 46:0.2525 47:0.1275 48:0.2925 49:0.37 50:0.3975 51:0.175 52:0.19 53:0.25 54:0.1825 55:0.24 56:0.3075 57:0.34 58:0.34 59:0.0425 60:0.1775 61:0.335 62:0.065 63:0.33 64:0.58 65:0.535 66:0.4 67:0.15 68:0.4025 69:0.575 70:0.585 71:0.17 72:0.29 73:0.4225 74:0.255 75:0.3025 76:0.4425 77:0.435 78:0.5075 79:0.0525 80:0.3 81:0.37 82:0.055 83:0.395 84:0.535 85:0.84 86:0.495 87:0.14 88:0.6075 89:0.68 90:0.56 91:0.275 92:0.39 93:0.3875 94:0.275 95:0.3575 96:0.5875 97:0.395 98:0.5575 99:0.0425 100:0.39 101:0.265 102:0.0425 103:0.2525 104:0.4 105:0.495 106:0.335 107:0.0925 108:0.36 109:0.4525 110:0.405 111:0.15 112:0.245 113:0.29 114:0.1975 115:0.22 116:0.355 117:0.3 118:0.3875 119:0.035 120:0.255 121:0.0875 122:0.025 123:0.1275 124:0.15 125:0.14 126:0.0925 127:0.09 128:0.0975 129:0.145 130:0.225 131:0.0925 132:0.0675 133:0.145 134:0.0675 135:0.13 136:0.1225 137:0.1725 138:0.1625 139:0.025 140:0.085 141:0.26 142:0.045 143:0.2925 144:0.4025 145:0.6075 146:0.36 147:0.0975 148:0.4675 149:0.505 150:0.4025 151:0.175 152:0.3 153:0.2775 154:0.2275 155:0.2725 156:0.44 157:0.29 158:0.4125 159:0.0325 160:0.2675 161:0.3625 162:0.065 163:0.37 164:0.575 165:0.68 166:0.4525 167:0.145 168:0.505 169:0.64 170:0.5825 171:0.22 172:0.3375 173:0.4075 174:0.28 175:0.3375 176:0.515 177:0.4375 178:0.535 179:0.0525 180:0.33 181:0.35 182:0.0775 183:0.3975 184:0.585 185:0.56 186:0.405 187:0.225 188:0.4025 189:0.5825 190:0.715 191:0.245 192:0.285 193:0.49 194:0.2675 195:0.38 196:0.45 197:0.54 198:0.5775 199:0.07 200:0.33 201:0.14 202:0.0225 203:0.175 204:0.17 205:0.275 206:0.15 207:0.0925 208:0.175 209:0.22 210:0.245 211:0.16 212:0.1025 213:0.145 214:0.0825 215:0.16 216:0.195 217:0.2025 218:0.1925 219:0.0275 220:0.1175 221:0.18 222:0.0275 223:0.19 224:0.29 225:0.39 226:0.245 227:0.0675 228:0.3 229:0.3375 230:0.285 231:0.1025 232:0.205 233:0.2075 234:0.15 235:0.17 236:0.29 237:0.1975 238:0.2925 239:0.02 240:0.1975 241:0.235 242:0.055 243:0.25 244:0.4225 245:0.3875 246:0.29 247:0.145 248:0.2775 249:0.4075 250:0.49 251:0.145 252:0.2075 253:0.3575 254:0.1725 255:0.245 256:0.3125 257:0.335 258:0.405 259:0.0425 260:0.2575 261:0.1675 262:0.0325 263:0.1825 264:0.255 265:0.275 266:0.1975 267:0.0675 268:0.2275 269:0.28 270:0.2675 271:0.0825 272:0.15 273:0.1725 274:0.165 275:0.16 276:0.2125 277:0.2425 278:0.25 279:0.0325 280:0.115 281:0.175 282:0.0525 283:0.24 284:0.3025 285:0.3575 286:0.22 287:0.13 288:0.2725 289:0.3375 290:0.38 291:0.16 292:0.17 293:0.245 294:0.16 295:0.2525 296:0.285 297:0.2875 298:0.305 299:0.0425 300:0.16 301:0.275 302:0.045 303:0.3075 304:0.4425 305:0.5875 306:0.355 307:0.1225 308:0.44 309:0.515 310:0.45 311:0.195 312:0.29 313:0.3125 314:0.2125 315:0.285 316:0.4525 317:0.3225 318:0.425 319:0.035 320:0.275 321:0.305 322:0.05 323:0.34 324:0.435 325:0.395 326:0.3 327:0.1725 328:0.29 329:0.4375 330:0.54 331:0.2025 332:0.1975 333:0.335 334:0.2425 335:0.2875 336:0.3225 337:0.5 338:0.4325 339:0.065 340:0.19 341:0.3175 342:0.055 343:0.34 344:0.5075 345:0.5575 346:0.3875 347:0.1625 348:0.4125 349:0.535 350:0.5775 351:0.1925 352:0.2925 353:0.405 354:0.25 355:0.305 356:0.425 357:0.4325 358:0.5175 359:0.05 360:0.3175 361:0.035 362:0.0125 363:0.0425 364:0.0525 365:0.0425 366:0.035 367:0.025 368:0.0325 369:0.0525 370:0.07 371:0.0275 372:0.02 373:0.0425 374:0.0325 375:0.0425 376:0.035 377:0.065 378:0.05 379:0.0125 380:0.0175 381:0.185 382:0.0275 383:0.1775 384:0.3 385:0.39 386:0.255 387:0.085 388:0.2675 389:0.33 390:0.33 391:0.1175 392:0.1975 393:0.2575 394:0.115 395:0.16 396:0.275 397:0.19 398:0.3175 399:0.0175 400:0.255 
0.6761779166034083 1:0.1475 2:0.0275 3:0.155 4:0.0975 5:0.1125 6:0.095 7:0.0425 8:0.11 9:0.095 10:0.1825 11:0.045 12:0.0875 13:0.125 14:0.045 15:0.095 16:0.0775 17:0.16 18:0.145 19:0.0025 20:0.135 21:0.0275 22:0.0075 23:0.03 24:0.0175 25:0.0225 26:0.02 27:0.0125 28:0.025 29:0.02 30:0.0325 31:0.01 32:0.0275 33:0.03 34:0.01 35:0.02 36:0.0175 37:0.035 38:0.03 39:0.0025 40:0.03 41:0.155 42:0.03 43:0.165 44:0.1 45:0.12 46:0.1025 47:0.05 48:0.1225 49:0.1025 50:0.19 51:0.0475 52:0.11 53:0.1425 54:0.0475 55:0.1025 56:0.085 57:0.1775 58:0.1575 59:0.0025 60:0.15 61:0.0975 62:0.0175 63:0.1 64:0.0675 65:0.0725 66:0.06 67:0.0225 68:0.065 69:0.06 70:0.1225 71:0.03 72:0.0375 73:0.07 74:0.03 75:0.06 76:0.0475 77:0.095 78:0.09 79:0.0025 80:0.08 81:0.1125 82:0.0225 83:0.12 84:0.0725 85:0.0875 86:0.075 87:0.0375 88:0.09 89:0.075 90:0.1375 91:0.035 92:0.0825 93:0.105 94:0.035 95:0.075 96:0.0625 97:0.13 98:0.115 99:0.0025 100:0.11 101:0.095 102:0.02 103:0.1025 104:0.06 105:0.075 106:0.065 107:0.035 108:0.08 109:0.065 110:0.115 111:0.03 112:0.08 113:0.095 114:0.03 115:0.065 116:0.055 117:0.115 118:0.1 119:0.0025 120:0.0975 121:0.0425 122:0.0125 123:0.05 124:0.0225 125:0.0375 126:0.035 127:0.0275 128:0.05 129:0.035 130:0.0475 131:0.015 132:0.0725 133:0.065 134:0.015 135:0.035 136:0.0325 137:0.07 138:0.055 139:0.0025 140:0.06 141:0.11 142:0.025 143:0.1225 144:0.065 145:0.09 146:0.08 147:0.05 148:0.105 149:0.08 150:0.13 151:0.035 152:0.125 153:0.13 154:0.035 155:0.08 156:0.07 157:0.15 158:0.125 159:0.0025 160:0.1275 161:0.095 162:0.02 163:0.1025 164:0.06 165:0.075 166:0.065 167:0.035 168:0.08 169:0.065 170:0.115 171:0.03 172:0.08 173:0.095 174:0.03 175:0.065 176:0.055 177:0.115 178:0.1 179:0.0025 180:0.0975 181:0.1825 182:0.0325 183:0.19 184:0.1225 185:0.1375 186:0.115 187:0.0475 188:0.13 189:0.115 190:0.2275 191:0.055 192:0.0925 193:0.145 194:0.055 195:0.115 196:0.0925 197:0.19 198:0.175 199:0.0025 200:0.16 201:0.045 202:0.01 203:0.0475 204:0.03 205:0.035 206:0.03 207:0.015 208:0.035 209:0.03 210:0.055 211:0.015 212:0.03 213:0.04 214:0.015 215:0.03 216:0.025 217:0.05 218:0.045 219:0.0025 220:0.0425 221:0.0875 222:0.0275 223:0.11 224:0.0375 225:0.0825 226:0.08 227:0.0725 228:0.125 229:0.08 230:0.0925 231:0.03 232:0.2075 233:0.17 234:0.03 235:0.08 236:0.0775 237:0.175 238:0.13 239:0.0025 240:0.15 241:0.125 242:0.03 243:0.1425 244:0.07 245:0.105 246:0.095 247:0.065 248:0.13 249:0.095 250:0.145 251:0.04 252:0.17 253:0.165 254:0.04 255:0.095 256:0.085 257:0.185 258:0.15 259:0.0025 260:0.1575 261:0.045 262:0.01 263:0.0475 264:0.03 265:0.035 266:0.03 267:0.015 268:0.035 269:0.03 270:0.055 271:0.015 272:0.03 273:0.04 274:0.015 275:0.03 276:0.025 277:0.05 278:0.045 279:0.0025 280:0.0425 281:0.095 282:0.02 283:0.1025 284:0.06 285:0.075 286:0.065 287:0.035 288:0.08 289:0.065 290:0.115 291:0.03 292:0.08 293:0.095 294:0.03 295:0.065 296:0.055 297:0.115 298:0.1 299:0.0025 300:0.0975 301:0.0775 302:0.0175 303:0.085 304:0.0475 305:0.0625 306:0.055 307:0.0325 308:0.07 309:0.055 310:0.0925 311:0.025 312:0.0775 313:0.085 314:0.025 315:0.055 316:0.0475 317:0.1 318:0.085 319:0.0025 320:0.085 321:0.16 322:0.035 323:0.1775 324:0.095 325:0.13 326:0.115 327:0.07 328:0.15 329:0.115 330:0.19 331:0.05 332:0.175 333:0.185 334:0.05 335:0.115 336:0.1 337:0.215 338:0.18 339:0.0025 340:0.1825 341:0.145 342:0.03 343:0.1575 344:0.09 345:0.115 346:0.1 347:0.055 348:0.125 349:0.1 350:0.175 351:0.045 352:0.13 353:0.15 354:0.045 355:0.1 356:0.085 357:0.18 358:0.155 359:0.0025 360:0.1525 361:0.0025 362:0.0025 363:0.0025 364:0.0025 365:0.0025 366:0.0025 367:0.0025 368:0.0025 369:0.0025 370:0.0025 371:0.0025 372:0.0025 373:0.0025 374:0.0025 375:0.0025 376:0.0025 377:0.0025 378:0.0025 379:0.0025 380:0.0025 381:0.135 382:0.03 383:0.15 384:0.08 385:0.11 386:0.0975 387:0.06 388:0.1275 389:0.0975 390:0.16 391:0.0425 392:0.15 393:0.1575 394:0.0425 395:0.0975 396:0.085 397:0.1825 398:0.1525 399:0.0025 400:0.155 
2 1:0.105 2:0.0575 3:0.1125 4:0.085 5:0.0825 6:0.105 7:0.05 8:0.1025 9:0.1125 10:0.1525 11:0.0525 12:0.0625 13:0.13 14:0.0475 15:0.095 16:0.0825 17:0.065 18:0.0775 19:0.0025 20:0.0825 21:0.0575 22:0.035 23:0.0675 24:0.06 25:0.045 26:0.0575 27:0.025 28:0.06 29:0.0675 30:0.0975 31:0.04 32:0.03 33:0.0675 34:0.0275 35:0.05 36:0.045 37:0.045 38:0.05 39:0.0025 40:0.045 41:0.1125 42:0.0675 43:0.1325 44:0.1175 45:0.0875 46:0.1125 47:0.0475 48:0.1175 49:0.1325 50:0.1925 51:0.0775 52:0.0575 53:0.1325 54:0.0525 55:0.0975 56:0.0875 57:0.0875 58:0.0975 59:0.0025 60:0.0875 61:0.085 62:0.06 63:0.1175 64:0.1275 65:0.065 66:0.085 67:0.0275 68:0.1 69:0.1175 70:0.1875 71:0.09 72:0.03 73:0.09 74:0.0425 75:0.0675 76:0.065 77:0.0925 78:0.095 79:0.0025 80:0.065 81:0.0825 82:0.045 83:0.0875 84:0.065 85:0.065 86:0.0825 87:0.04 88:0.08 89:0.0875 90:0.1175 91:0.04 92:0.05 93:0.1025 94:0.0375 95:0.075 96:0.065 97:0.05 98:0.06 99:0.0025 100:0.065 101:0.105 102:0.0575 103:0.1125 104:0.085 105:0.0825 106:0.105 107:0.05 108:0.1025 109:0.1125 110:0.1525 111:0.0525 112:0.0625 113:0.13 114:0.0475 115:0.095 116:0.0825 117:0.065 118:0.0775 119:0.0025 120:0.0825 121:0.05 122:0.025 123:0.0475 124:0.0275 125:0.04 126:0.05 127:0.0275 128:0.045 129:0.0475 130:0.0575 131:0.015 132:0.035 133:0.065 134:0.0225 135:0.0475 136:0.04 137:0.0225 138:0.03 139:0.0025 140:0.04 141:0.1025 142:0.06 143:0.1175 144:0.1 145:0.08 146:0.1025 147:0.045 148:0.105 149:0.1175 150:0.1675 151:0.065 152:0.055 153:0.1225 154:0.0475 155:0.09 156:0.08 157:0.075 158:0.085 159:0.0025 160:0.08 161:0.1125 162:0.0675 163:0.1325 164:0.1175 165:0.0875 166:0.1125 167:0.0475 168:0.1175 169:0.1325 170:0.1925 171:0.0775 172:0.0575 173:0.1325 174:0.0525 175:0.0975 176:0.0875 177:0.0875 178:0.0975 179:0.0025 180:0.0875 181:0.1525 182:0.0975 183:0.1925 184:0.1875 185:0.1175 186:0.1525 187:0.0575 188:0.1675 189:0.1925 190:0.2925 191:0.1275 192:0.0675 193:0.1725 194:0.0725 195:0.1275 196:0.1175 197:0.1375 198:0.1475 199:0.0025 200:0.1175 201:0.0525 202:0.04 203:0.0775 204:0.09 205:0.04 206:0.0525 207:0.015 208:0.065 209:0.0775 210:0.1275 211:0.065 212:0.015 213:0.0525 214:0.0275 215:0.04 216:0.04 217:0.065 218:0.065 219:0.0025 220:0.04 221:0.0625 222:0.03 223:0.0575 224:0.03 225:0.05 226:0.0625 227:0.035 228:0.055 229:0.0575 230:0.0675 231:0.015 232:0.045 233:0.0825 234:0.0275 235:0.06 236:0.05 237:0.025 238:0.035 239:0.0025 240:0.05 241:0.13 242:0.0675 243:0.1325 244:0.09 245:0.1025 246:0.13 247:0.065 248:0.1225 249:0.1325 250:0.1725 251:0.0525 252:0.0825 253:0.165 254:0.0575 255:0.12 256:0.1025 257:0.07 258:0.0875 259:0.0025 260:0.1025 261:0.0475 262:0.0275 263:0.0525 264:0.0425 265:0.0375 266:0.0475 267:0.0225 268:0.0475 269:0.0525 270:0.0725 271:0.0275 272:0.0275 273:0.0575 274:0.0225 275:0.0425 276:0.0375 277:0.0325 278:0.0375 279:0.0025 280:0.0375 281:0.095 282:0.05 283:0.0975 284:0.0675 285:0.075 286:0.095 287:0.0475 288:0.09 289:0.0975 290:0.1275 291:0.04 292:0.06 293:0.12 294:0.0425 295:0.0875 296:0.075 297:0.0525 298:0.065 299:0.0025 300:0.075 301:0.0825 302:0.045 303:0.0875 304:0.065 305:0.065 306:0.0825 307:0.04 308:0.08 309:0.0875 310:0.1175 311:0.04 312:0.05 313:0.1025 314:0.0375 315:0.075 316:0.065 317:0.05 318:0.06 319:0.0025 320:0.065 321:0.065 322:0.045 323:0.0875 324:0.0925 325:0.05 326:0.065 327:0.0225 328:0.075 329:0.0875 330:0.1375 331:0.065 332:0.025 333:0.07 334:0.0325 335:0.0525 336:0.05 337:0.0675 338:0.07 339:0.0025 340:0.05 341:0.0775 342:0.05 343:0.0975 344:0.095 345:0.06 346:0.0775 347:0.03 348:0.085 349:0.0975 350:0.1475 351:0.065 352:0.035 353:0.0875 354:0.0375 355:0.065 356:0.06 357:0.07 358:0.075 359:0.0025 360:0.06 361:0.0025 362:0.0025 363:0.0025 364:0.0025 365:0.0025 366:0.0025 367:0.0025 368:0.0025 369:0.0025 370:0.0025 371:0.0025 372:0.0025 373:0.0025 374:0.0025 375:0.0025 376:0.0025 377:0.0025 378:0.0025 379:0.0025 380:0.0025 381:0.0825 382:0.045 383:0.0875 384:0.065 385:0.065 386:0.0825 387:0.04 388:0.08 389:0.0875 390:0.1175 391:0.04 392:0.05 393:0.1025 394:0.0375 395:0.075 396:0.065 397:0.05 398:0.06 399:0.0025 400:0.065 
0.4660741133799395 1:0.78 2:0.1875 3:0.2525 4:0.43 5:0.425 6:0.5275 7:0.14 8:0.37 9:0.29 10:0.905 11:0.14 12:0.31 13:0.4675 14:0.305 15:0.6 16:0.3975 17:0.4025 18:0.5025 19:0.1225 20:0.2825 21:0.1875 22:0.0875 23:0.07 24:0.125 25:0.115 26:0.1375 27:0.0175 28:0.11 29:0.06 30:0.2825 31:0.0625 32:0.05 33:0.13 34:0.0875 35:0.1475 36:0.05 37:0.0825 38:0.1225 39:0.055 40:0.07 41:0.2525 42:0.07 43:0.1825 44:0.2575 45:0.215 46:0.2575 47:0.0725 48:0.195 49:0.2325 50:0.43 51:0.1 52:0.1775 53:0.195 54:0.185 55:0.2025 56:0.18 57:0.2675 58:0.275 59:0.045 60:0.12 61:0.43 62:0.125 63:0.2575 64:0.4 65:0.3175 66:0.37 67:0.095 68:0.28 69:0.315 70:0.655 71:0.1625 72:0.255 73:0.3125 74:0.265 75:0.34 76:0.25 77:0.38 78:0.3975 79:0.065 80:0.1775 81:0.425 82:0.115 83:0.215 84:0.3175 85:0.33 86:0.39 87:0.0925 88:0.2725 89:0.2575 90:0.595 91:0.115 92:0.2025 93:0.3075 94:0.2375 95:0.3275 96:0.275 97:0.325 98:0.3675 99:0.085 100:0.1975 101:0.5275 102:0.1375 103:0.2575 104:0.37 105:0.39 106:0.4875 107:0.12 108:0.345 109:0.315 110:0.7425 111:0.1175 112:0.2825 113:0.3625 114:0.29 115:0.4175 116:0.3425 117:0.39 118:0.465 119:0.1175 120:0.235 121:0.14 122:0.0175 123:0.0725 124:0.095 125:0.0925 126:0.12 127:0.0475 128:0.0825 129:0.1025 130:0.185 131:0.025 132:0.09 133:0.0875 134:0.075 135:0.11 136:0.1125 137:0.1175 138:0.125 139:0.0175 140:0.06 141:0.37 142:0.11 143:0.195 144:0.28 145:0.2725 146:0.345 147:0.0825 148:0.28 149:0.215 150:0.535 151:0.0925 152:0.2175 153:0.255 154:0.2425 155:0.29 156:0.2275 157:0.2975 158:0.335 159:0.0825 160:0.1875 161:0.29 162:0.06 163:0.2325 164:0.315 165:0.2575 166:0.315 167:0.1025 168:0.215 169:0.33 170:0.525 171:0.115 172:0.24 173:0.225 174:0.2075 175:0.2425 176:0.2425 177:0.34 178:0.3525 179:0.0475 180:0.12 181:0.905 182:0.2825 183:0.43 184:0.655 185:0.595 186:0.7425 187:0.185 188:0.535 189:0.525 190:1.38 191:0.2575 192:0.4175 193:0.6125 194:0.455 195:0.7225 196:0.4625 197:0.595 198:0.735 199:0.1975 200:0.335 201:0.14 202:0.0625 203:0.1 204:0.1625 205:0.115 206:0.1175 207:0.025 208:0.0925 209:0.115 210:0.2575 211:0.0875 212:0.0575 213:0.12 214:0.095 215:0.1075 216:0.0575 217:0.13 218:0.1275 219:0.0225 220:0.0575 221:0.31 222:0.05 223:0.1775 224:0.255 225:0.2025 226:0.2825 227:0.09 228:0.2175 229:0.24 230:0.4175 231:0.0575 232:0.29 233:0.185 234:0.1925 235:0.265 236:0.23 237:0.2925 238:0.325 239:0.05 240:0.12 241:0.4675 242:0.13 243:0.195 244:0.3125 245:0.3075 246:0.3625 247:0.0875 248:0.255 249:0.225 250:0.6125 251:0.12 252:0.185 253:0.315 254:0.22 255:0.3575 256:0.2525 257:0.2925 258:0.3425 259:0.0825 260:0.19 261:0.305 262:0.0875 263:0.185 264:0.265 265:0.2375 266:0.29 267:0.075 268:0.2425 269:0.2075 270:0.455 271:0.095 272:0.1925 273:0.22 274:0.2225 275:0.235 276:0.2 277:0.285 278:0.2925 279:0.055 280:0.165 281:0.6 282:0.1475 283:0.2025 284:0.34 285:0.3275 286:0.4175 287:0.11 288:0.29 289:0.2425 290:0.7225 291:0.1075 292:0.265 293:0.3575 294:0.235 295:0.4725 296:0.305 297:0.315 298:0.4075 299:0.105 300:0.205 301:0.3975 302:0.05 303:0.18 304:0.25 305:0.275 306:0.3425 307:0.1125 308:0.2275 309:0.2425 310:0.4625 311:0.0575 312:0.23 313:0.2525 314:0.2 315:0.305 316:0.315 317:0.31 318:0.335 319:0.05 320:0.18 321:0.4025 322:0.0825 323:0.2675 324:0.38 325:0.325 326:0.39 327:0.1175 328:0.2975 329:0.34 330:0.595 331:0.13 332:0.2925 333:0.2925 334:0.285 335:0.315 336:0.31 337:0.4225 338:0.4175 339:0.05 340:0.2 341:0.5025 342:0.1225 343:0.275 344:0.3975 345:0.3675 346:0.465 347:0.125 348:0.335 349:0.3525 350:0.735 351:0.1275 352:0.325 353:0.3425 354:0.2925 355:0.4075 356:0.335 357:0.4175 358:0.4775 359:0.1 360:0.21 361:0.1225 362:0.055 363:0.045 364:0.065 365:0.085 366:0.1175 367:0.0175 368:0.0825 369:0.0475 370:0.1975 371:0.0225 372:0.05 373:0.0825 374:0.055 375:0.105 376:0.05 377:0.05 378:0.1 379:0.055 380:0.045 381:0.2825 382:0.07 383:0.12 384:0.1775 385:0.1975 386:0.235 387:0.06 388:0.1875 389:0.12 390:0.335 391:0.0575 392:0.12 393:0.19 394:0.165 395:0.205 396:0.18 397:0.2 398:0.21 399:0.045 400:0.155 
1.29455308060596 1:0.33 2:0.0125 3:0.2775 4:0.21 5:0.205 6:0.2825 7:0.0725 8:0.21 9:0.18 10:0.435 11:0.095 12:0.1475 13:0.2275 14:0.135 15:0.1925 16:0.2225 17:0.235 18:0.225 19:0.075 20:0.12 21:0.0125 22:0.005 23:0.015 24:0.01 25:0.01 26:0.0175 27:0.005 28:0.015 29:0.015 30:0.03 31:0.0075 32:0.0125 33:0.0125 34:0.01 35:0.0075 36:0.0125 37:0.0175 38:0.015 39:0.0075 40:0.0125 41:0.2775 42:0.015 43:0.25 44:0.1875 45:0.205 46:0.25 47:0.0675 48:0.1825 49:0.1825 50:0.4125 51:0.0875 52:0.1675 53:0.2 54:0.1275 55:0.1675 56:0.19 57:0.215 58:0.2025 59:0.0725 60:0.11 61:0.21 62:0.01 63:0.1875 64:0.2475 65:0.2275 66:0.21 67:0.1075 68:0.19 69:0.1925 70:0.4225 71:0.1325 72:0.1625 73:0.1725 74:0.16 75:0.1675 76:0.13 77:0.2275 78:0.22 79:0.0425 80:0.15 81:0.205 82:0.01 83:0.205 84:0.2275 85:0.2725 86:0.1975 87:0.1 88:0.1525 89:0.2125 90:0.4225 91:0.115 92:0.2275 93:0.1675 94:0.1525 95:0.1675 96:0.1225 97:0.205 98:0.1975 99:0.055 100:0.115 101:0.2825 102:0.0175 103:0.25 104:0.21 105:0.1975 106:0.2675 107:0.0775 108:0.2125 109:0.19 110:0.445 111:0.105 112:0.1525 113:0.21 114:0.1425 115:0.1725 116:0.1975 117:0.2425 118:0.2275 119:0.07 120:0.14 121:0.0725 122:0.005 123:0.0675 124:0.1075 125:0.1 126:0.0775 127:0.05 128:0.075 129:0.0825 130:0.1725 131:0.06 132:0.0725 133:0.065 134:0.07 135:0.0675 136:0.0425 137:0.0925 138:0.09 139:0.015 140:0.065 141:0.21 142:0.015 143:0.1825 144:0.19 145:0.1525 146:0.2125 147:0.075 148:0.1875 149:0.155 150:0.37 151:0.1025 152:0.1075 153:0.165 154:0.1275 155:0.1375 156:0.1475 157:0.21 158:0.1975 159:0.0475 160:0.1375 161:0.18 162:0.015 163:0.1825 164:0.1925 165:0.2125 166:0.19 167:0.0825 168:0.155 169:0.1875 170:0.3875 171:0.1025 172:0.1825 173:0.1525 174:0.135 175:0.1375 176:0.12 177:0.1975 178:0.185 179:0.0525 180:0.12 181:0.435 182:0.03 183:0.4125 184:0.4225 185:0.4225 186:0.445 187:0.1725 188:0.37 189:0.3875 190:0.8475 191:0.2225 192:0.3425 193:0.3525 194:0.29 195:0.3075 196:0.295 197:0.4475 198:0.42 199:0.1125 200:0.275 201:0.095 202:0.0075 203:0.0875 204:0.1325 205:0.115 206:0.105 207:0.06 208:0.1025 209:0.1025 210:0.2225 211:0.075 212:0.0825 213:0.085 214:0.0875 215:0.0825 216:0.06 217:0.1225 218:0.1175 219:0.02 220:0.0875 221:0.1475 222:0.0125 223:0.1675 224:0.1625 225:0.2275 226:0.1525 227:0.0725 228:0.1075 229:0.1825 230:0.3425 231:0.0825 232:0.2125 233:0.1275 234:0.1175 235:0.1225 236:0.0925 237:0.1575 238:0.1475 239:0.0525 240:0.0825 241:0.2275 242:0.0125 243:0.2 244:0.1725 245:0.1675 246:0.21 247:0.065 248:0.165 249:0.1525 250:0.3525 251:0.085 252:0.1275 253:0.1675 254:0.115 255:0.1425 256:0.155 257:0.19 258:0.18 259:0.055 260:0.1075 261:0.135 262:0.01 263:0.1275 264:0.16 265:0.1525 266:0.1425 267:0.07 268:0.1275 269:0.135 270:0.29 271:0.0875 272:0.1175 273:0.115 274:0.1075 275:0.1075 276:0.0875 277:0.155 278:0.1475 279:0.0325 280:0.1025 281:0.1925 282:0.0075 283:0.1675 284:0.1675 285:0.1675 286:0.1725 287:0.0675 288:0.1375 289:0.1375 290:0.3075 291:0.0825 292:0.1225 293:0.1425 294:0.1075 295:0.1325 296:0.1225 297:0.1625 298:0.1575 299:0.0425 300:0.0925 301:0.2225 302:0.0125 303:0.19 304:0.13 305:0.1225 306:0.1975 307:0.0425 308:0.1475 309:0.12 310:0.295 311:0.06 312:0.0925 313:0.155 314:0.0875 315:0.1225 316:0.1575 317:0.1625 318:0.1525 319:0.055 320:0.085 321:0.235 322:0.0175 323:0.215 324:0.2275 325:0.205 326:0.2425 327:0.0925 328:0.21 329:0.1975 330:0.4475 331:0.1225 332:0.1575 333:0.19 334:0.155 335:0.1625 336:0.1625 337:0.245 338:0.23 339:0.0575 340:0.1575 341:0.225 342:0.015 343:0.2025 344:0.22 345:0.1975 346:0.2275 347:0.09 348:0.1975 349:0.185 350:0.42 351:0.1175 352:0.1475 353:0.18 354:0.1475 355:0.1575 356:0.1525 357:0.23 358:0.2175 359:0.0525 360:0.1475 361:0.075 362:0.0075 363:0.0725 364:0.0425 365:0.055 366:0.07 367:0.015 368:0.0475 369:0.0525 370:0.1125 371:0.02 372:0.0525 373:0.055 374:0.0325 375:0.0425 376:0.055 377:0.0575 378:0.0525 379:0.025 380:0.0275 381:0.12 382:0.0125 383:0.11 384:0.15 385:0.115 386:0.14 387:0.065 388:0.1375 389:0.12 390:0.275 391:0.0875 392:0.0825 393:0.1075 394:0.1025 395:0.0925 396:0.085 397:0.1575 398:0.1475 399:0.0275 400:0.115 
0.8646421444543043 1:0.1625 2:0.065 3:0.2625 4:0.1525 5:0.3275 6:0.155 7:0.0375 8:0.255 9:0.2675 10:0.33 11:0.1025 12:0.2725 13:0.1525 14:0.06 15:0.165 16:0.24 17:0.145 18:0.2175 19:0.02 20:0.095 21:0.065 22:0.0375 23:0.135 24:0.07 25:0.1475 26:0.07 27:0.0175 28:0.125 29:0.135 30:0.15 31:0.045 32:0.0975 33:0.0875 34:0.025 35:0.075 36:0.1 37:0.0725 38:0.1125 39:0.01 40:0.0725 41:0.2625 42:0.135 43:0.7075 44:0.315 45:0.6025 46:0.21 47:0.095 48:0.6325 49:0.6325 50:0.685 51:0.2475 52:0.52 53:0.3675 54:0.1425 55:0.3625 56:0.46 57:0.3975 58:0.4875 59:0.045 60:0.3425 61:0.1525 62:0.07 63:0.315 64:0.19 65:0.3275 66:0.155 67:0.065 68:0.3325 69:0.3575 70:0.3775 71:0.12 72:0.305 73:0.2125 74:0.055 75:0.18 76:0.25 77:0.195 78:0.235 79:0.0225 80:0.1675 81:0.3275 82:0.1475 83:0.6025 84:0.3275 85:0.935 86:0.3725 87:0.1175 88:0.665 89:0.67 90:0.85 91:0.2775 92:0.5575 93:0.41 94:0.1225 95:0.4 96:0.5325 97:0.33 98:0.5775 99:0.065 100:0.3625 101:0.155 102:0.07 103:0.21 104:0.155 105:0.3725 106:0.2025 107:0.0425 108:0.2525 109:0.28 110:0.3475 111:0.095 112:0.2375 113:0.1775 114:0.0375 115:0.1475 116:0.2225 117:0.12 118:0.2175 119:0.0175 120:0.125 121:0.0375 122:0.0175 123:0.095 124:0.065 125:0.1175 126:0.0425 127:0.04 128:0.13 129:0.1375 130:0.135 131:0.0475 132:0.105 133:0.085 134:0.0125 135:0.0625 136:0.0775 137:0.07 138:0.0775 139:0.015 140:0.08 141:0.255 142:0.125 143:0.6325 144:0.3325 145:0.665 146:0.2525 147:0.13 148:0.6625 149:0.6825 150:0.7325 151:0.2525 152:0.54 153:0.405 154:0.1125 155:0.355 156:0.4575 157:0.3825 158:0.48 159:0.0525 160:0.3775 161:0.2675 162:0.135 163:0.6325 164:0.3575 165:0.67 166:0.28 167:0.1375 168:0.6825 169:0.735 170:0.7575 171:0.2425 172:0.5525 173:0.44 174:0.1 175:0.3575 176:0.47 177:0.3925 178:0.4975 179:0.0525 180:0.395 181:0.33 182:0.15 183:0.685 184:0.3775 185:0.85 186:0.3475 187:0.135 188:0.7325 189:0.7575 190:0.87 191:0.2875 192:0.63 193:0.4475 194:0.13 195:0.4125 196:0.5525 197:0.4025 198:0.57 199:0.06 200:0.3925 201:0.1025 202:0.045 203:0.2475 204:0.12 205:0.2775 206:0.095 207:0.0475 208:0.2525 209:0.2425 210:0.2875 211:0.11 212:0.2175 213:0.1375 214:0.055 215:0.1425 216:0.1825 217:0.145 218:0.185 219:0.0225 220:0.135 221:0.2725 222:0.0975 223:0.52 224:0.305 225:0.5575 226:0.2375 227:0.105 228:0.54 229:0.5525 230:0.63 231:0.2175 232:0.57 233:0.3 234:0.1125 235:0.3125 236:0.4425 237:0.32 238:0.3725 239:0.04 240:0.215 241:0.1525 242:0.0875 243:0.3675 244:0.2125 245:0.41 246:0.1775 247:0.085 248:0.405 249:0.44 250:0.4475 251:0.1375 252:0.3 253:0.2825 254:0.05 255:0.21 256:0.27 257:0.225 258:0.3025 259:0.0325 260:0.255 261:0.06 262:0.025 263:0.1425 264:0.055 265:0.1225 266:0.0375 267:0.0125 268:0.1125 269:0.1 270:0.13 271:0.055 272:0.1125 273:0.05 274:0.04 275:0.075 276:0.0975 277:0.075 278:0.0925 279:0.01 280:0.045 281:0.165 282:0.075 283:0.3625 284:0.18 285:0.4 286:0.1475 287:0.0625 288:0.355 289:0.3575 290:0.4125 291:0.1425 292:0.3125 293:0.21 294:0.075 295:0.2125 296:0.2775 297:0.205 298:0.285 299:0.0325 300:0.18 301:0.24 302:0.1 303:0.46 304:0.25 305:0.5325 306:0.2225 307:0.0775 308:0.4575 309:0.47 310:0.5525 311:0.1825 312:0.4425 313:0.27 314:0.0975 315:0.2775 316:0.3825 317:0.2625 318:0.365 319:0.0375 320:0.205 321:0.145 322:0.0725 323:0.3975 324:0.195 325:0.33 326:0.12 327:0.07 328:0.3825 329:0.3925 330:0.4025 331:0.145 332:0.32 333:0.225 334:0.075 335:0.205 336:0.2625 337:0.24 338:0.2675 339:0.0275 340:0.21 341:0.2175 342:0.1125 343:0.4875 344:0.235 345:0.5775 346:0.2175 347:0.0775 348:0.48 349:0.4975 350:0.57 351:0.185 352:0.3725 353:0.3025 354:0.0925 355:0.285 356:0.365 357:0.2675 358:0.42 359:0.045 360:0.2775 361:0.02 362:0.01 363:0.045 364:0.0225 365:0.065 366:0.0175 367:0.015 368:0.0525 369:0.0525 370:0.06 371:0.0225 372:0.04 373:0.0325 374:0.01 375:0.0325 376:0.0375 377:0.0275 378:0.045 379:0.01 380:0.0325 381:0.095 382:0.0725 383:0.3425 384:0.1675 385:0.3625 386:0.125 387:0.08 388:0.3775 389:0.395 390:0.3925 391:0.135 392:0.215 393:0.255 394:0.045 395:0.18 396:0.205 397:0.21 398:0.2775 399:0.0325 400:0.285 
0.5107909975577252 1:0.2825 2:0.1025 3:0.2 4:0.265 5:0.32 6:0.12 7:0.13 8:0.2575 9:0.3675 10:0.44 11:0.1725 12:0.205 13:0.235 14:0.27 15:0.1325 16:0.26 17:0.2575 18:0.1975 19:0.0375 20:0.1975 21:0.1025 22:0.0525 23:0.07 24:0.115 25:0.11 26:0.04 27:0.045 28:0.0925 29:0.1125 30:0.175 31:0.0625 32:0.08 33:0.095 34:0.09 35:0.0525 36:0.085 37:0.1075 38:0.0775 39:0.0125 40:0.0725 41:0.2 42:0.07 43:0.2725 44:0.26 45:0.3725 46:0.1175 47:0.1575 48:0.255 49:0.355 50:0.44 51:0.16 52:0.1875 53:0.1825 54:0.1925 55:0.1575 56:0.2575 57:0.2125 58:0.225 59:0.0375 60:0.2 61:0.265 62:0.115 63:0.26 64:0.405 65:0.305 66:0.1225 67:0.135 68:0.31 69:0.3675 70:0.5125 71:0.2575 72:0.2575 73:0.215 74:0.2375 75:0.145 76:0.3325 77:0.3025 78:0.3 79:0.025 80:0.18 81:0.32 82:0.11 83:0.3725 84:0.305 85:0.61 86:0.1875 87:0.225 88:0.335 89:0.545 90:0.6875 91:0.18 92:0.245 93:0.31 94:0.315 95:0.2125 96:0.3325 97:0.305 98:0.275 99:0.065 100:0.3125 101:0.12 102:0.04 103:0.1175 104:0.1225 105:0.1875 106:0.0775 107:0.0575 108:0.1275 109:0.2125 110:0.265 111:0.0925 112:0.095 113:0.11 114:0.125 115:0.0675 116:0.1375 117:0.125 118:0.1225 119:0.02 120:0.09 121:0.13 122:0.045 123:0.1575 124:0.135 125:0.225 126:0.0575 127:0.1125 128:0.1475 129:0.1925 130:0.215 131:0.07 132:0.1075 133:0.115 134:0.12 135:0.1025 136:0.135 137:0.115 138:0.1 139:0.0275 140:0.14 141:0.2575 142:0.0925 143:0.255 144:0.31 145:0.335 146:0.1275 147:0.1475 148:0.3025 149:0.395 150:0.4675 151:0.2075 152:0.2275 153:0.2175 154:0.25 155:0.175 156:0.3 157:0.27 158:0.26 159:0.035 160:0.205 161:0.3675 162:0.1125 163:0.355 164:0.3675 165:0.545 166:0.2125 167:0.1925 168:0.395 169:0.6225 170:0.7275 171:0.27 172:0.29 173:0.32 174:0.3775 175:0.215 176:0.415 177:0.3625 178:0.3475 179:0.0575 180:0.285 181:0.44 182:0.175 183:0.44 184:0.5125 185:0.6875 186:0.265 187:0.215 188:0.4675 189:0.7275 190:1.0075 191:0.34 192:0.365 193:0.4175 194:0.4325 195:0.2475 196:0.4925 197:0.485 198:0.46 199:0.0625 200:0.335 201:0.1725 202:0.0625 203:0.16 204:0.2575 205:0.18 206:0.0925 207:0.07 208:0.2075 209:0.27 210:0.34 211:0.19 212:0.1675 213:0.13 214:0.1675 215:0.085 216:0.2375 217:0.1975 218:0.2125 219:0.015 220:0.0975 221:0.205 222:0.08 223:0.1875 224:0.2575 225:0.245 226:0.095 227:0.1075 228:0.2275 229:0.29 230:0.365 231:0.1675 232:0.18 233:0.17 234:0.1925 235:0.12 236:0.2325 237:0.215 238:0.2 239:0.025 240:0.15 241:0.235 242:0.095 243:0.1825 244:0.215 245:0.31 246:0.11 247:0.115 248:0.2175 249:0.32 250:0.4175 251:0.13 252:0.17 253:0.2175 254:0.225 255:0.13 256:0.205 257:0.2275 258:0.1725 259:0.035 260:0.1825 261:0.27 262:0.09 263:0.1925 264:0.2375 265:0.315 266:0.125 267:0.12 268:0.25 269:0.3775 270:0.4325 271:0.1675 272:0.1925 273:0.225 274:0.2675 275:0.13 276:0.255 277:0.245 278:0.195 279:0.0375 280:0.1875 281:0.1325 282:0.0525 283:0.1575 284:0.145 285:0.2125 286:0.0675 287:0.1025 288:0.175 289:0.215 290:0.2475 291:0.085 292:0.12 293:0.13 294:0.13 295:0.1375 296:0.1425 297:0.145 298:0.135 299:0.025 300:0.1425 301:0.26 302:0.085 303:0.2575 304:0.3325 305:0.3325 306:0.1375 307:0.135 308:0.3 309:0.415 310:0.4925 311:0.2375 312:0.2325 313:0.205 314:0.255 315:0.1425 316:0.33 317:0.27 318:0.2775 319:0.0325 320:0.1825 321:0.2575 322:0.1075 323:0.2125 324:0.3025 325:0.305 326:0.125 327:0.115 328:0.27 329:0.3625 330:0.485 331:0.1975 332:0.215 333:0.2275 334:0.245 335:0.145 336:0.27 337:0.2775 338:0.245 339:0.03 340:0.18 341:0.1975 342:0.0775 343:0.225 344:0.3 345:0.275 346:0.1225 347:0.1 348:0.26 349:0.3475 350:0.46 351:0.2125 352:0.2 353:0.1725 354:0.195 355:0.135 356:0.2775 357:0.245 358:0.27 359:0.0225 360:0.1425 361:0.0375 362:0.0125 363:0.0375 364:0.025 365:0.065 366:0.02 367:0.0275 368:0.035 369:0.0575 370:0.0625 371:0.015 372:0.025 373:0.035 374:0.0375 375:0.025 376:0.0325 377:0.03 378:0.0225 379:0.01 380:0.0375 381:0.1975 382:0.0725 383:0.2 384:0.18 385:0.3125 386:0.09 387:0.14 388:0.205 389:0.285 390:0.335 391:0.0975 392:0.15 393:0.1825 394:0.1875 395:0.1425 396:0.1825 397:0.18 398:0.1425 399:0.0375 400:0.1925 
1.409638922554924 1:1.0625 2:0.2325 3:0.3375 4:0.3675 5:0.6775 6:0.83 7:0.175 8:0.8175 9:0.36 10:1.025 11:0.3925 12:0.44 13:0.385 14:0.1625 15:0.29 16:0.87 17:0.5425 18:0.8575 19:0.1525 20:0.3025 21:0.2325 22:0.0775 23:0.0825 24:0.0625 25:0.0975 26:0.1675 27:0.04 28:0.1525 29:0.0675 30:0.2 31:0.06 32:0.09 33:0.0725 34:0.0175 35:0.0475 36:0.1775 37:0.1175 38:0.2175 39:0.0075 40:0.0625 41:0.3375 42:0.0825 43:0.175 44:0.1925 45:0.2175 46:0.255 47:0.1075 48:0.3025 49:0.1975 50:0.3275 51:0.17 52:0.1475 53:0.1475 54:0.0775 55:0.1075 56:0.32 57:0.2275 58:0.29 59:0.0425 60:0.125 61:0.3675 62:0.0625 63:0.1925 64:0.3425 65:0.305 66:0.3575 67:0.1525 68:0.3625 69:0.355 70:0.5575 71:0.2275 72:0.175 73:0.305 74:0.1075 75:0.15 76:0.405 77:0.2325 78:0.3575 79:0.0675 80:0.1675 81:0.6775 82:0.0975 83:0.2175 84:0.305 85:0.58 86:0.565 87:0.1525 88:0.585 89:0.295 90:0.7 91:0.335 92:0.3075 93:0.29 94:0.1475 95:0.24 96:0.5625 97:0.3775 98:0.4675 99:0.1575 100:0.22 101:0.83 102:0.1675 103:0.255 104:0.3575 105:0.565 106:0.7875 107:0.1425 108:0.6025 109:0.38 110:0.89 111:0.2875 112:0.345 113:0.3725 114:0.11 115:0.2275 116:0.67 117:0.3675 118:0.695 119:0.1475 120:0.25 121:0.175 122:0.04 123:0.1075 124:0.1525 125:0.1525 126:0.1425 127:0.0975 128:0.165 129:0.165 130:0.2175 131:0.1175 132:0.0875 133:0.125 134:0.05 135:0.075 136:0.17 137:0.14 138:0.1575 139:0.0225 140:0.09 141:0.8175 142:0.1525 143:0.3025 144:0.3625 145:0.585 146:0.6025 147:0.165 148:0.77 149:0.32 150:0.81 151:0.4075 152:0.3575 153:0.32 154:0.185 155:0.2725 156:0.745 157:0.4775 158:0.6075 159:0.1525 160:0.2375 161:0.36 162:0.0675 163:0.1975 164:0.355 165:0.295 166:0.38 167:0.165 168:0.32 169:0.3875 170:0.565 171:0.2075 172:0.17 173:0.32 174:0.095 175:0.14 176:0.3875 177:0.2225 178:0.3775 179:0.0575 180:0.18 181:1.025 182:0.2 183:0.3275 184:0.5575 185:0.7 186:0.89 187:0.2175 188:0.81 189:0.565 190:1.3625 191:0.415 192:0.44 193:0.625 194:0.19 195:0.315 196:0.955 197:0.5 198:0.9575 199:0.1425 200:0.345 201:0.3925 202:0.06 203:0.17 204:0.2275 205:0.335 206:0.2875 207:0.1175 208:0.4075 209:0.2075 210:0.415 211:0.245 212:0.185 213:0.185 214:0.115 215:0.1575 216:0.3775 217:0.265 218:0.275 219:0.0875 220:0.1375 221:0.44 222:0.09 223:0.1475 224:0.175 225:0.3075 226:0.345 227:0.0875 228:0.3575 229:0.17 230:0.44 231:0.185 232:0.19 233:0.175 234:0.08 235:0.135 236:0.3675 237:0.24 238:0.3425 239:0.0725 240:0.1325 241:0.385 242:0.0725 243:0.1475 244:0.305 245:0.29 246:0.3725 247:0.125 248:0.32 249:0.32 250:0.625 251:0.185 252:0.175 253:0.3275 254:0.085 255:0.1375 256:0.395 257:0.1975 258:0.4025 259:0.0525 260:0.16 261:0.1625 262:0.0175 263:0.0775 264:0.1075 265:0.1475 266:0.11 267:0.05 268:0.185 269:0.095 270:0.19 271:0.115 272:0.08 273:0.085 274:0.065 275:0.0725 276:0.18 277:0.1225 278:0.1125 279:0.0425 280:0.0625 281:0.29 282:0.0475 283:0.1075 284:0.15 285:0.24 286:0.2275 287:0.075 288:0.2725 289:0.14 290:0.315 291:0.1575 292:0.135 293:0.1375 294:0.0725 295:0.11 296:0.26 297:0.1775 298:0.2075 299:0.0625 300:0.095 301:0.87 302:0.1775 303:0.32 304:0.405 305:0.5625 306:0.67 307:0.17 308:0.745 309:0.3875 310:0.955 311:0.3775 312:0.3675 313:0.395 314:0.18 315:0.26 316:0.815 317:0.4775 318:0.745 319:0.1275 320:0.2725 321:0.5425 322:0.1175 323:0.2275 324:0.2325 325:0.3775 326:0.3675 327:0.14 328:0.4775 329:0.2225 330:0.5 331:0.265 332:0.24 333:0.1975 334:0.1225 335:0.1775 336:0.4775 337:0.3575 338:0.4125 339:0.0775 340:0.1775 341:0.8575 342:0.2175 343:0.29 344:0.3575 345:0.4675 346:0.695 347:0.1575 348:0.6075 349:0.3775 350:0.9575 351:0.275 352:0.3425 353:0.4025 354:0.1125 355:0.2075 356:0.745 357:0.4125 358:0.825 359:0.0725 360:0.27 361:0.1525 362:0.0075 363:0.0425 364:0.0675 365:0.1575 366:0.1475 367:0.0225 368:0.1525 369:0.0575 370:0.1425 371:0.0875 372:0.0725 373:0.0525 374:0.0425 375:0.0625 376:0.1275 377:0.0775 378:0.0725 379:0.0625 380:0.0425 381:0.3025 382:0.0625 383:0.125 384:0.1675 385:0.22 386:0.25 387:0.09 388:0.2375 389:0.18 390:0.345 391:0.1375 392:0.1325 393:0.16 394:0.0625 395:0.095 396:0.2725 397:0.1775 398:0.27 399:0.0425 400:0.12 
2 1:0.0475 2:0.04 3:0.085 4:0.0775 5:0.07 6:0.055 7:0.0475 8:0.0925 9:0.07 10:0.1225 11:0.0325 12:0.0625 13:0.0775 14:0.025 15:0.055 16:0.0625 17:0.0475 18:0.0325 19:0.0025 20:0.055 21:0.04 22:0.035 23:0.0725 24:0.07 25:0.0575 26:0.045 27:0.04 28:0.08 29:0.065 30:0.1075 31:0.0325 32:0.05 33:0.06 34:0.0225 35:0.045 36:0.05 37:0.0425 38:0.0275 39:0.0025 40:0.045 41:0.085 42:0.0725 43:0.155 44:0.145 45:0.125 46:0.0975 47:0.085 48:0.17 49:0.1325 50:0.2275 51:0.0625 52:0.11 53:0.135 54:0.045 55:0.0975 56:0.11 57:0.0875 58:0.0575 59:0.0025 60:0.0975 61:0.0775 62:0.07 63:0.145 64:0.1475 65:0.11 66:0.085 67:0.0775 68:0.1625 69:0.14 70:0.2225 71:0.0725 72:0.0925 73:0.1075 74:0.045 75:0.085 76:0.0925 77:0.0875 78:0.0525 79:0.0025 80:0.085 81:0.07 82:0.0575 83:0.125 84:0.11 85:0.105 86:0.0825 87:0.07 88:0.135 89:0.0975 90:0.1775 91:0.0425 92:0.095 93:0.12 94:0.035 95:0.0825 96:0.095 97:0.0675 98:0.0475 99:0.0025 100:0.0825 101:0.055 102:0.045 103:0.0975 104:0.085 105:0.0825 106:0.065 107:0.055 108:0.105 109:0.075 110:0.1375 111:0.0325 112:0.075 113:0.095 114:0.0275 115:0.065 116:0.075 117:0.0525 118:0.0375 119:0.0025 120:0.065 121:0.0475 122:0.04 123:0.085 124:0.0775 125:0.07 126:0.055 127:0.0475 128:0.0925 129:0.07 130:0.1225 131:0.0325 132:0.0625 133:0.0775 134:0.025 135:0.055 136:0.0625 137:0.0475 138:0.0325 139:0.0025 140:0.055 141:0.0925 142:0.08 143:0.17 144:0.1625 145:0.135 146:0.105 147:0.0925 148:0.1875 149:0.15 150:0.2525 151:0.0725 152:0.1175 153:0.1425 154:0.05 155:0.105 156:0.1175 157:0.0975 158:0.0625 159:0.0025 160:0.105 161:0.07 162:0.065 163:0.1325 164:0.14 165:0.0975 166:0.075 167:0.07 168:0.15 169:0.135 170:0.2075 171:0.0725 172:0.08 173:0.09 174:0.0425 175:0.075 176:0.08 177:0.0825 178:0.0475 179:0.0025 180:0.075 181:0.1225 182:0.1075 183:0.2275 184:0.2225 185:0.1775 186:0.1375 187:0.1225 188:0.2525 189:0.2075 190:0.3425 191:0.1025 192:0.1525 193:0.1825 194:0.0675 195:0.1375 196:0.1525 197:0.1325 198:0.0825 199:0.0025 200:0.1375 201:0.0325 202:0.0325 203:0.0625 204:0.0725 205:0.0425 206:0.0325 207:0.0325 208:0.0725 209:0.0725 210:0.1025 211:0.0425 212:0.0325 213:0.0325 214:0.0225 215:0.0325 216:0.0325 217:0.0425 218:0.0225 219:0.0025 220:0.0325 221:0.0625 222:0.05 223:0.11 224:0.0925 225:0.095 226:0.075 227:0.0625 228:0.1175 229:0.08 230:0.1525 231:0.0325 232:0.0875 233:0.1125 234:0.03 235:0.075 236:0.0875 237:0.0575 238:0.0425 239:0.0025 240:0.075 241:0.0775 242:0.06 243:0.135 244:0.1075 245:0.12 246:0.095 247:0.0775 248:0.1425 249:0.09 250:0.1825 251:0.0325 252:0.1125 253:0.1475 254:0.035 255:0.095 256:0.1125 257:0.0675 258:0.0525 259:0.0025 260:0.095 261:0.025 262:0.0225 263:0.045 264:0.045 265:0.035 266:0.0275 267:0.025 268:0.05 269:0.0425 270:0.0675 271:0.0225 272:0.03 273:0.035 274:0.015 275:0.0275 276:0.03 277:0.0275 278:0.0175 279:0.0025 280:0.0275 281:0.055 282:0.045 283:0.0975 284:0.085 285:0.0825 286:0.065 287:0.055 288:0.105 289:0.075 290:0.1375 291:0.0325 292:0.075 293:0.095 294:0.0275 295:0.065 296:0.075 297:0.0525 298:0.0375 299:0.0025 300:0.065 301:0.0625 302:0.05 303:0.11 304:0.0925 305:0.095 306:0.075 307:0.0625 308:0.1175 309:0.08 310:0.1525 311:0.0325 312:0.0875 313:0.1125 314:0.03 315:0.075 316:0.0875 317:0.0575 318:0.0425 319:0.0025 320:0.075 321:0.0475 322:0.0425 323:0.0875 324:0.0875 325:0.0675 326:0.0525 327:0.0475 328:0.0975 329:0.0825 330:0.1325 331:0.0425 332:0.0575 333:0.0675 334:0.0275 335:0.0525 336:0.0575 337:0.0525 338:0.0325 339:0.0025 340:0.0525 341:0.0325 342:0.0275 343:0.0575 344:0.0525 345:0.0475 346:0.0375 347:0.0325 348:0.0625 349:0.0475 350:0.0825 351:0.0225 352:0.0425 353:0.0525 354:0.0175 355:0.0375 356:0.0425 357:0.0325 358:0.0225 359:0.0025 360:0.0375 361:0.0025 362:0.0025 363:0.0025 364:0.0025 365:0.0025 366:0.0025 367:0.0025 368:0.0025 369:0.0025 370:0.0025 371:0.0025 372:0.0025 373:0.0025 374:0.0025 375:0.0025 376:0.0025 377:0.0025 378:0.0025 379:0.0025 380:0.0025 381:0.055 382:0.045 383:0.0975 384:0.085 385:0.0825 386:0.065 387:0.055 388:0.105 389:0.075 390:0.1375 391:0.0325 392:0.075 393:0.095 394:0.0275 395:0.065 396:0.075 397:0.0525 398:0.0375 399:0.0025 400:0.065 
0.7445188666585651 1:0.3 2:0.085 3:0.285 4:0.3525 5:0.3025 6:0.1925 7:0.2025 8:0.455 9:0.3925 10:0.57 11:0.105 12:0.24 13:0.3525 14:0.1325 15:0.2275 16:0.15 17:0.2875 18:0.1925 19:0.0225 20:0.2025 21:0.085 22:0.045 23:0.0825 24:0.095 25:0.0775 26:0.0425 27:0.0625 28:0.1525 29:0.0925 30:0.145 31:0.025 32:0.055 33:0.1175 34:0.0475 35:0.0825 36:0.045 37:0.09 38:0.035 39:0.0075 40:0.065 41:0.285 42:0.0825 43:0.36 44:0.385 45:0.265 46:0.1925 47:0.195 48:0.4 49:0.4225 50:0.545 51:0.105 52:0.195 53:0.275 54:0.1325 55:0.22 56:0.145 57:0.3025 58:0.225 59:0.01 60:0.1675 61:0.3525 62:0.095 63:0.385 64:0.6425 65:0.385 66:0.3175 67:0.3025 68:0.68 69:0.6875 70:0.835 71:0.155 72:0.3125 73:0.37 74:0.2075 75:0.3325 76:0.255 77:0.4575 78:0.2925 79:0.0625 80:0.2425 81:0.3025 82:0.0775 83:0.265 84:0.385 85:0.3675 86:0.2075 87:0.21 88:0.52 89:0.4775 90:0.58 91:0.11 92:0.2675 93:0.3825 94:0.1225 95:0.245 96:0.155 97:0.3625 98:0.22 99:0.03 100:0.2225 101:0.1925 102:0.0425 103:0.1925 104:0.3175 105:0.2075 106:0.1725 107:0.155 108:0.3525 109:0.3575 110:0.465 111:0.0875 112:0.175 113:0.2025 114:0.11 115:0.1725 116:0.1375 117:0.2275 118:0.17 119:0.0325 120:0.14 121:0.2025 122:0.0625 123:0.195 124:0.3025 125:0.21 126:0.155 127:0.16 128:0.3625 129:0.3225 130:0.4375 131:0.08 132:0.1725 133:0.235 134:0.11 135:0.1775 136:0.13 137:0.2275 138:0.1325 139:0.03 140:0.145 141:0.455 142:0.1525 143:0.4 144:0.68 145:0.52 146:0.3525 147:0.3625 148:0.95 149:0.7875 150:1.0225 151:0.18 152:0.3925 153:0.595 154:0.265 155:0.47 156:0.31 157:0.5875 158:0.3575 159:0.07 160:0.38 161:0.3925 162:0.0925 163:0.4225 164:0.6875 165:0.4775 166:0.3575 167:0.3225 168:0.7875 169:0.8625 170:0.9625 171:0.185 172:0.345 173:0.4175 174:0.22 175:0.385 176:0.295 177:0.6 178:0.38 179:0.06 180:0.3175 181:0.57 182:0.145 183:0.545 184:0.835 185:0.58 186:0.465 187:0.4375 188:1.0225 189:0.9625 190:1.3475 191:0.245 192:0.485 193:0.63 194:0.325 195:0.51 196:0.395 197:0.6375 198:0.455 199:0.0775 200:0.44 201:0.105 202:0.025 203:0.105 204:0.155 205:0.11 206:0.0875 207:0.08 208:0.18 209:0.185 210:0.245 211:0.0475 212:0.09 213:0.11 214:0.0575 215:0.09 216:0.0725 217:0.1225 218:0.0875 219:0.015 220:0.08 221:0.24 222:0.055 223:0.195 224:0.3125 225:0.2675 226:0.175 227:0.1725 228:0.3925 229:0.345 230:0.485 231:0.09 232:0.225 233:0.2925 234:0.105 235:0.18 236:0.13 237:0.235 238:0.155 239:0.0325 240:0.165 241:0.3525 242:0.1175 243:0.275 244:0.37 245:0.3825 246:0.2025 247:0.235 248:0.595 249:0.4175 250:0.63 251:0.11 252:0.2925 253:0.4875 254:0.1525 255:0.29 256:0.165 257:0.3425 258:0.2 259:0.03 260:0.2625 261:0.1325 262:0.0475 263:0.1325 264:0.2075 265:0.1225 266:0.11 267:0.11 268:0.265 269:0.22 270:0.325 271:0.0575 272:0.105 273:0.1525 274:0.0925 275:0.14 276:0.1025 277:0.15 278:0.1075 279:0.0225 280:0.1075 281:0.2275 282:0.0825 283:0.22 284:0.3325 285:0.245 286:0.1725 287:0.1775 288:0.47 289:0.385 290:0.51 291:0.09 292:0.18 293:0.29 294:0.14 295:0.245 296:0.155 297:0.29 298:0.1975 299:0.03 300:0.19 301:0.15 302:0.045 303:0.145 304:0.255 305:0.155 306:0.1375 307:0.13 308:0.31 309:0.295 310:0.395 311:0.0725 312:0.13 313:0.165 314:0.1025 315:0.155 316:0.1275 317:0.1975 318:0.1225 319:0.03 320:0.13 321:0.2875 322:0.09 323:0.3025 324:0.4575 325:0.3625 326:0.2275 327:0.2275 328:0.5875 329:0.6 330:0.6375 331:0.1225 332:0.235 333:0.3425 334:0.15 335:0.29 336:0.1975 337:0.465 338:0.2475 339:0.035 340:0.245 341:0.1925 342:0.035 343:0.225 344:0.2925 345:0.22 346:0.17 347:0.1325 348:0.3575 349:0.38 350:0.455 351:0.0875 352:0.155 353:0.2 354:0.1075 355:0.1975 356:0.1225 357:0.2475 358:0.2725 359:0.015 360:0.145 361:0.0225 362:0.0075 363:0.01 364:0.0625 365:0.03 366:0.0325 367:0.03 368:0.07 369:0.06 370:0.0775 371:0.015 372:0.0325 373:0.03 374:0.0225 375:0.03 376:0.03 377:0.035 378:0.015 379:0.015 380:0.0225 381:0.2025 382:0.065 383:0.1675 384:0.2425 385:0.2225 386:0.14 387:0.145 388:0.38 389:0.3175 390:0.44 391:0.08 392:0.165 393:0.2625 394:0.1075 395:0.19 396:0.13 397:0.245 398:0.145 399:0.0225 400:0.18 
0.445648587350451 1:0.3475 2:0.0625 3:0.2875 4:0.315 5:0.27 6:0.26 7:0.1975 8:0.39 9:0.295 10:0.5775 11:0.16 12:0.1775 13:0.19 14:0.1875 15:0.31 16:0.2925 17:0.155 18:0.405 19:0.065 20:0.14 21:0.0625 22:0.0325 23:0.0925 24:0.0775 25:0.13 26:0.11 27:0.035 28:0.11 29:0.09 30:0.1575 31:0.0575 32:0.045 33:0.0625 34:0.0475 35:0.105 36:0.08 37:0.03 38:0.0975 39:0.02 40:0.0425 41:0.2875 42:0.0925 43:0.425 44:0.375 45:0.45 46:0.3675 47:0.1675 48:0.44 49:0.3625 50:0.6025 51:0.1975 52:0.165 53:0.215 54:0.2225 55:0.4125 56:0.3025 57:0.17 58:0.3875 59:0.075 60:0.1325 61:0.315 62:0.0775 63:0.375 64:0.49 65:0.4075 66:0.2775 67:0.1875 68:0.4225 69:0.375 70:0.72 71:0.1575 72:0.195 73:0.175 74:0.22 75:0.2975 76:0.41 77:0.19 78:0.375 79:0.055 80:0.1275 81:0.27 82:0.13 83:0.45 84:0.4075 85:0.6125 86:0.4975 87:0.1625 88:0.5425 89:0.4425 90:0.735 91:0.2325 92:0.1975 93:0.2925 94:0.2275 95:0.4625 96:0.3925 97:0.16 98:0.445 99:0.0875 100:0.1725 101:0.26 102:0.11 103:0.3675 104:0.2775 105:0.4975 106:0.4725 107:0.1575 108:0.4925 109:0.3775 110:0.61 111:0.22 112:0.1775 113:0.2825 114:0.185 115:0.43 116:0.295 117:0.1275 118:0.445 119:0.09 120:0.175 121:0.1975 122:0.035 123:0.1675 124:0.1875 125:0.1625 126:0.1575 127:0.12 128:0.2475 129:0.185 130:0.3425 131:0.085 132:0.1025 133:0.1175 134:0.105 135:0.1775 136:0.1725 137:0.0975 138:0.26 139:0.04 140:0.09 141:0.39 142:0.11 143:0.44 144:0.4225 145:0.5425 146:0.4925 147:0.2475 148:0.6725 149:0.4875 150:0.805 151:0.2125 152:0.2275 153:0.3575 154:0.2525 155:0.4875 156:0.4275 157:0.215 158:0.61 159:0.1075 160:0.2125 161:0.295 162:0.09 163:0.3625 164:0.375 165:0.4425 166:0.3775 167:0.185 168:0.4875 169:0.3875 170:0.67 171:0.1775 172:0.185 173:0.24 174:0.195 175:0.365 176:0.3475 177:0.1675 178:0.4575 179:0.075 180:0.1675 181:0.5775 182:0.1575 183:0.6025 184:0.72 185:0.735 186:0.61 187:0.3425 188:0.805 189:0.67 190:1.2875 191:0.325 192:0.3625 193:0.375 194:0.3425 195:0.59 196:0.6725 197:0.29 198:0.8 199:0.115 200:0.305 201:0.16 202:0.0575 203:0.1975 204:0.1575 205:0.2325 206:0.22 207:0.085 208:0.2125 209:0.1775 210:0.325 211:0.13 212:0.1 213:0.1175 214:0.105 215:0.2225 216:0.15 217:0.065 218:0.2075 219:0.0425 220:0.085 221:0.1775 222:0.045 223:0.165 224:0.195 225:0.1975 226:0.1775 227:0.1025 228:0.2275 229:0.185 230:0.3625 231:0.1 232:0.11 233:0.115 234:0.1025 235:0.17 236:0.1925 237:0.08 238:0.2225 239:0.0375 240:0.085 241:0.19 242:0.0625 243:0.215 244:0.175 245:0.2925 246:0.2825 247:0.1175 248:0.3575 249:0.24 250:0.375 251:0.1175 252:0.115 253:0.22 254:0.135 255:0.2675 256:0.215 257:0.095 258:0.285 259:0.065 260:0.0975 261:0.1875 262:0.0475 263:0.2225 264:0.22 265:0.2275 266:0.185 267:0.105 268:0.2525 269:0.195 270:0.3425 271:0.105 272:0.1025 273:0.135 274:0.14 275:0.2175 276:0.1975 277:0.1 278:0.1975 279:0.045 280:0.06 281:0.31 282:0.105 283:0.4125 284:0.2975 285:0.4625 286:0.43 287:0.1775 288:0.4875 289:0.365 290:0.59 291:0.2225 292:0.17 293:0.2675 294:0.2175 295:0.4725 296:0.275 297:0.155 298:0.45 299:0.09 300:0.1625 301:0.2925 302:0.08 303:0.3025 304:0.41 305:0.3925 306:0.295 307:0.1725 308:0.4275 309:0.3475 310:0.6725 311:0.15 312:0.1925 313:0.215 314:0.1975 315:0.275 316:0.405 317:0.155 318:0.3525 319:0.06 320:0.125 321:0.155 322:0.03 323:0.17 324:0.19 325:0.16 326:0.1275 327:0.0975 328:0.215 329:0.1675 330:0.29 331:0.065 332:0.08 333:0.095 334:0.1 335:0.155 336:0.155 337:0.095 338:0.205 339:0.0325 340:0.065 341:0.405 342:0.0975 343:0.3875 344:0.375 345:0.445 346:0.445 347:0.26 348:0.61 349:0.4575 350:0.8 351:0.2075 352:0.2225 353:0.285 354:0.1975 355:0.45 356:0.3525 357:0.205 358:0.6925 359:0.0925 360:0.2625 361:0.065 362:0.02 363:0.075 364:0.055 365:0.0875 366:0.09 367:0.04 368:0.1075 369:0.075 370:0.115 371:0.0425 372:0.0375 373:0.065 374:0.045 375:0.09 376:0.06 377:0.0325 378:0.0925 379:0.0225 380:0.0325 381:0.14 382:0.0425 383:0.1325 384:0.1275 385:0.1725 386:0.175 387:0.09 388:0.2125 389:0.1675 390:0.305 391:0.085 392:0.085 393:0.0975 394:0.06 395:0.1625 396:0.125 397:0.065 398:0.2625 399:0.0325 400:0.11 
0.6985733943206746 1:0.4975 2:0.0575 3:0.28 4:0.4175 5:0.2025 6:0.415 7:0.1675 8:0.3675 9:0.335 10:0.775 11:0.1925 12:0.15 13:0.35 14:0.2175 15:0.5575 16:0.4125 17:0.3825 18:0.6375 19:0.1525 20:0.2225 21:0.0575 22:0.0175 23:0.0475 24:0.05 25:0.035 26:0.04 27:0.0225 28:0.035 29:0.05 30:0.0825 31:0.0325 32:0.02 33:0.0525 34:0.025 35:0.0725 36:0.04 37:0.0525 38:0.08 39:0.01 40:0.0275 41:0.28 42:0.0475 43:0.225 44:0.3175 45:0.125 46:0.23 47:0.085 48:0.245 49:0.2625 50:0.465 51:0.1075 52:0.095 53:0.21 54:0.14 55:0.2775 56:0.225 57:0.2875 58:0.42 59:0.0525 60:0.1525 61:0.4175 62:0.05 63:0.3175 64:0.5375 65:0.1675 66:0.3875 67:0.15 68:0.3925 69:0.3625 70:0.775 71:0.14 72:0.1575 73:0.34 74:0.22 75:0.4375 76:0.35 77:0.4125 78:0.685 79:0.09 80:0.23 81:0.2025 82:0.035 83:0.125 84:0.1675 85:0.12 86:0.1675 87:0.0825 88:0.1225 89:0.1675 90:0.3125 91:0.0925 92:0.0775 93:0.1775 94:0.115 95:0.24 96:0.1475 97:0.1625 98:0.2825 99:0.045 100:0.0925 101:0.415 102:0.04 103:0.23 104:0.3875 105:0.1675 106:0.39 107:0.17 108:0.325 109:0.265 110:0.72 111:0.17 112:0.14 113:0.3425 114:0.1925 115:0.495 116:0.3525 117:0.3075 118:0.57 119:0.1525 120:0.1875 121:0.1675 122:0.0225 123:0.085 124:0.15 125:0.0825 126:0.17 127:0.1 128:0.105 129:0.075 130:0.315 131:0.085 132:0.065 133:0.185 134:0.07 135:0.26 136:0.1375 137:0.0875 138:0.2425 139:0.07 140:0.06 141:0.3675 142:0.035 143:0.245 144:0.3925 145:0.1225 146:0.325 147:0.105 148:0.345 149:0.2925 150:0.62 151:0.125 152:0.1125 153:0.24 154:0.1725 155:0.35 156:0.3225 157:0.345 158:0.51 159:0.1125 160:0.195 161:0.335 162:0.05 163:0.2625 164:0.3625 165:0.1675 166:0.265 167:0.075 168:0.2925 169:0.38 170:0.5125 171:0.1225 172:0.1225 173:0.2225 174:0.22 175:0.2625 176:0.2525 177:0.39 178:0.5 179:0.0475 180:0.2075 181:0.775 182:0.0825 183:0.465 184:0.775 185:0.3125 186:0.72 187:0.315 188:0.62 189:0.5125 190:1.365 191:0.305 192:0.2625 193:0.6425 194:0.35 195:0.925 196:0.6575 197:0.595 198:1.1025 199:0.255 200:0.3525 201:0.1925 202:0.0325 203:0.1075 204:0.14 205:0.0925 206:0.17 207:0.085 208:0.125 209:0.1225 210:0.305 211:0.1275 212:0.065 213:0.1975 214:0.09 215:0.265 216:0.14 217:0.1525 218:0.2575 219:0.0875 220:0.095 221:0.15 222:0.02 223:0.095 224:0.1575 225:0.0775 226:0.14 227:0.065 228:0.1125 229:0.1225 230:0.2625 231:0.065 232:0.0625 233:0.14 234:0.09 235:0.1775 236:0.115 237:0.13 238:0.235 239:0.04 240:0.0775 241:0.35 242:0.0525 243:0.21 244:0.34 245:0.1775 246:0.3425 247:0.185 248:0.24 249:0.2225 250:0.6425 251:0.1975 252:0.14 253:0.3925 254:0.175 255:0.505 256:0.265 257:0.26 258:0.5425 259:0.1325 260:0.1625 261:0.2175 262:0.025 263:0.14 264:0.22 265:0.115 266:0.1925 267:0.07 268:0.1725 269:0.22 270:0.35 271:0.09 272:0.09 273:0.175 274:0.155 275:0.205 276:0.16 277:0.225 278:0.3325 279:0.05 280:0.13 281:0.5575 282:0.0725 283:0.2775 284:0.4375 285:0.24 286:0.495 287:0.26 288:0.35 289:0.2625 290:0.925 291:0.265 292:0.1775 293:0.505 294:0.205 295:0.7925 296:0.4525 297:0.33 298:0.735 299:0.21 300:0.21 301:0.4125 302:0.04 303:0.225 304:0.35 305:0.1475 306:0.3525 307:0.1375 308:0.3225 309:0.2525 310:0.6575 311:0.14 312:0.115 313:0.265 314:0.16 315:0.4525 316:0.365 317:0.295 318:0.505 319:0.1375 320:0.1725 321:0.3825 322:0.0525 323:0.2875 324:0.4125 325:0.1625 326:0.3075 327:0.0875 328:0.345 329:0.39 330:0.595 331:0.1525 332:0.13 333:0.26 334:0.225 335:0.33 336:0.295 337:0.435 338:0.5675 339:0.08 340:0.2375 341:0.6375 342:0.08 343:0.42 344:0.685 345:0.2825 346:0.57 347:0.2425 348:0.51 349:0.5 350:1.1025 351:0.2575 352:0.235 353:0.5425 354:0.3325 355:0.735 356:0.505 357:0.5675 358:0.98 359:0.1625 360:0.3275 361:0.1525 362:0.01 363:0.0525 364:0.09 365:0.045 366:0.1525 367:0.07 368:0.1125 369:0.0475 370:0.255 371:0.0875 372:0.04 373:0.1325 374:0.05 375:0.21 376:0.1375 377:0.08 378:0.1625 379:0.1025 380:0.06 381:0.2225 382:0.0275 383:0.1525 384:0.23 385:0.0925 386:0.1875 387:0.06 388:0.195 389:0.2075 390:0.3525 391:0.095 392:0.0775 393:0.1625 394:0.13 395:0.21 396:0.1725 397:0.2375 398:0.3275 399:0.06 400:0.135 
0.1896970801420566 1:0.4125 2:0.1025 3:0.3175 4:0.5125 5:0.38 6:0.2975 7:0.12 8:0.34 9:0.405 10:0.5725 11:0.2425 12:0.2775 13:0.2375 14:0.125 15:0.3325 16:0.2975 17:0.2225 18:0.3025 19:0.05 20:0.165 21:0.1025 22:0.03 23:0.0825 24:0.13 25:0.1 26:0.085 27:0.03 28:0.0875 29:0.0975 30:0.155 31:0.0625 32:0.06 33:0.05 34:0.0325 35:0.0875 36:0.0775 37:0.0475 38:0.0775 39:0.0125 40:0.0425 41:0.3175 42:0.0825 43:0.27 44:0.4125 45:0.3325 46:0.24 47:0.11 48:0.2725 49:0.3275 50:0.455 51:0.22 52:0.2275 53:0.1925 54:0.115 55:0.2725 56:0.2425 57:0.1575 58:0.245 59:0.0325 60:0.125 61:0.5125 62:0.13 63:0.4125 64:0.735 65:0.53 66:0.3725 67:0.1375 68:0.435 69:0.515 70:0.7925 71:0.305 72:0.37 73:0.2575 74:0.22 75:0.4575 76:0.42 77:0.27 78:0.41 79:0.08 80:0.15 81:0.38 82:0.1 83:0.3325 84:0.53 85:0.4525 86:0.3175 87:0.1375 88:0.36 89:0.4075 90:0.58 91:0.285 92:0.305 93:0.23 94:0.1575 95:0.3625 96:0.305 97:0.2025 98:0.32 99:0.055 100:0.1175 101:0.2975 102:0.085 103:0.24 104:0.3725 105:0.3175 106:0.2775 107:0.0925 108:0.275 109:0.2875 110:0.4575 111:0.1925 112:0.19 113:0.1475 114:0.0825 115:0.2675 116:0.2175 117:0.15 118:0.2375 119:0.0375 120:0.1125 121:0.12 122:0.03 123:0.11 124:0.1375 125:0.1375 126:0.0925 127:0.06 128:0.1125 129:0.1375 130:0.145 131:0.1075 132:0.105 133:0.105 134:0.0375 135:0.1025 136:0.0825 137:0.0675 138:0.0925 139:0.01 140:0.0575 141:0.34 142:0.0875 143:0.2725 144:0.435 145:0.36 146:0.275 147:0.1125 148:0.345 149:0.365 150:0.4875 151:0.2575 152:0.2375 153:0.24 154:0.1075 155:0.3175 156:0.25 157:0.18 158:0.2525 159:0.0625 160:0.1275 161:0.405 162:0.0975 163:0.3275 164:0.515 165:0.4075 166:0.2875 167:0.1375 168:0.365 169:0.43 170:0.55 171:0.285 172:0.3025 173:0.2825 174:0.1375 175:0.3475 176:0.2975 177:0.2225 178:0.3 179:0.0575 180:0.1575 181:0.5725 182:0.155 183:0.455 184:0.7925 185:0.58 186:0.4575 187:0.145 188:0.4875 189:0.55 190:0.9075 191:0.3275 192:0.365 193:0.2525 194:0.215 195:0.5075 196:0.4575 197:0.28 198:0.4525 199:0.08 200:0.185 201:0.2425 202:0.0625 203:0.22 204:0.305 205:0.285 206:0.1925 207:0.1075 208:0.2575 209:0.285 210:0.3275 211:0.23 212:0.1875 213:0.2125 214:0.085 215:0.2325 216:0.18 217:0.1175 218:0.18 219:0.035 220:0.105 221:0.2775 222:0.06 223:0.2275 224:0.37 225:0.305 226:0.19 227:0.105 228:0.2375 229:0.3025 230:0.365 231:0.1875 232:0.27 233:0.195 234:0.1125 235:0.2375 236:0.2075 237:0.1925 238:0.2325 239:0.0425 240:0.0825 241:0.2375 242:0.05 243:0.1925 244:0.2575 245:0.23 246:0.1475 247:0.105 248:0.24 249:0.2825 250:0.2525 251:0.2125 252:0.195 253:0.25 254:0.06 255:0.1975 256:0.15 257:0.1425 258:0.1525 259:0.0375 260:0.12 261:0.125 262:0.0325 263:0.115 264:0.22 265:0.1575 266:0.0825 267:0.0375 268:0.1075 269:0.1375 270:0.215 271:0.085 272:0.1125 273:0.06 274:0.0875 275:0.1275 276:0.125 277:0.065 278:0.115 279:0.025 280:0.0175 281:0.3325 282:0.0875 283:0.2725 284:0.4575 285:0.3625 286:0.2675 287:0.1025 288:0.3175 289:0.3475 290:0.5075 291:0.2325 292:0.2375 293:0.1975 294:0.1275 295:0.3125 296:0.2625 297:0.1725 298:0.2625 299:0.0575 300:0.1075 301:0.2975 302:0.0775 303:0.2425 304:0.42 305:0.305 306:0.2175 307:0.0825 308:0.25 309:0.2975 310:0.4575 311:0.18 312:0.2075 313:0.15 314:0.125 315:0.2625 316:0.2425 317:0.15 318:0.235 319:0.0425 320:0.095 321:0.2225 322:0.0475 323:0.1575 324:0.27 325:0.2025 326:0.15 327:0.0675 328:0.18 329:0.2225 330:0.28 331:0.1175 332:0.1925 333:0.1425 334:0.065 335:0.1725 336:0.15 337:0.1625 338:0.1725 339:0.0375 340:0.075 341:0.3025 342:0.0775 343:0.245 344:0.41 345:0.32 346:0.2375 347:0.0925 348:0.2525 349:0.3 350:0.4525 351:0.18 352:0.2325 353:0.1525 354:0.115 355:0.2625 356:0.235 357:0.1725 358:0.25 359:0.04 360:0.095 361:0.05 362:0.0125 363:0.0325 364:0.08 365:0.055 366:0.0375 367:0.01 368:0.0625 369:0.0575 370:0.08 371:0.035 372:0.0425 373:0.0375 374:0.025 375:0.0575 376:0.0425 377:0.0375 378:0.04 379:0.025 380:0.005 381:0.165 382:0.0425 383:0.125 384:0.15 385:0.1175 386:0.1125 387:0.0575 388:0.1275 389:0.1575 390:0.185 391:0.105 392:0.0825 393:0.12 394:0.0175 395:0.1075 396:0.095 397:0.075 398:0.095 399:0.005 400:0.1075 
1.559712094598056 1:0.235 2:0.0775 3:0.175 4:0.1475 5:0.125 6:0.2275 7:0.0375 8:0.135 9:0.2025 10:0.3375 11:0.115 12:0.1275 13:0.0775 14:0.085 15:0.1875 16:0.225 17:0.235 18:0.21 19:0.0125 20:0.075 21:0.0775 22:0.0325 23:0.0775 24:0.0575 25:0.0575 26:0.0775 27:0.0225 28:0.0525 29:0.0825 30:0.1425 31:0.0475 32:0.0525 33:0.0475 34:0.0325 35:0.0825 36:0.0825 37:0.0925 38:0.0825 39:0.0125 40:0.0375 41:0.175 42:0.0775 43:0.2125 44:0.1725 45:0.14 46:0.1725 47:0.0475 48:0.14 49:0.195 50:0.3825 51:0.1 52:0.1175 53:0.1425 54:0.07 55:0.215 56:0.1625 57:0.22 58:0.215 59:0.0275 60:0.1025 61:0.1475 62:0.0575 63:0.1725 64:0.1775 65:0.09 66:0.1325 67:0.015 68:0.125 69:0.13 70:0.305 71:0.0525 72:0.0725 73:0.1025 74:0.045 75:0.16 76:0.0825 77:0.155 78:0.18 79:0.0075 80:0.0775 81:0.125 82:0.0575 83:0.14 84:0.09 85:0.11 86:0.13 87:0.0475 88:0.0875 89:0.1525 90:0.2575 91:0.09 92:0.0975 93:0.095 94:0.0575 95:0.1525 96:0.1525 97:0.1675 98:0.1425 99:0.0275 100:0.07 101:0.2275 102:0.0775 103:0.1725 104:0.1325 105:0.13 106:0.2275 107:0.045 108:0.13 109:0.21 110:0.335 111:0.1225 112:0.1325 113:0.0875 114:0.09 115:0.19 116:0.2375 117:0.24 118:0.205 119:0.0175 120:0.0775 121:0.0375 122:0.0225 123:0.0475 124:0.015 125:0.0475 126:0.045 127:0.0275 128:0.025 129:0.0625 130:0.0875 131:0.0425 132:0.0425 133:0.04 134:0.025 135:0.0575 136:0.07 137:0.065 138:0.045 139:0.0175 140:0.0275 141:0.135 142:0.0525 143:0.14 144:0.125 145:0.0875 146:0.13 147:0.025 148:0.1 149:0.13 150:0.255 151:0.065 152:0.0775 153:0.085 154:0.05 155:0.14 156:0.1125 157:0.15 158:0.15 159:0.0125 160:0.065 161:0.2025 162:0.0825 163:0.195 164:0.13 165:0.1525 166:0.21 167:0.0625 168:0.13 169:0.225 170:0.3675 171:0.1325 172:0.1425 173:0.125 174:0.09 175:0.215 176:0.2375 177:0.25 178:0.21 179:0.0325 180:0.095 181:0.3375 182:0.1425 183:0.3825 184:0.305 185:0.2575 186:0.335 187:0.0875 188:0.255 189:0.3675 190:0.6975 191:0.1925 192:0.2225 193:0.25 194:0.135 195:0.3925 196:0.325 197:0.415 198:0.395 199:0.0475 200:0.1825 201:0.115 202:0.0475 203:0.1 204:0.0525 205:0.09 206:0.1225 207:0.0425 208:0.065 209:0.1325 210:0.1925 211:0.085 212:0.0875 213:0.0625 214:0.055 215:0.1175 216:0.155 217:0.145 218:0.11 219:0.0225 220:0.05 221:0.1275 222:0.0525 223:0.1175 224:0.0725 225:0.0975 226:0.1325 227:0.0425 228:0.0775 229:0.1425 230:0.2225 231:0.0875 232:0.0925 233:0.0725 234:0.0575 235:0.1325 236:0.1575 237:0.1575 238:0.1275 239:0.0225 240:0.0575 241:0.0775 242:0.0475 243:0.1425 244:0.1025 245:0.095 246:0.0875 247:0.04 248:0.085 249:0.125 250:0.25 251:0.0625 252:0.0725 253:0.1275 254:0.045 255:0.145 256:0.0875 257:0.135 258:0.13 259:0.0275 260:0.0775 261:0.085 262:0.0325 263:0.07 264:0.045 265:0.0575 266:0.09 267:0.025 268:0.05 269:0.09 270:0.135 271:0.055 272:0.0575 273:0.045 274:0.04 275:0.08 276:0.1025 277:0.1 278:0.08 279:0.0125 280:0.035 281:0.1875 282:0.0825 283:0.215 284:0.16 285:0.1525 286:0.19 287:0.0575 288:0.14 289:0.215 290:0.3925 291:0.1175 292:0.1325 293:0.145 294:0.08 295:0.225 296:0.1975 297:0.24 298:0.22 299:0.0325 300:0.105 301:0.225 302:0.0825 303:0.1625 304:0.0825 305:0.1525 306:0.2375 307:0.07 308:0.1125 309:0.2375 310:0.325 311:0.155 312:0.1575 313:0.0875 314:0.1025 315:0.1975 316:0.2975 317:0.2625 318:0.1925 319:0.0325 320:0.0775 321:0.235 322:0.0925 323:0.22 324:0.155 325:0.1675 326:0.24 327:0.065 328:0.15 329:0.25 330:0.415 331:0.145 332:0.1575 333:0.135 334:0.1 335:0.24 336:0.2625 337:0.28 338:0.24 339:0.0325 340:0.105 341:0.21 342:0.0825 343:0.215 344:0.18 345:0.1425 346:0.205 347:0.045 348:0.15 349:0.21 350:0.395 351:0.11 352:0.1275 353:0.13 354:0.08 355:0.22 356:0.1925 357:0.24 358:0.23 359:0.0225 360:0.1 361:0.0125 362:0.0125 363:0.0275 364:0.0075 365:0.0275 366:0.0175 367:0.0175 368:0.0125 369:0.0325 370:0.0475 371:0.0225 372:0.0225 373:0.0275 374:0.0125 375:0.0325 376:0.0325 377:0.0325 378:0.0225 379:0.0125 380:0.0175 381:0.075 382:0.0375 383:0.1025 384:0.0775 385:0.07 386:0.0775 387:0.0275 388:0.065 389:0.095 390:0.1825 391:0.05 392:0.0575 393:0.0775 394:0.035 395:0.105 396:0.0775 397:0.105 398:0.1 399:0.0175 400:0.0525 
0.1238125638370475 1:0.355 2:0.055 3:0.3025 4:0.37 5:0.41 6:0.3175 7:0.1225 8:0.3025 9:0.3825 10:0.3725 11:0.2425 12:0.235 13:0.265 14:0.185 15:0.2625 16:0.2725 17:0.31 18:0.385 19:0.05 20:0.2075 21:0.055 22:0.0175 23:0.03 24:0.0775 25:0.0475 26:0.06 27:0.0225 28:0.0425 29:0.0675 30:0.0575 31:0.02 32:0.0425 33:0.055 34:0.03 35:0.0375 36:0.06 37:0.04 38:0.09 39:0.01 40:0.04 41:0.3025 42:0.03 43:0.44 44:0.3 45:0.525 46:0.2925 47:0.115 48:0.37 49:0.3325 50:0.4325 51:0.2975 52:0.2525 53:0.2975 54:0.2225 55:0.395 56:0.3025 57:0.39 58:0.2925 59:0.055 60:0.16 61:0.37 62:0.0775 63:0.3 64:0.5 65:0.435 66:0.3875 67:0.1525 68:0.325 69:0.455 70:0.425 71:0.2325 72:0.2775 73:0.385 74:0.2125 75:0.295 76:0.3375 77:0.3125 78:0.485 79:0.0625 80:0.275 81:0.41 82:0.0475 83:0.525 84:0.435 85:0.8225 86:0.4825 87:0.1425 88:0.5475 89:0.515 90:0.5875 91:0.3625 92:0.385 93:0.4725 94:0.275 95:0.4675 96:0.4775 97:0.4675 98:0.485 99:0.06 100:0.34 101:0.3175 102:0.06 103:0.2925 104:0.3875 105:0.4825 106:0.3725 107:0.1225 108:0.34 109:0.4075 110:0.3875 111:0.2125 112:0.2725 113:0.3475 114:0.19 115:0.28 116:0.3275 117:0.2775 118:0.4225 119:0.0525 120:0.2575 121:0.1225 122:0.0225 123:0.115 124:0.1525 125:0.1425 126:0.1225 127:0.0575 128:0.1075 129:0.145 130:0.145 131:0.0975 132:0.09 133:0.1125 134:0.0725 135:0.1175 136:0.1075 137:0.105 138:0.1575 139:0.025 140:0.085 141:0.3025 142:0.0425 143:0.37 144:0.325 145:0.5475 146:0.34 147:0.1075 148:0.3775 149:0.3675 150:0.4175 151:0.25 152:0.2725 153:0.33 154:0.2025 155:0.3375 156:0.3425 157:0.34 158:0.3625 159:0.0475 160:0.225 161:0.3825 162:0.0675 163:0.3325 164:0.455 165:0.515 166:0.4075 167:0.145 168:0.3675 169:0.465 170:0.4375 171:0.2575 172:0.295 173:0.3725 174:0.215 175:0.3075 176:0.345 177:0.325 178:0.4725 179:0.06 180:0.2825 181:0.3725 182:0.0575 183:0.4325 184:0.425 185:0.5875 186:0.3875 187:0.145 188:0.4175 189:0.4375 190:0.5 191:0.31 192:0.31 193:0.3825 194:0.2425 195:0.4075 196:0.4 197:0.4075 198:0.455 199:0.0625 200:0.265 201:0.2425 202:0.02 203:0.2975 204:0.2325 205:0.3625 206:0.2125 207:0.0975 208:0.25 209:0.2575 210:0.31 211:0.2475 212:0.1725 213:0.1875 214:0.145 215:0.265 216:0.205 217:0.26 218:0.2425 219:0.04 220:0.1525 221:0.235 222:0.0425 223:0.2525 224:0.2775 225:0.385 226:0.2725 227:0.09 228:0.2725 229:0.295 230:0.31 231:0.1725 232:0.21 233:0.2625 234:0.1525 235:0.2425 236:0.265 237:0.2375 238:0.31 239:0.04 240:0.1825 241:0.265 242:0.055 243:0.2975 244:0.385 245:0.4725 246:0.3475 247:0.1125 248:0.33 249:0.3725 250:0.3825 251:0.1875 252:0.2625 253:0.3825 254:0.1925 255:0.295 256:0.325 257:0.2775 258:0.375 259:0.05 260:0.2375 261:0.185 262:0.03 263:0.2225 264:0.2125 265:0.275 266:0.19 267:0.0725 268:0.2025 269:0.215 270:0.2425 271:0.145 272:0.1525 273:0.1925 274:0.13 275:0.2075 276:0.18 277:0.2075 278:0.205 279:0.035 280:0.1025 281:0.2625 282:0.0375 283:0.395 284:0.295 285:0.4675 286:0.28 287:0.1175 288:0.3375 289:0.3075 290:0.4075 291:0.265 292:0.2425 293:0.295 294:0.2075 295:0.3875 296:0.3175 297:0.345 298:0.3175 299:0.0575 300:0.165 301:0.2725 302:0.06 303:0.3025 304:0.3375 305:0.4775 306:0.3275 307:0.1075 308:0.3425 309:0.345 310:0.4 311:0.205 312:0.265 313:0.325 314:0.18 315:0.3175 316:0.4 317:0.3025 318:0.44 319:0.045 320:0.255 321:0.31 322:0.04 323:0.39 324:0.3125 325:0.4675 326:0.2775 327:0.105 328:0.34 329:0.325 330:0.4075 331:0.26 332:0.2375 333:0.2775 334:0.2075 335:0.345 336:0.3025 337:0.38 338:0.3125 339:0.0475 340:0.1575 341:0.385 342:0.09 343:0.2925 344:0.485 345:0.485 346:0.4225 347:0.1575 348:0.3625 349:0.4725 350:0.455 351:0.2425 352:0.31 353:0.375 354:0.205 355:0.3175 356:0.44 357:0.3125 358:0.6 359:0.0625 360:0.3375 361:0.05 362:0.01 363:0.055 364:0.0625 365:0.06 366:0.0525 367:0.025 368:0.0475 369:0.06 370:0.0625 371:0.04 372:0.04 373:0.05 374:0.035 375:0.0575 376:0.045 377:0.0475 378:0.0625 379:0.0125 380:0.0275 381:0.2075 382:0.04 383:0.16 384:0.275 385:0.34 386:0.2575 387:0.085 388:0.225 389:0.2825 390:0.265 391:0.1525 392:0.1825 393:0.2375 394:0.1025 395:0.165 396:0.255 397:0.1575 398:0.3375 399:0.0275 400:0.245 
0.4690053530462348 1:0.0725 2:0.0675 3:0.16 4:0.185 5:0.1775 6:0.135 7:0.0475 8:0.165 9:0.14 10:0.225 11:0.09 12:0.1075 13:0.1 14:0.07 15:0.1575 16:0.16 17:0.14 18:0.1425 19:0.01 20:0.0875 21:0.0675 22:0.1475 23:0.1725 24:0.1825 25:0.2475 26:0.195 27:0.075 28:0.19 29:0.2075 30:0.325 31:0.1075 32:0.13 33:0.13 34:0.1025 35:0.195 36:0.16 37:0.1825 38:0.2125 39:0.0225 40:0.1675 41:0.16 42:0.1725 43:0.4125 44:0.4075 45:0.465 46:0.3675 47:0.1225 48:0.3525 49:0.3475 50:0.53 51:0.22 52:0.2675 53:0.2475 54:0.1675 55:0.4125 56:0.365 57:0.3075 58:0.42 59:0.025 60:0.23 61:0.185 62:0.1825 63:0.4075 64:0.5325 65:0.435 66:0.3725 67:0.1375 68:0.4225 69:0.3975 70:0.565 71:0.23 72:0.2775 73:0.3025 74:0.1975 75:0.4325 76:0.385 77:0.3475 78:0.345 79:0.025 80:0.24 81:0.1775 82:0.2475 83:0.465 84:0.435 85:0.5925 86:0.44 87:0.135 88:0.41 89:0.4225 90:0.7125 91:0.2625 92:0.3 93:0.2725 94:0.195 95:0.4675 96:0.4325 97:0.38 98:0.51 99:0.035 100:0.3075 101:0.135 102:0.195 103:0.3675 104:0.3725 105:0.44 106:0.42 107:0.1275 108:0.2975 109:0.3825 110:0.4875 111:0.22 112:0.2 113:0.28 114:0.1725 115:0.38 116:0.3425 117:0.29 118:0.3875 119:0.02 120:0.2525 121:0.0475 122:0.075 123:0.1225 124:0.1375 125:0.135 126:0.1275 127:0.0575 128:0.1225 129:0.13 130:0.155 131:0.0675 132:0.0925 133:0.0975 134:0.07 135:0.1375 136:0.0975 137:0.1075 138:0.135 139:0.0125 140:0.0925 141:0.165 142:0.19 143:0.3525 144:0.4225 145:0.41 146:0.2975 147:0.1225 148:0.43 149:0.335 150:0.5525 151:0.2025 152:0.265 153:0.225 154:0.1775 155:0.3525 156:0.3675 157:0.37 158:0.33 159:0.025 160:0.2275 161:0.14 162:0.2075 163:0.3475 164:0.3975 165:0.4225 166:0.3825 167:0.13 168:0.335 169:0.38 170:0.5175 171:0.21 172:0.2175 173:0.2725 174:0.18 175:0.3725 176:0.33 177:0.31 178:0.355 179:0.025 180:0.2575 181:0.225 182:0.325 183:0.53 184:0.565 185:0.7125 186:0.4875 187:0.155 188:0.5525 189:0.5175 190:0.9525 191:0.3125 192:0.37 193:0.3175 194:0.2425 195:0.545 196:0.53 197:0.5 198:0.5575 199:0.0475 200:0.385 201:0.09 202:0.1075 203:0.22 204:0.23 205:0.2625 206:0.22 207:0.0675 208:0.2025 209:0.21 210:0.3125 211:0.13 212:0.13 213:0.1475 214:0.0975 215:0.2175 216:0.22 217:0.1875 218:0.2175 219:0.0125 220:0.1375 221:0.1075 222:0.13 223:0.2675 224:0.2775 225:0.3 226:0.2 227:0.0925 228:0.265 229:0.2175 230:0.37 231:0.13 232:0.2225 233:0.1475 234:0.12 235:0.285 236:0.2075 237:0.2125 238:0.2875 239:0.0275 240:0.1625 241:0.1 242:0.13 243:0.2475 244:0.3025 245:0.2725 246:0.28 247:0.0975 248:0.225 249:0.2725 250:0.3175 251:0.1475 252:0.1475 253:0.2125 254:0.13 255:0.27 256:0.225 257:0.2025 258:0.235 259:0.015 260:0.17 261:0.07 262:0.1025 263:0.1675 264:0.1975 265:0.195 266:0.1725 267:0.07 268:0.1775 269:0.18 270:0.2425 271:0.0975 272:0.12 273:0.13 274:0.0925 275:0.1825 276:0.1525 277:0.1575 278:0.1725 279:0.015 280:0.125 281:0.1575 282:0.195 283:0.4125 284:0.4325 285:0.4675 286:0.38 287:0.1375 288:0.3525 289:0.3725 290:0.545 291:0.2175 292:0.285 293:0.27 294:0.1825 295:0.44 296:0.335 297:0.3 298:0.43 299:0.0325 300:0.255 301:0.16 302:0.16 303:0.365 304:0.385 305:0.4325 306:0.3425 307:0.0975 308:0.3675 309:0.33 310:0.53 311:0.22 312:0.2075 313:0.225 314:0.1525 315:0.335 316:0.4075 317:0.34 318:0.335 319:0.0125 320:0.205 321:0.14 322:0.1825 323:0.3075 324:0.3475 325:0.38 326:0.29 327:0.1075 328:0.37 329:0.31 330:0.5 331:0.1875 332:0.2125 333:0.2025 334:0.1575 335:0.3 336:0.34 337:0.3375 338:0.3025 339:0.02 340:0.215 341:0.1425 342:0.2125 343:0.42 344:0.345 345:0.51 346:0.3875 347:0.135 348:0.33 349:0.355 350:0.5575 351:0.2175 352:0.2875 353:0.235 354:0.1725 355:0.43 356:0.335 357:0.3025 358:0.5 359:0.035 360:0.27 361:0.01 362:0.0225 363:0.025 364:0.025 365:0.035 366:0.02 367:0.0125 368:0.025 369:0.025 370:0.0475 371:0.0125 372:0.0275 373:0.015 374:0.015 375:0.0325 376:0.0125 377:0.02 378:0.035 379:0.0075 380:0.025 381:0.0875 382:0.1675 383:0.23 384:0.24 385:0.3075 386:0.2525 387:0.0925 388:0.2275 389:0.2575 390:0.385 391:0.1375 392:0.1625 393:0.17 394:0.125 395:0.255 396:0.205 397:0.215 398:0.27 399:0.025 400:0.1975 
0.9807914519584836 1:0.205 2:0.0325 3:0.23 4:0.3225 5:0.2875 6:0.275 7:0.175 8:0.225 9:0.22 10:0.5825 11:0.1825 12:0.0875 13:0.2425 14:0.1575 15:0.285 16:0.3 17:0.1975 18:0.26 19:0.05 20:0.085 21:0.0325 22:0.0175 23:0.025 24:0.0425 25:0.0525 26:0.04 27:0.025 28:0.0425 29:0.0275 30:0.0675 31:0.0275 32:0.02 33:0.06 34:0.005 35:0.045 36:0.06 37:0.0275 38:0.05 39:0.01 40:0.0075 41:0.23 42:0.025 43:0.3325 44:0.41 45:0.3425 46:0.32 47:0.19 48:0.295 49:0.28 50:0.6175 51:0.21 52:0.11 53:0.205 54:0.2325 55:0.3825 56:0.325 57:0.26 58:0.245 59:0.04 60:0.115 61:0.3225 62:0.0425 63:0.41 64:0.58 65:0.48 66:0.415 67:0.2975 68:0.4 69:0.365 70:0.9075 71:0.31 72:0.15 73:0.3725 74:0.2875 75:0.51 76:0.4875 77:0.3325 78:0.41 79:0.065 80:0.14 81:0.2875 82:0.0525 83:0.3425 84:0.48 85:0.605 86:0.385 87:0.28 88:0.4175 89:0.325 90:0.945 91:0.2675 92:0.17 93:0.3775 94:0.165 95:0.4725 96:0.5325 97:0.23 98:0.4225 99:0.0725 100:0.1375 101:0.275 102:0.04 103:0.32 104:0.415 105:0.385 106:0.47 107:0.245 108:0.3075 109:0.3225 110:0.7975 111:0.2525 112:0.12 113:0.3125 114:0.23 115:0.45 116:0.395 117:0.3325 118:0.3425 119:0.0825 120:0.1425 121:0.175 122:0.025 123:0.19 124:0.2975 125:0.28 126:0.245 127:0.1925 128:0.2025 129:0.1825 130:0.515 131:0.165 132:0.0775 133:0.23 134:0.1425 135:0.27 136:0.27 137:0.1525 138:0.23 139:0.0475 140:0.0775 141:0.225 142:0.0425 143:0.295 144:0.4 145:0.4175 146:0.3075 147:0.2025 148:0.3325 149:0.27 150:0.6775 151:0.2225 152:0.1325 153:0.2825 154:0.16 155:0.4 156:0.3975 157:0.24 158:0.3225 159:0.05 160:0.1075 161:0.22 162:0.0275 163:0.28 164:0.365 165:0.325 166:0.3225 167:0.1825 168:0.27 169:0.2675 170:0.67 171:0.2125 172:0.105 173:0.2425 174:0.185 175:0.355 176:0.335 177:0.26 178:0.295 179:0.055 180:0.11 181:0.5825 182:0.0675 183:0.6175 184:0.9075 185:0.945 186:0.7975 187:0.515 188:0.6775 189:0.67 190:2.075 191:0.5725 192:0.2725 193:0.77 194:0.3625 195:0.8275 196:0.9775 197:0.5725 198:0.9425 199:0.1775 200:0.2725 201:0.1825 202:0.0275 203:0.21 204:0.31 205:0.2675 206:0.2525 207:0.165 208:0.2225 209:0.2125 210:0.5725 211:0.1875 212:0.0875 213:0.2425 214:0.1375 215:0.29 216:0.295 217:0.21 218:0.28 219:0.05 220:0.0825 221:0.0875 222:0.02 223:0.11 224:0.15 225:0.17 226:0.12 227:0.0775 228:0.1325 229:0.105 230:0.2725 231:0.0875 232:0.055 233:0.1175 234:0.0525 235:0.155 236:0.1625 237:0.0925 238:0.135 239:0.0225 240:0.0425 241:0.2425 242:0.06 243:0.205 244:0.3725 245:0.3775 246:0.3125 247:0.23 248:0.2825 249:0.2425 250:0.77 251:0.2425 252:0.1175 253:0.4125 254:0.105 255:0.34 256:0.4325 257:0.225 258:0.425 259:0.0775 260:0.0825 261:0.1575 262:0.005 263:0.2325 264:0.2875 265:0.165 266:0.23 267:0.1425 268:0.16 269:0.185 270:0.3625 271:0.1375 272:0.0525 273:0.105 274:0.2125 275:0.2475 276:0.1625 277:0.185 278:0.115 279:0.025 280:0.08 281:0.285 282:0.045 283:0.3825 284:0.51 285:0.4725 286:0.45 287:0.27 288:0.4 289:0.355 290:0.8275 291:0.29 292:0.155 293:0.34 294:0.2475 295:0.5425 296:0.465 297:0.36 298:0.385 299:0.07 300:0.15 301:0.3 302:0.06 303:0.325 304:0.4875 305:0.5325 306:0.395 307:0.27 308:0.3975 309:0.335 310:0.9775 311:0.295 312:0.1625 313:0.4325 314:0.1625 315:0.465 316:0.54 317:0.2875 318:0.485 319:0.0825 320:0.1275 321:0.1975 322:0.0275 323:0.26 324:0.3325 325:0.23 326:0.3325 327:0.1525 328:0.24 329:0.26 330:0.5725 331:0.21 332:0.0925 333:0.225 334:0.185 335:0.36 336:0.2875 337:0.315 338:0.28 339:0.055 340:0.105 341:0.26 342:0.05 343:0.245 344:0.41 345:0.4225 346:0.3425 347:0.23 348:0.3225 349:0.295 350:0.9425 351:0.28 352:0.135 353:0.425 354:0.115 355:0.385 356:0.485 357:0.28 358:0.5 359:0.0875 360:0.1075 361:0.05 362:0.01 363:0.04 364:0.065 365:0.0725 366:0.0825 367:0.0475 368:0.05 369:0.055 370:0.1775 371:0.05 372:0.0225 373:0.0775 374:0.025 375:0.07 376:0.0825 377:0.055 378:0.0875 379:0.0225 380:0.025 381:0.085 382:0.0075 383:0.115 384:0.14 385:0.1375 386:0.1425 387:0.0775 388:0.1075 389:0.11 390:0.2725 391:0.0825 392:0.0425 393:0.0825 394:0.08 395:0.15 396:0.1275 397:0.105 398:0.1075 399:0.025 400:0.0525 
1.44044242531444 1:0.9025 2:0.205 3:0.665 4:0.4875 5:0.5025 6:0.58 7:0.25 8:0.6525 9:0.545 10:1.125 11:0.3325 12:0.3725 13:0.57 14:0.34 15:0.4925 16:0.5975 17:0.69 18:0.705 19:0.12 20:0.295 21:0.205 22:0.1825 23:0.2525 24:0.25 25:0.24 26:0.1275 27:0.075 28:0.3 29:0.3175 30:0.3725 31:0.0825 32:0.1825 33:0.2 34:0.1025 35:0.1875 36:0.3075 37:0.2175 38:0.275 39:0.0225 40:0.15 41:0.665 42:0.2525 43:0.875 44:0.67 45:0.5825 46:0.4125 47:0.255 48:0.7525 49:0.7975 50:1.005 51:0.31 52:0.44 53:0.5075 54:0.34 55:0.565 56:0.635 57:0.61 58:0.66 59:0.15 60:0.425 61:0.4875 62:0.25 63:0.67 64:0.81 65:0.51 66:0.3275 67:0.2475 68:0.785 69:0.9025 70:0.945 71:0.2375 72:0.415 73:0.4425 74:0.335 75:0.5125 76:0.5875 77:0.4925 78:0.575 79:0.0775 80:0.43 81:0.5025 82:0.24 83:0.5825 84:0.51 85:0.5775 86:0.3525 87:0.2 88:0.7 89:0.6325 90:0.815 91:0.2025 92:0.46 93:0.4775 94:0.2725 95:0.485 96:0.6225 97:0.525 98:0.5075 99:0.1175 100:0.3275 101:0.58 102:0.1275 103:0.4125 104:0.3275 105:0.3525 106:0.4325 107:0.1675 108:0.4175 109:0.3325 110:0.695 111:0.2275 112:0.2725 113:0.4075 114:0.215 115:0.3625 116:0.42 117:0.4775 118:0.4625 119:0.0775 120:0.2025 121:0.25 122:0.075 123:0.255 124:0.2475 125:0.2 126:0.1675 127:0.1475 128:0.37 129:0.2875 130:0.375 131:0.0925 132:0.175 133:0.2175 134:0.1175 135:0.195 136:0.215 137:0.2425 138:0.255 139:0.05 140:0.115 141:0.6525 142:0.3 143:0.7525 144:0.785 145:0.7 146:0.4175 147:0.37 148:1.205 149:1.0675 150:1.12 151:0.1825 152:0.6 153:0.67 154:0.3575 155:0.6 156:0.75 157:0.7175 158:0.7025 159:0.145 160:0.415 161:0.545 162:0.3175 163:0.7975 164:0.9025 165:0.6325 166:0.3325 167:0.2875 168:1.0675 169:1.2325 170:1.0625 171:0.17 172:0.53 173:0.545 174:0.3575 175:0.585 176:0.6825 177:0.625 178:0.6225 179:0.115 180:0.5 181:1.125 182:0.3725 183:1.005 184:0.945 185:0.815 186:0.695 187:0.375 188:1.12 189:1.0625 190:1.74 191:0.4375 192:0.625 193:0.7775 194:0.555 195:0.775 196:0.9875 197:0.9 198:1.025 199:0.1525 200:0.53 201:0.3325 202:0.0825 203:0.31 204:0.2375 205:0.2025 206:0.2275 207:0.0925 208:0.1825 209:0.17 210:0.4375 211:0.195 212:0.1475 213:0.185 214:0.155 215:0.2175 216:0.27 217:0.245 218:0.2925 219:0.0475 220:0.15 221:0.3725 222:0.1825 223:0.44 224:0.415 225:0.46 226:0.2725 227:0.175 228:0.6 229:0.53 230:0.625 231:0.1475 232:0.3875 233:0.3725 234:0.215 235:0.385 236:0.5075 237:0.4225 238:0.3875 239:0.095 240:0.2575 241:0.57 242:0.2 243:0.5075 244:0.4425 245:0.4775 246:0.4075 247:0.2175 248:0.67 249:0.545 250:0.7775 251:0.185 252:0.3725 253:0.5225 254:0.235 255:0.4275 256:0.5125 257:0.54 258:0.53 259:0.0975 260:0.2625 261:0.34 262:0.1025 263:0.34 264:0.335 265:0.2725 266:0.215 267:0.1175 268:0.3575 269:0.3575 270:0.555 271:0.155 272:0.215 273:0.235 274:0.2 275:0.265 276:0.335 277:0.2775 278:0.31 279:0.0575 280:0.1975 281:0.4925 282:0.1875 283:0.565 284:0.5125 285:0.485 286:0.3625 287:0.195 288:0.6 289:0.585 290:0.775 291:0.2175 292:0.385 293:0.4275 294:0.265 295:0.465 296:0.535 297:0.48 298:0.4875 299:0.1025 300:0.315 301:0.5975 302:0.3075 303:0.635 304:0.5875 305:0.6225 306:0.42 307:0.215 308:0.75 309:0.6825 310:0.9875 311:0.27 312:0.5075 313:0.5125 314:0.335 315:0.535 316:0.82 317:0.59 318:0.65 319:0.105 320:0.38 321:0.69 322:0.2175 323:0.61 324:0.4925 325:0.525 326:0.4775 327:0.2425 328:0.7175 329:0.625 330:0.9 331:0.245 332:0.4225 333:0.54 334:0.2775 335:0.48 336:0.59 337:0.64 338:0.595 339:0.12 340:0.3025 341:0.705 342:0.275 343:0.66 344:0.575 345:0.5075 346:0.4625 347:0.255 348:0.7025 349:0.6225 350:1.025 351:0.2925 352:0.3875 353:0.53 354:0.31 355:0.4875 356:0.65 357:0.595 358:0.7125 359:0.09 360:0.325 361:0.12 362:0.0225 363:0.15 364:0.0775 365:0.1175 366:0.0775 367:0.05 368:0.145 369:0.115 370:0.1525 371:0.0475 372:0.095 373:0.0975 374:0.0575 375:0.1025 376:0.105 377:0.12 378:0.09 379:0.045 380:0.0625 381:0.295 382:0.15 383:0.425 384:0.43 385:0.3275 386:0.2025 387:0.115 388:0.415 389:0.5 390:0.53 391:0.15 392:0.2575 393:0.2625 394:0.1975 395:0.315 396:0.38 397:0.3025 398:0.325 399:0.0625 400:0.2675 
0.5974106428682656 1:0.565 2:0.06 3:0.3975 4:0.52 5:0.335 6:0.4225 7:0.145 8:0.325 9:0.62 10:0.6625 11:0.215 12:0.2475 13:0.245 14:0.1775 15:0.2375 16:0.305 17:0.39 18:0.3825 19:0.07 20:0.1675 21:0.06 22:0.0325 23:0.075 24:0.1125 25:0.065 26:0.06 27:0.0225 28:0.08 29:0.0725 30:0.105 31:0.0575 32:0.0225 33:0.0575 34:0.045 35:0.06 36:0.045 37:0.0775 38:0.075 39:0.0075 40:0.0375 41:0.3975 42:0.075 43:0.4175 44:0.4975 45:0.255 46:0.355 47:0.07 48:0.26 49:0.46 50:0.485 51:0.175 52:0.1625 53:0.185 54:0.1875 55:0.1975 56:0.27 57:0.35 58:0.3 59:0.0325 60:0.1175 61:0.52 62:0.1125 63:0.4975 64:0.6775 65:0.3875 66:0.465 67:0.14 68:0.4075 69:0.6 70:0.695 71:0.265 72:0.235 73:0.31 74:0.245 75:0.3225 76:0.36 77:0.4875 78:0.4325 79:0.06 80:0.19 81:0.335 82:0.065 83:0.255 84:0.3875 85:0.27 86:0.275 87:0.1175 88:0.25 89:0.3625 90:0.45 91:0.1925 92:0.145 93:0.1825 94:0.12 95:0.215 96:0.1975 97:0.29 98:0.27 99:0.055 100:0.135 101:0.4225 102:0.06 103:0.355 104:0.465 105:0.275 106:0.36 107:0.0975 108:0.2875 109:0.4725 110:0.5175 111:0.17 112:0.195 113:0.22 114:0.1525 115:0.2175 116:0.2775 117:0.325 118:0.3025 119:0.0525 120:0.145 121:0.145 122:0.0225 123:0.07 124:0.14 125:0.1175 126:0.0975 127:0.0775 128:0.0925 129:0.1575 130:0.1975 131:0.0825 132:0.0725 133:0.0775 134:0.0525 135:0.09 136:0.0675 137:0.1325 138:0.12 139:0.03 140:0.0475 141:0.325 142:0.08 143:0.26 144:0.4075 145:0.25 146:0.2875 147:0.0925 148:0.3425 149:0.3725 150:0.47 151:0.165 152:0.165 153:0.275 154:0.1325 155:0.2275 156:0.2325 157:0.26 158:0.29 159:0.045 160:0.17 161:0.62 162:0.0725 163:0.46 164:0.6 165:0.3625 166:0.4725 167:0.1575 168:0.3725 169:0.6975 170:0.7375 171:0.2275 172:0.2825 173:0.2925 174:0.2225 175:0.265 176:0.3525 177:0.4525 178:0.435 179:0.07 180:0.1775 181:0.6625 182:0.105 183:0.485 184:0.695 185:0.45 186:0.5175 187:0.1975 188:0.47 189:0.7375 190:0.8475 191:0.3025 192:0.3 193:0.3625 194:0.24 195:0.35 196:0.3825 197:0.515 198:0.5075 199:0.0875 200:0.235 201:0.215 202:0.0575 203:0.175 204:0.265 205:0.1925 206:0.17 207:0.0825 208:0.165 209:0.2275 210:0.3025 211:0.16 212:0.0725 213:0.105 214:0.085 215:0.1475 216:0.1075 217:0.2025 218:0.19 219:0.035 220:0.0925 221:0.2475 222:0.0225 223:0.1625 224:0.235 225:0.145 226:0.195 227:0.0725 228:0.165 229:0.2825 230:0.3 231:0.0725 232:0.1375 233:0.1475 234:0.085 235:0.1175 236:0.16 237:0.1775 238:0.1725 239:0.035 240:0.0775 241:0.245 242:0.0575 243:0.185 244:0.31 245:0.1825 246:0.22 247:0.0775 248:0.275 249:0.2925 250:0.3625 251:0.105 252:0.1475 253:0.24 254:0.11 255:0.1775 256:0.1925 257:0.2025 258:0.225 259:0.035 260:0.1275 261:0.1775 262:0.045 263:0.1875 264:0.245 265:0.12 266:0.1525 267:0.0525 268:0.1325 269:0.2225 270:0.24 271:0.085 272:0.085 273:0.11 274:0.1175 275:0.1 276:0.1225 277:0.195 278:0.1625 279:0.0125 280:0.045 281:0.2375 282:0.06 283:0.1975 284:0.3225 285:0.215 286:0.2175 287:0.09 288:0.2275 289:0.265 290:0.35 291:0.1475 292:0.1175 293:0.1775 294:0.1 295:0.19 296:0.17 297:0.23 298:0.215 299:0.0425 300:0.1175 301:0.305 302:0.045 303:0.27 304:0.36 305:0.1975 306:0.2775 307:0.0675 308:0.2325 309:0.3525 310:0.3825 311:0.1075 312:0.16 313:0.1925 314:0.1225 315:0.17 316:0.23 317:0.245 318:0.225 319:0.0375 320:0.11 321:0.39 322:0.0775 323:0.35 324:0.4875 325:0.29 326:0.325 327:0.1325 328:0.26 329:0.4525 330:0.515 331:0.2025 332:0.1775 333:0.2025 334:0.195 335:0.23 336:0.245 337:0.3925 338:0.325 339:0.0475 340:0.1125 341:0.3825 342:0.075 343:0.3 344:0.4325 345:0.27 346:0.3025 347:0.12 348:0.29 349:0.435 350:0.5075 351:0.19 352:0.1725 353:0.225 354:0.1625 355:0.215 356:0.225 357:0.325 358:0.315 359:0.0475 360:0.1375 361:0.07 362:0.0075 363:0.0325 364:0.06 365:0.055 366:0.0525 367:0.03 368:0.045 369:0.07 370:0.0875 371:0.035 372:0.035 373:0.035 374:0.0125 375:0.0425 376:0.0375 377:0.0475 378:0.0475 379:0.0175 380:0.03 381:0.1675 382:0.0375 383:0.1175 384:0.19 385:0.135 386:0.145 387:0.0475 388:0.17 389:0.1775 390:0.235 391:0.0925 392:0.0775 393:0.1275 394:0.045 395:0.1175 396:0.11 397:0.1125 398:0.1375 399:0.03 400:0.0975 
0.7027098647676249 1:0.3175 2:0.09 3:0.2125 4:0.2875 5:0.465 6:0.1575 7:0.1 8:0.3675 9:0.455 10:0.4225 11:0.1275 12:0.295 13:0.1475 14:0.2725 15:0.1125 16:0.17 17:0.285 18:0.325 19:0.05 20:0.19 21:0.09 22:0.05 23:0.0975 24:0.0925 25:0.135 26:0.06 27:0.045 28:0.13 29:0.17 30:0.16 31:0.0475 32:0.1375 33:0.0675 34:0.0725 35:0.0475 36:0.0725 37:0.09 38:0.1 39:0.01 40:0.065 41:0.2125 42:0.0975 43:0.2575 44:0.285 45:0.3075 46:0.1125 47:0.08 48:0.3025 49:0.405 50:0.38 51:0.0975 52:0.255 53:0.1675 54:0.1925 55:0.1425 56:0.1875 57:0.23 58:0.2875 59:0.03 60:0.2 61:0.2875 62:0.0925 63:0.285 64:0.41 65:0.3925 66:0.1475 67:0.085 68:0.355 69:0.4775 70:0.4525 71:0.11 72:0.2675 73:0.2 74:0.28 75:0.1925 76:0.2 77:0.29 78:0.4025 79:0.0475 80:0.255 81:0.465 82:0.135 83:0.3075 84:0.3925 85:0.8625 86:0.2875 87:0.1725 88:0.6025 89:0.7675 90:0.7425 91:0.2075 92:0.46 93:0.34 94:0.4425 95:0.1925 96:0.285 97:0.4 98:0.37 99:0.1025 100:0.295 101:0.1575 102:0.06 103:0.1125 104:0.1475 105:0.2875 106:0.1425 107:0.0675 108:0.2375 109:0.3125 110:0.3025 111:0.08 112:0.21 113:0.17 114:0.1375 115:0.0875 116:0.09 117:0.155 118:0.155 119:0.0475 120:0.125 121:0.1 122:0.045 123:0.08 124:0.085 125:0.1725 126:0.0675 127:0.05 128:0.13 129:0.1675 130:0.1625 131:0.05 132:0.135 133:0.0675 134:0.09 135:0.0425 136:0.0675 137:0.0825 138:0.08 139:0.0125 140:0.0525 141:0.3675 142:0.13 143:0.3025 144:0.355 145:0.6025 146:0.2375 147:0.13 148:0.5175 149:0.665 150:0.625 151:0.17 152:0.4125 153:0.295 154:0.3125 155:0.1775 156:0.24 157:0.3725 158:0.395 159:0.085 160:0.2925 161:0.455 162:0.17 163:0.405 164:0.4775 165:0.7675 166:0.3125 167:0.1675 168:0.665 169:0.87 170:0.825 171:0.215 172:0.5325 173:0.4125 174:0.4 175:0.2525 176:0.3175 177:0.47 178:0.505 179:0.11 180:0.39 181:0.4225 182:0.16 183:0.38 184:0.4525 185:0.7425 186:0.3025 187:0.1625 188:0.625 189:0.825 190:0.79 191:0.2025 192:0.5025 193:0.4075 194:0.385 195:0.2475 196:0.3025 197:0.43 198:0.455 199:0.105 200:0.365 201:0.1275 202:0.0475 203:0.0975 204:0.11 205:0.2075 206:0.08 207:0.05 208:0.17 209:0.215 210:0.2025 211:0.06 212:0.1475 213:0.0875 214:0.1075 215:0.0525 216:0.08 217:0.12 218:0.1225 219:0.025 220:0.085 221:0.295 222:0.1375 223:0.255 224:0.2675 225:0.46 226:0.21 227:0.135 228:0.4125 229:0.5325 230:0.5025 231:0.1475 232:0.4225 233:0.2175 234:0.235 235:0.1325 236:0.1925 237:0.2825 238:0.3025 239:0.0425 240:0.1925 241:0.1475 242:0.0675 243:0.1675 244:0.2 245:0.34 246:0.17 247:0.0675 248:0.295 249:0.4125 250:0.4075 251:0.0875 252:0.2175 253:0.28 254:0.1525 255:0.1475 256:0.135 257:0.18 258:0.1725 259:0.0725 260:0.2 261:0.2725 262:0.0725 263:0.1925 264:0.28 265:0.4425 266:0.1375 267:0.09 268:0.3125 269:0.4 270:0.385 271:0.1075 272:0.235 273:0.1525 274:0.2675 275:0.1225 276:0.1625 277:0.23 278:0.2625 279:0.045 280:0.17 281:0.1125 282:0.0475 283:0.1425 284:0.1925 285:0.1925 286:0.0875 287:0.0425 288:0.1775 289:0.2525 290:0.2475 291:0.0525 292:0.1325 293:0.1475 294:0.1225 295:0.1125 296:0.1025 297:0.1275 298:0.1675 299:0.0325 300:0.1375 301:0.17 302:0.0725 303:0.1875 304:0.2 305:0.285 306:0.09 307:0.0675 308:0.24 309:0.3175 310:0.3025 311:0.08 312:0.1925 313:0.135 314:0.1625 315:0.1025 316:0.15 317:0.17 318:0.1875 319:0.0275 320:0.145 321:0.285 322:0.09 323:0.23 324:0.29 325:0.4 326:0.155 327:0.0825 328:0.3725 329:0.47 330:0.43 331:0.12 332:0.2825 333:0.18 334:0.23 335:0.1275 336:0.17 337:0.2975 338:0.35 339:0.06 340:0.2275 341:0.325 342:0.1 343:0.2875 344:0.4025 345:0.37 346:0.155 347:0.08 348:0.395 349:0.505 350:0.455 351:0.1225 352:0.3025 353:0.1725 354:0.2625 355:0.1675 356:0.1875 357:0.35 358:0.48 359:0.055 360:0.275 361:0.05 362:0.01 363:0.03 364:0.0475 365:0.1025 366:0.0475 367:0.0125 368:0.085 369:0.11 370:0.105 371:0.025 372:0.0425 373:0.0725 374:0.045 375:0.0325 376:0.0275 377:0.06 378:0.055 379:0.03 380:0.06 381:0.19 382:0.065 383:0.2 384:0.255 385:0.295 386:0.125 387:0.0525 388:0.2925 389:0.39 390:0.365 391:0.085 392:0.1925 393:0.2 394:0.17 395:0.1375 396:0.145 397:0.2275 398:0.275 399:0.06 400:0.2175 
0.06609074098974431 1:0.22 2:0.1025 3:0.2175 4:0.295 5:0.2425 6:0.14 7:0.09 8:0.305 9:0.3025 10:0.425 11:0.055 12:0.1625 13:0.2175 14:0.1025 15:0.1525 16:0.2025 17:0.245 18:0.19 19:0.035 20:0.1475 21:0.1025 22:0.0525 23:0.105 24:0.1375 25:0.1125 26:0.0725 27:0.045 28:0.15 29:0.155 30:0.2075 31:0.03 32:0.0825 33:0.115 34:0.0525 35:0.0725 36:0.1 37:0.1125 38:0.105 39:0.0175 40:0.075 41:0.2175 42:0.105 43:0.3975 44:0.4475 45:0.325 46:0.2175 47:0.125 48:0.4625 49:0.48 50:0.6875 51:0.08 52:0.2625 53:0.2875 54:0.135 55:0.225 56:0.26 57:0.405 58:0.305 59:0.045 60:0.18 61:0.295 62:0.1375 63:0.4475 64:0.5525 65:0.395 66:0.23 67:0.145 68:0.54 69:0.5425 70:0.7575 71:0.0875 72:0.2975 73:0.2975 74:0.16 75:0.2725 76:0.315 77:0.4475 78:0.2825 79:0.04 80:0.2075 81:0.2425 82:0.1125 83:0.325 84:0.395 85:0.445 86:0.27 87:0.1525 88:0.4175 89:0.5125 90:0.7825 91:0.1025 92:0.2975 93:0.345 94:0.1325 95:0.2325 96:0.3225 97:0.4325 98:0.3125 99:0.0825 100:0.1875 101:0.14 102:0.0725 103:0.2175 104:0.23 105:0.27 106:0.1975 107:0.1025 108:0.28 109:0.355 110:0.54 111:0.0775 112:0.2 113:0.26 114:0.0875 115:0.1425 116:0.21 117:0.295 118:0.28 119:0.065 120:0.1325 121:0.09 122:0.045 123:0.125 124:0.145 125:0.1525 126:0.1025 127:0.0575 128:0.1625 129:0.195 130:0.29 131:0.0425 132:0.11 133:0.1275 134:0.05 135:0.085 136:0.12 137:0.1625 138:0.135 139:0.0325 140:0.0725 141:0.305 142:0.15 143:0.4625 144:0.54 145:0.4175 146:0.28 147:0.1625 148:0.595 149:0.6175 150:0.9025 151:0.1025 152:0.33 153:0.38 154:0.175 155:0.265 156:0.365 157:0.5075 158:0.425 159:0.075 160:0.245 161:0.3025 162:0.155 163:0.48 164:0.5425 165:0.5125 166:0.355 167:0.195 168:0.6175 169:0.7175 170:1.0575 171:0.1375 172:0.395 173:0.4525 174:0.1825 175:0.295 176:0.4225 177:0.5775 178:0.5 179:0.1025 180:0.26 181:0.425 182:0.2075 183:0.6875 184:0.7575 185:0.7825 186:0.54 187:0.29 188:0.9025 189:1.0575 190:1.665 191:0.195 192:0.585 193:0.68 194:0.2575 195:0.4075 196:0.6425 197:0.91 198:0.7925 199:0.19 200:0.38 201:0.055 202:0.03 203:0.08 204:0.0875 205:0.1025 206:0.0775 207:0.0425 208:0.1025 209:0.1375 210:0.195 211:0.04 212:0.0775 213:0.075 214:0.0275 215:0.06 216:0.0825 217:0.115 218:0.1 219:0.025 220:0.0425 221:0.1625 222:0.0825 223:0.2625 224:0.2975 225:0.2975 226:0.2 227:0.11 228:0.33 229:0.395 230:0.585 231:0.0775 232:0.2225 233:0.2525 234:0.1 235:0.1675 236:0.2325 237:0.32 238:0.2625 239:0.0575 240:0.14 241:0.2175 242:0.115 243:0.2875 244:0.2975 245:0.345 246:0.26 247:0.1275 248:0.38 249:0.4525 250:0.68 251:0.075 252:0.2525 253:0.4975 254:0.1575 255:0.18 256:0.26 257:0.3375 258:0.415 259:0.075 260:0.2375 261:0.1025 262:0.0525 263:0.135 264:0.16 265:0.1325 266:0.0875 267:0.05 268:0.175 269:0.1825 270:0.2575 271:0.0275 272:0.1 273:0.1575 274:0.065 275:0.0825 276:0.1075 277:0.135 278:0.13 279:0.02 280:0.09 281:0.1525 282:0.0725 283:0.225 284:0.2725 285:0.2325 286:0.1425 287:0.085 288:0.265 289:0.295 290:0.4075 291:0.06 292:0.1675 293:0.18 294:0.0825 295:0.1525 296:0.17 297:0.2425 298:0.16 299:0.0275 300:0.11 301:0.2025 302:0.1 303:0.26 304:0.315 305:0.3225 306:0.21 307:0.12 308:0.365 309:0.4225 310:0.6425 311:0.0825 312:0.2325 313:0.26 314:0.1075 315:0.17 316:0.2725 317:0.3475 318:0.2925 319:0.0725 320:0.1575 321:0.245 322:0.1125 323:0.405 324:0.4475 325:0.4325 326:0.295 327:0.1625 328:0.5075 329:0.5775 330:0.91 331:0.115 332:0.32 333:0.3375 334:0.135 335:0.2425 336:0.3475 337:0.5325 338:0.4225 339:0.1025 340:0.2 341:0.19 342:0.105 343:0.305 344:0.2825 345:0.3125 346:0.28 347:0.135 348:0.425 349:0.5 350:0.7925 351:0.1 352:0.2625 353:0.415 354:0.13 355:0.16 356:0.2925 357:0.4225 358:0.52 359:0.11 360:0.215 361:0.035 362:0.0175 363:0.045 364:0.04 365:0.0825 366:0.065 367:0.0325 368:0.075 369:0.1025 370:0.19 371:0.025 372:0.0575 373:0.075 374:0.02 375:0.0275 376:0.0725 377:0.1025 378:0.11 379:0.0375 380:0.0375 381:0.1475 382:0.075 383:0.18 384:0.2075 385:0.1875 386:0.1325 387:0.0725 388:0.245 389:0.26 390:0.38 391:0.0425 392:0.14 393:0.2375 394:0.09 395:0.11 396:0.1575 397:0.2 398:0.215 399:0.0375 400:0.1325 
0.3074131233085328 1:0.48 2:0.06 3:0.25 4:0.57 5:0.2425 6:0.325 7:0.16 8:0.49 9:0.435 10:0.6425 11:0.165 12:0.2175 13:0.3475 14:0.1325 15:0.43 16:0.29 17:0.2675 18:0.4125 19:0.065 20:0.2675 21:0.06 22:0.0125 23:0.0275 24:0.065 25:0.035 26:0.045 27:0.0275 28:0.0725 29:0.0525 30:0.0825 31:0.0225 32:0.035 33:0.05 34:0.015 35:0.0625 36:0.045 37:0.035 38:0.06 39:0.0125 40:0.0325 41:0.25 42:0.0275 43:0.16 44:0.335 45:0.1425 46:0.18 47:0.07 48:0.2525 49:0.2275 50:0.325 51:0.1025 52:0.1075 53:0.2025 54:0.09 55:0.2375 56:0.1475 57:0.1575 58:0.2375 59:0.0375 60:0.16 61:0.57 62:0.065 63:0.335 64:0.79 65:0.38 66:0.495 67:0.205 68:0.58 69:0.5825 70:0.855 71:0.22 72:0.2875 73:0.505 74:0.195 75:0.575 76:0.385 77:0.3825 78:0.62 79:0.0875 80:0.405 81:0.2425 82:0.035 83:0.1425 84:0.38 85:0.2475 86:0.275 87:0.1275 88:0.3075 89:0.3175 90:0.405 91:0.115 92:0.1775 93:0.3 94:0.09 95:0.28 96:0.21 97:0.19 98:0.3475 99:0.055 100:0.215 101:0.325 102:0.045 103:0.18 104:0.495 105:0.275 106:0.4075 107:0.17 108:0.33 109:0.3925 110:0.6375 111:0.13 112:0.21 113:0.345 114:0.125 115:0.425 116:0.2925 117:0.295 118:0.4875 119:0.0625 120:0.29 121:0.16 122:0.0275 123:0.07 124:0.205 125:0.1275 126:0.17 127:0.1025 128:0.2 129:0.21 130:0.27 131:0.07 132:0.1175 133:0.155 134:0.045 135:0.1825 136:0.14 137:0.125 138:0.195 139:0.0325 140:0.115 141:0.49 142:0.0725 143:0.2525 144:0.58 145:0.3075 146:0.33 147:0.2 148:0.615 149:0.4875 150:0.595 151:0.205 152:0.275 153:0.42 154:0.1275 155:0.4475 156:0.3225 157:0.2675 158:0.44 159:0.085 160:0.27 161:0.435 162:0.0525 163:0.2275 164:0.5825 165:0.3175 166:0.3925 167:0.21 168:0.4875 169:0.555 170:0.665 171:0.185 172:0.265 173:0.3925 174:0.1425 175:0.4225 176:0.3125 177:0.315 178:0.46 179:0.075 180:0.305 181:0.6425 182:0.0825 183:0.325 184:0.855 185:0.405 186:0.6375 187:0.27 188:0.595 189:0.665 190:1.1325 191:0.2075 192:0.3375 193:0.5425 194:0.2075 195:0.7175 196:0.4875 197:0.48 198:0.7675 199:0.0975 200:0.465 201:0.165 202:0.0225 203:0.1025 204:0.22 205:0.115 206:0.13 207:0.07 208:0.205 209:0.185 210:0.2075 211:0.085 212:0.095 213:0.1525 214:0.06 215:0.1675 216:0.1125 217:0.1175 218:0.1675 219:0.0325 220:0.1075 221:0.2175 222:0.035 223:0.1075 224:0.2875 225:0.1775 226:0.21 227:0.1175 228:0.275 229:0.265 230:0.3375 231:0.095 232:0.15 233:0.2225 234:0.065 235:0.235 236:0.1775 237:0.155 238:0.26 239:0.045 240:0.155 241:0.3475 242:0.05 243:0.2025 244:0.505 245:0.3 246:0.345 247:0.155 248:0.42 249:0.3925 250:0.5425 251:0.1525 252:0.2225 253:0.385 254:0.1225 255:0.39 256:0.2775 257:0.2525 258:0.4525 259:0.0725 260:0.2725 261:0.1325 262:0.015 263:0.09 264:0.195 265:0.09 266:0.125 267:0.045 268:0.1275 269:0.1425 270:0.2075 271:0.06 272:0.065 273:0.1225 274:0.06 275:0.15 276:0.0925 277:0.1125 278:0.16 279:0.025 280:0.1025 281:0.43 282:0.0625 283:0.2375 284:0.575 285:0.28 286:0.425 287:0.1825 288:0.4475 289:0.4225 290:0.7175 291:0.1675 292:0.235 293:0.39 294:0.15 295:0.5225 296:0.34 297:0.34 298:0.54 299:0.0775 300:0.3075 301:0.29 302:0.045 303:0.1475 304:0.385 305:0.21 306:0.2925 307:0.14 308:0.3225 309:0.3125 310:0.4875 311:0.1125 312:0.1775 313:0.2775 314:0.0925 315:0.34 316:0.2375 317:0.22 318:0.365 319:0.055 320:0.21 321:0.2675 322:0.035 323:0.1575 324:0.3825 325:0.19 326:0.295 327:0.125 328:0.2675 329:0.315 330:0.48 331:0.1175 332:0.155 333:0.2525 334:0.1125 335:0.34 336:0.22 337:0.2525 338:0.36 339:0.0525 340:0.2125 341:0.4125 342:0.06 343:0.2375 344:0.62 345:0.3475 346:0.4875 347:0.195 348:0.44 349:0.46 350:0.7675 351:0.1675 352:0.26 353:0.4525 354:0.16 355:0.54 356:0.365 357:0.36 358:0.6175 359:0.085 360:0.355 361:0.065 362:0.0125 363:0.0375 364:0.0875 365:0.055 366:0.0625 367:0.0325 368:0.085 369:0.075 370:0.0975 371:0.0325 372:0.045 373:0.0725 374:0.025 375:0.0775 376:0.055 377:0.0525 378:0.085 379:0.0175 380:0.0475 381:0.2675 382:0.0325 383:0.16 384:0.405 385:0.215 386:0.29 387:0.115 388:0.27 389:0.305 390:0.465 391:0.1075 392:0.155 393:0.2725 394:0.1025 395:0.3075 396:0.21 397:0.2125 398:0.355 399:0.0475 400:0.225 
