svm_type c_svc
kernel_type rbf
gamma 0.5
nr_class 2
total_sv 231
rho -0.030303
label 1 -1
nr_sv 119 112
SV
0.96875 1:27 2:12 3:28 4:28 5:30 6:28 7:11 8:26 9:33 10:46 11:18 12:21 13:27 14:17 15:30 16:31 17:24 18:45 19:6 20:26 21:729 22:324 23:756 24:756 25:810 26:756 27:297 28:702 29:891 30:1242 31:486 32:567 33:729 34:459 35:810 36:837 37:648 38:1215 39:162 40:702 41:324 42:144 43:336 44:336 45:360 46:336 47:132 48:312 49:396 50:552 51:216 52:252 53:324 54:204 55:360 56:372 57:288 58:540 59:72 60:312 61:756 62:336 63:784 64:784 65:840 66:784 67:308 68:728 69:924 70:1288 71:504 72:588 73:756 74:476 75:840 76:868 77:672 78:1260 79:168 80:728 81:756 82:336 83:784 84:784 85:840 86:784 87:308 88:728 89:924 90:1288 91:504 92:588 93:756 94:476 95:840 96:868 97:672 98:1260 99:168 100:728 101:810 102:360 103:840 104:840 105:900 106:840 107:330 108:780 109:990 110:1380 111:540 112:630 113:810 114:510 115:900 116:930 117:720 118:1350 119:180 120:780 121:756 122:336 123:784 124:784 125:840 126:784 127:308 128:728 129:924 130:1288 131:504 132:588 133:756 134:476 135:840 136:868 137:672 138:1260 139:168 140:728 141:297 142:132 143:308 144:308 145:330 146:308 147:121 148:286 149:363 150:506 151:198 152:231 153:297 154:187 155:330 156:341 157:264 158:495 159:66 160:286 161:702 162:312 163:728 164:728 165:780 166:728 167:286 168:676 169:858 170:1196 171:468 172:546 173:702 174:442 175:780 176:806 177:624 178:1170 179:156 180:676 181:891 182:396 183:924 184:924 185:990 186:924 187:363 188:858 189:1089 190:1518 191:594 192:693 193:891 194:561 195:990 196:1023 197:792 198:1485 199:198 200:858 201:1242 202:552 203:1288 204:1288 205:1380 206:1288 207:506 208:1196 209:1518 210:2116 211:828 212:966 213:1242 214:782 215:1380 216:1426 217:1104 218:2070 219:276 220:1196 221:486 222:216 223:504 224:504 225:540 226:504 227:198 228:468 229:594 230:828 231:324 232:378 233:486 234:306 235:540 236:558 237:432 238:810 239:108 240:468 241:567 242:252 243:588 244:588 245:630 246:588 247:231 248:546 249:693 250:966 251:378 252:441 253:567 254:357 255:630 256:651 257:504 258:945 259:126 260:546 261:729 262:324 263:756 264:756 265:810 266:756 267:297 268:702 269:891 270:1242 271:486 272:567 273:729 274:459 275:810 276:837 277:648 278:1215 279:162 280:702 281:459 282:204 283:476 284:476 285:510 286:476 287:187 288:442 289:561 290:782 291:306 292:357 293:459 294:289 295:510 296:527 297:408 298:765 299:102 300:442 301:810 302:360 303:840 304:840 305:900 306:840 307:330 308:780 309:990 310:1380 311:540 312:630 313:810 314:510 315:900 316:930 317:720 318:1350 319:180 320:780 321:837 322:372 323:868 324:868 325:930 326:868 327:341 328:806 329:1023 330:1426 331:558 332:651 333:837 334:527 335:930 336:961 337:744 338:1395 339:186 340:806 341:648 342:288 343:672 344:672 345:720 346:672 347:264 348:624 349:792 350:1104 351:432 352:504 353:648 354:408 355:720 356:744 357:576 358:1080 359:144 360:624 361:1215 362:540 363:1260 364:1260 365:1350 366:1260 367:495 368:1170 369:1485 370:2070 371:810 372:945 373:1215 374:765 375:1350 376:1395 377:1080 378:2025 379:270 380:1170 381:162 382:72 383:168 384:168 385:180 386:168 387:66 388:156 389:198 390:276 391:108 392:126 393:162 394:102 395:180 396:186 397:144 398:270 399:36 400:156 401:702 402:312 403:728 404:728 405:780 406:728 407:286 408:676 409:858 410:1196 411:468 412:546 413:702 414:442 415:780 416:806 417:624 418:1170 419:156 420:676 421:0.06614786 422:0.048732943 423:0.060546875 424:0.066536204 425:0.060784314 426:0.055009823 427:0.053149606 428:0.061143984 429:0.061264822 430:0.063366337 431:-0.052225659 432:-0.046201854 433:-0.025919473 434:-0.043515244 435:-0.048982165 436:0.0098052949 437:0.0022507468 438:0.010550885 439:0.01464595 440:-0.02408583 441:-0.035488477 442:-0.078978955 443:0.001008245 444:-0.032818843 445:-0.04976724 446:0.10316463 447:0.017527531 448:0.026143926 449:-0.013547956 450:-0.0058314691 451:-0.0058171 452:-0.092152349 453:0.0029488581 454:-0.074003477 455:0.022318968 456:0.054690183 457:-0.0025541734 458:0.083741381 459:-0.042295347 460:-0.013601678 461:-0.023447999 462:-0.10175033 463:-0.004009334 464:-0.022418315 465:-0.0061200176 466:0.080298296 467:0.018665792 468:0.041301778 469:-0.04569592 470:-0.033064121 471:0.042019523 472:-0.031014735 473:0.098891787 474:0.01934704 475:0.0048662097 476:0.00073166329 477:0.065816855 478:0.11438962 479:0.01847759 480:-0.094421575 481:-0.051369519 482:-0.044737839 483:-0.0048739125 484:0.030851998 485:0.054208756 486:-0.040953093 487:-0.033314825 488:-0.016351318 489:-0.073682176 490:-0.10017951 491:-0.051314199 492:-0.092888632 493:0.0091768346 494:-0.088536884 495:0.069274081 496:0.09605547 497:-0.058295189 498:0.0083694201 499:0.006663209 500:-0.030638551 501:-0.016733132 502:0.0094375126 503:-0.0019992582 504:0.017908854 505:0.0020285625 506:-0.032236751 507:-0.088217934 508:-0.073208459 509:0.029842129 510:-0.066021351 511:0.10307868 512:0.0074588916 513:-0.03675218 514:0.032680002 515:0.090457142 516:0.010932888 517:0.007407297 518:-0.042538615 519:-0.056172616 520:0.077020184 
0.96875 1:26 2:6 3:27 4:32 5:33 6:21 7:10 8:25 9:39 10:49 11:20 12:17 13:26 14:15 15:26 16:36 17:25 18:36 19:8 20:25 21:676 22:156 23:702 24:832 25:858 26:546 27:260 28:650 29:1014 30:1274 31:520 32:442 33:676 34:390 35:676 36:936 37:650 38:936 39:208 40:650 41:156 42:36 43:162 44:192 45:198 46:126 47:60 48:150 49:234 50:294 51:120 52:102 53:156 54:90 55:156 56:216 57:150 58:216 59:48 60:150 61:702 62:162 63:729 64:864 65:891 66:567 67:270 68:675 69:1053 70:1323 71:540 72:459 73:702 74:405 75:702 76:972 77:675 78:972 79:216 80:675 81:832 82:192 83:864 84:1024 85:1056 86:672 87:320 88:800 89:1248 90:1568 91:640 92:544 93:832 94:480 95:832 96:1152 97:800 98:1152 99:256 100:800 101:858 102:198 103:891 104:1056 105:1089 106:693 107:330 108:825 109:1287 110:1617 111:660 112:561 113:858 114:495 115:858 116:1188 117:825 118:1188 119:264 120:825 121:546 122:126 123:567 124:672 125:693 126:441 127:210 128:525 129:819 130:1029 131:420 132:357 133:546 134:315 135:546 136:756 137:525 138:756 139:168 140:525 141:260 142:60 143:270 144:320 145:330 146:210 147:100 148:250 149:390 150:490 151:200 152:170 153:260 154:150 155:260 156:360 157:250 158:360 159:80 160:250 161:650 162:150 163:675 164:800 165:825 166:525 167:250 168:625 169:975 170:1225 171:500 172:425 173:650 174:375 175:650 176:900 177:625 178:900 179:200 180:625 181:1014 182:234 183:1053 184:1248 185:1287 186:819 187:390 188:975 189:1521 190:1911 191:780 192:663 193:1014 194:585 195:1014 196:1404 197:975 198:1404 199:312 200:975 201:1274 202:294 203:1323 204:1568 205:1617 206:1029 207:490 208:1225 209:1911 210:2401 211:980 212:833 213:1274 214:735 215:1274 216:1764 217:1225 218:1764 219:392 220:1225 221:520 222:120 223:540 224:640 225:660 226:420 227:200 228:500 229:780 230:980 231:400 232:340 233:520 234:300 235:520 236:720 237:500 238:720 239:160 240:500 241:442 242:102 243:459 244:544 245:561 246:357 247:170 248:425 249:663 250:833 251:340 252:289 253:442 254:255 255:442 256:612 257:425 258:612 259:136 260:425 261:676 262:156 263:702 264:832 265:858 266:546 267:260 268:650 269:1014 270:1274 271:520 272:442 273:676 274:390 275:676 276:936 277:650 278:936 279:208 280:650 281:390 282:90 283:405 284:480 285:495 286:315 287:150 288:375 289:585 290:735 291:300 292:255 293:390 294:225 295:390 296:540 297:375 298:540 299:120 300:375 301:676 302:156 303:702 304:832 305:858 306:546 307:260 308:650 309:1014 310:1274 311:520 312:442 313:676 314:390 315:676 316:936 317:650 318:936 319:208 320:650 321:936 322:216 323:972 324:1152 325:1188 326:756 327:360 328:900 329:1404 330:1764 331:720 332:612 333:936 334:540 335:936 336:1296 337:900 338:1296 339:288 340:900 341:650 342:150 343:675 344:800 345:825 346:525 347:250 348:625 349:975 350:1225 351:500 352:425 353:650 354:375 355:650 356:900 357:625 358:900 359:200 360:625 361:936 362:216 363:972 364:1152 365:1188 366:756 367:360 368:900 369:1404 370:1764 371:720 372:612 373:936 374:540 375:936 376:1296 377:900 378:1296 379:288 380:900 381:208 382:48 383:216 384:256 385:264 386:168 387:80 388:200 389:312 390:392 391:160 392:136 393:208 394:120 395:208 396:288 397:200 398:288 399:64 400:200 401:650 402:150 403:675 404:800 405:825 406:525 407:250 408:625 409:975 410:1225 411:500 412:425 413:650 414:375 415:650 416:900 417:625 418:900 419:200 420:625 421:0.06374502 422:0.081836327 423:0.054 424:0.078156313 425:0.052208835 426:0.086519115 427:0.080645161 428:0.080808081 429:0.076923077 430:0.058823529 431:-4.7685716e-05 432:0.037166871 433:-0.081216515 434:0.14265969 435:-0.04462966 436:0.027992508 437:-0.0072437884 438:0.060669083 439:0.022267978 440:-0.0016429657 441:0.0070462589 442:0.084569476 443:0.041270235 444:0.14807877 445:0.0066830008 446:0.024074445 447:0.072136663 448:0.083894881 449:0.11599074 450:-0.0083688404 451:0.080561369 452:0.12064249 453:0.03254121 454:0.12099601 455:-0.015735204 456:0.093127851 457:0.070970602 458:0.14520547 459:0.18926103 460:0.017955302 461:0.025739554 462:0.063448308 463:-0.035519206 464:0.12676395 465:-0.015932867 466:0.070947472 467:0.046890361 468:0.10596036 469:0.070490497 470:0.0082246095 471:-0.15041387 472:-0.029872463 473:0.033897981 474:0.15253518 475:0.099383417 476:0.073563648 477:-0.13849068 478:0.14806173 479:0.0077574606 480:-0.057318659 481:-0.039078894 482:0.051694538 483:-0.012709764 484:0.11513796 485:-0.045099678 486:0.050669926 487:-0.015666404 488:0.021198404 489:0.0046768371 490:0.045998995 491:0.016093915 492:0.064502946 493:0.045671552 494:0.043040106 495:0.0097662186 496:0.045108199 497:0.02362339 498:0.055408616 499:0.083806106 500:0.017934799 501:-0.078232574 502:0.035270448 503:0.0025971904 504:0.12413338 505:-0.0081959787 506:0.027861932 507:0.0033348497 508:0.040958053 509:0.038397872 510:0.045662114 511:0.010384261 512:0.040894513 513:-0.034076222 514:0.038187939 515:0.0026617368 516:0.012604042 517:0.082945763 518:0.012426522 519:0.015658875 520:0.077784484 
0.96875 1:24 2:8 3:22 4:37 5:36 6:24 7:10 8:38 9:44 10:49 11:11 12:25 13:19 14:13 15:24 16:25 17:28 18:29 19:5 20:24 21:576 22:192 23:528 24:888 25:864 26:576 27:240 28:912 29:1056 30:1176 31:264 32:600 33:456 34:312 35:576 36:600 37:672 38:696 39:120 40:576 41:192 42:64 43:176 44:296 45:288 46:192 47:80 48:304 49:352 50:392 51:88 52:200 53:152 54:104 55:192 56:200 57:224 58:232 59:40 60:192 61:528 62:176 63:484 64:814 65:792 66:528 67:220 68:836 69:968 70:1078 71:242 72:550 73:418 74:286 75:528 76:550 77:616 78:638 79:110 80:528 81:888 82:296 83:814 84:1369 85:1332 86:888 87:370 88:1406 89:1628 90:1813 91:407 92:925 93:703 94:481 95:888 96:925 97:1036 98:1073 99:185 100:888 101:864 102:288 103:792 104:1332 105:1296 106:864 107:360 108:1368 109:1584 110:1764 111:396 112:900 113:684 114:468 115:864 116:900 117:1008 118:1044 119:180 120:864 121:576 122:192 123:528 124:888 125:864 126:576 127:240 128:912 129:1056 130:1176 131:264 132:600 133:456 134:312 135:576 136:600 137:672 138:696 139:120 140:576 141:240 142:80 143:220 144:370 145:360 146:240 147:100 148:380 149:440 150:490 151:110 152:250 153:190 154:130 155:240 156:250 157:280 158:290 159:50 160:240 161:912 162:304 163:836 164:1406 165:1368 166:912 167:380 168:1444 169:1672 170:1862 171:418 172:950 173:722 174:494 175:912 176:950 177:1064 178:1102 179:190 180:912 181:1056 182:352 183:968 184:1628 185:1584 186:1056 187:440 188:1672 189:1936 190:2156 191:484 192:1100 193:836 194:572 195:1056 196:1100 197:1232 198:1276 199:220 200:1056 201:1176 202:392 203:1078 204:1813 205:1764 206:1176 207:490 208:1862 209:2156 210:2401 211:539 212:1225 213:931 214:637 215:1176 216:1225 217:1372 218:1421 219:245 220:1176 221:264 222:88 223:242 224:407 225:396 226:264 227:110 228:418 229:484 230:539 231:121 232:275 233:209 234:143 235:264 236:275 237:308 238:319 239:55 240:264 241:600 242:200 243:550 244:925 245:900 246:600 247:250 248:950 249:1100 250:1225 251:275 252:625 253:475 254:325 255:600 256:625 257:700 258:725 259:125 260:600 261:456 262:152 263:418 264:703 265:684 266:456 267:190 268:722 269:836 270:931 271:209 272:475 273:361 274:247 275:456 276:475 277:532 278:551 279:95 280:456 281:312 282:104 283:286 284:481 285:468 286:312 287:130 288:494 289:572 290:637 291:143 292:325 293:247 294:169 295:312 296:325 297:364 298:377 299:65 300:312 301:576 302:192 303:528 304:888 305:864 306:576 307:240 308:912 309:1056 310:1176 311:264 312:600 313:456 314:312 315:576 316:600 317:672 318:696 319:120 320:576 321:600 322:200 323:550 324:925 325:900 326:600 327:250 328:950 329:1100 330:1225 331:275 332:625 333:475 334:325 335:600 336:625 337:700 338:725 339:125 340:600 341:672 342:224 343:616 344:1036 345:1008 346:672 347:280 348:1064 349:1232 350:1372 351:308 352:700 353:532 354:364 355:672 356:700 357:784 358:812 359:140 360:672 361:696 362:232 363:638 364:1073 365:1044 366:696 367:290 368:1102 369:1276 370:1421 371:319 372:725 373:551 374:377 375:696 376:725 377:812 378:841 379:145 380:696 381:120 382:40 383:110 384:185 385:180 386:120 387:50 388:190 389:220 390:245 391:55 392:125 393:95 394:65 395:120 396:125 397:140 398:145 399:25 400:120 401:576 402:192 403:528 404:888 405:864 406:576 407:240 408:912 409:1056 410:1176 411:264 412:600 413:456 414:312 415:576 416:600 417:672 418:696 419:120 420:576 421:0.078787879 422:0.050607287 423:0.064908722 424:0.052845528 425:0.069246436 426:0.042857143 427:0.098159509 428:0.051229508 429:0.05338809 430:0.055555556 431:0.0014341391 432:-0.073337768 433:-0.017505379 434:0.017490163 435:0.023896644 436:-0.076360256 437:0.063961986 438:-0.013902296 439:-0.068455766 440:0.0012005245 441:-0.045203833 442:-0.096149984 443:0.050861299 444:0.025918075 445:-0.051472749 446:-0.054851069 447:0.14265438 448:-0.00077954505 449:0.024230507 450:0.040664352 451:-0.0171046 452:-0.11355157 453:-0.0097260433 454:0.046925258 455:0.011157231 456:-0.073165448 457:0.1134052 458:0.050237994 459:0.0059138032 460:0.023449538 461:-0.015963756 462:-0.08355677 463:-0.013809059 464:0.022890103 465:0.043186224 466:-0.04837044 467:0.053137584 468:-0.071974995 469:-0.070289361 470:0.030501062 471:0.048637991 472:0.074541431 473:0.094925284 474:-0.0080250655 475:-0.0045053677 476:0.014449033 477:0.15820902 478:-0.091053155 479:0.053346717 480:0.10043193 481:0.061897378 482:-0.057086988 483:0.0082433117 484:-0.063318565 485:-0.0092089014 486:0.041579498 487:0.12453634 488:-0.0071380884 489:0.00379408 490:0.0065978465 491:0.027700842 492:-0.088164752 493:0.022011285 494:0.016553247 495:0.029498331 496:-0.060825724 497:0.053466431 498:-0.030554802 499:-0.065654171 500:0.028990642 501:-0.0076111644 502:-0.057166544 503:0.0059352618 504:-0.084732513 505:-0.037073323 506:0.0085775568 507:0.1009507 508:-0.0063830728 509:0.0093154795 510:-0.055788215 511:0.065113765 512:-0.13994549 513:0.061956237 514:0.044889952 515:-0.06471423 516:-0.030624036 517:0.14811167 518:0.030411395 519:-0.0082137366 520:0.028962698 
0.96875 1:15 2:6 3:23 4:28 5:39 6:28 7:8 8:32 9:45 10:57 11:7 12:29 13:31 14:11 15:17 16:29 17:28 18:35 19:4 20:21 21:225 22:90 23:345 24:420 25:585 26:420 27:120 28:480 29:675 30:855 31:105 32:435 33:465 34:165 35:255 36:435 37:420 38:525 39:60 40:315 41:90 42:36 43:138 44:168 45:234 46:168 47:48 48:192 49:270 50:342 51:42 52:174 53:186 54:66 55:102 56:174 57:168 58:210 59:24 60:126 61:345 62:138 63:529 64:644 65:897 66:644 67:184 68:736 69:1035 70:1311 71:161 72:667 73:713 74:253 75:391 76:667 77:644 78:805 79:92 80:483 81:420 82:168 83:644 84:784 85:1092 86:784 87:224 88:896 89:1260 90:1596 91:196 92:812 93:868 94:308 95:476 96:812 97:784 98:980 99:112 100:588 101:585 102:234 103:897 104:1092 105:1521 106:1092 107:312 108:1248 109:1755 110:2223 111:273 112:1131 113:1209 114:429 115:663 116:1131 117:1092 118:1365 119:156 120:819 121:420 122:168 123:644 124:784 125:1092 126:784 127:224 128:896 129:1260 130:1596 131:196 132:812 133:868 134:308 135:476 136:812 137:784 138:980 139:112 140:588 141:120 142:48 143:184 144:224 145:312 146:224 147:64 148:256 149:360 150:456 151:56 152:232 153:248 154:88 155:136 156:232 157:224 158:280 159:32 160:168 161:480 162:192 163:736 164:896 165:1248 166:896 167:256 168:1024 169:1440 170:1824 171:224 172:928 173:992 174:352 175:544 176:928 177:896 178:1120 179:128 180:672 181:675 182:270 183:1035 184:1260 185:1755 186:1260 187:360 188:1440 189:2025 190:2565 191:315 192:1305 193:1395 194:495 195:765 196:1305 197:1260 198:1575 199:180 200:945 201:855 202:342 203:1311 204:1596 205:2223 206:1596 207:456 208:1824 209:2565 210:3249 211:399 212:1653 213:1767 214:627 215:969 216:1653 217:1596 218:1995 219:228 220:1197 221:105 222:42 223:161 224:196 225:273 226:196 227:56 228:224 229:315 230:399 231:49 232:203 233:217 234:77 235:119 236:203 237:196 238:245 239:28 240:147 241:435 242:174 243:667 244:812 245:1131 246:812 247:232 248:928 249:1305 250:1653 251:203 252:841 253:899 254:319 255:493 256:841 257:812 258:1015 259:116 260:609 261:465 262:186 263:713 264:868 265:1209 266:868 267:248 268:992 269:1395 270:1767 271:217 272:899 273:961 274:341 275:527 276:899 277:868 278:1085 279:124 280:651 281:165 282:66 283:253 284:308 285:429 286:308 287:88 288:352 289:495 290:627 291:77 292:319 293:341 294:121 295:187 296:319 297:308 298:385 299:44 300:231 301:255 302:102 303:391 304:476 305:663 306:476 307:136 308:544 309:765 310:969 311:119 312:493 313:527 314:187 315:289 316:493 317:476 318:595 319:68 320:357 321:435 322:174 323:667 324:812 325:1131 326:812 327:232 328:928 329:1305 330:1653 331:203 332:841 333:899 334:319 335:493 336:841 337:812 338:1015 339:116 340:609 341:420 342:168 343:644 344:784 345:1092 346:784 347:224 348:896 349:1260 350:1596 351:196 352:812 353:868 354:308 355:476 356:812 357:784 358:980 359:112 360:588 361:525 362:210 363:805 364:980 365:1365 366:980 367:280 368:1120 369:1575 370:1995 371:245 372:1015 373:1085 374:385 375:595 376:1015 377:980 378:1225 379:140 380:735 381:60 382:24 383:92 384:112 385:156 386:112 387:32 388:128 389:180 390:228 391:28 392:116 393:124 394:44 395:68 396:116 397:112 398:140 399:16 400:84 401:315 402:126 403:483 404:588 405:819 406:588 407:168 408:672 409:945 410:1197 411:147 412:609 413:651 414:231 415:357 416:609 417:588 418:735 419:84 420:441 421:0.042596349 422:0.071138211 423:0.071283096 424:0.07755102 425:0.08793456 426:0.06352459 427:0.075975359 428:0.061728395 429:0.051546392 430:0.059917355 431:0.028777016 432:0.0060490491 433:-0.011107881 434:0.097879805 435:0.055864268 436:-0.05151924 437:-0.078918163 438:-0.020987378 439:0.010313617 440:-0.022168583 441:0.088820957 442:0.031252856 443:-0.011696118 444:0.11812462 445:0.090171428 446:0.02325933 447:-0.058784066 448:-0.054698278 449:0.072327661 450:0.0063851887 451:0.079124196 452:0.058441204 453:-0.0036361748 454:0.14063002 455:0.041657562 456:-0.0038966448 457:-0.096357464 458:-0.017565698 459:0.09202817 460:-0.0026103577 461:0.081347227 462:-0.029676026 463:0.017620592 464:0.060419867 465:0.017434146 466:0.021888367 467:-0.057414627 468:-0.075045712 469:0.013917647 470:0.00068308644 471:0.08815514 472:0.14605385 473:0.093866711 474:0.06754122 475:0.13356851 476:0.017891363 477:-0.021063084 478:-0.017890342 479:-0.044478009 480:0.023728667 481:-0.021571783 482:0.0207487 483:0.069929367 484:0.057940934 485:-0.017697547 486:0.012029918 487:0.021258475 488:0.030620894 489:0.023748858 490:0.0059575774 491:-0.00379376 492:-0.019656134 493:0.061600851 494:0.044640691 495:-0.023058947 496:0.11677688 497:-0.085088472 498:-0.033836009 499:0.044862286 500:0.062560182 501:0.014120531 502:0.025461033 503:0.036434939 504:0.025214363 505:0.029901223 506:-0.00089851095 507:-0.013558271 508:0.034859444 509:0.049221748 510:-0.0025126429 511:-0.0092226593 512:-0.081066071 513:0.038255053 514:0.073515559 515:0.0042798373 516:-0.0024831326 517:0.058190174 518:0.11791866 519:-0.051726125 520:-0.03141675 
0.96875 1:32 2:9 3:21 4:44 5:38 6:28 7:11 8:28 9:43 10:55 11:17 12:23 13:28 14:14 15:27 16:19 17:26 18:34 19:4 20:22 21:1024 22:288 23:672 24:1408 25:1216 26:896 27:352 28:896 29:1376 30:1760 31:544 32:736 33:896 34:448 35:864 36:608 37:832 38:1088 39:128 40:704 41:288 42:81 43:189 44:396 45:342 46:252 47:99 48:252 49:387 50:495 51:153 52:207 53:252 54:126 55:243 56:171 57:234 58:306 59:36 60:198 61:672 62:189 63:441 64:924 65:798 66:588 67:231 68:588 69:903 70:1155 71:357 72:483 73:588 74:294 75:567 76:399 77:546 78:714 79:84 80:462 81:1408 82:396 83:924 84:1936 85:1672 86:1232 87:484 88:1232 89:1892 90:2420 91:748 92:1012 93:1232 94:616 95:1188 96:836 97:1144 98:1496 99:176 100:968 101:1216 102:342 103:798 104:1672 105:1444 106:1064 107:418 108:1064 109:1634 110:2090 111:646 112:874 113:1064 114:532 115:1026 116:722 117:988 118:1292 119:152 120:836 121:896 122:252 123:588 124:1232 125:1064 126:784 127:308 128:784 129:1204 130:1540 131:476 132:644 133:784 134:392 135:756 136:532 137:728 138:952 139:112 140:616 141:352 142:99 143:231 144:484 145:418 146:308 147:121 148:308 149:473 150:605 151:187 152:253 153:308 154:154 155:297 156:209 157:286 158:374 159:44 160:242 161:896 162:252 163:588 164:1232 165:1064 166:784 167:308 168:784 169:1204 170:1540 171:476 172:644 173:784 174:392 175:756 176:532 177:728 178:952 179:112 180:616 181:1376 182:387 183:903 184:1892 185:1634 186:1204 187:473 188:1204 189:1849 190:2365 191:731 192:989 193:1204 194:602 195:1161 196:817 197:1118 198:1462 199:172 200:946 201:1760 202:495 203:1155 204:2420 205:2090 206:1540 207:605 208:1540 209:2365 210:3025 211:935 212:1265 213:1540 214:770 215:1485 216:1045 217:1430 218:1870 219:220 220:1210 221:544 222:153 223:357 224:748 225:646 226:476 227:187 228:476 229:731 230:935 231:289 232:391 233:476 234:238 235:459 236:323 237:442 238:578 239:68 240:374 241:736 242:207 243:483 244:1012 245:874 246:644 247:253 248:644 249:989 250:1265 251:391 252:529 253:644 254:322 255:621 256:437 257:598 258:782 259:92 260:506 261:896 262:252 263:588 264:1232 265:1064 266:784 267:308 268:784 269:1204 270:1540 271:476 272:644 273:784 274:392 275:756 276:532 277:728 278:952 279:112 280:616 281:448 282:126 283:294 284:616 285:532 286:392 287:154 288:392 289:602 290:770 291:238 292:322 293:392 294:196 295:378 296:266 297:364 298:476 299:56 300:308 301:864 302:243 303:567 304:1188 305:1026 306:756 307:297 308:756 309:1161 310:1485 311:459 312:621 313:756 314:378 315:729 316:513 317:702 318:918 319:108 320:594 321:608 322:171 323:399 324:836 325:722 326:532 327:209 328:532 329:817 330:1045 331:323 332:437 333:532 334:266 335:513 336:361 337:494 338:646 339:76 340:418 341:832 342:234 343:546 344:1144 345:988 346:728 347:286 348:728 349:1118 350:1430 351:442 352:598 353:728 354:364 355:702 356:494 357:676 358:884 359:104 360:572 361:1088 362:306 363:714 364:1496 365:1292 366:952 367:374 368:952 369:1462 370:1870 371:578 372:782 373:952 374:476 375:918 376:646 377:884 378:1156 379:136 380:748 381:128 382:36 383:84 384:176 385:152 386:112 387:44 388:112 389:172 390:220 391:68 392:92 393:112 394:56 395:108 396:76 397:104 398:136 399:16 400:88 401:704 402:198 403:462 404:968 405:836 406:616 407:242 408:616 409:946 410:1210 411:374 412:506 413:616 414:308 415:594 416:418 417:572 418:748 419:88 420:484 421:0.061185468 422:0.059386973 423:0.065259117 424:0.071153846 425:0.06743738 426:0.05984556 427:0.069632495 428:0.081395349 429:0.044660194 430:0.060311284 431:0.010279798 432:0.014506204 433:0.011530376 434:-0.029447583 435:-0.029659025 436:0.0046807726 437:0.10449522 438:0.068068779 439:-0.025417236 440:0.02791061 441:0.027449616 442:-0.052323273 443:0.029281051 444:0.0082810576 445:0.0077728795 446:0.027736469 447:0.072442071 448:0.032281778 449:0.0032540839 450:0.011085835 451:0.011509634 452:-0.071773775 453:0.015125225 454:0.018050867 455:0.058316617 456:0.028432699 457:0.0338589 458:0.039160562 459:0.053111637 460:0.065012778 461:0.016377514 462:-0.073784222 463:-0.0053072192 464:-0.026569967 465:0.013801214 466:0.0082151966 467:0.012639426 468:-0.0043846348 469:0.03494306 470:0.061677023 471:0.079171164 472:0.033522278 473:-0.0025574509 474:0.092299075 475:-0.050010951 476:-0.034757853 477:0.096904153 478:0.038536359 479:-0.14061738 480:-0.0038468704 481:0.073928203 482:-0.026695028 483:-0.01229791 484:-0.048442833 485:-0.035132181 486:0.027431689 487:0.027608848 488:0.016750381 489:-0.0688681 490:-0.041603192 491:-0.0015639142 492:-0.10274792 493:-0.0015245054 494:0.03293758 495:0.027272625 496:0.028195668 497:0.046018392 498:-0.073029454 499:-0.01098734 500:0.052850791 501:0.06529087 502:0.046889169 503:0.020725482 504:-0.077645819 505:-0.045380027 506:0.0069644261 507:0.080781264 508:-0.014484981 509:-0.056792277 510:-0.023225061 511:0.097919115 512:0.026364987 513:0.049789582 514:0.040564909 515:0.058644899 516:0.03280702 517:-0.015309657 518:-0.018945115 519:0.026259602 520:-0.052515 
0.96875 1:22 2:4 3:29 4:35 5:27 6:18 7:10 8:42 9:42 10:55 11:20 12:25 13:22 14:13 15:25 16:45 17:23 18:27 19:7 20:19 21:484 22:88 23:638 24:770 25:594 26:396 27:220 28:924 29:924 30:1210 31:440 32:550 33:484 34:286 35:550 36:990 37:506 38:594 39:154 40:418 41:88 42:16 43:116 44:140 45:108 46:72 47:40 48:168 49:168 50:220 51:80 52:100 53:88 54:52 55:100 56:180 57:92 58:108 59:28 60:76 61:638 62:116 63:841 64:1015 65:783 66:522 67:290 68:1218 69:1218 70:1595 71:580 72:725 73:638 74:377 75:725 76:1305 77:667 78:783 79:203 80:551 81:770 82:140 83:1015 84:1225 85:945 86:630 87:350 88:1470 89:1470 90:1925 91:700 92:875 93:770 94:455 95:875 96:1575 97:805 98:945 99:245 100:665 101:594 102:108 103:783 104:945 105:729 106:486 107:270 108:1134 109:1134 110:1485 111:540 112:675 113:594 114:351 115:675 116:1215 117:621 118:729 119:189 120:513 121:396 122:72 123:522 124:630 125:486 126:324 127:180 128:756 129:756 130:990 131:360 132:450 133:396 134:234 135:450 136:810 137:414 138:486 139:126 140:342 141:220 142:40 143:290 144:350 145:270 146:180 147:100 148:420 149:420 150:550 151:200 152:250 153:220 154:130 155:250 156:450 157:230 158:270 159:70 160:190 161:924 162:168 163:1218 164:1470 165:1134 166:756 167:420 168:1764 169:1764 170:2310 171:840 172:1050 173:924 174:546 175:1050 176:1890 177:966 178:1134 179:294 180:798 181:924 182:168 183:1218 184:1470 185:1134 186:756 187:420 188:1764 189:1764 190:2310 191:840 192:1050 193:924 194:546 195:1050 196:1890 197:966 198:1134 199:294 200:798 201:1210 202:220 203:1595 204:1925 205:1485 206:990 207:550 208:2310 209:2310 210:3025 211:1100 212:1375 213:1210 214:715 215:1375 216:2475 217:1265 218:1485 219:385 220:1045 221:440 222:80 223:580 224:700 225:540 226:360 227:200 228:840 229:840 230:1100 231:400 232:500 233:440 234:260 235:500 236:900 237:460 238:540 239:140 240:380 241:550 242:100 243:725 244:875 245:675 246:450 247:250 248:1050 249:1050 250:1375 251:500 252:625 253:550 254:325 255:625 256:1125 257:575 258:675 259:175 260:475 261:484 262:88 263:638 264:770 265:594 266:396 267:220 268:924 269:924 270:1210 271:440 272:550 273:484 274:286 275:550 276:990 277:506 278:594 279:154 280:418 281:286 282:52 283:377 284:455 285:351 286:234 287:130 288:546 289:546 290:715 291:260 292:325 293:286 294:169 295:325 296:585 297:299 298:351 299:91 300:247 301:550 302:100 303:725 304:875 305:675 306:450 307:250 308:1050 309:1050 310:1375 311:500 312:625 313:550 314:325 315:625 316:1125 317:575 318:675 319:175 320:475 321:990 322:180 323:1305 324:1575 325:1215 326:810 327:450 328:1890 329:1890 330:2475 331:900 332:1125 333:990 334:585 335:1125 336:2025 337:1035 338:1215 339:315 340:855 341:506 342:92 343:667 344:805 345:621 346:414 347:230 348:966 349:966 350:1265 351:460 352:575 353:506 354:299 355:575 356:1035 357:529 358:621 359:161 360:437 361:594 362:108 363:783 364:945 365:729 366:486 367:270 368:1134 369:1134 370:1485 371:540 372:675 373:594 374:351 375:675 376:1215 377:621 378:729 379:189 380:513 381:154 382:28 383:203 384:245 385:189 386:126 387:70 388:294 389:294 390:385 391:140 392:175 393:154 394:91 395:175 396:315 397:161 398:189 399:49 400:133 401:418 402:76 403:551 404:665 405:513 406:342 407:190 408:798 409:798 410:1045 411:380 412:475 413:418 414:247 415:475 416:855 417:437 418:513 419:133 420:361 421:0.058823529 422:0.066797642 423:0.05511811 424:0.057199211 425:0.049407115 426:0.067326733 427:0.063492063 428:0.065606362 429:0.073705179 430:0.051896208 431:0.013217148 432:0.080546507 433:0.022548732 434:0.00022275807 435:-0.041298355 436:-0.012176725 437:-0.01619714 438:0.043869422 439:0.0073574293 440:-0.030773718 441:0.084927485 442:0.027173638 443:0.18749633 444:0.062977146 445:-0.10739433 446:0.0063489829 447:0.074605669 448:0.047852289 449:0.0484134 450:0.088949013 451:0.062807311 452:0.086890187 453:0.17462474 454:0.067611756 455:-0.014233007 456:-0.02240362 457:0.095975943 458:0.15879982 459:0.071748123 460:0.023324998 461:0.040033282 462:-0.0036697381 463:0.063082851 464:0.037018966 465:-0.085129349 466:-0.038550895 467:-0.021293161 468:0.083042234 469:0.094277488 470:0.038486587 471:0.04265014 472:-0.022123736 473:0.0015929882 474:0.066356456 475:-0.078772124 476:-0.032595429 477:0.0016668763 478:-0.033212685 479:-0.059447313 480:-0.038825875 481:-0.033214678 482:0.043656699 483:-0.00022205251 484:0.034285279 485:-0.019711372 486:-0.01350493 487:0.032024197 488:0.0078288475 489:0.1228455 490:-0.024848522 491:0.062842979 492:0.028853397 493:-0.030973172 494:0.029357064 495:-0.022626321 496:-0.031092527 497:-0.0037604039 498:0.09029023 499:0.048181805 500:0.091898486 501:0.0064631084 502:0.064613007 503:-0.0007448392 504:0.029226506 505:-0.0082333819 506:0.020878232 507:0.059068553 508:0.0031937922 509:0.11080595 510:-0.042121833 511:-0.072009327 512:0.048466387 513:0.035019945 514:0.016934193 515:-0.0030932397 516:0.091220516 517:0.066933332 518:0.037550568 519:0.045127988 520:0.045210043 
0.96875 1:17 2:9 3:22 4:37 5:28 6:20 7:9 8:40 9:41 10:53 11:11 12:30 13:21 14:21 15:22 16:30 17:36 18:26 19:3 20:22 21:289 22:153 23:374 24:629 25:476 26:340 27:153 28:680 29:697 30:901 31:187 32:510 33:357 34:357 35:374 36:510 37:612 38:442 39:51 40:374 41:153 42:81 43:198 44:333 45:252 46:180 47:81 48:360 49:369 50:477 51:99 52:270 53:189 54:189 55:198 56:270 57:324 58:234 59:27 60:198 61:374 62:198 63:484 64:814 65:616 66:440 67:198 68:880 69:902 70:1166 71:242 72:660 73:462 74:462 75:484 76:660 77:792 78:572 79:66 80:484 81:629 82:333 83:814 84:1369 85:1036 86:740 87:333 88:1480 89:1517 90:1961 91:407 92:1110 93:777 94:777 95:814 96:1110 97:1332 98:962 99:111 100:814 101:476 102:252 103:616 104:1036 105:784 106:560 107:252 108:1120 109:1148 110:1484 111:308 112:840 113:588 114:588 115:616 116:840 117:1008 118:728 119:84 120:616 121:340 122:180 123:440 124:740 125:560 126:400 127:180 128:800 129:820 130:1060 131:220 132:600 133:420 134:420 135:440 136:600 137:720 138:520 139:60 140:440 141:153 142:81 143:198 144:333 145:252 146:180 147:81 148:360 149:369 150:477 151:99 152:270 153:189 154:189 155:198 156:270 157:324 158:234 159:27 160:198 161:680 162:360 163:880 164:1480 165:1120 166:800 167:360 168:1600 169:1640 170:2120 171:440 172:1200 173:840 174:840 175:880 176:1200 177:1440 178:1040 179:120 180:880 181:697 182:369 183:902 184:1517 185:1148 186:820 187:369 188:1640 189:1681 190:2173 191:451 192:1230 193:861 194:861 195:902 196:1230 197:1476 198:1066 199:123 200:902 201:901 202:477 203:1166 204:1961 205:1484 206:1060 207:477 208:2120 209:2173 210:2809 211:583 212:1590 213:1113 214:1113 215:1166 216:1590 217:1908 218:1378 219:159 220:1166 221:187 222:99 223:242 224:407 225:308 226:220 227:99 228:440 229:451 230:583 231:121 232:330 233:231 234:231 235:242 236:330 237:396 238:286 239:33 240:242 241:510 242:270 243:660 244:1110 245:840 246:600 247:270 248:1200 249:1230 250:1590 251:330 252:900 253:630 254:630 255:660 256:900 257:1080 258:780 259:90 260:660 261:357 262:189 263:462 264:777 265:588 266:420 267:189 268:840 269:861 270:1113 271:231 272:630 273:441 274:441 275:462 276:630 277:756 278:546 279:63 280:462 281:357 282:189 283:462 284:777 285:588 286:420 287:189 288:840 289:861 290:1113 291:231 292:630 293:441 294:441 295:462 296:630 297:756 298:546 299:63 300:462 301:374 302:198 303:484 304:814 305:616 306:440 307:198 308:880 309:902 310:1166 311:242 312:660 313:462 314:462 315:484 316:660 317:792 318:572 319:66 320:484 321:510 322:270 323:660 324:1110 325:840 326:600 327:270 328:1200 329:1230 330:1590 331:330 332:900 333:630 334:630 335:660 336:900 337:1080 338:780 339:90 340:660 341:612 342:324 343:792 344:1332 345:1008 346:720 347:324 348:1440 349:1476 350:1908 351:396 352:1080 353:756 354:756 355:792 356:1080 357:1296 358:936 359:108 360:792 361:442 362:234 363:572 364:962 365:728 366:520 367:234 368:1040 369:1066 370:1378 371:286 372:780 373:546 374:546 375:572 376:780 377:936 378:676 379:78 380:572 381:51 382:27 383:66 384:111 385:84 386:60 387:27 388:120 389:123 390:159 391:33 392:90 393:63 394:63 395:66 396:90 397:108 398:78 399:9 400:66 401:374 402:198 403:484 404:814 405:616 406:440 407:198 408:880 409:902 410:1166 411:242 412:660 413:462 414:462 415:484 416:660 417:792 418:572 419:66 420:484 421:0.064257028 422:0.058350101 423:0.076612903 424:0.074747475 425:0.066801619 426:0.07505071 427:0.067073171 428:0.077393075 429:0.063265306 430:0.049079755 431:-0.037657159 432:-0.048223971 433:0.038782652 434:0.02356404 435:0.019525401 436:-0.017162206 437:0.0011957412 438:0.063689613 439:0.0010579747 440:0.014359975 441:0.027201649 442:8.5932572e-05 443:0.080349194 444:0.092919013 445:0.0071399358 446:0.0014712584 447:-0.032339053 448:0.092890926 449:0.027476863 450:0.021802794 451:-0.0081502145 452:0.065833286 453:0.06099409 454:0.11622004 455:0.045296625 456:0.06447001 457:-0.030342867 458:0.072677659 459:-0.039394054 460:0.038987261 461:0.020147374 462:-0.061436 463:-0.030029996 464:0.049850157 465:0.046180579 466:0.052906178 467:-0.041323519 468:-0.0073170638 469:-0.056722625 470:0.0054134738 471:0.0038963824 472:0.034365894 473:0.022889744 474:0.080344561 475:-0.046294574 476:0.041234025 477:0.0041509608 478:-0.070458061 479:-0.031822805 480:0.021388314 481:-0.0060267129 482:0.057179277 483:0.066564744 484:0.0041081116 485:-0.0060381885 486:0.091786373 487:-0.034992139 488:-0.00029476757 489:0.070826771 490:0.060950634 491:0.00099173332 492:-0.0054882524 493:-0.0041812566 494:0.074031574 495:0.026045127 496:0.081402685 497:-0.072618043 498:-0.043326861 499:-0.022958385 500:-0.021672784 501:0.012431638 502:0.035638463 503:0.060439472 504:0.013329961 505:-0.004492706 506:0.077897853 507:0.018785651 508:0.018438387 509:0.09593596 510:0.035283394 511:0.085849709 512:-0.045301202 513:0.10415833 514:0.13060649 515:0.011009558 516:0.034327987 517:0.034171344 518:0.16404202 519:0.032980902 520:0.00050754966 
0.9697265625 1:19 2:4 3:22 4:25 5:22 6:11 7:3 8:31 9:31 10:37 11:9 12:23 13:16 14:12 15:19 16:20 17:15 18:20 19:1 20:15 21:361 22:76 23:418 24:475 25:418 26:209 27:57 28:589 29:589 30:703 31:171 32:437 33:304 34:228 35:361 36:380 37:285 38:380 39:19 40:285 41:76 42:16 43:88 44:100 45:88 46:44 47:12 48:124 49:124 50:148 51:36 52:92 53:64 54:48 55:76 56:80 57:60 58:80 59:4 60:60 61:418 62:88 63:484 64:550 65:484 66:242 67:66 68:682 69:682 70:814 71:198 72:506 73:352 74:264 75:418 76:440 77:330 78:440 79:22 80:330 81:475 82:100 83:550 84:625 85:550 86:275 87:75 88:775 89:775 90:925 91:225 92:575 93:400 94:300 95:475 96:500 97:375 98:500 99:25 100:375 101:418 102:88 103:484 104:550 105:484 106:242 107:66 108:682 109:682 110:814 111:198 112:506 113:352 114:264 115:418 116:440 117:330 118:440 119:22 120:330 121:209 122:44 123:242 124:275 125:242 126:121 127:33 128:341 129:341 130:407 131:99 132:253 133:176 134:132 135:209 136:220 137:165 138:220 139:11 140:165 141:57 142:12 143:66 144:75 145:66 146:33 147:9 148:93 149:93 150:111 151:27 152:69 153:48 154:36 155:57 156:60 157:45 158:60 159:3 160:45 161:589 162:124 163:682 164:775 165:682 166:341 167:93 168:961 169:961 170:1147 171:279 172:713 173:496 174:372 175:589 176:620 177:465 178:620 179:31 180:465 181:589 182:124 183:682 184:775 185:682 186:341 187:93 188:961 189:961 190:1147 191:279 192:713 193:496 194:372 195:589 196:620 197:465 198:620 199:31 200:465 201:703 202:148 203:814 204:925 205:814 206:407 207:111 208:1147 209:1147 210:1369 211:333 212:851 213:592 214:444 215:703 216:740 217:555 218:740 219:37 220:555 221:171 222:36 223:198 224:225 225:198 226:99 227:27 228:279 229:279 230:333 231:81 232:207 233:144 234:108 235:171 236:180 237:135 238:180 239:9 240:135 241:437 242:92 243:506 244:575 245:506 246:253 247:69 248:713 249:713 250:851 251:207 252:529 253:368 254:276 255:437 256:460 257:345 258:460 259:23 260:345 261:304 262:64 263:352 264:400 265:352 266:176 267:48 268:496 269:496 270:592 271:144 272:368 273:256 274:192 275:304 276:320 277:240 278:320 279:16 280:240 281:228 282:48 283:264 284:300 285:264 286:132 287:36 288:372 289:372 290:444 291:108 292:276 293:192 294:144 295:228 296:240 297:180 298:240 299:12 300:180 301:361 302:76 303:418 304:475 305:418 306:209 307:57 308:589 309:589 310:703 311:171 312:437 313:304 314:228 315:361 316:380 317:285 318:380 319:19 320:285 321:380 322:80 323:440 324:500 325:440 326:220 327:60 328:620 329:620 330:740 331:180 332:460 333:320 334:240 335:380 336:400 337:300 338:400 339:20 340:300 341:285 342:60 343:330 344:375 345:330 346:165 347:45 348:465 349:465 350:555 351:135 352:345 353:240 354:180 355:285 356:300 357:225 358:300 359:15 360:225 361:380 362:80 363:440 364:500 365:440 366:220 367:60 368:620 369:620 370:740 371:180 372:460 373:320 374:240 375:380 376:400 377:300 378:400 379:20 380:300 381:19 382:4 383:22 384:25 385:22 386:11 387:3 388:31 389:31 390:37 391:9 392:23 393:16 394:12 395:19 396:20 397:15 398:20 399:1 400:15 401:285 402:60 403:330 404:375 405:330 406:165 407:45 408:465 409:465 410:555 411:135 412:345 413:240 414:180 415:285 416:300 417:225 418:300 419:15 420:225 421:0.047887324 422:0.042372881 423:0.067988669 424:0.053977273 425:0.074074074 426:0.062857143 427:0.045845272 428:0.086206897 429:0.051873199 430:0.040462428 431:0.078978989 432:-0.017020628 433:-7.8966976e-05 434:-0.10788873 435:-0.028602059 436:-0.0448846 437:-0.043584137 438:-0.037034793 439:0.03493031 440:-0.014360755 441:0.0023539084 442:0.055187421 443:0.11972088 444:-0.024657595 445:-0.1012896 446:0.11868926 447:-0.0030210529 448:0.13370568 449:0.091914113 450:-0.11192436 451:0.01806336 452:-0.050096674 453:0.020364839 454:-0.028061992 455:-0.090435022 456:0.020565217 457:0.031441138 458:0.16994773 459:0.080873861 460:0.0031490047 461:0.01126259 462:-0.097839003 463:0.019725103 464:-0.073783116 465:-0.069359205 466:0.032518573 467:-0.093275095 468:0.028131417 469:0.023183086 470:-0.022887 471:-0.008370845 472:-0.15349166 473:0.053695435 474:0.015688629 475:0.010553111 476:0.095448333 477:-0.115771 478:0.0092898524 479:-0.036759109 480:-0.04022054 481:0.07466534 482:0.044991871 483:0.040197379 484:0.042034055 485:0.017850941 486:-0.0076068013 487:-0.089498435 488:-0.010090007 489:-0.020776124 490:-0.059596126 491:0.0485987 492:-0.081483846 493:-0.076183405 494:-0.025847487 495:-0.041651009 496:-0.0012364862 497:-0.034223655 498:0.041369685 499:0.011980321 500:-0.024789154 501:0.028742417 502:-0.0023250666 503:0.016577412 504:0.023693332 505:-0.039283602 506:-0.0010860536 507:-0.045703896 508:0.076042684 509:0.003726074 510:-0.002360849 511:0.022813681 512:-0.091512266 513:0.024157452 514:0.023616664 515:-0.080572135 516:0.0010464564 517:-0.056664452 518:-0.096527162 519:-0.0073549441 520:0.016589165 
0.9697265625 1:26 2:7 3:23 4:28 5:26 6:33 7:12 8:39 9:33 10:52 11:17 12:28 13:26 14:13 15:21 16:23 17:31 18:28 19:12 20:14 21:676 22:182 23:598 24:728 25:676 26:858 27:312 28:1014 29:858 30:1352 31:442 32:728 33:676 34:338 35:546 36:598 37:806 38:728 39:312 40:364 41:182 42:49 43:161 44:196 45:182 46:231 47:84 48:273 49:231 50:364 51:119 52:196 53:182 54:91 55:147 56:161 57:217 58:196 59:84 60:98 61:598 62:161 63:529 64:644 65:598 66:759 67:276 68:897 69:759 70:1196 71:391 72:644 73:598 74:299 75:483 76:529 77:713 78:644 79:276 80:322 81:728 82:196 83:644 84:784 85:728 86:924 87:336 88:1092 89:924 90:1456 91:476 92:784 93:728 94:364 95:588 96:644 97:868 98:784 99:336 100:392 101:676 102:182 103:598 104:728 105:676 106:858 107:312 108:1014 109:858 110:1352 111:442 112:728 113:676 114:338 115:546 116:598 117:806 118:728 119:312 120:364 121:858 122:231 123:759 124:924 125:858 126:1089 127:396 128:1287 129:1089 130:1716 131:561 132:924 133:858 134:429 135:693 136:759 137:1023 138:924 139:396 140:462 141:312 142:84 143:276 144:336 145:312 146:396 147:144 148:468 149:396 150:624 151:204 152:336 153:312 154:156 155:252 156:276 157:372 158:336 159:144 160:168 161:1014 162:273 163:897 164:1092 165:1014 166:1287 167:468 168:1521 169:1287 170:2028 171:663 172:1092 173:1014 174:507 175:819 176:897 177:1209 178:1092 179:468 180:546 181:858 182:231 183:759 184:924 185:858 186:1089 187:396 188:1287 189:1089 190:1716 191:561 192:924 193:858 194:429 195:693 196:759 197:1023 198:924 199:396 200:462 201:1352 202:364 203:1196 204:1456 205:1352 206:1716 207:624 208:2028 209:1716 210:2704 211:884 212:1456 213:1352 214:676 215:1092 216:1196 217:1612 218:1456 219:624 220:728 221:442 222:119 223:391 224:476 225:442 226:561 227:204 228:663 229:561 230:884 231:289 232:476 233:442 234:221 235:357 236:391 237:527 238:476 239:204 240:238 241:728 242:196 243:644 244:784 245:728 246:924 247:336 248:1092 249:924 250:1456 251:476 252:784 253:728 254:364 255:588 256:644 257:868 258:784 259:336 260:392 261:676 262:182 263:598 264:728 265:676 266:858 267:312 268:1014 269:858 270:1352 271:442 272:728 273:676 274:338 275:546 276:598 277:806 278:728 279:312 280:364 281:338 282:91 283:299 284:364 285:338 286:429 287:156 288:507 289:429 290:676 291:221 292:364 293:338 294:169 295:273 296:299 297:403 298:364 299:156 300:182 301:546 302:147 303:483 304:588 305:546 306:693 307:252 308:819 309:693 310:1092 311:357 312:588 313:546 314:273 315:441 316:483 317:651 318:588 319:252 320:294 321:598 322:161 323:529 324:644 325:598 326:759 327:276 328:897 329:759 330:1196 331:391 332:644 333:598 334:299 335:483 336:529 337:713 338:644 339:276 340:322 341:806 342:217 343:713 344:868 345:806 346:1023 347:372 348:1209 349:1023 350:1612 351:527 352:868 353:806 354:403 355:651 356:713 357:961 358:868 359:372 360:434 361:728 362:196 363:644 364:784 365:728 366:924 367:336 368:1092 369:924 370:1456 371:476 372:784 373:728 374:364 375:588 376:644 377:868 378:784 379:336 380:392 381:312 382:84 383:276 384:336 385:312 386:396 387:144 388:468 389:396 390:624 391:204 392:336 393:312 394:156 395:252 396:276 397:372 398:336 399:144 400:168 401:364 402:98 403:322 404:392 405:364 406:462 407:168 408:546 409:462 410:728 411:238 412:392 413:364 414:182 415:294 416:322 417:434 418:392 419:168 420:196 421:0.050813008 422:0.040733198 423:0.073469388 424:0.063394683 425:0.067622951 426:0.041067762 427:0.055555556 428:0.049484536 429:0.041322314 430:0.045548654 431:0.011421764 432:0.024317297 433:0.098308153 434:-0.02405348 435:-0.031553986 436:-0.015813676 437:0.0051251912 438:-0.059871263 439:-0.045067589 440:0.05332242 441:-0.072911022 442:0.026590954 443:0.12032468 444:-0.094007576 445:0.071915618 446:-0.060725066 447:-0.040252034 448:-0.13535781 449:-0.045602871 450:-0.0078482958 451:-0.0011584779 452:0.011916942 453:0.032002569 454:-0.042330305 455:0.0081585895 456:-0.0038161404 457:0.0016563778 458:-0.073100338 459:-0.013974867 460:0.0070167684 461:-0.015664596 462:0.022006356 463:0.026129981 464:-0.030408044 465:-0.0094810747 466:-0.024364008 467:-0.032419365 468:-0.12740437 469:-0.015856775 470:-0.026195083 471:-0.0039053218 472:-0.047858913 473:0.11076469 474:0.11191434 475:0.10503409 476:-0.080427727 477:-0.11051455 478:-0.020951621 479:0.051911266 480:-0.11673451 481:0.0078172383 482:0.057693786 483:0.010120479 484:0.042546934 485:-0.0067934404 486:-0.010312771 487:-0.060269752 488:-0.058745112 489:-0.057604878 490:0.016545942 491:-0.016554528 492:0.036200158 493:0.028509487 494:-0.036972868 495:-0.024879584 496:-0.04567388 497:0.00030810581 498:-0.0648171 499:-0.042842947 500:0.047512288 501:0.010733138 502:0.017563683 503:0.026322229 504:0.013396427 505:-0.051415641 506:-0.015578115 507:0.03162551 508:-0.044862701 509:0.027261774 510:0.029382802 511:-0.016248712 512:-0.078218558 513:0.0017163186 514:0.033586775 515:0.038936735 516:0.092306934 517:0.018574397 518:-0.075626397 519:-0.059622068 520:0.036593469 
0.9697265625 1:21 2:6 3:27 4:26 5:24 6:20 7:13 8:34 9:34 10:54 11:14 12:23 13:27 14:18 15:24 16:29 17:29 18:34 19:8 20:21 21:441 22:126 23:567 24:546 25:504 26:420 27:273 28:714 29:714 30:1134 31:294 32:483 33:567 34:378 35:504 36:609 37:609 38:714 39:168 40:441 41:126 42:36 43:162 44:156 45:144 46:120 47:78 48:204 49:204 50:324 51:84 52:138 53:162 54:108 55:144 56:174 57:174 58:204 59:48 60:126 61:567 62:162 63:729 64:702 65:648 66:540 67:351 68:918 69:918 70:1458 71:378 72:621 73:729 74:486 75:648 76:783 77:783 78:918 79:216 80:567 81:546 82:156 83:702 84:676 85:624 86:520 87:338 88:884 89:884 90:1404 91:364 92:598 93:702 94:468 95:624 96:754 97:754 98:884 99:208 100:546 101:504 102:144 103:648 104:624 105:576 106:480 107:312 108:816 109:816 110:1296 111:336 112:552 113:648 114:432 115:576 116:696 117:696 118:816 119:192 120:504 121:420 122:120 123:540 124:520 125:480 126:400 127:260 128:680 129:680 130:1080 131:280 132:460 133:540 134:360 135:480 136:580 137:580 138:680 139:160 140:420 141:273 142:78 143:351 144:338 145:312 146:260 147:169 148:442 149:442 150:702 151:182 152:299 153:351 154:234 155:312 156:377 157:377 158:442 159:104 160:273 161:714 162:204 163:918 164:884 165:816 166:680 167:442 168:1156 169:1156 170:1836 171:476 172:782 173:918 174:612 175:816 176:986 177:986 178:1156 179:272 180:714 181:714 182:204 183:918 184:884 185:816 186:680 187:442 188:1156 189:1156 190:1836 191:476 192:782 193:918 194:612 195:816 196:986 197:986 198:1156 199:272 200:714 201:1134 202:324 203:1458 204:1404 205:1296 206:1080 207:702 208:1836 209:1836 210:2916 211:756 212:1242 213:1458 214:972 215:1296 216:1566 217:1566 218:1836 219:432 220:1134 221:294 222:84 223:378 224:364 225:336 226:280 227:182 228:476 229:476 230:756 231:196 232:322 233:378 234:252 235:336 236:406 237:406 238:476 239:112 240:294 241:483 242:138 243:621 244:598 245:552 246:460 247:299 248:782 249:782 250:1242 251:322 252:529 253:621 254:414 255:552 256:667 257:667 258:782 259:184 260:483 261:567 262:162 263:729 264:702 265:648 266:540 267:351 268:918 269:918 270:1458 271:378 272:621 273:729 274:486 275:648 276:783 277:783 278:918 279:216 280:567 281:378 282:108 283:486 284:468 285:432 286:360 287:234 288:612 289:612 290:972 291:252 292:414 293:486 294:324 295:432 296:522 297:522 298:612 299:144 300:378 301:504 302:144 303:648 304:624 305:576 306:480 307:312 308:816 309:816 310:1296 311:336 312:552 313:648 314:432 315:576 316:696 317:696 318:816 319:192 320:504 321:609 322:174 323:783 324:754 325:696 326:580 327:377 328:986 329:986 330:1566 331:406 332:667 333:783 334:522 335:696 336:841 337:841 338:986 339:232 340:609 341:609 342:174 343:783 344:754 345:696 346:580 347:377 348:986 349:986 350:1566 351:406 352:667 353:783 354:522 355:696 356:841 357:841 358:986 359:232 360:609 361:714 362:204 363:918 364:884 365:816 366:680 367:442 368:1156 369:1156 370:1836 371:476 372:782 373:918 374:612 375:816 376:986 377:986 378:1156 379:272 380:714 381:168 382:48 383:216 384:208 385:192 386:160 387:104 388:272 389:272 390:432 391:112 392:184 393:216 394:144 395:192 396:232 397:232 398:272 399:64 400:168 401:441 402:126 403:567 404:546 405:504 406:420 407:273 408:714 409:714 410:1134 411:294 412:483 413:567 414:378 415:504 416:609 417:609 418:714 419:168 420:441 421:0.065843621 422:0.053608247 423:0.061983471 424:0.072463768 425:0.045643154 426:0.066528067 427:0.072916667 428:0.064718163 429:0.050209205 430:0.048218029 431:-0.0034053901 432:-0.099977896 433:0.0069915542 434:0.068868676 435:-0.060517075 436:0.044854855 437:-0.053278096 438:-0.043485898 439:-0.016219545 440:0.0029499723 441:0.043016096 442:-0.020509593 443:0.063993301 444:0.035566553 445:-0.12832877 446:-0.045590022 447:-0.020827274 448:-0.11634519 449:0.061045666 450:0.0070427372 451:-0.033958411 452:-0.059036489 453:0.034713827 454:0.040248661 455:-0.055426144 456:0.06732406 457:-0.053872073 458:-0.048144837 459:0.066776892 460:0.033602632 461:0.016378843 462:-0.083397034 463:0.037193163 464:0.034740624 465:-0.040378671 466:-0.01854017 467:-0.02733143 468:-0.046439915 469:0.02638802 470:-0.062468676 471:-0.028141032 472:0.00039816848 473:0.02512932 474:0.13034576 475:-0.067580119 476:-0.024272122 477:0.06736113 478:-0.034772648 479:-0.030847482 480:-0.090371843 481:-0.031392831 482:0.013354445 483:0.0053399943 484:0.10372744 485:-0.044353915 486:0.063512654 487:-0.020154882 488:-0.029199966 489:-0.021852217 490:-0.040449964 491:0.092176939 492:-0.040687307 493:0.0021794662 494:0.0080552137 495:0.036938989 496:0.064387973 497:-0.02220332 498:0.025445826 499:0.053460339 500:0.0012099736 501:-0.010107513 502:0.02273426 503:-0.028414942 504:0.074438323 505:-0.046902367 506:0.11210901 507:0.011650546 508:0.034889113 509:-0.035554438 510:0.010006533 511:-0.029205235 512:0.0080462546 513:-0.021072206 514:0.050781258 515:-0.0035177255 516:0.062983187 517:-0.017254335 518:-0.068976285 519:-0.017646041 520:-0.005584846 
0.9697265625 1:30 2:13 3:25 4:28 5:38 6:31 7:9 8:28 9:33 10:53 11:15 12:22 13:24 14:21 15:26 16:26 17:38 18:31 19:3 20:18 21:900 22:390 23:750 24:840 25:1140 26:930 27:270 28:840 29:990 30:1590 31:450 32:660 33:720 34:630 35:780 36:780 37:1140 38:930 39:90 40:540 41:390 42:169 43:325 44:364 45:494 46:403 47:117 48:364 49:429 50:689 51:195 52:286 53:312 54:273 55:338 56:338 57:494 58:403 59:39 60:234 61:750 62:325 63:625 64:700 65:950 66:775 67:225 68:700 69:825 70:1325 71:375 72:550 73:600 74:525 75:650 76:650 77:950 78:775 79:75 80:450 81:840 82:364 83:700 84:784 85:1064 86:868 87:252 88:784 89:924 90:1484 91:420 92:616 93:672 94:588 95:728 96:728 97:1064 98:868 99:84 100:504 101:1140 102:494 103:950 104:1064 105:1444 106:1178 107:342 108:1064 109:1254 110:2014 111:570 112:836 113:912 114:798 115:988 116:988 117:1444 118:1178 119:114 120:684 121:930 122:403 123:775 124:868 125:1178 126:961 127:279 128:868 129:1023 130:1643 131:465 132:682 133:744 134:651 135:806 136:806 137:1178 138:961 139:93 140:558 141:270 142:117 143:225 144:252 145:342 146:279 147:81 148:252 149:297 150:477 151:135 152:198 153:216 154:189 155:234 156:234 157:342 158:279 159:27 160:162 161:840 162:364 163:700 164:784 165:1064 166:868 167:252 168:784 169:924 170:1484 171:420 172:616 173:672 174:588 175:728 176:728 177:1064 178:868 179:84 180:504 181:990 182:429 183:825 184:924 185:1254 186:1023 187:297 188:924 189:1089 190:1749 191:495 192:726 193:792 194:693 195:858 196:858 197:1254 198:1023 199:99 200:594 201:1590 202:689 203:1325 204:1484 205:2014 206:1643 207:477 208:1484 209:1749 210:2809 211:795 212:1166 213:1272 214:1113 215:1378 216:1378 217:2014 218:1643 219:159 220:954 221:450 222:195 223:375 224:420 225:570 226:465 227:135 228:420 229:495 230:795 231:225 232:330 233:360 234:315 235:390 236:390 237:570 238:465 239:45 240:270 241:660 242:286 243:550 244:616 245:836 246:682 247:198 248:616 249:726 250:1166 251:330 252:484 253:528 254:462 255:572 256:572 257:836 258:682 259:66 260:396 261:720 262:312 263:600 264:672 265:912 266:744 267:216 268:672 269:792 270:1272 271:360 272:528 273:576 274:504 275:624 276:624 277:912 278:744 279:72 280:432 281:630 282:273 283:525 284:588 285:798 286:651 287:189 288:588 289:693 290:1113 291:315 292:462 293:504 294:441 295:546 296:546 297:798 298:651 299:63 300:378 301:780 302:338 303:650 304:728 305:988 306:806 307:234 308:728 309:858 310:1378 311:390 312:572 313:624 314:546 315:676 316:676 317:988 318:806 319:78 320:468 321:780 322:338 323:650 324:728 325:988 326:806 327:234 328:728 329:858 330:1378 331:390 332:572 333:624 334:546 335:676 336:676 337:988 338:806 339:78 340:468 341:1140 342:494 343:950 344:1064 345:1444 346:1178 347:342 348:1064 349:1254 350:2014 351:570 352:836 353:912 354:798 355:988 356:988 357:1444 358:1178 359:114 360:684 361:930 362:403 363:775 364:868 365:1178 366:961 367:279 368:868 369:1023 370:1643 371:465 372:682 373:744 374:651 375:806 376:806 377:1178 378:961 379:93 380:558 381:90 382:39 383:75 384:84 385:114 386:93 387:27 388:84 389:99 390:159 391:45 392:66 393:72 394:63 395:78 396:78 397:114 398:93 399:9 400:54 401:540 402:234 403:450 404:504 405:684 406:558 407:162 408:504 409:594 410:954 411:270 412:396 413:432 414:378 415:468 416:468 417:684 418:558 419:54 420:324 421:0.060546875 422:0.090019569 423:0.056862745 424:0.062868369 425:0.072834646 426:0.061143984 427:0.06916996 428:0.071287129 429:0.045634921 430:0.061630219 431:0.042883528 432:0.011168379 433:0.040293331 434:-0.039537351 435:-0.0037943789 436:0.0061066391 437:0.027572052 438:0.058722696 439:-0.031375692 440:0.084464153 441:0.060878408 442:0.018439125 443:0.059083688 444:0.05395907 445:-0.077115239 446:-0.0066409617 447:-0.0032794205 448:0.075431254 449:-0.022287431 450:0.043292284 451:0.076993194 452:0.023096536 453:0.052396922 454:0.044575132 455:0.024482551 456:0.0038612012 457:-0.042673062 458:0.04172088 459:-0.042467665 460:0.045769755 461:0.1010064 462:-0.0052237034 463:0.032420917 464:-0.0360851 465:-0.028130017 466:0.005133399 467:0.009409 468:0.054299401 469:-0.017075834 470:0.014086689 471:-0.0044916554 472:0.04679727 473:0.063266916 474:0.13329735 475:0.0029546437 476:-0.038021086 477:0.048781119 478:0.15753011 479:-0.024308556 480:0.10049463 481:0.018514249 482:0.086089955 483:0.036460025 484:0.043683805 485:0.054458138 486:0.09005639 487:0.028417754 488:0.031926388 489:-0.026566886 490:-0.0079973927 491:0.073161618 492:0.0017279081 493:0.065799975 494:-0.0047132097 495:0.045548318 496:-0.00060243909 497:0.042478925 498:0.070416301 499:0.041065836 500:0.062946463 501:-0.0033756138 502:0.064501275 503:0.037154002 504:0.067781488 505:0.044176194 506:0.10948966 507:-0.011497402 508:-0.02678129 509:-0.01911509 510:0.013856697 511:0.048811532 512:0.094377685 513:0.061763247 514:0.035677482 515:0.07533513 516:0.056581864 517:0.073583173 518:-0.019850911 519:-0.053924259 520:0.0059175342 
0.9697265625 1:34 2:4 3:33 4:29 5:36 6:26 7:13 8:33 9:39 10:41 11:21 12:19 13:25 14:23 15:26 16:24 17:30 18:37 19:3 20:24 21:1156 22:136 23:1122 24:986 25:1224 26:884 27:442 28:1122 29:1326 30:1394 31:714 32:646 33:850 34:782 35:884 36:816 37:1020 38:1258 39:102 40:816 41:136 42:16 43:132 44:116 45:144 46:104 47:52 48:132 49:156 50:164 51:84 52:76 53:100 54:92 55:104 56:96 57:120 58:148 59:12 60:96 61:1122 62:132 63:1089 64:957 65:1188 66:858 67:429 68:1089 69:1287 70:1353 71:693 72:627 73:825 74:759 75:858 76:792 77:990 78:1221 79:99 80:792 81:986 82:116 83:957 84:841 85:1044 86:754 87:377 88:957 89:1131 90:1189 91:609 92:551 93:725 94:667 95:754 96:696 97:870 98:1073 99:87 100:696 101:1224 102:144 103:1188 104:1044 105:1296 106:936 107:468 108:1188 109:1404 110:1476 111:756 112:684 113:900 114:828 115:936 116:864 117:1080 118:1332 119:108 120:864 121:884 122:104 123:858 124:754 125:936 126:676 127:338 128:858 129:1014 130:1066 131:546 132:494 133:650 134:598 135:676 136:624 137:780 138:962 139:78 140:624 141:442 142:52 143:429 144:377 145:468 146:338 147:169 148:429 149:507 150:533 151:273 152:247 153:325 154:299 155:338 156:312 157:390 158:481 159:39 160:312 161:1122 162:132 163:1089 164:957 165:1188 166:858 167:429 168:1089 169:1287 170:1353 171:693 172:627 173:825 174:759 175:858 176:792 177:990 178:1221 179:99 180:792 181:1326 182:156 183:1287 184:1131 185:1404 186:1014 187:507 188:1287 189:1521 190:1599 191:819 192:741 193:975 194:897 195:1014 196:936 197:1170 198:1443 199:117 200:936 201:1394 202:164 203:1353 204:1189 205:1476 206:1066 207:533 208:1353 209:1599 210:1681 211:861 212:779 213:1025 214:943 215:1066 216:984 217:1230 218:1517 219:123 220:984 221:714 222:84 223:693 224:609 225:756 226:546 227:273 228:693 229:819 230:861 231:441 232:399 233:525 234:483 235:546 236:504 237:630 238:777 239:63 240:504 241:646 242:76 243:627 244:551 245:684 246:494 247:247 248:627 249:741 250:779 251:399 252:361 253:475 254:437 255:494 256:456 257:570 258:703 259:57 260:456 261:850 262:100 263:825 264:725 265:900 266:650 267:325 268:825 269:975 270:1025 271:525 272:475 273:625 274:575 275:650 276:600 277:750 278:925 279:75 280:600 281:782 282:92 283:759 284:667 285:828 286:598 287:299 288:759 289:897 290:943 291:483 292:437 293:575 294:529 295:598 296:552 297:690 298:851 299:69 300:552 301:884 302:104 303:858 304:754 305:936 306:676 307:338 308:858 309:1014 310:1066 311:546 312:494 313:650 314:598 315:676 316:624 317:780 318:962 319:78 320:624 321:816 322:96 323:792 324:696 325:864 326:624 327:312 328:792 329:936 330:984 331:504 332:456 333:600 334:552 335:624 336:576 337:720 338:888 339:72 340:576 341:1020 342:120 343:990 344:870 345:1080 346:780 347:390 348:990 349:1170 350:1230 351:630 352:570 353:750 354:690 355:780 356:720 357:900 358:1110 359:90 360:720 361:1258 362:148 363:1221 364:1073 365:1332 366:962 367:481 368:1221 369:1443 370:1517 371:777 372:703 373:925 374:851 375:962 376:888 377:1110 378:1369 379:111 380:888 381:102 382:12 383:99 384:87 385:108 386:78 387:39 388:99 389:117 390:123 391:63 392:57 393:75 394:69 395:78 396:72 397:90 398:111 399:9 400:72 401:816 402:96 403:792 404:696 405:864 406:624 407:312 408:792 409:936 410:984 411:504 412:456 413:600 414:552 415:624 416:576 417:720 418:888 419:72 420:576 421:0.044230769 422:0.057803468 423:0.040540541 424:0.063829787 425:0.07751938 426:0.07184466 427:0.064202335 428:0.070175439 429:0.064453125 430:0.056751468 431:-0.021602578 432:0.025189193 433:0.021489963 434:0.057341411 435:-0.0070361702 436:-0.0041097496 437:-0.025797103 438:0.031423081 439:0.01843084 440:0.0099814627 441:-0.060106158 442:-0.0061256498 443:-0.010335605 444:-0.010681452 445:-0.0034456033 446:-0.024876783 447:-0.069303803 448:0.017765324 449:-0.012196842 450:0.067725808 451:-0.029658851 452:0.043686034 453:0.030491339 454:0.038740528 455:0.00051342121 456:-0.026017358 457:-0.022411063 458:0.041099215 459:0.0042184843 460:0.051851021 461:-0.0089319372 462:0.058436311 463:0.058203592 464:0.040069982 465:0.014417926 466:-0.018546402 467:-0.0051167618 468:0.060579642 469:-0.017672387 470:0.044694889 471:-0.068342492 472:-0.062501407 473:-0.024117356 474:-0.071744793 475:0.0015949328 476:0.11223777 477:-0.050637432 478:-0.0069049423 479:0.038157898 480:-0.079254666 481:0.063364401 482:-0.026511482 483:0.013387109 484:0.018303838 485:0.015367966 486:0.015374456 487:0.036000848 488:0.048473052 489:0.03472087 490:0.10593396 491:-0.0011315622 492:0.087201123 493:-0.032706057 494:0.03079553 495:-0.0066279629 496:-0.0020446287 497:-0.0097822731 498:0.051195012 499:0.0073285316 500:0.091946974 501:0.013992487 502:-0.024106579 503:-0.0039543804 504:0.0014270534 505:-0.015940086 506:0.02696817 507:0.027883423 508:-0.0065963366 509:0.0027872864 510:0.045503679 511:0.075450635 512:0.010643527 513:-0.080073696 514:-0.069897218 515:0.072112683 516:-0.054861876 517:-0.0098895529 518:0.0059645579 519:-0.010122437 520:0.071150792 
0.9697265625 1:27 2:5 3:28 4:34 5:27 6:26 7:10 8:30 9:31 10:54 11:18 12:20 13:28 14:15 15:31 16:27 17:29 18:32 19:8 20:19 21:729 22:135 23:756 24:918 25:729 26:702 27:270 28:810 29:837 30:1458 31:486 32:540 33:756 34:405 35:837 36:729 37:783 38:864 39:216 40:513 41:135 42:25 43:140 44:170 45:135 46:130 47:50 48:150 49:155 50:270 51:90 52:100 53:140 54:75 55:155 56:135 57:145 58:160 59:40 60:95 61:756 62:140 63:784 64:952 65:756 66:728 67:280 68:840 69:868 70:1512 71:504 72:560 73:784 74:420 75:868 76:756 77:812 78:896 79:224 80:532 81:918 82:170 83:952 84:1156 85:918 86:884 87:340 88:1020 89:1054 90:1836 91:612 92:680 93:952 94:510 95:1054 96:918 97:986 98:1088 99:272 100:646 101:729 102:135 103:756 104:918 105:729 106:702 107:270 108:810 109:837 110:1458 111:486 112:540 113:756 114:405 115:837 116:729 117:783 118:864 119:216 120:513 121:702 122:130 123:728 124:884 125:702 126:676 127:260 128:780 129:806 130:1404 131:468 132:520 133:728 134:390 135:806 136:702 137:754 138:832 139:208 140:494 141:270 142:50 143:280 144:340 145:270 146:260 147:100 148:300 149:310 150:540 151:180 152:200 153:280 154:150 155:310 156:270 157:290 158:320 159:80 160:190 161:810 162:150 163:840 164:1020 165:810 166:780 167:300 168:900 169:930 170:1620 171:540 172:600 173:840 174:450 175:930 176:810 177:870 178:960 179:240 180:570 181:837 182:155 183:868 184:1054 185:837 186:806 187:310 188:930 189:961 190:1674 191:558 192:620 193:868 194:465 195:961 196:837 197:899 198:992 199:248 200:589 201:1458 202:270 203:1512 204:1836 205:1458 206:1404 207:540 208:1620 209:1674 210:2916 211:972 212:1080 213:1512 214:810 215:1674 216:1458 217:1566 218:1728 219:432 220:1026 221:486 222:90 223:504 224:612 225:486 226:468 227:180 228:540 229:558 230:972 231:324 232:360 233:504 234:270 235:558 236:486 237:522 238:576 239:144 240:342 241:540 242:100 243:560 244:680 245:540 246:520 247:200 248:600 249:620 250:1080 251:360 252:400 253:560 254:300 255:620 256:540 257:580 258:640 259:160 260:380 261:756 262:140 263:784 264:952 265:756 266:728 267:280 268:840 269:868 270:1512 271:504 272:560 273:784 274:420 275:868 276:756 277:812 278:896 279:224 280:532 281:405 282:75 283:420 284:510 285:405 286:390 287:150 288:450 289:465 290:810 291:270 292:300 293:420 294:225 295:465 296:405 297:435 298:480 299:120 300:285 301:837 302:155 303:868 304:1054 305:837 306:806 307:310 308:930 309:961 310:1674 311:558 312:620 313:868 314:465 315:961 316:837 317:899 318:992 319:248 320:589 321:729 322:135 323:756 324:918 325:729 326:702 327:270 328:810 329:837 330:1458 331:486 332:540 333:756 334:405 335:837 336:729 337:783 338:864 339:216 340:513 341:783 342:145 343:812 344:986 345:783 346:754 347:290 348:870 349:899 350:1566 351:522 352:580 353:812 354:435 355:899 356:783 357:841 358:928 359:232 360:551 361:864 362:160 363:896 364:1088 365:864 366:832 367:320 368:960 369:992 370:1728 371:576 372:640 373:896 374:480 375:992 376:864 377:928 378:1024 379:256 380:608 381:216 382:40 383:224 384:272 385:216 386:208 387:80 388:240 389:248 390:432 391:144 392:160 393:224 394:120 395:248 396:216 397:232 398:256 399:64 400:152 401:513 402:95 403:532 404:646 405:513 406:494 407:190 408:570 409:589 410:1026 411:342 412:380 413:532 414:285 415:589 416:513 417:551 418:608 419:152 420:361 421:0.06012024 422:0.052208835 423:0.052313883 424:0.052419355 425:0.084848485 426:0.046558704 427:0.070993915 428:0.06097561 429:0.054989817 430:0.067346939 431:-0.032238779 432:0.0085874779 433:0.0030011736 434:-0.065395328 435:0.047312399 436:-0.032911 437:0.0072448165 438:0.03020182 439:-0.098249162 440:0.036352495 441:0.028636136 442:0.043999529 443:0.038967326 444:-0.10432927 445:0.064867571 446:-0.10139666 447:0.1160694 448:0.07245686 449:-0.078494188 450:0.075078713 451:-0.068466131 452:0.020627526 453:0.062270864 454:-0.12000535 455:0.088385197 456:-0.094313967 457:0.079557666 458:0.032467842 459:-0.034378893 460:0.097959662 461:-0.019057697 462:0.01383239 463:0.033611677 464:-0.079810216 465:0.07530092 466:-0.066684045 467:0.037469739 468:0.055612345 469:-0.084412525 470:0.056612992 471:0.13419369 472:-0.016492294 473:0.046380578 474:0.054742147 475:0.010537988 476:-0.006745133 477:0.052624097 478:0.0065651083 479:0.029543751 480:0.076224498 481:-0.049173928 482:-0.044701474 483:-0.037066986 484:-0.069384589 485:-0.014220296 486:0.034240124 487:-0.017257856 488:-0.0133505 489:-0.025999781 490:0.06701078 491:0.011218615 492:0.031743241 493:0.054442052 494:-0.02765629 495:0.070429269 496:-0.067718521 497:0.038509789 498:0.012391457 499:-0.060317381 500:0.058338718 501:-0.02695435 502:-0.063431679 503:-0.043713956 504:-0.07738029 505:0.038565734 506:0.0036248355 507:0.013873754 508:-0.00091676857 509:0.019402429 510:0.058922656 511:0.037691968 512:-0.070203792 513:-0.0018000466 514:-0.085102638 515:0.051959042 516:-0.037689429 517:0.0024050968 518:-0.0089514963 519:0.0063487236 520:0.073325338 
0.9697265625 1:32 2:11 3:43 4:65 5:21 6:39 7:16 8:48 9:51 10:59 11:16 12:29 13:31 14:23 15:31 16:54 17:34 18:37 19:7 20:34 21:1024 22:352 23:1376 24:2080 25:672 26:1248 27:512 28:1536 29:1632 30:1888 31:512 32:928 33:992 34:736 35:992 36:1728 37:1088 38:1184 39:224 40:1088 41:352 42:121 43:473 44:715 45:231 46:429 47:176 48:528 49:561 50:649 51:176 52:319 53:341 54:253 55:341 56:594 57:374 58:407 59:77 60:374 61:1376 62:473 63:1849 64:2795 65:903 66:1677 67:688 68:2064 69:2193 70:2537 71:688 72:1247 73:1333 74:989 75:1333 76:2322 77:1462 78:1591 79:301 80:1462 81:2080 82:715 83:2795 84:4225 85:1365 86:2535 87:1040 88:3120 89:3315 90:3835 91:1040 92:1885 93:2015 94:1495 95:2015 96:3510 97:2210 98:2405 99:455 100:2210 101:672 102:231 103:903 104:1365 105:441 106:819 107:336 108:1008 109:1071 110:1239 111:336 112:609 113:651 114:483 115:651 116:1134 117:714 118:777 119:147 120:714 121:1248 122:429 123:1677 124:2535 125:819 126:1521 127:624 128:1872 129:1989 130:2301 131:624 132:1131 133:1209 134:897 135:1209 136:2106 137:1326 138:1443 139:273 140:1326 141:512 142:176 143:688 144:1040 145:336 146:624 147:256 148:768 149:816 150:944 151:256 152:464 153:496 154:368 155:496 156:864 157:544 158:592 159:112 160:544 161:1536 162:528 163:2064 164:3120 165:1008 166:1872 167:768 168:2304 169:2448 170:2832 171:768 172:1392 173:1488 174:1104 175:1488 176:2592 177:1632 178:1776 179:336 180:1632 181:1632 182:561 183:2193 184:3315 185:1071 186:1989 187:816 188:2448 189:2601 190:3009 191:816 192:1479 193:1581 194:1173 195:1581 196:2754 197:1734 198:1887 199:357 200:1734 201:1888 202:649 203:2537 204:3835 205:1239 206:2301 207:944 208:2832 209:3009 210:3481 211:944 212:1711 213:1829 214:1357 215:1829 216:3186 217:2006 218:2183 219:413 220:2006 221:512 222:176 223:688 224:1040 225:336 226:624 227:256 228:768 229:816 230:944 231:256 232:464 233:496 234:368 235:496 236:864 237:544 238:592 239:112 240:544 241:928 242:319 243:1247 244:1885 245:609 246:1131 247:464 248:1392 249:1479 250:1711 251:464 252:841 253:899 254:667 255:899 256:1566 257:986 258:1073 259:203 260:986 261:992 262:341 263:1333 264:2015 265:651 266:1209 267:496 268:1488 269:1581 270:1829 271:496 272:899 273:961 274:713 275:961 276:1674 277:1054 278:1147 279:217 280:1054 281:736 282:253 283:989 284:1495 285:483 286:897 287:368 288:1104 289:1173 290:1357 291:368 292:667 293:713 294:529 295:713 296:1242 297:782 298:851 299:161 300:782 301:992 302:341 303:1333 304:2015 305:651 306:1209 307:496 308:1488 309:1581 310:1829 311:496 312:899 313:961 314:713 315:961 316:1674 317:1054 318:1147 319:217 320:1054 321:1728 322:594 323:2322 324:3510 325:1134 326:2106 327:864 328:2592 329:2754 330:3186 331:864 332:1566 333:1674 334:1242 335:1674 336:2916 337:1836 338:1998 339:378 340:1836 341:1088 342:374 343:1462 344:2210 345:714 346:1326 347:544 348:1632 349:1734 350:2006 351:544 352:986 353:1054 354:782 355:1054 356:1836 357:1156 358:1258 359:238 360:1156 361:1184 362:407 363:1591 364:2405 365:777 366:1443 367:592 368:1776 369:1887 370:2183 371:592 372:1073 373:1147 374:851 375:1147 376:1998 377:1258 378:1369 379:259 380:1258 381:224 382:77 383:301 384:455 385:147 386:273 387:112 388:336 389:357 390:413 391:112 392:203 393:217 394:161 395:217 396:378 397:238 398:259 399:49 400:238 401:1088 402:374 403:1462 404:2210 405:714 406:1326 407:544 408:1632 409:1734 410:2006 411:544 412:986 413:1054 414:782 415:1054 416:1836 417:1156 418:1258 419:238 420:1156 421:0.07195301 422:0.060294118 423:0.064801178 424:0.067846608 425:0.047267356 426:0.048816568 427:0.065185185 428:0.075667656 429:0.069836553 430:0.063988095 431:0.038464075 432:0.014637532 433:0.063426886 434:0.0012572873 435:-0.013162571 436:-0.0022377664 437:0.015273532 438:-0.036502736 439:0.028091868 440:0.017600988 441:0.079834452 442:-0.07756196 443:0.071543779 444:0.063255705 445:-0.06775435 446:-0.034910791 447:0.10783946 448:-0.032608865 449:-0.044725193 450:0.077104949 451:0.13059155 452:0.0099962852 453:0.095596921 454:0.053766235 455:-0.038599051 456:0.018359396 457:0.078333011 458:-0.021449767 459:-0.0058503647 460:0.044933491 461:0.042000118 462:-0.011571277 463:0.085325 464:0.015035785 465:-0.049439954 466:-0.011198626 467:0.013359957 468:-0.021685938 469:-0.017177025 470:0.038032554 471:0.049708216 472:0.0043457729 473:-0.011542765 474:-0.0087896486 475:-0.018777434 476:-0.10402463 477:0.031192747 478:0.093807485 479:-0.067543444 480:0.090407774 481:-0.016539483 482:0.011876663 483:0.065673354 484:0.033081341 485:0.00090056582 486:0.059049672 487:-0.023732915 488:0.068503383 489:0.019811084 490:-0.018958967 491:-0.016333445 492:-0.024088398 493:0.041652146 494:0.027744833 495:-0.044408684 496:-0.022125919 497:0.016091904 498:-0.034249189 499:0.034126482 500:0.0083603274 501:-0.021013831 502:0.00065414918 503:0.098121021 504:0.060465012 505:0.02378393 506:0.048804422 507:0.017226175 508:0.041680278 509:0.063077318 510:-0.0070900837 511:0.061255783 512:-0.018979286 513:0.0092013047 514:-0.017402694 515:-0.038797047 516:-0.047037661 517:-0.04350723 518:0.027608046 519:-0.026511304 520:0.063075001 
0.9697265625 1:41 2:10 3:20 4:29 5:27 6:34 7:10 8:25 9:25 10:59 11:10 12:21 13:27 14:22 15:32 16:25 17:30 18:34 19:7 20:17 21:1681 22:410 23:820 24:1189 25:1107 26:1394 27:410 28:1025 29:1025 30:2419 31:410 32:861 33:1107 34:902 35:1312 36:1025 37:1230 38:1394 39:287 40:697 41:410 42:100 43:200 44:290 45:270 46:340 47:100 48:250 49:250 50:590 51:100 52:210 53:270 54:220 55:320 56:250 57:300 58:340 59:70 60:170 61:820 62:200 63:400 64:580 65:540 66:680 67:200 68:500 69:500 70:1180 71:200 72:420 73:540 74:440 75:640 76:500 77:600 78:680 79:140 80:340 81:1189 82:290 83:580 84:841 85:783 86:986 87:290 88:725 89:725 90:1711 91:290 92:609 93:783 94:638 95:928 96:725 97:870 98:986 99:203 100:493 101:1107 102:270 103:540 104:783 105:729 106:918 107:270 108:675 109:675 110:1593 111:270 112:567 113:729 114:594 115:864 116:675 117:810 118:918 119:189 120:459 121:1394 122:340 123:680 124:986 125:918 126:1156 127:340 128:850 129:850 130:2006 131:340 132:714 133:918 134:748 135:1088 136:850 137:1020 138:1156 139:238 140:578 141:410 142:100 143:200 144:290 145:270 146:340 147:100 148:250 149:250 150:590 151:100 152:210 153:270 154:220 155:320 156:250 157:300 158:340 159:70 160:170 161:1025 162:250 163:500 164:725 165:675 166:850 167:250 168:625 169:625 170:1475 171:250 172:525 173:675 174:550 175:800 176:625 177:750 178:850 179:175 180:425 181:1025 182:250 183:500 184:725 185:675 186:850 187:250 188:625 189:625 190:1475 191:250 192:525 193:675 194:550 195:800 196:625 197:750 198:850 199:175 200:425 201:2419 202:590 203:1180 204:1711 205:1593 206:2006 207:590 208:1475 209:1475 210:3481 211:590 212:1239 213:1593 214:1298 215:1888 216:1475 217:1770 218:2006 219:413 220:1003 221:410 222:100 223:200 224:290 225:270 226:340 227:100 228:250 229:250 230:590 231:100 232:210 233:270 234:220 235:320 236:250 237:300 238:340 239:70 240:170 241:861 242:210 243:420 244:609 245:567 246:714 247:210 248:525 249:525 250:1239 251:210 252:441 253:567 254:462 255:672 256:525 257:630 258:714 259:147 260:357 261:1107 262:270 263:540 264:783 265:729 266:918 267:270 268:675 269:675 270:1593 271:270 272:567 273:729 274:594 275:864 276:675 277:810 278:918 279:189 280:459 281:902 282:220 283:440 284:638 285:594 286:748 287:220 288:550 289:550 290:1298 291:220 292:462 293:594 294:484 295:704 296:550 297:660 298:748 299:154 300:374 301:1312 302:320 303:640 304:928 305:864 306:1088 307:320 308:800 309:800 310:1888 311:320 312:672 313:864 314:704 315:1024 316:800 317:960 318:1088 319:224 320:544 321:1025 322:250 323:500 324:725 325:675 326:850 327:250 328:625 329:625 330:1475 331:250 332:525 333:675 334:550 335:800 336:625 337:750 338:850 339:175 340:425 341:1230 342:300 343:600 344:870 345:810 346:1020 347:300 348:750 349:750 350:1770 351:300 352:630 353:810 354:660 355:960 356:750 357:900 358:1020 359:210 360:510 361:1394 362:340 363:680 364:986 365:918 366:1156 367:340 368:850 369:850 370:2006 371:340 372:714 373:918 374:748 375:1088 376:850 377:1020 378:1156 379:238 380:578 381:287 382:70 383:140 384:203 385:189 386:238 387:70 388:175 389:175 390:413 391:70 392:147 393:189 394:154 395:224 396:175 397:210 398:238 399:49 400:119 401:697 402:170 403:340 404:493 405:459 406:578 407:170 408:425 409:425 410:1003 411:170 412:357 413:459 414:374 415:544 416:425 417:510 418:578 419:119 420:289 421:0.069306931 422:0.073412698 423:0.077534791 424:0.065737052 425:0.063872255 426:0.074 427:0.080160321 428:0.06626506 429:0.048289738 430:0.054435484 431:0.024849085 432:0.10828488 433:-0.047841772 434:-0.009964545 435:-0.047676876 436:0.0058677159 437:-0.0085027511 438:0.0036020161 439:-0.0015312238 440:0.014778904 441:0.079555331 442:0.090489106 443:0.016630772 444:0.060029279 445:-0.048201546 446:0.049095071 447:0.021903671 448:-0.12035935 449:0.038927418 450:0.06685116 451:0.047262021 452:0.064338886 453:-0.037834801 454:0.021715313 455:-0.050719358 456:0.014278223 457:0.028148138 458:-0.05434931 459:0.0011245812 460:0.029360342 461:0.069828993 462:0.050588594 463:-0.048398618 464:-0.021431174 465:-0.03186267 466:0.0049707806 467:-0.031935876 468:-0.024381702 469:0.071430448 470:0.056057485 471:0.053442012 472:0.050603533 473:0.14106705 474:0.19973085 475:0.16631779 476:0.10705162 477:0.035266163 478:-0.014356945 479:-0.013837854 480:0.073328364 481:-0.045235507 482:0.034657848 483:-0.043356858 484:0.0411815 485:0.026795875 486:0.028554657 487:-0.029866787 488:-0.011500258 489:0.11917357 490:0.061986828 491:0.075758333 492:0.010765313 493:-0.053547084 494:-0.013641197 495:0.0036623921 496:0.03561228 497:-0.020598769 498:-0.012030186 499:-0.013187552 500:0.024014015 501:-0.076877999 502:0.088030738 503:0.003509346 504:0.039754156 505:0.024439596 506:0.02383672 507:0.018094366 508:-0.031311719 509:0.078556882 510:0.041868023 511:0.059100665 512:0.073987043 513:0.031494346 514:0.093986819 515:0.048692433 516:0.053270483 517:0.016463994 518:0.049622834 519:0.021809651 520:-0.014177351 
0.9697265625 1:43 2:6 3:29 4:36 5:27 6:47 7:22 8:23 9:18 10:68 11:15 12:17 13:33 14:19 15:52 16:20 17:33 18:39 19:5 20:13 21:1849 22:258 23:1247 24:1548 25:1161 26:2021 27:946 28:989 29:774 30:2924 31:645 32:731 33:1419 34:817 35:2236 36:860 37:1419 38:1677 39:215 40:559 41:258 42:36 43:174 44:216 45:162 46:282 47:132 48:138 49:108 50:408 51:90 52:102 53:198 54:114 55:312 56:120 57:198 58:234 59:30 60:78 61:1247 62:174 63:841 64:1044 65:783 66:1363 67:638 68:667 69:522 70:1972 71:435 72:493 73:957 74:551 75:1508 76:580 77:957 78:1131 79:145 80:377 81:1548 82:216 83:1044 84:1296 85:972 86:1692 87:792 88:828 89:648 90:2448 91:540 92:612 93:1188 94:684 95:1872 96:720 97:1188 98:1404 99:180 100:468 101:1161 102:162 103:783 104:972 105:729 106:1269 107:594 108:621 109:486 110:1836 111:405 112:459 113:891 114:513 115:1404 116:540 117:891 118:1053 119:135 120:351 121:2021 122:282 123:1363 124:1692 125:1269 126:2209 127:1034 128:1081 129:846 130:3196 131:705 132:799 133:1551 134:893 135:2444 136:940 137:1551 138:1833 139:235 140:611 141:946 142:132 143:638 144:792 145:594 146:1034 147:484 148:506 149:396 150:1496 151:330 152:374 153:726 154:418 155:1144 156:440 157:726 158:858 159:110 160:286 161:989 162:138 163:667 164:828 165:621 166:1081 167:506 168:529 169:414 170:1564 171:345 172:391 173:759 174:437 175:1196 176:460 177:759 178:897 179:115 180:299 181:774 182:108 183:522 184:648 185:486 186:846 187:396 188:414 189:324 190:1224 191:270 192:306 193:594 194:342 195:936 196:360 197:594 198:702 199:90 200:234 201:2924 202:408 203:1972 204:2448 205:1836 206:3196 207:1496 208:1564 209:1224 210:4624 211:1020 212:1156 213:2244 214:1292 215:3536 216:1360 217:2244 218:2652 219:340 220:884 221:645 222:90 223:435 224:540 225:405 226:705 227:330 228:345 229:270 230:1020 231:225 232:255 233:495 234:285 235:780 236:300 237:495 238:585 239:75 240:195 241:731 242:102 243:493 244:612 245:459 246:799 247:374 248:391 249:306 250:1156 251:255 252:289 253:561 254:323 255:884 256:340 257:561 258:663 259:85 260:221 261:1419 262:198 263:957 264:1188 265:891 266:1551 267:726 268:759 269:594 270:2244 271:495 272:561 273:1089 274:627 275:1716 276:660 277:1089 278:1287 279:165 280:429 281:817 282:114 283:551 284:684 285:513 286:893 287:418 288:437 289:342 290:1292 291:285 292:323 293:627 294:361 295:988 296:380 297:627 298:741 299:95 300:247 301:2236 302:312 303:1508 304:1872 305:1404 306:2444 307:1144 308:1196 309:936 310:3536 311:780 312:884 313:1716 314:988 315:2704 316:1040 317:1716 318:2028 319:260 320:676 321:860 322:120 323:580 324:720 325:540 326:940 327:440 328:460 329:360 330:1360 331:300 332:340 333:660 334:380 335:1040 336:400 337:660 338:780 339:100 340:260 341:1419 342:198 343:957 344:1188 345:891 346:1551 347:726 348:759 349:594 350:2244 351:495 352:561 353:1089 354:627 355:1716 356:660 357:1089 358:1287 359:165 360:429 361:1677 362:234 363:1131 364:1404 365:1053 366:1833 367:858 368:897 369:702 370:2652 371:585 372:663 373:1287 374:741 375:2028 376:780 377:1287 378:1521 379:195 380:507 381:215 382:30 383:145 384:180 385:135 386:235 387:110 388:115 389:90 390:340 391:75 392:85 393:165 394:95 395:260 396:100 397:165 398:195 399:25 400:65 401:559 402:78 403:377 404:468 405:351 406:611 407:286 408:299 409:234 410:884 411:195 412:221 413:429 414:247 415:676 416:260 417:429 418:507 419:65 420:169 421:0.072566372 422:0.067375887 423:0.085257549 424:0.06227758 425:0.065953654 426:0.067857143 427:0.078711986 428:0.077060932 429:0.062836625 430:0.073741007 431:0.06430835 432:0.0072966529 433:-0.012844506 434:0.035708373 435:-0.030712694 436:0.031485643 437:-0.0035406999 438:-0.05364492 439:-0.021155519 440:0.055897424 441:-0.039484684 442:0.022574941 443:-0.060212066 444:0.0096887402 445:0.034303149 446:-0.076553034 447:-0.00061112679 448:-0.067486353 449:0.013147634 450:-0.025210359 451:0.012932966 452:0.015050951 453:-0.026866656 454:0.083884472 455:0.032652044 456:-0.018545041 457:0.0030954443 458:-0.011014041 459:0.056844056 460:0.0088145471 461:-0.03165199 462:0.0042272284 463:-0.026595612 464:0.019456326 465:-0.01950015 466:-0.028165438 467:-0.03416911 468:-0.051261234 469:-0.013795814 470:-0.0041152699 471:0.058623385 472:0.0025032381 473:-0.024080513 474:0.045962851 475:-0.022851127 476:0.040420465 477:0.064180999 478:0.13794726 479:0.052407783 480:0.1156669 481:0.052183752 482:0.0095982913 483:0.066982952 484:-0.0054949746 485:-0.029164167 486:0.012154194 487:0.011645956 488:0.0022680373 489:0.043088443 490:0.034055247 491:0.0085854955 492:-0.0051875942 493:-0.0097415631 494:0.094050918 495:0.092870296 496:-0.064529371 497:0.0043854767 498:0.024269822 499:0.060255223 500:-0.077949898 501:0.057933123 502:-0.01524054 503:0.05537669 504:-0.0066410119 505:-0.012660107 506:-0.00050116509 507:-0.01183857 508:0.032041743 509:0.076845196 510:0.013910341 511:0.024617402 512:0.013387373 513:0.0024234424 514:0.036157614 515:0.089853809 516:-0.0035327659 517:0.03675722 518:-0.037108894 519:-0.09986289 520:0.025244681 
0.9697265625 1:17 2:8 3:33 4:28 5:35 6:23 7:10 8:41 9:35 10:46 11:24 12:25 13:24 14:14 15:25 16:38 17:33 18:32 19:4 20:19 21:289 22:136 23:561 24:476 25:595 26:391 27:170 28:697 29:595 30:782 31:408 32:425 33:408 34:238 35:425 36:646 37:561 38:544 39:68 40:323 41:136 42:64 43:264 44:224 45:280 46:184 47:80 48:328 49:280 50:368 51:192 52:200 53:192 54:112 55:200 56:304 57:264 58:256 59:32 60:152 61:561 62:264 63:1089 64:924 65:1155 66:759 67:330 68:1353 69:1155 70:1518 71:792 72:825 73:792 74:462 75:825 76:1254 77:1089 78:1056 79:132 80:627 81:476 82:224 83:924 84:784 85:980 86:644 87:280 88:1148 89:980 90:1288 91:672 92:700 93:672 94:392 95:700 96:1064 97:924 98:896 99:112 100:532 101:595 102:280 103:1155 104:980 105:1225 106:805 107:350 108:1435 109:1225 110:1610 111:840 112:875 113:840 114:490 115:875 116:1330 117:1155 118:1120 119:140 120:665 121:391 122:184 123:759 124:644 125:805 126:529 127:230 128:943 129:805 130:1058 131:552 132:575 133:552 134:322 135:575 136:874 137:759 138:736 139:92 140:437 141:170 142:80 143:330 144:280 145:350 146:230 147:100 148:410 149:350 150:460 151:240 152:250 153:240 154:140 155:250 156:380 157:330 158:320 159:40 160:190 161:697 162:328 163:1353 164:1148 165:1435 166:943 167:410 168:1681 169:1435 170:1886 171:984 172:1025 173:984 174:574 175:1025 176:1558 177:1353 178:1312 179:164 180:779 181:595 182:280 183:1155 184:980 185:1225 186:805 187:350 188:1435 189:1225 190:1610 191:840 192:875 193:840 194:490 195:875 196:1330 197:1155 198:1120 199:140 200:665 201:782 202:368 203:1518 204:1288 205:1610 206:1058 207:460 208:1886 209:1610 210:2116 211:1104 212:1150 213:1104 214:644 215:1150 216:1748 217:1518 218:1472 219:184 220:874 221:408 222:192 223:792 224:672 225:840 226:552 227:240 228:984 229:840 230:1104 231:576 232:600 233:576 234:336 235:600 236:912 237:792 238:768 239:96 240:456 241:425 242:200 243:825 244:700 245:875 246:575 247:250 248:1025 249:875 250:1150 251:600 252:625 253:600 254:350 255:625 256:950 257:825 258:800 259:100 260:475 261:408 262:192 263:792 264:672 265:840 266:552 267:240 268:984 269:840 270:1104 271:576 272:600 273:576 274:336 275:600 276:912 277:792 278:768 279:96 280:456 281:238 282:112 283:462 284:392 285:490 286:322 287:140 288:574 289:490 290:644 291:336 292:350 293:336 294:196 295:350 296:532 297:462 298:448 299:56 300:266 301:425 302:200 303:825 304:700 305:875 306:575 307:250 308:1025 309:875 310:1150 311:600 312:625 313:600 314:350 315:625 316:950 317:825 318:800 319:100 320:475 321:646 322:304 323:1254 324:1064 325:1330 326:874 327:380 328:1558 329:1330 330:1748 331:912 332:950 333:912 334:532 335:950 336:1444 337:1254 338:1216 339:152 340:722 341:561 342:264 343:1089 344:924 345:1155 346:759 347:330 348:1353 349:1155 350:1518 351:792 352:825 353:792 354:462 355:825 356:1254 357:1089 358:1056 359:132 360:627 361:544 362:256 363:1056 364:896 365:1120 366:736 367:320 368:1312 369:1120 370:1472 371:768 372:800 373:768 374:448 375:800 376:1216 377:1056 378:1024 379:128 380:608 381:68 382:32 383:132 384:112 385:140 386:92 387:40 388:164 389:140 390:184 391:96 392:100 393:96 394:56 395:100 396:152 397:132 398:128 399:16 400:76 401:323 402:152 403:627 404:532 405:665 406:437 407:190 408:779 409:665 410:874 411:456 412:475 413:456 414:266 415:475 416:722 417:627 418:608 419:76 420:361 421:0.046692607 422:0.054580897 423:0.04296875 424:0.064579256 425:0.070588235 426:0.05697446 427:0.078740157 428:0.057199211 429:0.037549407 430:0.061386139 431:0.0056982234 432:0.020520629 433:-0.099568011 434:-0.036648874 435:0.0026144711 436:-0.0027924957 437:0.019837014 438:0.0058207707 439:0.017373663 440:0.0088684274 441:-0.035046938 442:0.069568001 443:-0.083268048 444:-0.0099772018 445:-0.0058252972 446:0.0068950401 447:0.027832424 448:0.11245375 449:0.043506868 450:0.018288974 451:-0.026622263 452:0.061194829 453:-0.085171745 454:-0.041646346 455:0.027881236 456:-0.017871273 457:0.0012005623 458:0.11019624 459:0.083566358 460:0.031979809 461:-0.037808445 462:0.054637606 463:-0.079582168 464:-0.040649597 465:0.006312291 466:-0.040503096 467:0.02386906 468:0.067335369 469:0.043617002 470:0.0043007706 471:-0.025323493 472:0.02981881 473:0.0071714234 474:-0.073198023 475:0.08889266 476:0.15467373 477:0.037995041 478:-0.078943011 479:0.0016773053 480:0.065226088 481:0.042125913 482:-0.038972283 483:-0.055913289 484:0.024035744 485:-0.0062042664 486:-0.003780318 487:-0.026587186 488:-0.0068152732 489:-0.030139269 490:-0.050914889 491:0.049172972 492:-0.032885144 493:-0.050711301 494:-0.060037833 495:0.0090422472 496:-0.018177995 497:0.070692005 498:0.012734793 499:0.039961967 500:0.02512904 501:0.054335745 502:-0.030705162 503:-0.12035904 504:0.069477693 505:0.046827715 506:0.070650242 507:0.019700356 508:-0.018600263 509:-0.074698034 510:0.014486078 511:-0.0064191937 512:-0.032012155 513:-0.097301451 514:0.1047617 515:-0.039126129 516:0.021576045 517:-0.053228571 518:0.054412223 519:-0.049225138 520:0.017432917 
0.9697265625 1:16 2:5 3:26 4:29 5:47 6:28 7:7 8:34 9:44 10:53 11:7 12:24 13:30 14:14 15:19 16:35 17:27 18:33 19:4 20:21 21:256 22:80 23:416 24:464 25:752 26:448 27:112 28:544 29:704 30:848 31:112 32:384 33:480 34:224 35:304 36:560 37:432 38:528 39:64 40:336 41:80 42:25 43:130 44:145 45:235 46:140 47:35 48:170 49:220 50:265 51:35 52:120 53:150 54:70 55:95 56:175 57:135 58:165 59:20 60:105 61:416 62:130 63:676 64:754 65:1222 66:728 67:182 68:884 69:1144 70:1378 71:182 72:624 73:780 74:364 75:494 76:910 77:702 78:858 79:104 80:546 81:464 82:145 83:754 84:841 85:1363 86:812 87:203 88:986 89:1276 90:1537 91:203 92:696 93:870 94:406 95:551 96:1015 97:783 98:957 99:116 100:609 101:752 102:235 103:1222 104:1363 105:2209 106:1316 107:329 108:1598 109:2068 110:2491 111:329 112:1128 113:1410 114:658 115:893 116:1645 117:1269 118:1551 119:188 120:987 121:448 122:140 123:728 124:812 125:1316 126:784 127:196 128:952 129:1232 130:1484 131:196 132:672 133:840 134:392 135:532 136:980 137:756 138:924 139:112 140:588 141:112 142:35 143:182 144:203 145:329 146:196 147:49 148:238 149:308 150:371 151:49 152:168 153:210 154:98 155:133 156:245 157:189 158:231 159:28 160:147 161:544 162:170 163:884 164:986 165:1598 166:952 167:238 168:1156 169:1496 170:1802 171:238 172:816 173:1020 174:476 175:646 176:1190 177:918 178:1122 179:136 180:714 181:704 182:220 183:1144 184:1276 185:2068 186:1232 187:308 188:1496 189:1936 190:2332 191:308 192:1056 193:1320 194:616 195:836 196:1540 197:1188 198:1452 199:176 200:924 201:848 202:265 203:1378 204:1537 205:2491 206:1484 207:371 208:1802 209:2332 210:2809 211:371 212:1272 213:1590 214:742 215:1007 216:1855 217:1431 218:1749 219:212 220:1113 221:112 222:35 223:182 224:203 225:329 226:196 227:49 228:238 229:308 230:371 231:49 232:168 233:210 234:98 235:133 236:245 237:189 238:231 239:28 240:147 241:384 242:120 243:624 244:696 245:1128 246:672 247:168 248:816 249:1056 250:1272 251:168 252:576 253:720 254:336 255:456 256:840 257:648 258:792 259:96 260:504 261:480 262:150 263:780 264:870 265:1410 266:840 267:210 268:1020 269:1320 270:1590 271:210 272:720 273:900 274:420 275:570 276:1050 277:810 278:990 279:120 280:630 281:224 282:70 283:364 284:406 285:658 286:392 287:98 288:476 289:616 290:742 291:98 292:336 293:420 294:196 295:266 296:490 297:378 298:462 299:56 300:294 301:304 302:95 303:494 304:551 305:893 306:532 307:133 308:646 309:836 310:1007 311:133 312:456 313:570 314:266 315:361 316:665 317:513 318:627 319:76 320:399 321:560 322:175 323:910 324:1015 325:1645 326:980 327:245 328:1190 329:1540 330:1855 331:245 332:840 333:1050 334:490 335:665 336:1225 337:945 338:1155 339:140 340:735 341:432 342:135 343:702 344:783 345:1269 346:756 347:189 348:918 349:1188 350:1431 351:189 352:648 353:810 354:378 355:513 356:945 357:729 358:891 359:108 360:567 361:528 362:165 363:858 364:957 365:1551 366:924 367:231 368:1122 369:1452 370:1749 371:231 372:792 373:990 374:462 375:627 376:1155 377:891 378:1089 379:132 380:693 381:64 382:20 383:104 384:116 385:188 386:112 387:28 388:136 389:176 390:212 391:28 392:96 393:120 394:56 395:76 396:140 397:108 398:132 399:16 400:84 401:336 402:105 403:546 404:609 405:987 406:588 407:147 408:714 409:924 410:1113 411:147 412:504 413:630 414:294 415:399 416:735 417:567 418:693 419:84 420:441 421:0.03777336 422:0.053784861 423:0.083832335 424:0.088 425:0.074148297 426:0.058232932 427:0.07444668 428:0.060483871 429:0.062626263 430:0.068825911 431:0.01085676 432:0.0070652805 433:-0.033422646 434:0.092709166 435:0.029621933 436:-0.060568525 437:-0.13551025 438:-0.01683366 439:-0.0072580202 440:-0.03188671 441:0.0084650734 442:0.0071067139 443:0.080638945 444:0.080172318 445:0.068744936 446:-0.016195599 447:-0.070121438 448:-0.0046397815 449:0.10712345 450:-0.0064847693 451:0.028650018 452:-0.011119815 453:0.011865145 454:0.13889303 455:0.01859527 456:-0.0074630547 457:-0.091793793 458:0.028660677 459:0.10603864 460:0.02383282 461:0.054115748 462:-0.030055848 463:0.0091745137 464:0.068652144 465:-0.023321945 466:0.03067171 467:-0.098965114 468:-0.05532949 469:-0.0044786307 470:0.013023968 471:0.020932083 472:0.060109496 473:0.13364263 474:0.15541598 475:0.11337788 476:-0.042372578 477:-0.050814307 478:0.065969377 479:-0.032929663 480:0.11219892 481:-0.029095649 482:0.010443537 483:0.052890999 484:-0.0069033136 485:-0.053397914 486:0.010685005 487:-0.030049563 488:0.068651432 489:0.016164801 490:0.0051334966 491:-0.0078324674 492:-0.048130421 493:0.075563927 494:0.043481613 495:-0.065958199 496:0.073587602 497:-0.083628364 498:-0.012975646 499:-0.020763049 500:0.082675983 501:-0.045712604 502:0.050799825 503:0.041232335 504:-0.011960834 505:0.039822395 506:0.0073397048 507:-0.05859296 508:0.073548794 509:-0.027549409 510:-0.027413606 511:-0.010427543 512:-0.071498965 513:0.064913769 514:0.039320984 515:-0.0087168393 516:-0.053648305 517:0.074978833 518:0.047115938 519:0.01167193 520:-0.035046827 
0.9697265625 1:31 2:5 3:33 4:30 5:25 6:26 7:10 8:33 9:33 10:54 11:15 12:24 13:25 14:21 15:38 16:31 17:27 18:41 19:7 20:23 21:961 22:155 23:1023 24:930 25:775 26:806 27:310 28:1023 29:1023 30:1674 31:465 32:744 33:775 34:651 35:1178 36:961 37:837 38:1271 39:217 40:713 41:155 42:25 43:165 44:150 45:125 46:130 47:50 48:165 49:165 50:270 51:75 52:120 53:125 54:105 55:190 56:155 57:135 58:205 59:35 60:115 61:1023 62:165 63:1089 64:990 65:825 66:858 67:330 68:1089 69:1089 70:1782 71:495 72:792 73:825 74:693 75:1254 76:1023 77:891 78:1353 79:231 80:759 81:930 82:150 83:990 84:900 85:750 86:780 87:300 88:990 89:990 90:1620 91:450 92:720 93:750 94:630 95:1140 96:930 97:810 98:1230 99:210 100:690 101:775 102:125 103:825 104:750 105:625 106:650 107:250 108:825 109:825 110:1350 111:375 112:600 113:625 114:525 115:950 116:775 117:675 118:1025 119:175 120:575 121:806 122:130 123:858 124:780 125:650 126:676 127:260 128:858 129:858 130:1404 131:390 132:624 133:650 134:546 135:988 136:806 137:702 138:1066 139:182 140:598 141:310 142:50 143:330 144:300 145:250 146:260 147:100 148:330 149:330 150:540 151:150 152:240 153:250 154:210 155:380 156:310 157:270 158:410 159:70 160:230 161:1023 162:165 163:1089 164:990 165:825 166:858 167:330 168:1089 169:1089 170:1782 171:495 172:792 173:825 174:693 175:1254 176:1023 177:891 178:1353 179:231 180:759 181:1023 182:165 183:1089 184:990 185:825 186:858 187:330 188:1089 189:1089 190:1782 191:495 192:792 193:825 194:693 195:1254 196:1023 197:891 198:1353 199:231 200:759 201:1674 202:270 203:1782 204:1620 205:1350 206:1404 207:540 208:1782 209:1782 210:2916 211:810 212:1296 213:1350 214:1134 215:2052 216:1674 217:1458 218:2214 219:378 220:1242 221:465 222:75 223:495 224:450 225:375 226:390 227:150 228:495 229:495 230:810 231:225 232:360 233:375 234:315 235:570 236:465 237:405 238:615 239:105 240:345 241:744 242:120 243:792 244:720 245:600 246:624 247:240 248:792 249:792 250:1296 251:360 252:576 253:600 254:504 255:912 256:744 257:648 258:984 259:168 260:552 261:775 262:125 263:825 264:750 265:625 266:650 267:250 268:825 269:825 270:1350 271:375 272:600 273:625 274:525 275:950 276:775 277:675 278:1025 279:175 280:575 281:651 282:105 283:693 284:630 285:525 286:546 287:210 288:693 289:693 290:1134 291:315 292:504 293:525 294:441 295:798 296:651 297:567 298:861 299:147 300:483 301:1178 302:190 303:1254 304:1140 305:950 306:988 307:380 308:1254 309:1254 310:2052 311:570 312:912 313:950 314:798 315:1444 316:1178 317:1026 318:1558 319:266 320:874 321:961 322:155 323:1023 324:930 325:775 326:806 327:310 328:1023 329:1023 330:1674 331:465 332:744 333:775 334:651 335:1178 336:961 337:837 338:1271 339:217 340:713 341:837 342:135 343:891 344:810 345:675 346:702 347:270 348:891 349:891 350:1458 351:405 352:648 353:675 354:567 355:1026 356:837 357:729 358:1107 359:189 360:621 361:1271 362:205 363:1353 364:1230 365:1025 366:1066 367:410 368:1353 369:1353 370:2214 371:615 372:984 373:1025 374:861 375:1558 376:1271 377:1107 378:1681 379:287 380:943 381:217 382:35 383:231 384:210 385:175 386:182 387:70 388:231 389:231 390:378 391:105 392:168 393:175 394:147 395:266 396:217 397:189 398:287 399:49 400:161 401:713 402:115 403:759 404:690 405:575 406:598 407:230 408:759 409:759 410:1242 411:345 412:552 413:575 414:483 415:874 416:713 417:621 418:943 419:161 420:529 421:0.058270677 422:0.054613936 423:0.067924528 424:0.06805293 425:0.066287879 426:0.05313093 427:0.057034221 428:0.08 429:0.049618321 430:0.061185468 431:0.053393365 432:0.013725786 433:0.041794933 434:0.0128555 435:0.056323873 436:0.0030449186 437:-0.0012317034 438:0.093703807 439:-0.017180636 440:-0.014246809 441:-0.035688242 442:-0.060215982 443:0.056873218 444:0.17654109 445:0.0095030677 446:-0.027794244 447:0.028012918 448:0.0697576 449:0.026324442 450:-0.055635976 451:-0.059592662 452:-0.045868481 453:0.07339967 454:0.063847276 455:0.018585928 456:-0.0031729871 457:-0.041084796 458:0.090399561 459:0.014219821 460:-0.044557643 461:0.014609541 462:-0.068659749 463:-0.0092055172 464:0.056318977 465:0.0012855608 466:0.013063484 467:-0.053631868 468:0.048188691 469:0.036975327 470:-0.039554687 471:-0.065761839 472:-0.0068084585 473:-0.081769359 474:0.16952783 475:-0.06673246 476:0.0035018042 477:0.027255294 478:0.089364012 479:0.020619074 480:-0.061247962 481:0.032228984 482:0.03927053 483:0.012469607 484:0.00087535211 485:0.018797135 486:-0.036985178 487:-0.029133147 488:0.053441768 489:0.035444017 490:0.029727922 491:0.0075678924 492:-0.016858483 493:0.019262101 494:0.037603594 495:-0.014009723 496:-0.015763068 497:-0.022454785 498:0.065699209 499:0.020384585 500:-0.051178525 501:0.052287274 502:0.0095637388 503:0.060440474 504:0.071492724 505:0.066646819 506:-0.061015883 507:-0.027872369 508:0.060835166 509:0.034652927 510:0.041416331 511:-0.030264414 512:0.028000368 513:0.025358442 514:0.0068419181 515:-0.0031142597 516:-0.059200357 517:0.02710375 518:0.018030387 519:-0.017938368 520:-0.006043577 
0.9697265625 1:6 2:5 3:11 4:10 5:9 6:7 7:6 8:12 9:9 10:16 11:4 12:8 13:10 14:3 15:7 16:8 17:6 18:4 19:0 20:7 21:36 22:30 23:66 24:60 25:54 26:42 27:36 28:72 29:54 30:96 31:24 32:48 33:60 34:18 35:42 36:48 37:36 38:24 39:0 40:42 41:30 42:25 43:55 44:50 45:45 46:35 47:30 48:60 49:45 50:80 51:20 52:40 53:50 54:15 55:35 56:40 57:30 58:20 59:0 60:35 61:66 62:55 63:121 64:110 65:99 66:77 67:66 68:132 69:99 70:176 71:44 72:88 73:110 74:33 75:77 76:88 77:66 78:44 79:0 80:77 81:60 82:50 83:110 84:100 85:90 86:70 87:60 88:120 89:90 90:160 91:40 92:80 93:100 94:30 95:70 96:80 97:60 98:40 99:0 100:70 101:54 102:45 103:99 104:90 105:81 106:63 107:54 108:108 109:81 110:144 111:36 112:72 113:90 114:27 115:63 116:72 117:54 118:36 119:0 120:63 121:42 122:35 123:77 124:70 125:63 126:49 127:42 128:84 129:63 130:112 131:28 132:56 133:70 134:21 135:49 136:56 137:42 138:28 139:0 140:49 141:36 142:30 143:66 144:60 145:54 146:42 147:36 148:72 149:54 150:96 151:24 152:48 153:60 154:18 155:42 156:48 157:36 158:24 159:0 160:42 161:72 162:60 163:132 164:120 165:108 166:84 167:72 168:144 169:108 170:192 171:48 172:96 173:120 174:36 175:84 176:96 177:72 178:48 179:0 180:84 181:54 182:45 183:99 184:90 185:81 186:63 187:54 188:108 189:81 190:144 191:36 192:72 193:90 194:27 195:63 196:72 197:54 198:36 199:0 200:63 201:96 202:80 203:176 204:160 205:144 206:112 207:96 208:192 209:144 210:256 211:64 212:128 213:160 214:48 215:112 216:128 217:96 218:64 219:0 220:112 221:24 222:20 223:44 224:40 225:36 226:28 227:24 228:48 229:36 230:64 231:16 232:32 233:40 234:12 235:28 236:32 237:24 238:16 239:0 240:28 241:48 242:40 243:88 244:80 245:72 246:56 247:48 248:96 249:72 250:128 251:32 252:64 253:80 254:24 255:56 256:64 257:48 258:32 259:0 260:56 261:60 262:50 263:110 264:100 265:90 266:70 267:60 268:120 269:90 270:160 271:40 272:80 273:100 274:30 275:70 276:80 277:60 278:40 279:0 280:70 281:18 282:15 283:33 284:30 285:27 286:21 287:18 288:36 289:27 290:48 291:12 292:24 293:30 294:9 295:21 296:24 297:18 298:12 299:0 300:21 301:42 302:35 303:77 304:70 305:63 306:49 307:42 308:84 309:63 310:112 311:28 312:56 313:70 314:21 315:49 316:56 317:42 318:28 319:0 320:49 321:48 322:40 323:88 324:80 325:72 326:56 327:48 328:96 329:72 330:128 331:32 332:64 333:80 334:24 335:56 336:64 337:48 338:32 339:0 340:56 341:36 342:30 343:66 344:60 345:54 346:42 347:36 348:72 349:54 350:96 351:24 352:48 353:60 354:18 355:42 356:48 357:36 358:24 359:0 360:42 361:24 362:20 363:44 364:40 365:36 366:28 367:24 368:48 369:36 370:64 371:16 372:32 373:40 374:12 375:28 376:32 377:24 378:16 379:0 380:28 381:0 382:0 383:0 384:0 385:0 386:0 387:0 388:0 389:0 390:0 391:0 392:0 393:0 394:0 395:0 396:0 397:0 398:0 399:0 400:0 401:42 402:35 403:77 404:70 405:63 406:49 407:42 408:84 409:63 410:112 411:28 412:56 413:70 414:21 415:49 416:56 417:42 418:28 419:0 420:49 421:0.040540541 422:0.068027211 423:0.020547945 424:0.027586207 425:0.076388889 426:0.090909091 427:0.070422535 428:0.070921986 429:0.05 430:0.057553957 431:0.11148395 432:-0.088985088 433:-0.12516293 434:-0.01516854 435:0.10409585 436:-0.069124879 437:-0.023353416 438:-0.051230396 439:-0.0060344562 440:-0.038902535 441:0.06301313 442:0.095420176 443:0.10620641 444:-0.033721604 445:0.034495929 446:0.12595582 447:0.043842551 448:0.15934032 449:0.029656817 450:-0.0032494149 451:0.025347036 452:-0.040882011 453:-0.020376872 454:-0.047366464 455:0.062065538 456:-0.012547207 457:0.11339968 458:0.17380874 459:0.0082220117 460:0.056812013 461:0.034274739 462:-0.1112279 463:-0.017926379 464:-0.0092333738 465:-0.049104823 466:-0.083506743 467:0.04691219 468:0.096707036 469:0.11008981 470:0.036177541 471:-0.015586632 472:0.18929857 473:0.070792774 474:0.018830995 475:-0.17646154 476:0.27909735 477:0.065844208 478:0.10003686 479:-0.04067948 480:-0.084323577 481:-0.0088158006 482:0.10959091 483:0.016970161 484:-0.029285351 485:-0.08936994 486:-0.12305036 487:0.074563237 488:-0.080136384 489:0.1383084 490:0.073375081 491:0.035361631 492:-0.10903682 493:-0.10933121 494:-0.019500211 495:-0.0003953411 496:-0.0068642119 497:0.032141708 498:0.12100388 499:0.052526066 500:0.02433226 501:-0.025866028 502:0.16634221 503:-0.016484446 504:0.11030567 505:-0.10257462 506:-0.0087045431 507:-0.06548033 508:-0.11257054 509:0.027864966 510:-0.017757245 511:0.011704047 512:0.14197052 513:-0.084217719 514:0.10727417 515:0.14385269 516:0.040587455 517:0.023187911 518:-0.029274401 519:-0.05452261 520:0.19498913 
