svm_type c_svc
kernel_type rbf
gamma 0.00195312
nr_class 2
total_sv 440
rho 0.699387
label 1 -1
nr_sv 170 270
SV
0.7428401307003334 1:37 2:9 3:28 4:30 5:37 6:30 7:10 8:29 9:32 10:40 11:18 12:23 13:32 14:20 15:29 16:25 17:21 18:32 19:6 20:30 21:0.034749035 22:0.067698259 23:0.054263566 24:0.067961165 25:0.070038911 26:0.054580897 27:0.06640625 28:0.062622309 29:0.060784314 30:0.033398821 31:-0.039754693 32:-0.019173771 33:0.008183126 34:-0.034413072 35:-0.037727995 36:0.061444061 37:0.13377471 38:-0.014877191 39:-0.045351371 40:-0.072970417 41:-0.021480755 42:-5.302176e-05 43:0.0065496694 44:-0.010539994 45:0.062459049 46:0.067586992 47:0.036600055 48:0.037060931 49:-0.043974265 50:-0.040809319 51:-0.043187112 52:-0.022152111 53:0.064723063 54:-0.024837291 55:-0.017688795 56:0.042332598 57:0.064909835 58:0.0095140163 59:0.014138164 60:-0.033022788 61:-0.085614336 62:-0.030230244 63:0.022793613 64:-0.038690126 65:-0.070765016 66:0.011165872 67:0.039209995 68:0.020610509 69:-0.024895326 70:-0.058659499 71:0.062160944 72:0.081740284 73:0.00032164176 74:-0.032667888 75:0.081841318 76:-0.0031959235 77:0.011844356 78:-0.043932758 79:-0.067809294 80:-0.057087479 81:0.03874685 82:0.040435738 83:-0.042320619 84:0.062734594 85:0.023936802 86:7.44173e-05 87:0.08273046 88:0.049010453 89:0.077325692 90:-0.073132402 91:-0.038825874 92:0.022507612 93:0.0051547727 94:0.033073739 95:-0.024889179 96:0.01064744 97:0.038369413 98:0.048368199 99:0.016635123 100:-0.052677445 101:-0.012244846 102:0.037490792 103:-0.092151689 104:0.042705409 105:0.025555072 106:0.015453219 107:0.074198348 108:0.0057262916 109:0.065664188 110:-0.14875037 111:0.027108734 112:-0.052038285 113:0.022389207 114:0.016682059 115:0.021524311 116:0.0004602913 117:0.0033480082 118:-0.056107509 119:-0.012639514 120:-0.021685095 
1.127979079321934 1:22 2:15 3:35 4:51 5:23 6:36 7:15 8:36 9:41 10:49 11:13 12:23 13:31 14:19 15:26 16:40 17:25 18:37 19:7 20:24 21:0.066901408 22:0.061728395 23:0.060070671 24:0.072566372 25:0.054964539 26:0.044404973 27:0.053380783 28:0.057040998 29:0.0625 30:0.067978533 31:0.024911337 32:-0.089163562 33:-0.013563787 34:0.021237297 35:-0.13399132 36:-0.09175586 37:0.017393078 38:-0.068332605 39:-0.013892237 40:-0.024514785 41:0.024553583 42:-0.04033834 43:-0.017086319 44:0.10912376 45:-0.047736984 46:-0.073941024 47:-0.03431264 48:0.0061093566 49:-0.079187313 50:-0.010314839 51:0.073209205 52:-0.079678505 53:0.042359438 54:0.11803342 55:-0.010976251 56:-0.052963795 57:0.012768711 58:0.031266274 59:-0.02649417 60:0.02146881 61:0.072348127 62:-0.056750944 63:0.033022847 64:0.06838195 65:-0.074722576 66:-0.063423777 67:-0.027524335 68:-0.033569751 69:-0.056995925 70:0.025244879 71:0.020774375 72:0.011554928 73:-0.0082234629 74:0.019442875 75:0.0012895846 76:0.00084287103 77:-0.026047631 78:0.0057770819 79:-0.039329723 80:0.019637568 81:0.019840209 82:0.069314532 83:0.017847343 84:0.056774894 85:0.020052781 86:0.030099025 87:0.03361719 88:-0.0062221901 89:0.020481127 90:0.022200441 91:0.086592949 92:0.040045945 93:0.073964349 94:0.051709523 95:-0.023213845 96:-0.006503241 97:0.042702069 98:-0.0036365015 99:-0.0079044542 100:0.091974371 101:0.06802177 102:0.044278862 103:-0.020812311 104:0.035090436 105:-0.03306139 106:-0.003568745 107:0.01099738 108:-0.0060525491 109:-0.011406308 110:-0.020621801 111:0.047717924 112:0.068176219 113:0.072447637 114:0.056010574 115:-0.041835573 116:-0.0085784383 117:0.035823504 118:-0.013927603 119:0.01157722 120:0.031544089 
2 1:16 2:3 3:19 4:15 5:11 6:15 7:13 8:16 9:19 10:38 11:5 12:6 13:10 14:11 15:19 16:16 17:15 18:21 19:6 20:10 21:0.063380282 22:0.060070671 23:0.063829787 24:0.067615658 25:0.046428571 26:0.086021505 27:0.043165468 28:0.068592058 29:0.072463768 30:0.058181818 31:-0.053627071 32:-0.043948764 33:0.074072664 34:0.03949526 35:-0.096943241 36:0.070442687 37:-0.02888034 38:-0.08724815 39:0.0116244 40:-0.047472977 41:0.031703048 42:-0.040100574 43:-0.068704783 44:0.075621751 45:0.020201136 46:-0.035289268 47:-0.040543205 48:-0.079015568 49:0.026210798 50:-0.029060053 51:-0.010789871 52:0.00089406059 53:-0.056941894 54:0.096317931 55:0.038226084 56:-0.04063874 57:-0.042923746 58:-0.01990059 59:0.044569017 60:-0.075939281 61:-0.033246946 62:-0.070275401 63:-0.076589435 64:0.11661477 65:-0.022887787 66:-0.0054730117 67:0.014772185 68:-0.020759506 69:-0.03243404 70:-0.0032399359 71:0.058252853 72:-0.076935406 73:0.040579418 74:-0.13630729 75:0.015301217 76:0.089458819 77:-0.050571555 78:-0.042893495 79:-0.025936652 80:0.045985059 81:0.022258378 82:0.04615034 83:0.10857701 84:-0.024558684 85:0.030828336 86:-0.012126689 87:0.047285314 88:0.041188354 89:-0.028206561 90:0.022808363 91:-0.045842277 92:0.0092833238 93:-0.02420095 94:0.0059031537 95:-0.0038618021 96:-0.0080171164 97:0.10166126 98:0.044496477 99:0.034788229 100:-0.071038723 101:-0.0055758314 102:0.063783718 103:0.084067915 104:-0.030335774 105:-0.010537482 106:0.0030982658 107:-0.058417649 108:-0.015188172 109:-0.070232789 110:-0.020714292 111:0.037212791 112:-0.099196946 113:-0.015576921 114:0.057219026 115:0.025514169 116:-0.033402066 117:0.081398651 118:0.05968954 119:0.12782512 120:0.021435738 
1.568395698925208 1:26 2:14 3:30 4:36 5:41 6:36 7:14 8:50 9:52 10:78 11:16 12:49 13:33 14:21 15:23 16:49 17:31 18:35 19:7 20:23 21:0.076807229 22:0.058823529 23:0.072507553 24:0.077155825 25:0.059090909 26:0.053110774 27:0.054711246 28:0.074581431 29:0.056402439 30:0.073282443 31:0.03295962 32:-0.06008995 33:-0.0025891731 34:0.075711966 35:-0.024277054 36:-0.073271272 37:0.013500532 38:0.041273595 39:-0.066893386 40:0.021066625 41:0.031167121 42:-0.0235334 43:0.037043377 44:0.074175863 45:0.0038547515 46:-0.066299639 47:0.022426889 48:0.0010770508 49:-0.046860888 50:-0.014419958 51:0.014115863 52:-0.060665093 53:0.077851858 54:0.089692533 55:-0.019874312 56:-0.087766074 57:0.017823195 58:0.030173233 59:-0.036040128 60:-0.028544202 61:0.0085576301 62:-0.087803312 63:-0.0084507312 64:0.066852543 65:-0.034671981 66:-0.081237787 67:0.028044629 68:0.017271496 69:-0.056002757 70:-0.013317201 71:0.030949729 72:0.032381089 73:-0.051032269 74:0.04669607 75:-0.041677337 76:0.061834501 77:0.017395907 78:0.089340733 79:-0.039423051 80:0.038064791 81:0.070166593 82:-0.0032415441 83:0.030209023 84:0.052701997 85:0.048008077 86:0.024867096 87:0.05160292 88:0.032931434 89:0.03118066 90:0.066380229 91:0.064878618 92:-0.028552598 93:0.0535946 94:0.039075706 95:-0.036354137 96:0.0089479691 97:0.052893941 98:-0.0077365872 99:-0.03680061 100:0.019683827 101:0.079424391 102:-0.035991099 103:0.0033253667 104:0.03096258 105:0.035307623 106:-0.0045198977 107:0.070925129 108:0.027506233 109:0.02075704 110:0.04106392 111:0.0054153067 112:0.077337613 113:-0.0042770602 114:0.098015982 115:-0.009702876 116:0.068982624 117:-0.043063485 118:-0.0075307005 119:0.00036972715 120:0.051895122 
2 1:7 2:1 3:3 4:9 5:6 6:9 7:2 8:3 9:8 10:7 11:2 12:6 13:9 14:6 15:6 16:6 17:5 18:5 19:0 20:3 21:0.048543689 22:0.019607843 23:0.01980198 24:0.07 25:0.050505051 26:0.10204082 27:0.041237113 28:0.03125 29:0.052631579 30:0.10638298 31:-0.13213302 32:-0.1426465 33:0.15833384 34:0.061687958 35:-0.15572498 36:0.013633513 37:0.096845012 38:-0.19453629 39:-0.025803127 40:0.22316248 41:-0.0163818 42:0.027952449 43:0.091522907 44:-0.068152821 45:-0.014497124 46:0.15503445 47:-0.10406288 48:-0.08398937 49:0.0077670342 50:0.093574712 51:-0.01698152 52:0.0036590607 53:0.077036678 54:0.073123443 55:-0.017396276 56:0.16373309 57:-0.021262214 58:-0.062556132 59:0.046341319 60:0.078301924 61:-0.1045531 62:0.017120131 63:0.14127071 64:0.049617005 65:0.042199452 66:0.10413569 67:0.06421076 68:-0.0066341898 69:0.022784733 70:0.21437888 71:-0.014817459 72:-0.037592763 73:-0.205715 74:0.043265179 75:-0.0071589148 76:0.0462039 77:-0.1056223 78:0.053297465 79:-0.16888815 80:0.078864228 81:0.18487115 82:0.066107359 83:0.14272037 84:0.0062201945 85:0.093174075 86:0.048372058 87:0.15844064 88:-0.026605159 89:0.085914446 90:0.2472639 91:-0.00062046985 92:0.1500927 93:0.14667406 94:0.022530584 95:0.16612863 96:0.028981305 97:0.058427862 98:-0.030615254 99:0.096099795 100:0.041180294 101:0.10574577 102:-0.041816142 103:0.12743769 104:-0.077321122 105:-0.028619627 106:0.10622291 107:0.06686894 108:-0.17369239 109:-0.0093445485 110:0.24233184 111:0.031125363 112:0.16192026 113:-0.099970228 114:-0.011354735 115:0.01436815 116:0.015172855 117:-0.11499015 118:-0.062980868 119:0.085871061 120:0.22192966 
1.236394889598835 1:9 2:6 3:25 4:25 5:16 6:17 7:5 8:28 9:19 10:20 11:5 12:17 13:18 14:4 15:15 16:18 17:19 18:19 19:1 20:12 21:0.067114094 22:0.053872054 23:0.097972973 24:0.071186441 25:0.078231293 26:0.040955631 27:0.065068493 28:0.075601375 29:0.062068966 30:0.076124567 31:0.042917347 32:-0.0015390353 33:0.0033213282 34:0.047882071 35:-0.067715507 36:-0.13822886 37:0.07833309 38:-0.077836144 39:0.0084472576 40:-0.087772109 41:-0.03089891 42:-0.048899643 43:-0.1033542 44:0.13440079 45:0.013361623 46:-0.055372021 47:0.0057343622 48:-0.10410428 49:0.0097352537 50:-0.011539201 51:0.051810021 52:-0.02532504 53:-0.030662194 54:0.15205841 55:0.08221012 56:-0.090969028 57:0.10283088 58:-0.044946963 59:0.080228116 60:-0.010275356 61:0.088865421 62:-0.024279947 63:-0.070426437 64:0.11413994 65:-0.0013418198 66:-0.1086425 67:0.059454513 68:-0.034374345 69:0.013955825 70:-0.093493838 71:-0.0070525356 72:-0.013635907 73:0.042727158 74:0.013830415 75:-0.019458675 76:0.059496572 77:0.010224399 78:0.032918511 79:0.063254784 80:0.16082333 81:0.048755432 82:0.073391378 83:0.03407589 84:0.038998213 85:0.044418184 86:-0.0022233086 87:0.040023726 88:0.032934139 89:0.018888499 90:0.032100555 91:0.12421391 92:0.055696222 93:0.017493033 94:0.059697212 95:0.12461366 96:0.019277272 97:0.14374801 98:0.006139403 99:0.039955381 100:0.054257302 101:-0.0082991157 102:0.064695409 103:0.031443958 104:0.016705449 105:0.037104038 106:-0.028302961 107:0.036987938 108:-0.016978887 109:-0.010557357 110:0.017098412 111:-0.12707416 112:-0.066628283 113:0.054229387 114:0.096872114 115:-0.086439695 116:0.029891142 117:0.063300279 118:0.0092194558 119:0.05402372 120:0.036611946 
2 1:7 2:5 3:6 4:7 5:8 6:10 7:6 8:10 9:5 10:12 11:6 12:5 13:12 14:7 15:9 16:9 17:9 18:7 19:0 20:6 21:0.047945205 22:0.055172414 23:0.034722222 24:0.041958042 25:0.084507042 26:0.063829787 27:0.05 28:0.043165468 29:0.02173913 30:0.065693431 31:0.068994908 32:-0.045368083 33:0.05144762 34:0.020157721 35:0.035693706 36:0.042671252 37:-0.068304056 38:-0.17024168 39:-0.14523296 40:-0.072500539 41:0.015629006 42:-0.13809112 43:-0.024056647 44:-0.00080089773 45:-0.10102566 46:0.049744645 47:-0.11293997 48:-0.0037587367 49:-0.13900018 50:-0.070276106 51:-0.0040728457 52:-0.13620772 53:0.029686956 54:-0.012384361 55:-0.04299774 56:0.026698904 57:-0.054361854 58:-0.035936644 59:-0.090193317 60:-0.03875276 61:0.03083392 62:-0.11023806 63:-0.017888019 64:-0.04608804 65:-0.017274614 66:0.026672527 67:-0.069987417 68:-0.045909761 69:-0.078696747 70:-0.060995047 71:0.011974217 72:-0.031968525 73:-0.14326648 74:-0.069004016 75:-0.033451929 76:0.14358013 77:-0.040508099 78:0.052715523 79:-0.022877832 80:-0.047082901 81:0.057364492 82:0.020171485 83:0.080700267 84:0.010146777 85:0.15887592 86:0.040538639 87:0.0077698991 88:-0.010349801 89:-0.0063917726 90:0.0043820521 91:-0.039971236 92:-0.062995767 93:0.064202596 94:0.035156752 95:0.061744251 96:0.07072178 97:0.055324505 98:0.060327907 99:-0.043362972 100:-0.086962639 101:0.032412385 102:0.033675898 103:0.0050354378 104:-0.0093239211 105:0.1137504 106:-0.0091196654 107:-0.045042396 108:-0.11257992 109:-0.12841731 110:-0.03460202 111:-0.034971372 112:-0.07550921 113:0.0059654262 114:0.070290942 115:-0.039599273 116:0.090612225 117:-0.03648668 118:-0.014327271 119:-0.17761538 120:0.040812686 
0.180710648070367 1:8 2:2 3:5 4:15 5:10 6:7 7:3 8:8 9:9 10:11 11:4 12:5 13:10 14:9 15:5 16:8 17:7 18:4 19:0 20:8 21:0.043478261 22:0.058394161 23:0.073529412 24:0.044444444 25:0.082089552 26:0.067669173 27:0.045454545 28:0.045801527 29:0.053846154 30:0.054263566 31:0.07811566 32:0.0044118401 33:-0.077767584 34:-0.040374926 35:-0.038680358 36:-0.084477743 37:-0.14658571 38:-0.16239604 39:-0.17250119 40:-0.041186841 41:0.05643962 42:-0.0077383573 43:0.045729469 44:0.068847138 45:0.02119455 46:-0.044103454 47:-0.10631376 48:-0.1005925 49:-0.177329 50:-0.0688022 51:0.16841896 52:-0.047139735 53:0.084606251 54:-0.028448976 55:0.035979431 56:-0.046007771 57:-0.056520129 58:-0.03643339 59:-0.12610484 60:0.033226161 61:0.11348937 62:0.017923787 63:0.026938926 64:-0.037707335 65:-0.037675754 66:-0.067177393 67:-0.090497173 68:-0.12062593 69:-0.20456514 70:-0.045951192 71:-0.13856987 72:-0.054063059 73:0.048763196 74:0.1015273 75:-0.020462057 76:0.056917898 77:0.036393426 78:0.054616397 79:-0.039261729 80:0.036100765 81:0.017348818 82:0.068929954 83:0.041938213 84:-0.083508297 85:0.074093495 86:0.018042317 87:0.056337793 88:-0.031726054 89:0.01074279 90:0.049557936 91:0.00014768985 92:0.010907382 93:0.057364401 94:-0.019350903 95:0.077832164 96:-0.062681998 97:0.089384431 98:-0.097194889 99:-0.13480435 100:0.012007339 101:-0.022028732 102:0.060143368 103:-0.034586395 104:-0.070813295 105:0.092437127 106:0.016291487 107:0.0069102739 108:-0.074790551 109:-0.03608026 110:0.022285526 111:-0.010975801 112:0.11684344 113:0.029967394 114:0.10305314 115:0.088379847 116:0.11499213 117:0.15307893 118:0.059728697 119:0.014074759 120:0.038270759 
0.4670109833289912 1:24 2:9 3:22 4:27 5:40 6:16 7:9 8:34 9:45 10:43 11:11 12:28 13:21 14:22 15:14 16:17 17:24 18:27 19:5 20:20 21:0.074235808 22:0.04595186 23:0.063596491 24:0.059340659 25:0.081497797 26:0.059602649 27:0.086283186 28:0.042128603 29:0.051111111 30:0.048997773 31:0.029949185 32:-0.015466872 33:-0.033559881 34:0.015677404 35:0.053153731 36:0.015435697 37:-0.01452693 38:0.12771255 39:-0.028187755 40:-0.03660445 41:0.095059782 42:-0.0066511019 43:0.037738219 44:0.071994848 45:0.0578872 46:-0.053886917 47:0.030927567 48:0.031474193 49:-0.002873596 50:-0.019084692 51:0.058421751 52:0.019410676 53:-0.023072549 54:-0.025254245 55:-0.020171643 56:-0.020806857 57:0.056801991 58:0.066296253 59:-0.0028584817 60:-0.021790042 61:0.023150324 62:0.02051192 63:0.041637114 64:0.065736502 65:-0.0099211188 66:-0.0778285 67:-0.018712764 68:0.050718013 69:-0.091818284 70:-0.013615379 71:0.034265388 72:0.060390335 73:-0.043706711 74:-0.078834817 75:0.00053215395 76:0.026826514 77:0.040850109 78:-0.046239095 79:0.0035139088 80:-0.054212219 81:-0.010315518 82:-0.0034838777 83:0.005270688 84:0.0044501847 85:0.064916831 86:0.0021399766 87:-0.023468251 88:0.0012554563 89:-0.0013132965 90:0.028227855 91:0.033756719 92:0.050916472 93:0.01246467 94:0.018751427 95:0.044765229 96:-0.019287425 97:0.069129806 98:-0.045325536 99:0.001567656 100:-0.011634221 101:0.0081755805 102:-0.027066579 103:-0.0065546356 104:-0.041770414 105:0.075919049 106:0.030512808 107:0.0093072566 108:0.038952646 109:-0.025456563 110:0.020086432 111:0.068324417 112:-0.092874693 113:0.035909504 114:-0.0026212682 115:0.0044694302 116:0.02417395 117:-0.049601684 118:-0.013327187 119:-0.01675507 120:0.0021748855 
1.693664469987568 1:39 2:6 3:58 4:91 5:29 6:32 7:12 8:45 9:84 10:58 11:25 12:30 13:22 14:19 15:26 16:37 17:34 18:47 19:4 20:22 21:0.094444444 22:0.075104312 23:0.090529248 24:0.085076709 25:0.076815642 26:0.082517483 27:0.089635854 28:0.068723703 29:0.06741573 30:0.071729958 31:0.025739341 32:-0.04969857 33:-0.025716015 34:0.017003319 35:-0.04716998 36:-0.047686205 37:0.011640985 38:0.041106531 39:-0.033850757 40:-0.030550638 41:0.089285847 42:-0.059258628 43:0.077711729 44:0.045445762 45:-0.016468234 46:0.031602493 47:0.060720698 48:0.086656719 49:0.062216826 50:0.053299553 51:0.26885435 52:0.062464553 53:0.24534563 54:0.25839945 55:0.15134694 56:0.1620625 57:0.21098857 58:0.21888257 59:0.21692677 60:0.20099793 61:0.13067103 62:-0.026525483 63:0.1080637 64:0.13458894 65:0.0059788248 66:0.075995942 67:0.096692207 68:0.141128 69:0.083162559 70:0.066766803 71:0.11517129 72:0.097835435 73:0.049684432 74:-0.050244852 75:0.031217532 76:-0.039326737 77:0.061588457 78:-0.082070707 79:-0.028280091 80:-0.027774488 81:0.051967173 82:0.068138331 83:0.093877289 84:0.05389578 85:0.031725207 86:0.065579278 87:0.061915696 88:0.094952707 89:0.055140671 90:0.035185604 91:0.052670581 92:0.023144907 93:0.07056705 94:0.075417972 95:0.033087011 96:0.063533892 97:0.061095058 98:0.10014878 99:0.062764071 100:0.065136677 101:0.0070920444 102:0.05774204 103:0.065436393 104:0.02328829 105:-0.0093994322 106:0.026481607 107:0.0042800123 108:0.062674246 109:0.010602757 110:-0.014386566 111:-0.06555114 112:-0.0093318847 113:0.058998945 114:0.019014778 115:0.00085921696 116:0.051950014 117:0.030335324 118:0.04889209 119:0.023813816 120:-0.032677668 
0.4062621944494317 1:18 2:9 3:30 4:27 5:35 6:24 7:13 8:39 9:47 10:44 11:20 12:25 13:22 14:13 15:21 16:33 17:37 18:17 19:4 20:18 21:0.058467742 22:0.050505051 23:0.056680162 24:0.064908722 25:0.06504065 26:0.067209776 27:0.071428571 28:0.069529652 29:0.05942623 30:0.047227926 31:-0.0020477087 32:-0.033618225 33:-0.054848665 34:0.0095312731 35:-0.0017708681 36:-0.060165352 37:0.088263903 38:0.090185431 39:0.048184022 40:-0.074927889 41:0.044486048 42:-0.04466998 43:0.069837686 44:0.034063013 45:-0.0095033472 46:-0.0073599913 47:0.036713426 48:0.098194209 49:0.076385702 50:-0.04068803 51:0.017114789 52:0.0056221888 53:0.083845415 54:0.051677587 55:0.0061155411 56:0.0065723567 57:0.044678289 58:0.10996424 59:0.019147996 60:0.013517918 61:0.020951829 62:-0.053712264 63:0.002893624 64:0.027587488 65:-0.016323741 66:-0.037996384 67:0.089256822 68:0.12511604 69:0.019588148 70:-0.055273203 71:0.0093396928 72:0.031535969 73:0.044755346 74:-0.0065773199 75:0.01996563 76:-0.030802806 77:0.0021930454 78:0.078589056 79:-0.047189146 80:-0.08471837 81:0.068240393 82:0.0011525132 83:-0.024643493 84:0.0051747604 85:-0.0083687321 86:0.033090611 87:0.081124684 88:0.06029519 89:0.020941962 90:-0.007258805 91:-0.037715847 92:-0.017329667 93:-0.0043159642 94:0.058480604 95:-0.029011056 96:0.052324608 97:0.012384399 98:0.062970559 99:0.020007936 100:-0.015071133 101:0.062732065 102:-0.030056123 103:-0.072371993 104:-0.050577799 105:-0.014300734 106:0.036121327 107:0.077063371 108:0.028594639 109:-0.052875059 110:-0.039198357 111:0.090531154 112:-0.043596194 113:-0.017967711 114:-0.0023599082 115:0.055076615 116:0.063328193 117:0.00017616777 118:0.030072504 119:0.0054404363 120:0.0116539 
0.1857003382571345 1:15 2:6 3:23 4:28 5:39 6:28 7:8 8:32 9:45 10:57 11:7 12:29 13:31 14:11 15:17 16:29 17:28 18:35 19:4 20:21 21:0.042596349 22:0.071138211 23:0.071283096 24:0.07755102 25:0.08793456 26:0.06352459 27:0.075975359 28:0.061728395 29:0.051546392 30:0.059917355 31:-0.036296282 32:-0.031912114 33:-0.015516902 34:0.092725812 35:0.00073253439 36:0.014325197 37:0.031651844 38:0.009751783 39:0.040100287 40:-0.082762263 41:0.0029564082 42:-0.0077669659 43:0.041245267 44:0.087968417 45:0.10299251 46:-0.061581045 47:0.025946761 48:0.021835796 49:-0.02689994 50:-0.14144109 51:0.016891355 52:0.0040574936 53:0.043645521 54:0.074282304 55:0.10139029 56:-0.050654869 57:0.051539077 58:0.02676916 59:-0.0423336 60:-0.15336752 61:-0.0092954644 62:-0.030117346 63:-0.00039125922 64:0.10013671 65:0.065691294 66:-0.077301803 67:0.0015609034 68:0.0011302444 69:-0.034263524 70:-0.12137272 71:-0.026368607 72:0.012405466 73:-0.01230709 74:-0.048032408 75:0.010294481 76:-0.0079894544 77:0.031459264 78:0.02867892 79:-0.074375554 80:0.020499121 81:0.075851105 82:0.021595493 83:0.010589589 84:0.033889056 85:0.073930468 86:0.033806323 87:0.05978919 88:0.0015035731 89:0.018556374 90:0.055970233 91:0.01981426 92:0.017602615 93:-0.00013977713 94:0.05903672 95:0.05779354 96:0.041626084 97:0.059124035 98:-0.015596032 99:-0.0092460386 100:-0.028820231 101:-0.0067156409 102:-0.0030834929 103:-0.042862753 104:-0.050563546 105:0.022165035 106:0.036136463 107:0.0064129825 108:-0.0077206995 109:0.0047637107 110:0.0035080643 111:0.071561007 112:0.031180882 113:0.02189666 114:-0.014966046 115:0.12697625 116:0.073312713 117:0.091317015 118:-0.031173306 119:0.0047988892 120:0.13107129 
1.699102156699321 1:19 2:10 3:37 4:69 5:27 6:28 7:13 8:69 9:85 10:51 11:14 12:61 13:33 14:31 15:51 16:37 17:41 18:46 19:6 20:27 21:0.080794702 22:0.042440318 23:0.043824701 24:0.074468085 25:0.089214381 26:0.053333333 27:0.052069426 28:0.072192513 29:0.058902276 30:0.068364611 31:-0.033983984 32:-0.13962516 33:-0.028754374 34:0.068629302 35:0.02595487 36:-0.087814184 37:-0.027206744 38:0.043869123 39:-0.10513039 40:-0.030948655 41:0.075523062 42:-0.13476699 43:-0.0078012305 44:0.16439093 45:-0.00026468323 46:-0.014989291 47:0.052502361 48:0.098714315 49:-0.005329019 50:0.020462567 51:0.15858011 52:-0.041501077 53:0.029239341 54:0.13933672 55:0.10315431 56:0.060502716 57:0.10591078 58:0.10873803 59:0.02612057 60:0.0075542818 61:0.088672606 62:-0.070902627 63:0.0049148891 64:0.12868705 65:0.067247044 66:-0.023524263 67:0.096329839 68:0.09119301 69:-0.059270361 70:-0.0070015948 71:0.060000607 72:-0.083161914 73:0.0060524798 74:0.026282471 75:0.17421495 76:-0.070947546 77:-0.037414529 78:0.099112559 79:-0.037244151 80:0.027668893 81:0.089520152 82:-0.00021030857 83:0.012390971 84:0.02110304 85:0.023570581 86:0.0015812741 87:0.0046008553 88:-0.011686947 89:0.010202586 90:0.020775271 91:0.12916592 92:0.082904657 93:0.064097731 94:0.081660107 95:0.13812625 96:0.072219169 97:0.11302734 98:0.092419893 99:0.028890824 100:0.033390466 101:0.068119613 102:-0.028911615 103:0.0087463731 104:0.0031683647 105:0.0056580529 106:-0.0046342382 107:-0.035491323 108:-0.031153495 109:-0.022694594 110:-0.0012829185 111:0.010272081 112:-0.091690744 113:0.040995866 114:0.10157242 115:-0.037335665 116:0.043966369 117:-0.017732968 118:0.036002055 119:0.088357646 120:0.091457999 
1.099106658913918 1:10 2:2 3:11 4:6 5:8 6:7 7:4 8:9 9:7 10:12 11:3 12:10 13:11 14:3 15:7 16:6 17:13 18:11 19:0 20:11 21:0.059602649 22:0.053333333 23:0.060402685 24:0.040540541 25:0.10204082 26:0.047945205 27:0.04137931 28:0.055555556 29:0.055944056 30:0.063380282 31:0.060761927 32:-0.1052115 33:0.074700756 34:0.040216198 35:-0.04300174 36:0.0052945501 37:-0.051276013 38:-0.08054414 39:-0.077590284 40:-0.12767929 41:0.059620233 42:-0.13101414 43:0.010301092 44:0.055135011 45:-0.063088858 46:-0.022536551 47:0.020301775 48:-0.093931297 49:0.010854878 50:-0.0080603098 51:0.0018219432 52:-0.20270115 53:0.078241184 54:0.046408204 55:0.01615805 56:0.033654771 57:-0.0052618088 58:-0.056576384 59:-0.0088901166 60:-0.056876156 61:0.031594181 62:-0.13073745 63:-0.019365999 64:0.059087539 65:-0.056731219 66:0.0016426651 67:-0.0086872392 68:-0.0040591797 69:-0.027107195 70:-0.12195684 71:-0.025623684 72:0.057506054 73:0.041996129 74:-0.027176097 75:0.031157077 76:0.016562321 77:0.06779203 78:-0.04648325 79:-0.075166414 80:0.0014631959 81:0.11534466 82:0.046722279 83:0.065545566 84:-0.032159044 85:0.061919518 86:0.038509645 87:0.054130134 88:0.054454111 89:-0.0039995494 90:-0.065756051 91:0.0083336425 92:-0.082028659 93:-0.099495688 94:-0.028389752 95:0.085009089 96:0.023152741 97:0.042367491 98:0.082271813 99:-0.042034566 100:-0.055634251 101:0.080159963 102:0.015290398 103:0.043133773 104:-0.044999514 105:0.037653352 106:0.037366844 107:0.052176058 108:0.04565023 109:-0.062489891 110:-0.14095242 111:0.055218823 112:0.052396333 113:-0.14433622 114:0.047567327 115:0.18176616 116:0.043433678 117:0.13039078 118:-0.040194917 119:-0.05303264 120:0.021873421 
1.253710157304169 1:40 2:10 3:36 4:22 5:22 6:32 7:10 8:34 9:37 10:55 11:12 12:11 13:21 14:19 15:22 16:30 17:30 18:32 19:9 20:16 21:0.07 22:0.064128257 23:0.084337349 24:0.076458753 25:0.048387097 26:0.050505051 27:0.046558704 28:0.087221095 29:0.046747967 30:0.048879837 31:0.02646037 32:-0.069457523 33:0.11694738 34:0.050887703 35:-0.057349741 36:-0.012461066 37:0.035814831 38:0.062431832 39:-0.031701598 40:-0.023286897 41:0.039546501 42:-0.086870672 43:0.11779712 44:0.04744752 45:-0.044077515 46:-0.010407349 47:0.011579981 48:0.040853428 49:-0.030271669 50:-0.04552236 51:0.034468637 52:-0.088692739 53:0.16937396 54:0.08656727 55:-0.01071833 56:-0.0011089016 57:0.052775168 58:0.085459779 59:-0.020771546 60:-0.071176166 61:0.022737894 62:-0.11170118 63:0.11781369 64:0.096250053 65:-0.025117346 66:-0.019417253 67:0.064004607 68:0.10031054 69:-0.020557169 70:-0.044371531 71:-0.028808166 72:-0.00035321946 73:-0.064798214 74:-0.021185546 75:0.059656695 76:-0.013027329 77:-0.066770478 78:0.029861914 79:-0.01528161 80:-0.0029116433 81:0.081901235 82:0.073293479 83:0.05417442 84:0.10616457 85:0.10976342 86:0.0078162544 87:0.055849608 88:0.051759706 89:-0.017036673 90:0.0053853579 91:0.038169839 92:0.0077590036 93:0.070328438 94:0.060025084 95:-0.0033077618 96:-0.045010811 97:0.07733003 98:0.11605148 99:0.031359462 100:-0.051888085 101:0.061360603 102:0.05879631 103:0.077856525 104:0.051810352 105:0.076139494 106:-0.034032915 107:0.030282449 108:0.0052484209 109:-0.046876541 110:-0.027040751 111:0.043114648 112:-0.07796361 113:0.062134583 114:0.060284848 115:-0.095607113 116:-0.0061257517 117:-0.021180345 118:-0.043417007 119:0.013983661 120:-0.053071412 
1.594877300117479 1:25 2:6 3:21 4:30 5:25 6:28 7:4 8:26 9:16 10:40 11:10 12:17 13:20 14:12 15:19 16:20 17:27 18:26 19:8 20:14 21:0.050761421 22:0.083969466 23:0.073979592 24:0.05370844 25:0.061538462 26:0.084832905 27:0.082474227 28:0.046511628 29:0.077720207 30:0.075324675 31:-0.016475625 32:-0.021783091 33:0.15536878 34:-0.033678289 35:0.045362951 36:0.11024135 37:0.052690335 38:0.16244107 39:0.11115962 40:0.10681754 41:0.046903304 42:-0.0070932929 43:0.20283034 44:0.11767097 45:0.040636434 46:0.1196516 47:0.076259523 48:0.15367949 49:0.09846787 50:0.076806775 51:0.1080992 52:0.042948097 53:0.17969523 54:0.087748492 55:0.09261034 56:0.15469486 57:0.10230272 58:0.20264664 59:0.12576927 60:0.11928302 61:0.058591574 62:0.0074885361 63:0.1722163 64:0.064773295 65:0.041963606 66:0.11982041 67:0.073130991 68:0.18021714 69:0.13603217 70:0.14179013 71:0.077531395 72:0.098009915 73:0.06134889 74:0.072091677 75:-0.055236619 76:0.03893933 77:-0.068220741 78:-0.047390668 79:0.039239674 80:-0.032246406 81:-0.02264288 82:0.073464235 83:0.073561215 84:0.011561333 85:0.065858516 86:0.058019736 87:0.0950845 88:0.052799781 89:0.03097011 90:0.046637035 91:-0.031051906 92:0.0071721035 93:0.13657676 94:0.027084625 95:0.051674139 96:0.13003722 97:0.0082139726 98:0.085056582 99:0.075108679 100:0.076157006 101:-0.092144809 102:0.040994275 103:0.087915055 104:-0.064016862 105:0.084671588 106:0.051547789 107:0.072307251 108:0.067432159 109:-0.010338164 110:-0.048411776 111:-0.016555706 112:0.046162275 113:-0.018768486 114:-0.019664322 115:0.059579404 116:0.023509091 117:0.037101437 118:-0.0088659366 119:-0.025832747 120:-0.0014928483 
1.545505016822405 1:29 2:7 3:25 4:24 5:19 6:19 7:9 8:17 9:26 10:36 11:15 12:9 13:18 14:16 15:21 16:15 17:18 18:24 19:2 20:9 21:0.039106145 22:0.058823529 23:0.04494382 24:0.05915493 25:0.062146893 26:0.056657224 27:0.0625 28:0.051282051 29:0.065714286 30:0.06017192 31:-0.11376797 32:-0.030896601 33:0.021436235 34:0.062002381 35:0.023882387 36:-0.012528987 37:-0.026507106 38:0.094488305 39:-0.028108143 40:-0.080744667 41:-0.042715731 42:-0.010709717 43:-0.045894477 44:0.11304102 45:0.014672009 46:-0.011630305 47:-0.038243621 48:0.13249886 49:-0.0092574042 50:-0.022590052 51:0.02479646 52:0.026040272 53:-0.019654705 54:0.10824196 55:0.058766212 56:-0.014947827 57:-0.03918674 58:0.11850615 59:0.051155192 60:-0.044685559 61:-0.072549793 62:-0.075195845 63:-0.036095818 64:0.059629417 65:0.03906664 66:-0.026921507 67:0.0055856737 68:0.13884011 69:0.037728695 70:-0.043294315 71:-0.042639326 72:0.037305041 73:-0.017908035 74:0.0088390252 75:-0.053331322 76:-0.042937741 77:-0.030665009 78:-0.0010915844 79:0.027968589 80:-0.05042822 81:0.046000057 82:0.036288339 83:0.046905702 84:0.042268436 85:0.076312141 86:0.040678739 87:0.053249179 88:0.092991998 89:0.085750156 90:0.061899029 91:-0.016592487 92:0.033249744 93:-0.023371356 94:0.031265135 95:0.0090607875 96:0.025028084 97:0.09223338 98:-0.0043374432 99:0.030783773 100:-0.040957751 101:0.050315706 102:0.0046867937 103:0.018672127 104:-0.01739581 105:0.042409341 106:0.069635627 107:0.031370014 108:0.076651982 109:0.03075474 110:-0.0089561242 111:0.028714655 112:-0.088349637 113:-0.027588803 114:0.037780977 115:0.053365579 116:0.079797818 117:-0.074255644 118:-0.065911444 119:0.048395169 120:0.046072513 
2 1:6 2:4 3:4 4:6 5:13 6:9 7:3 8:11 9:5 10:22 11:5 12:10 13:5 14:1 15:3 16:9 17:8 18:10 19:4 20:2 21:0.064285714 22:0.071942446 23:0.079710145 24:0.087591241 25:0.10294118 26:0.037037037 27:0.074626866 28:0.07518797 29:0.060606061 30:0.091603053 31:0.11040235 32:0.062632958 33:0.21050837 34:0.22628341 35:0.27992139 36:-0.014578448 37:0.093626151 38:0.054121862 39:0.1236493 40:0.14510611 41:0.19827175 42:0.10444823 43:0.21815999 44:0.24418538 45:0.3189839 46:0.20821411 47:0.12367745 48:0.19141246 49:0.19073548 50:0.21041141 51:0.082550811 52:-0.046476891 53:0.13120417 54:0.10743164 55:0.26598273 56:0.0040434638 57:0.024394202 58:0.088393307 59:0.04943538 60:0.1927894 61:0.19714856 62:0.056132518 63:0.24569418 64:0.22806376 65:0.30063141 66:0.069737026 67:0.019074502 68:0.12624806 69:0.080047982 70:0.1812739 71:-0.068514384 72:0.063477303 73:-0.09077912 74:0.011288708 75:-0.037150703 76:0.0076916403 77:0.063397376 78:-0.0040175194 79:0.018387907 80:0.012863301 81:-0.049153442 82:0.056181269 83:0.1426704 84:0.046045113 85:0.20994073 86:-0.11386149 87:0.1058059 88:0.079540789 89:0.0049865437 90:0.11539241 91:-0.052046203 92:-0.060668468 93:0.16851656 94:-0.00095207871 95:0.17816031 96:-0.17664186 97:-0.028586348 98:-0.048007871 99:-0.091710578 100:0.14077573 101:-0.052943867 102:0.0042476194 103:0.039034908 104:0.051760478 105:0.19911263 106:-0.16176802 107:0.11813175 108:-0.0020672932 109:0.061369009 110:0.093721082 111:0.082216316 112:-0.033008393 113:0.16218199 114:0.10997345 115:0.1256351 116:0.021268847 117:-0.087591769 118:0.17040864 119:0.15559318 120:0.19394747 
2 1:18 2:6 3:10 4:9 5:19 6:19 7:7 8:22 9:16 10:26 11:8 12:19 13:15 14:14 15:4 16:11 17:14 18:18 19:1 20:13 21:0.081784387 22:0.078358209 23:0.04494382 24:0.078947368 25:0.045283019 26:0.041666667 27:0.049429658 28:0.053435115 29:0.053639847 30:0.053846154 31:0.053824729 32:-0.082027782 33:-0.028559392 34:0.034077291 35:0.095233673 36:-0.079576522 37:-0.043756125 38:0.058225366 39:-0.0010536057 40:0.088362775 41:0.0050640219 42:-0.07959423 43:-0.0493881 44:0.1198774 45:-0.06926952 46:0.041450094 47:0.047687196 48:0.022800791 49:0.062459947 50:0.10395757 51:-0.032730097 52:-0.084546764 53:-0.031452101 54:0.04174691 55:-0.011261573 56:-0.015792344 57:-0.054240151 58:0.054179635 59:0.026364645 60:-0.02275588 61:0.045752043 62:-0.10266602 63:-0.069533992 64:0.066474026 65:-0.034699272 66:-0.071276154 67:0.040671494 68:0.025995861 69:0.0044402851 70:0.042998669 71:0.034698745 72:0.0021070793 73:0.058667235 74:0.0911856 75:0.010062555 76:-0.057783041 77:0.024961673 78:-0.0054978013 79:-0.12969065 80:-0.043100885 81:0.085760856 82:0.083059065 83:0.065887342 84:0.1164813 85:0.038374228 86:-0.020548192 87:0.017222111 88:0.064030849 89:0.026345413 90:0.025431771 91:0.022222381 92:0.00071066793 93:-0.10330608 94:-0.050657506 95:-0.010301418 96:-0.073684395 97:0.011935029 98:0.015676325 99:0.052033166 100:0.039831797 101:0.044046371 102:0.049803963 103:0.088677065 104:0.11216458 105:0.00198551 106:-0.059728677 107:0.0011615736 108:0.042943315 109:-0.053212054 110:-0.030150252 111:0.056396715 112:0.061214763 113:0.0065040756 114:0.10952016 115:0.04222707 116:0.080761387 117:0.057718021 118:0.10240766 119:0.10706086 120:0.042496511 
0.1256718237526432 1:38 2:13 3:26 4:37 5:24 6:24 7:6 8:35 9:31 10:54 11:6 12:25 13:25 14:15 15:34 16:27 17:31 18:38 19:7 20:22 21:0.05019305 22:0.03868472 23:0.062015504 24:0.06407767 25:0.064202335 26:0.06042885 27:0.052734375 28:0.074363992 29:0.041176471 30:0.053045187 31:-0.02223427 32:-0.11468769 33:0.0048346945 34:0.041659701 35:-0.039168236 36:-0.017643938 37:0.06809447 38:0.025341126 39:-0.10387344 40:0.014044521 41:-0.0014510448 42:-0.1431881 43:0.021444105 44:0.086977947 45:-0.028499935 46:-0.029879211 47:0.057966311 48:0.060941267 49:-0.10743015 50:0.030787092 51:-0.037816558 52:-0.10359516 53:-0.003797033 54:0.087531539 55:0.024470722 56:-0.028919892 57:0.072223082 58:0.03712838 59:-0.093992511 60:0.0076714711 61:0.03079432 62:-0.15518953 63:-0.030408447 64:0.12265865 65:-0.024260054 66:-0.018418048 67:0.092817447 68:0.045021722 69:-0.10623979 70:0.031206552 71:-0.0012935368 72:0.050868217 73:0.032701887 74:-0.13581346 75:-0.026979055 76:-0.029959302 77:-0.025601962 78:-0.019972269 79:-0.091365736 80:0.020984976 81:0.052824987 82:-0.029890101 83:0.064601514 84:0.019938936 85:0.034377753 86:0.058728923 87:0.055276467 88:0.014149988 89:-0.014909505 90:0.029823917 91:0.049646116 92:0.027745941 93:-0.012641637 94:0.062043588 95:0.023099251 96:0.058272682 97:0.079040681 98:0.093795243 99:-0.038382553 100:0.040632396 101:0.061278322 102:-0.078092553 103:0.053858919 104:-0.0093758399 105:-0.013200647 106:0.0043246696 107:-0.0060713659 108:-0.01088376 109:0.012143782 110:-0.017423751 111:-0.027375755 112:-0.019112945 113:0.07453124 114:0.05704981 115:-0.0010265022 116:0.082177632 117:0.050902313 118:0.056655587 119:-0.040630604 120:0.034809261 
1.164305171862613 1:15 2:3 3:14 4:24 5:23 6:18 7:4 8:28 9:18 10:30 11:8 12:12 13:14 14:15 15:19 16:22 17:18 18:15 19:4 20:8 21:0.060897436 22:0.054662379 23:0.090322581 24:0.064724919 25:0.071428571 26:0.052117264 27:0.078431373 28:0.062295082 29:0.046052632 30:0.052805281 31:-0.01332468 32:-0.051884394 33:0.069356064 34:0.090843071 35:0.065324429 36:-0.069804757 37:0.16014291 38:0.034694297 39:-0.043178557 40:-0.037255548 41:0.048983466 42:0.031878578 43:0.0055243415 44:-0.00079821341 45:0.074421256 46:0.014606152 47:0.11963047 48:-0.0050347883 49:0.0032589353 50:-0.0046549966 51:-0.0164108 52:0.015460684 53:0.056873209 54:0.024523884 55:0.034738814 56:-0.041077576 57:0.12957662 58:-0.008765547 59:-0.0019601948 60:0.039165935 61:-0.03775149 62:-0.037073585 63:0.059598563 64:0.04789585 65:0.032607313 66:-0.028965972 67:0.1390541 68:0.014991122 69:-0.055078793 70:-0.032084372 71:0.065112629 72:-0.030773893 73:0.0022870757 74:0.0092358928 75:-0.010487803 76:0.028610463 77:-0.015077342 78:-0.010187602 79:-0.069402051 80:-0.076296409 81:0.060459555 82:0.027383779 83:0.036855961 84:0.04376715 85:0.011689903 86:-0.006430307 87:0.03329172 88:0.012383479 89:0.0081033118 90:0.043379417 91:0.011909364 92:-0.035116567 93:0.15004603 94:0.091644569 95:0.026591962 96:-0.0019815664 97:0.11580644 98:-0.013932601 99:-0.020121416 100:0.049751884 101:0.050287115 102:0.0074973102 103:0.031814407 104:0.019326012 105:0.011419143 106:-0.040133758 107:-0.0062624121 108:-0.023349105 109:-0.038928779 110:-0.0065186683 111:0.043464204 112:0.042476478 113:0.036523905 114:0.022494037 115:0.05575103 116:0.080460194 117:0.048912092 118:0.0045659866 119:0.075679565 120:-0.0077429827 
0.3341132278947203 1:39 2:6 3:21 4:41 5:27 6:40 7:15 8:28 9:19 10:59 11:22 12:18 13:30 14:15 15:43 16:25 17:24 18:42 19:5 20:12 21:0.071563089 22:0.069811321 23:0.073724008 24:0.0625 25:0.072106262 26:0.070342205 27:0.08 28:0.089694656 29:0.089866157 30:0.053639847 31:-0.027719034 32:-0.10294181 33:0.04652541 34:-0.015096294 35:-0.060936887 36:-0.0026846343 37:0.031846216 38:0.014056656 39:0.0093826174 40:-0.091053431 41:-0.069564055 42:0.0030122888 43:0.066901684 44:-0.036625992 45:-0.030632888 46:0.012670345 47:0.10929249 48:-0.09771983 49:0.1057136 50:0.0098041041 51:-0.020792498 52:-0.016498888 53:0.095819284 54:0.0072723933 55:0.019128696 56:0.017682372 57:0.066501291 58:-0.018907602 59:0.038165957 60:-0.034264232 61:-0.041742166 62:-0.035447689 63:0.017994345 64:0.0052192695 65:-0.019512069 66:0.019573983 67:0.069325783 68:0.0076710975 69:0.0018754496 70:-0.074517733 71:0.020137459 72:-0.016450986 73:-0.12436594 74:-0.074197005 75:-0.064190727 76:0.060454877 77:0.056630087 78:0.0052247635 79:-0.032680225 80:-0.048762233 81:0.064529188 82:0.099183813 83:0.056784686 84:0.099093257 85:0.1165219 86:0.060912726 87:0.1409128 88:0.087626106 89:0.036558816 90:0.042771693 91:-0.03700115 92:0.043483558 93:0.011417707 94:0.015772058 95:0.027005422 96:0.072584748 97:0.024004318 98:0.059978183 99:0.02653521 100:-0.021245931 101:0.032739148 102:0.05184964 103:-0.012698157 104:0.076445724 105:0.084189008 106:0.045051699 107:0.088022143 108:0.042060658 109:-0.025235203 110:-0.029782387 111:-0.020616655 112:0.036241303 113:0.090356273 114:0.12000697 115:-0.0020796274 116:0.050016799 117:0.080648607 118:0.090390348 119:0.13729639 120:0.057567085 
2 1:5 2:2 3:7 4:12 5:3 6:4 7:1 8:4 9:7 10:14 11:2 12:6 13:11 14:4 15:8 16:5 17:3 18:8 19:0 20:9 21:0.069565217 22:0.035087719 23:0.03539823 24:0.0625 25:0.11711712 26:0.054545455 27:0.036697248 28:0.074074074 29:0.046728972 30:0.066037736 31:-0.14356454 32:-0.049123761 33:-0.1092907 34:0.040801905 35:0.05196411 36:0.010282613 37:-0.0085509806 38:0.16681972 39:0.032361121 40:-0.13129236 41:-0.10378369 42:-0.034452352 43:0.06598448 44:0.023372569 45:0.050746034 46:-0.024967777 47:-0.023232906 48:0.17136889 49:-0.14237007 50:0.031555906 51:-0.068824749 52:-0.068736504 53:0.10938742 54:0.17353818 55:0.23503656 56:-0.057912843 57:-0.015894733 58:0.24534746 59:0.061603775 60:-0.099966136 61:-0.062342306 62:-0.079319246 63:-0.0051579004 64:0.13216538 65:0.071154544 66:0.043905627 67:-0.016272857 68:0.18182175 69:-0.077633524 70:-0.10042623 71:-0.11061135 72:-0.10862828 73:-0.21683714 74:-0.1630806 75:0.052498562 76:0.048329215 77:-0.029480261 78:-0.19405948 79:-0.12939007 80:0.12667056 81:-0.011362327 82:-0.014700196 83:-0.0054023623 84:-0.0084968178 85:0.066244241 86:0.033497156 87:0.015568104 88:-0.013428863 89:0.015536886 90:0.038540738 91:0.054114536 92:-0.042187561 93:0.10708563 94:0.079606196 95:0.13468822 96:0.14949831 97:0.095374089 98:0.12524852 99:0.039811321 100:-0.046321537 101:0.0012318479 102:-0.10205972 103:-0.017711688 104:-0.13248054 105:0.0099523659 106:0.058063629 107:-0.020965625 108:-0.041850932 109:0.038428363 110:0.059775925 111:0.21459453 112:0.14947999 113:-9.3856319e-05 114:0.016986629 115:0.13714178 116:0.015137436 117:0.23434301 118:-0.006828287 119:0.12548016 120:0.046000169 
0.6468109224957839 1:43 2:7 3:30 4:32 5:33 6:35 7:14 8:23 9:28 10:48 11:21 12:16 13:30 14:15 15:33 16:17 17:37 18:32 19:6 20:18 21:0.069498069 22:0.048355899 23:0.060077519 24:0.06407767 25:0.054474708 26:0.072124756 27:0.068359375 28:0.060665362 29:0.058823529 30:0.043222004 31:-0.054296636 32:-0.074613947 33:-0.087502392 34:0.029436614 35:-0.010436229 36:-0.074502702 37:0.11061571 38:0.078663645 39:0.054782194 40:-0.07889861 41:0.0043878311 42:-0.025136397 43:-0.016058085 44:0.051048111 45:0.002927481 46:0.024416813 47:0.045462729 48:0.057841083 49:0.018037469 50:-0.019978883 51:0.010011305 52:-0.029521793 53:-0.0084300007 54:0.024318007 55:0.028425007 56:0.054050841 57:0.08925876 58:0.058563642 59:0.052995246 60:-0.054984716 61:-0.011216593 62:-0.063656323 63:-0.088088655 64:0.04907944 65:-0.0069529047 66:-0.037265514 67:0.098035686 68:0.11115567 69:0.048556735 70:-0.067502113 71:0.005489066 72:0.0283425 73:0.049353752 74:-0.023525786 75:-0.030673151 76:-0.017039936 77:-0.063217773 78:-0.016633218 79:0.0017886892 80:-0.06085279 81:0.076247358 82:-0.031527316 83:-0.0056110828 84:0.027835027 85:0.019213445 86:0.021422197 87:0.12328977 88:0.1129459 89:0.08048943 90:-0.0017983414 91:0.012716723 92:-0.020729278 93:0.031830213 94:0.041383985 95:0.064140345 96:0.034181824 97:0.083132132 98:0.067765418 99:-0.0088444345 100:-0.043265314 101:0.035765934 102:-0.083469288 103:-0.066090839 104:-0.018950394 105:-0.0012218811 106:0.0042449821 107:0.077904861 108:0.066612754 109:0.043632264 110:-0.070519132 111:0.087978828 112:-0.0065267885 113:-0.00037153116 114:0.00013338567 115:0.031591206 116:0.050477108 117:0.0047427047 118:-0.04404479 119:0.078606025 120:-0.043507524 
1.088394846683824 1:38 2:1 3:25 4:42 5:32 6:30 7:7 8:31 9:44 10:50 11:9 12:26 13:23 14:19 15:18 16:32 17:29 18:42 19:2 20:16 21:0.05620155 22:0.066019417 23:0.070038911 24:0.074074074 25:0.083984375 26:0.048923679 27:0.082352941 28:0.076620825 29:0.047244094 30:0.071005917 31:-0.054688225 32:-0.032596918 33:0.033521355 34:0.06874296 35:0.027849268 36:-0.050663345 37:0.037436899 38:0.035195253 39:-0.085523819 40:0.010581573 41:-0.015939625 42:-0.08161267 43:0.076082427 44:0.074757955 45:0.081980414 46:-0.051000784 47:0.09620236 48:0.011821056 49:-0.10342035 50:0.060638631 51:0.025191487 52:-0.029183962 53:0.04682594 54:0.11734724 55:0.1251594 56:-0.023620886 57:0.10071749 58:0.061543836 59:-0.029251006 60:0.075877096 61:0.0015969955 62:-0.046458319 63:0.068270587 64:0.071809561 65:0.091486969 66:-0.028378212 67:0.054676914 68:0.061138811 69:-0.094301789 70:0.039251074 71:-0.025995272 72:-0.054272604 73:-0.046181443 74:0.026245982 75:0.06546437 76:-0.04852536 77:0.011600749 78:-0.043917238 79:-0.0039076106 80:-0.00067740402 81:0.08710476 82:0.10049138 83:0.094906815 84:0.10677045 85:0.1084044 86:0.050495752 87:0.13196756 88:0.10195883 89:0.09366698 90:0.080916466 91:0.028167835 92:-0.012692385 93:0.073176321 94:0.054657029 95:0.09799639 96:-0.023435928 97:0.054888072 98:0.0046617877 99:0.0028818467 100:0.04423888 101:0.016544839 102:0.040599099 103:0.019977425 104:0.030527042 105:0.030465492 106:-0.036519598 107:0.07683234 108:0.056459382 109:0.030393255 110:0.024142168 111:-0.024153066 112:0.048633381 113:0.054687531 114:0.073760739 115:0.10923781 116:0.12375983 117:0.017346387 118:0.0041433535 119:0.11183469 120:0.022048865 
0.277173398223161 1:12 2:16 3:30 4:32 5:36 6:29 7:10 8:29 9:29 10:44 11:17 12:20 13:20 14:14 15:31 16:28 17:26 18:31 19:2 20:20 21:0.06092437 22:0.052631579 23:0.040084388 24:0.063424947 25:0.065677966 26:0.061571125 27:0.070212766 28:0.068230277 29:0.032051282 30:0.062098501 31:0.015473298 32:-0.04454448 33:-0.034205168 34:0.040365541 35:0.033993526 36:0.017214388 37:0.042321057 38:0.071137627 39:-0.085152947 40:-0.066919091 41:-0.0060802324 42:-0.050034846 43:-0.026672222 44:0.070134169 45:0.077023538 46:-0.010620279 47:0.045178129 48:0.05614182 49:-0.091113998 50:-0.027208973 51:0.013865821 52:0.0089038622 53:0.010355034 54:0.048651235 55:0.12350861 56:0.059599654 57:0.09050066 58:0.054938244 59:-0.043036279 60:-0.030591441 61:0.01127267 62:-0.044121482 63:-0.020307161 64:0.091843342 65:0.038938985 66:0.0073584162 67:0.11811842 68:0.047824645 69:-0.07002075 70:-0.026904652 71:-0.011755887 72:0.020981427 73:-0.013118345 74:-0.069343321 75:0.069609356 76:-0.076317768 77:0.046142732 78:-0.0064502451 79:-0.020035163 80:0.021563564 81:0.044128847 82:0.076185186 83:-0.0098037248 84:0.069893065 85:0.033437526 86:-0.022860127 87:0.026667028 88:0.033501911 89:-0.0037288329 90:0.0090670123 91:0.055012129 92:-0.019564329 93:0.017688062 94:0.089446489 95:0.091620639 96:0.040079758 97:0.066363108 98:0.048319159 99:-0.056914506 100:-0.041459754 101:0.033159357 102:0.061793602 103:0.0067835766 104:0.020391854 105:0.034170192 106:-0.0043031869 107:-0.00026591637 108:0.04118872 109:-0.073914 110:-0.042305982 111:-0.055862061 112:-0.08231101 113:-0.050904894 114:-0.083859585 115:0.021090651 116:-0.07013724 117:0.13386404 118:0.035063428 119:-0.095300982 120:0.058411968 
0.1209823540988027 1:16 2:5 3:26 4:29 5:47 6:28 7:7 8:34 9:44 10:53 11:7 12:24 13:30 14:14 15:19 16:35 17:27 18:33 19:4 20:21 21:0.03777336 22:0.053784861 23:0.083832335 24:0.088 25:0.074148297 26:0.058232932 27:0.07444668 28:0.060483871 29:0.062626263 30:0.068825911 31:-0.069061567 32:-0.021364294 33:-0.024709972 34:0.054954145 35:0.046202863 36:-0.031412659 37:0.064088026 38:0.032567587 39:0.030314981 40:-0.088100443 41:-0.025870426 42:-0.036741696 43:0.022029539 44:0.086546399 45:0.10702286 46:-0.078258383 47:0.030942992 48:0.059792037 49:-0.01103752 50:-0.14830832 51:-0.025136922 52:-0.034981599 53:0.042364384 54:0.068682949 55:0.086004299 56:-0.048478513 57:0.040464354 58:0.05957644 59:-0.0059820217 60:-0.12186656 61:-0.055919314 62:-0.052849257 63:-0.0044161855 64:0.09049487 65:0.072867453 66:-0.099302435 67:0.018833764 68:0.024985929 69:-0.014492596 70:-0.11380414 71:-0.016494742 72:0.026204063 73:0.0069043562 74:-0.037715244 75:0.029283505 76:-0.0034150465 77:-0.012778099 78:0.010257725 79:-0.092349679 80:0.042488508 81:0.053778684 82:0.017287157 83:0.012271818 84:0.026293928 85:0.092770004 86:0.011516634 87:0.06025989 88:-0.01466767 89:0.031343279 90:0.039515611 91:-0.0030582573 92:0.010331627 93:0.0071510474 94:0.045287906 95:0.038436382 96:0.0016371915 97:0.046781521 98:-0.030840359 99:0.013860362 100:-0.015995783 101:-0.017927915 102:-0.026341421 103:-0.047165805 104:-0.053249027 105:0.04607683 106:0.022048066 107:0.010191481 108:-0.028970276 109:-4.9460001e-05 110:0.0048161876 111:0.0058082438 112:-0.013349479 113:0.026567022 114:0.0057385312 115:0.062793975 116:0.047272192 117:0.070528873 118:-0.046529732 119:-0.049464718 120:0.10016973 
0.09241569683976804 1:23 2:7 3:27 4:21 5:28 6:27 7:12 8:34 9:31 10:59 11:20 12:34 13:23 14:18 15:25 16:33 17:32 18:31 19:8 20:15 21:0.05511811 22:0.061143984 23:0.055335968 24:0.081188119 25:0.055555556 26:0.059642147 27:0.055776892 28:0.0499002 29:0.062 30:0.052104208 31:-0.02834586 32:-0.002940849 33:0.061025079 34:0.043358241 35:-0.047920719 36:-0.016625713 37:-0.020868579 38:-0.0069320092 39:-0.0048400663 40:-0.018379122 41:0.085787916 42:0.012604302 43:0.057628898 44:0.019349701 45:-0.095871056 46:-0.034464481 47:-0.055409227 48:-0.02808276 49:-0.041839195 50:-0.0061003189 51:0.060091744 52:-0.023674717 53:0.063779239 54:-0.00069906047 55:-0.077731204 56:-0.025906456 57:-0.015917912 58:0.0058271399 59:-0.027169548 60:-0.021585908 61:0.021994076 62:-0.042235144 63:0.077330186 64:0.042484041 65:-0.10109573 66:-0.043329634 67:-0.0069372779 68:-0.0040973081 69:-0.0085833607 70:-0.0039061544 71:-0.00091686803 72:0.12123181 73:-0.002346415 74:0.072728489 75:-0.027901495 76:-0.044819001 77:-0.0063056093 78:0.034874135 79:-0.037167428 80:0.00086661053 81:0.069916878 82:0.028415679 83:0.093351551 84:0.060745012 85:0.058631645 86:0.0049248853 87:0.051498304 88:0.031205505 89:0.017383467 90:0.037071317 91:0.039736028 92:-0.045508968 93:0.11800154 94:0.036413579 95:-0.016104399 96:0.018402127 97:0.01440302 98:-0.012821913 99:-0.044264344 100:-0.04494182 101:0.031762108 102:0.028731378 103:0.065871936 104:0.030877402 105:0.039682015 106:-0.064914271 107:0.0093024068 108:-0.0023926597 109:-0.029296921 110:0.031277445 111:-0.043266745 112:0.064687187 113:-0.010125637 114:0.067363647 115:0.034030374 116:-0.008221916 117:-0.0045319725 118:0.017885512 119:0.1136093 120:0.069171919 
0.3485049460780916 1:22 2:9 3:21 4:29 5:38 6:20 7:13 8:32 9:33 10:36 11:11 12:22 13:22 14:19 15:23 16:21 17:21 18:25 19:4 20:21 21:0.061085973 22:0.063492063 23:0.052272727 24:0.063781321 25:0.066210046 26:0.050343249 27:0.055045872 28:0.048275862 29:0.059907834 30:0.057736721 31:-0.0082560841 32:0.012268864 33:0.016027825 34:0.030605928 35:0.010732778 36:-0.11546612 37:0.064642147 38:0.0011998884 39:-0.066012958 40:-0.052234939 41:0.022774003 42:-0.0068161534 43:0.025535461 44:0.12513287 45:0.022572304 46:-0.059697914 47:0.066439296 48:0.047758783 49:-0.070649534 50:-0.086094673 51:0.0066112192 52:-0.034234727 53:0.061588794 54:0.076127588 55:-0.01462258 56:-0.10321952 57:0.069163709 58:0.043852422 59:-0.086863747 60:-0.066183512 61:-0.012864471 62:-0.011844157 63:0.019528664 64:0.082074669 65:-0.025476878 66:-0.11027856 67:0.073403404 68:0.050347207 69:-0.076409783 70:-0.098090679 71:0.024534711 72:-0.025055285 73:-0.060323794 74:0.019912652 75:0.05502321 76:-0.032641362 77:-0.018341762 78:0.0012072265 79:0.0055422635 80:0.0054969739 81:-0.011080848 82:2.9569787e-05 83:-0.023718775 84:-0.035119321 85:0.083582472 86:-0.021140265 87:-0.022402297 88:-0.038948377 89:0.0051087625 90:0.058747564 91:-0.036121459 92:-0.030233114 93:0.018085089 94:0.017735924 95:0.017621947 96:0.017740153 97:0.064472895 98:0.016684103 99:-0.038254522 100:-0.0031277365 101:-0.027924734 102:-0.0057823172 103:-0.010608222 104:-0.055300015 105:0.068734046 106:-0.013977133 107:-0.0063367905 108:-0.057899474 109:-0.01216964 110:0.028358118 111:0.062835204 112:0.020141207 113:0.0043812251 114:0.011898066 115:0.068769111 116:-0.033697634 117:-0.023197972 118:-0.1242249 119:-0.039249091 120:0.024532532 
2 1:6 2:5 3:12 4:14 5:6 6:8 7:10 8:16 9:9 10:22 11:8 12:7 13:15 14:14 15:11 16:18 17:11 18:15 19:0 20:7 21:0.074766355 22:0.042253521 23:0.089622642 24:0.066350711 25:0.057142857 26:0.081339713 27:0.043269231 28:0.06763285 29:0.033980583 30:0.063414634 31:-0.10401776 32:0.05289365 33:-0.0051829235 34:0.029881574 35:-0.0034413387 36:-0.068485219 37:-0.048156324 38:0.036022578 39:0.061868026 40:-0.14906679 41:-0.019471508 42:-0.01233183 43:0.1459308 44:0.011085575 45:-0.027224462 46:-0.050529316 47:-0.13195116 48:0.1583869 49:-0.072706428 50:-0.080875835 51:-0.035751407 52:-0.051496899 53:0.13544619 54:-0.0083450089 55:0.020654079 56:-0.00045003273 57:-0.14577929 58:0.12184164 59:-0.041113301 60:-0.06297137 61:-0.090276823 62:0.0050655874 63:0.042615133 64:0.043576721 65:-0.042339859 66:-0.073180952 67:-0.10995562 68:0.15813245 69:-0.02497432 70:-0.055164921 71:-0.036632794 72:-0.040225904 73:0.0019898505 74:-0.037867778 75:0.048107656 76:-0.019720565 77:-0.065931579 78:-0.0050665698 79:0.0037332049 80:0.028168882 81:0.038113403 82:0.0080826593 83:0.038089016 84:0.10544033 85:0.037600902 86:0.020118142 87:0.068706505 88:-0.010051222 89:0.016000324 90:0.040401909 91:0.084208075 92:0.074891451 93:0.082273385 94:0.00967673 95:0.041225062 96:-0.013342892 97:-0.0550487 98:0.0079957595 99:-0.059310753 100:0.050037835 101:0.005299394 102:-0.0095926587 103:0.058571375 104:0.018464156 105:-0.02791805 106:0.051608732 107:0.062466965 108:-0.051745275 109:0.036826973 110:-0.041822948 111:0.14176936 112:0.073030343 113:0.074372824 114:-0.047781334 115:0.058112967 116:-0.015820923 117:0.099005868 118:0.075757217 119:-0.051417087 120:0.0068242559 
1.054574518576389 1:36 2:7 3:22 4:18 5:20 6:39 7:18 8:37 9:20 10:39 11:17 12:17 13:44 14:13 15:30 16:45 17:29 18:40 19:6 20:23 21:0.084615385 22:0.094412331 23:0.092664093 24:0.10058027 25:0.067829457 26:0.10485437 27:0.073929961 28:0.068226121 29:0.0703125 30:0.054794521 31:-0.040181565 32:0.097832145 33:0.04178756 34:0.027661579 35:0.033550548 36:0.085290707 37:0.062217613 38:0.0087390427 39:0.058545004 40:0.012474905 41:-0.0068291097 42:0.080777843 43:0.052899271 44:0.030326303 45:0.058922347 46:0.12429337 47:0.062402809 48:-0.058434951 49:0.019067335 50:-0.02397708 51:-0.00058530209 52:0.033841115 53:-0.031756867 54:0.02903797 55:0.074895999 56:0.033549272 57:0.043134925 58:-0.0084187785 59:0.0047054794 60:-0.010958132 61:-0.04912028 62:0.092362707 63:-2.0622517e-05 64:0.069935582 65:0.052487565 66:0.069788443 67:0.040962781 68:0.033017533 69:0.013348094 70:0.011831671 71:0.0364585 72:0.044867993 73:0.017430512 74:0.0024015784 75:0.04987885 76:0.018320117 77:0.063347035 78:-0.042668698 79:0.022914899 80:-0.068902595 81:0.15488354 82:0.18759778 83:0.18820139 84:0.14199756 85:0.1739788 86:0.17731407 87:0.099449183 88:0.11725415 89:0.16225994 90:0.10896201 91:0.043972828 92:0.078981031 93:-0.032616076 94:0.16489226 95:0.12501158 96:0.10876031 97:0.031218776 98:0.025399795 99:0.082713334 100:1.9930495e-05 101:0.1059144 102:0.17129706 103:0.11828553 104:0.064517815 105:0.10393334 106:0.099383464 107:0.027941693 108:0.070150587 109:0.10578417 110:0.060478877 111:0.028553943 112:0.055948519 113:0.055604182 114:0.069506961 115:0.056959499 116:0.097186585 117:0.010064681 118:0.032189627 119:-0.014649311 120:0.016176379 
0.0425366913588885 1:18 2:9 3:25 4:34 5:28 6:30 7:10 8:34 9:43 10:54 11:15 12:30 13:22 14:16 15:23 16:19 17:40 18:26 19:5 20:26 21:0.057199211 22:0.059288538 23:0.061386139 24:0.055555556 25:0.095427435 26:0.043824701 27:0.071856287 28:0.076 29:0.06012024 30:0.0562249 31:-0.050359526 32:-0.010189611 33:-0.046234908 34:0.0034813933 35:0.033538401 36:-0.088294596 37:0.080327528 38:0.10315009 39:0.014762795 40:-0.051524809 41:0.030828048 42:0.020707441 43:0.030799337 44:0.067324786 45:0.063363126 46:-0.00086306328 47:0.073819485 48:0.034610531 49:0.02207775 50:-0.078686584 51:0.03111117 52:-0.012937662 53:0.037887885 54:-0.026285136 55:0.014722183 56:-0.0078960981 57:0.088344656 58:0.057116116 59:0.057013616 60:-0.098427334 61:-0.044699791 62:0.0064966568 63:0.011637006 64:0.047117015 65:0.0096922962 66:-0.073455999 67:0.081533979 68:0.065030173 69:0.025804622 70:-0.11277174 71:-0.02000258 72:-0.0029037696 73:-0.036706065 74:-0.056285388 75:0.014507985 76:0.052507461 77:-0.059408259 78:0.072165987 79:-0.002996176 80:-0.015979733 81:0.016621888 82:0.034420058 83:-0.031387447 84:-0.031321652 85:0.13377335 86:0.0031073815 87:0.048304383 88:0.010748569 89:-0.0031816352 90:0.017055677 91:0.0056129964 92:0.034510757 93:0.038970768 94:0.011805716 95:0.05148499 96:-0.034964239 97:0.054472116 98:0.025718468 99:0.0078837301 100:-0.024183654 101:0.0010735237 102:0.01880492 103:-0.012572691 104:-0.095092007 105:0.11117415 106:-0.014971928 107:0.022148509 108:0.01473149 109:-0.042057639 110:0.0030394343 111:0.034485185 112:0.018268234 113:-0.049494321 114:-0.044491159 115:0.18180987 116:-0.010719508 117:0.13793725 118:0.054185323 119:0.040912091 120:-0.027681264 
1.296391744203643 1:24 2:4 3:23 4:25 5:20 6:22 7:10 8:19 9:29 10:43 11:11 12:16 13:12 14:15 15:20 16:24 17:22 18:41 19:6 20:15 21:0.052369077 22:0.0575 23:0.055137845 24:0.072864322 25:0.065491184 26:0.060606061 27:0.055696203 28:0.063451777 29:0.071246819 30:0.053571429 31:0.084297312 32:-0.063759372 33:-0.021929078 34:0.044679008 35:-0.014572736 36:-0.030164722 37:0.056643214 38:0.05244141 39:-0.029904977 40:-0.038555328 41:0.086206217 42:-0.098318811 43:0.062113163 44:0.11849496 45:-0.044530383 46:-0.058844547 47:0.080073122 48:0.0015111378 49:0.0080576427 50:-0.019854824 51:0.044950138 52:-0.1053189 53:0.091537069 54:0.17257256 55:0.00090175146 56:-0.054060728 57:0.02886911 58:0.053308971 59:-0.014220214 60:-0.0068389139 61:0.067867222 62:-0.11841565 63:0.021950174 64:0.11771573 65:3.5792489e-05 66:-0.050235235 67:0.058849996 68:0.025719214 69:-0.01525895 70:-0.033429273 71:-0.032949975 72:0.047773085 73:0.046919537 74:-0.048684386 75:0.049317769 76:-0.013731708 77:-0.046936412 78:0.0029263669 79:0.13129162 80:-0.091271562 81:0.089906362 82:0.045696768 83:0.010254134 84:0.048067311 85:0.071057972 86:0.0073329456 87:0.10522862 88:0.066136743 89:0.088902954 90:-0.039550742 91:0.04570368 92:-0.070446206 93:0.08430658 94:-0.026654415 95:-0.012321806 96:0.001610064 97:-0.019276938 98:-0.0081000646 99:-0.028266386 100:-0.02695466 101:0.034846714 102:0.037120068 103:-0.031336792 104:-0.017018678 105:0.045797329 106:-0.061280077 107:0.073454739 108:0.038633429 109:0.059316455 110:-0.07127025 111:0.055487863 112:0.010730728 113:-0.0074718462 114:0.045602148 115:0.0082953213 116:0.14615393 117:0.088988689 118:0.062976054 119:0.020475409 120:-0.01397382 
0.8863793430682658 1:43 2:13 3:43 4:57 5:25 6:42 7:18 8:38 9:56 10:68 11:18 12:29 13:34 14:25 15:30 16:42 17:45 18:39 19:9 20:28 21:0.072649573 22:0.075606277 23:0.054285714 24:0.070100143 25:0.050143266 26:0.06312769 27:0.064655172 28:0.047482014 29:0.067723343 30:0.053391053 31:0.0095540905 32:-0.0072005876 33:0.036138918 34:-0.052063812 35:-0.053536329 36:-0.12269459 37:0.032433738 38:-0.037180144 39:-0.038162842 40:-0.034568168 41:0.034771718 42:0.023930328 43:-0.040863224 44:0.016413816 45:0.00057050383 46:-0.088316268 47:0.00013671969 48:0.022531975 49:-0.039285174 50:-0.098466409 51:0.092890679 52:0.023926094 53:0.029591869 54:0.033024092 55:0.036439501 56:-0.068004502 57:0.020857565 58:0.013415534 59:-0.016607398 60:-0.060009092 61:0.072197304 62:0.023099429 63:0.034374268 64:0.020727041 65:-0.025363434 66:-0.098213765 67:0.02449529 68:-0.010509719 69:-0.021880177 70:-0.050749696 71:0.044701717 72:0.041020025 73:-0.029870678 74:0.00026759955 75:-0.0013630434 76:0.011635666 77:-0.017522194 78:-0.019471071 79:-0.0089050704 80:-0.00048139619 81:0.077154225 82:0.079670465 83:0.054678487 84:0.031842025 85:0.0051469276 86:0.052913653 87:0.048544265 88:0.033906937 89:0.017958534 90:0.055352113 91:0.039543638 92:0.043431682 93:0.029363983 94:0.0033925787 95:-0.017759271 96:-0.05827916 97:0.00026563287 98:0.0071997365 99:0.017105932 100:0.033640291 101:0.051192557 102:0.049209466 103:0.0033287693 104:-0.018626744 105:-0.037847106 106:-0.0032780106 107:0.039573608 108:-0.012605353 109:-0.040988351 110:0.03404079 111:0.031306624 112:0.055715606 113:-0.034429104 114:0.03488888 115:0.054418666 116:-0.030839586 117:0.010305308 118:0.052791854 119:0.090061996 120:-0.048254287 
1.973659031786706 1:6 2:1 3:9 4:12 5:16 6:10 7:5 8:10 9:13 10:22 11:8 12:7 13:8 14:6 15:12 16:20 17:13 18:12 19:2 20:7 21:0.08040201 22:0.050505051 23:0.081218274 24:0.076530612 25:0.071794872 26:0.056701031 27:0.088082902 28:0.088541667 29:0.068062827 30:0.042105263 31:0.081238545 32:-0.10982868 33:0.12161326 34:0.086738298 35:-0.002535093 36:0.032516503 37:0.16653749 38:0.19739267 39:0.031107186 40:-0.089814774 41:0.087015308 42:-0.06046693 43:0.023330873 44:-0.036682023 45:0.023521378 46:-0.0068098956 47:0.16694209 48:0.089622605 49:0.088898479 50:-0.090841393 51:0.019011572 52:-0.097920906 53:0.062434267 54:0.0079630755 55:0.029655124 56:-0.012253316 57:0.16151666 58:0.11424894 59:0.030508271 60:-0.089651999 61:0.031170281 62:-0.15704954 63:0.086279896 64:0.098181928 65:-0.049617622 66:-0.042441071 67:0.18564754 68:0.13164447 69:-0.028504526 70:-0.066133351 71:-0.085264229 72:0.14129673 73:-0.035248292 74:-0.19585595 75:0.083206004 76:0.081665841 77:-0.041347719 78:0.085480376 79:0.010660416 80:0.066281792 81:0.052077843 82:0.0051831102 83:0.083974223 84:0.10666473 85:-0.020596908 86:0.11472491 87:0.047145397 88:0.04488263 89:0.018158938 90:0.064693603 91:0.0039913853 92:-0.10759395 93:0.00020666733 94:0.064763874 95:-0.057082541 96:-0.0249683 97:0.068996532 98:0.095093595 99:-0.15508394 100:-0.059339333 101:0.015192 102:-0.040032653 103:0.066051943 104:0.086347613 105:-0.026923639 106:0.10665195 107:-0.0078023862 108:0.030123101 109:-0.014892062 110:0.030388474 111:-0.10206964 112:-0.060567846 113:-0.024327436 114:-0.058831906 115:0.049968957 116:0.0011502253 117:-0.026130975 118:-0.041325469 119:0.075563954 120:-0.13249186 
2 1:30 2:6 3:21 4:28 5:12 6:28 7:9 8:27 9:19 10:28 11:16 12:10 13:19 14:12 15:18 16:25 17:25 18:23 19:4 20:16 21:0.058510638 22:0.061333333 23:0.045454545 24:0.061662198 25:0.040322581 26:0.067385445 27:0.07027027 28:0.054200542 29:0.035326087 30:0.079019074 31:-0.0090981246 32:-0.098887902 33:-0.069749922 34:-0.020647929 35:0.0071778723 36:-0.050833969 37:-0.0015935552 38:-0.028722865 39:-0.053667939 40:0.051588274 41:0.06568961 42:-0.033050767 43:-0.10702834 44:0.027968881 45:-0.058705076 46:-0.13243296 47:-0.033650859 48:-0.043809144 49:-0.032198125 50:0.051848302 51:0.085734461 52:-0.012165177 53:-0.099001023 54:0.052148504 55:-0.035918399 56:-0.074588005 57:-0.02899209 58:-0.027787884 59:-0.019258267 60:0.051892315 61:0.0030463143 62:-0.046065454 63:-0.1263433 64:0.049246233 65:-0.022983498 66:-0.11812764 67:-0.01139235 68:0.031912257 69:0.0055527072 70:0.037636077 71:-0.062117876 72:0.042943363 73:0.03114858 74:-0.12284776 75:-0.029123603 76:0.0025805225 77:0.00018833749 78:0.0089313963 79:-0.00054489264 80:-0.0018659733 81:0.13699352 82:0.081324957 83:0.1288107 84:0.14426328 85:0.064460395 86:0.11283159 87:0.086146069 88:0.092172521 89:0.072816026 90:0.13832513 91:0.058784463 92:-0.025202238 93:-0.03214843 94:0.099334347 95:0.036807818 96:-0.03825741 97:-0.013953527 98:0.040940134 99:0.12197896 100:0.085709143 101:0.048689893 102:0.037166318 103:0.10199972 104:0.093051219 105:0.010160069 106:0.10247142 107:0.021675972 108:0.085679159 109:-0.017548458 110:0.11131322 111:-0.026650256 112:0.050191998 113:0.027340051 114:-0.024647593 115:-0.0055521139 116:-0.031860584 117:0.078651318 118:-0.00029545483 119:-0.017126066 120:0.027531715 
1.859673569865633 1:30 2:5 3:22 4:35 5:21 6:17 7:11 8:28 9:30 10:44 11:13 12:16 13:16 14:13 15:20 16:35 17:25 18:31 19:5 20:16 21:0.066974596 22:0.048611111 23:0.064965197 24:0.053488372 25:0.06993007 26:0.063084112 27:0.051522248 28:0.072769953 29:0.068235294 30:0.054245283 31:0.057682238 32:-0.018708748 33:0.077128458 34:-0.010858463 35:-0.048144879 36:0.053920452 37:-0.042526998 38:0.0029249206 39:0.013739899 40:-0.042870398 41:0.020115732 42:-0.035349608 43:0.049219264 44:0.099910296 45:0.0080154101 46:0.057812759 47:0.0079584445 48:-0.034455305 49:0.072708527 50:0.030617768 51:0.03607809 52:-0.063909159 53:0.077500568 54:0.098613874 55:0.023658918 56:0.028271458 57:-0.0098352642 58:-0.016100905 59:0.038067027 60:0.039264478 61:0.0030305285 62:-0.070199395 63:0.039096257 64:0.057945618 65:0.00093586527 66:0.050347176 67:-0.017969326 68:-0.0020700906 69:0.072304727 70:-0.028364803 71:-0.02934408 72:-0.042667441 73:-0.01890633 74:-0.026747243 75:0.10390039 76:0.027776694 77:0.038225035 78:0.0038075363 79:-0.021182944 80:0.0095596789 81:0.071728657 82:0.049231506 83:0.034473605 84:0.015855473 85:0.074437361 86:0.049789972 87:0.071212164 88:0.066027558 89:0.0066659825 90:-0.0085939732 91:0.024191009 92:0.02784005 93:-0.010928434 94:0.041975931 95:0.042655643 96:0.046601734 97:0.028268327 98:0.008962701 99:-0.037032528 100:-0.058967559 101:0.060809795 102:0.027492546 103:-0.0010601997 104:-0.05107972 105:0.043822378 106:0.0057127702 107:-0.0013022931 108:0.035210373 109:-0.043260717 110:-0.057344168 111:0.10052644 112:0.015132005 113:0.012770305 114:0.024371073 115:-0.010635685 116:-0.030112498 117:0.10562082 118:0.089596761 119:0.072503263 120:-0.036785458 
2 1:13 2:3 3:11 4:12 5:13 6:16 7:5 8:16 9:7 10:19 11:6 12:10 13:12 14:6 15:17 16:27 17:15 18:21 19:4 20:10 21:0.053497942 22:0.074380165 23:0.049792531 24:0.075 25:0.050209205 26:0.067226891 27:0.054852321 28:0.076271186 29:0.068085106 30:0.034188034 31:-0.20040797 32:0.10518538 33:-0.067692717 34:0.024137998 35:0.02032524 36:-0.0650719 37:0.045887286 38:-0.036811953 39:0.088549066 40:-0.027105861 41:-0.098561531 42:0.081734139 43:-0.043201952 44:-0.036934023 45:-0.045941022 46:0.062930987 47:0.029851579 48:-0.072905952 49:-0.0035218455 50:-0.058275916 51:-0.084962737 52:0.031319334 53:-0.14377042 54:0.012094666 55:-0.0099965574 56:-0.061304636 57:0.051494821 58:-0.02808729 59:0.02753675 60:-0.04927141 61:-0.20655405 62:0.12993386 63:-0.13427247 64:0.016114588 65:0.008276772 66:-0.013319724 67:0.013756068 68:0.010475569 69:0.064554213 70:-0.04472972 71:0.063224728 72:0.038117518 73:0.036414117 74:-0.07795745 75:-0.0078575506 76:0.017468185 77:0.041177073 78:-0.083985327 79:0.0019280977 80:-0.027856726 81:0.12206883 82:0.18578609 83:0.15785321 84:0.11265324 85:0.22273223 86:0.078930713 87:0.12593449 88:0.050509897 89:0.13138027 90:0.095967193 91:0.0019815936 92:0.10744123 93:-0.096693006 94:0.072618065 95:0.095424178 96:0.088375055 97:0.0057795047 98:-0.008300325 99:0.1598903 100:0.010693511 101:0.10563132 102:0.17923091 103:0.10726888 104:0.075357208 105:0.17494451 106:0.016824785 107:0.062347627 108:0.011916317 109:0.081883994 110:0.04327679 111:0.0046229307 112:0.096312102 113:-0.043766777 114:0.038009298 115:0.03852293 116:0.0094369328 117:0.0030156492 118:0.12001142 119:-0.0048880014 120:-0.11077468 
0.9403578074162667 1:25 2:12 3:31 4:47 5:26 6:41 7:12 8:50 9:45 10:68 11:12 12:20 13:25 14:15 15:34 16:35 17:21 18:42 19:6 20:22 21:0.062818336 22:0.06122449 23:0.071550256 24:0.07337884 25:0.1042735 26:0.092465753 27:0.065180103 28:0.067010309 29:0.046471601 30:0.10172414 31:0.026434767 32:-0.020065119 33:0.020766975 34:-0.012255273 35:-0.026130029 36:0.029077315 37:-0.02041053 38:-0.01960191 39:-0.024370042 40:0.061827154 41:0.04695763 42:-0.02175269 43:-0.0044481878 44:0.0039999532 45:0.012563225 46:0.15708532 47:-0.056851716 48:-0.062189924 49:-0.096140257 50:0.022811319 51:0.082349204 52:-0.035808538 53:0.040749067 54:0.071125012 55:0.025494553 56:0.14959225 57:0.04542759 58:-0.0031279063 59:-0.05778228 60:0.049966852 61:0.012700327 62:-0.070466582 63:0.041167512 64:-0.010561392 65:-0.044247389 66:0.098824295 67:0.0059018496 68:0.0037207069 69:-0.074548972 70:-0.0074555143 71:-0.065706862 72:0.044986802 73:-0.01516308 74:-0.014129014 75:0.11483042 76:0.087944506 77:0.018357607 78:0.0037206067 79:-0.11511369 80:0.084400987 81:0.075899228 82:-0.013559282 83:0.013829471 84:-0.016022024 85:0.084464951 86:0.049062186 87:0.04561155 88:0.052174919 89:-0.045946025 90:0.078799602 91:0.025743011 92:0.010517027 93:0.024137325 94:0.030307211 95:0.034919165 96:0.095612107 97:0.062227563 98:0.073959243 99:-0.016641399 100:0.010173768 101:0.023094003 102:-0.041860334 103:-0.041634944 104:-0.084174948 105:0.10628669 106:0.004964479 107:0.028945958 108:0.031217495 109:-0.09114187 110:0.054106493 111:0.037476719 112:0.087203874 113:0.06081101 114:0.10373282 115:0.15959781 116:0.13841505 117:0.11263962 118:0.10222893 119:0.075198919 120:0.15244667 
0.4754625790395095 1:31 2:8 3:25 4:36 5:33 6:35 7:17 8:30 9:36 10:49 11:11 12:31 13:24 14:20 15:31 16:39 17:30 18:39 19:6 20:24 21:0.057657658 22:0.063176895 23:0.065099458 24:0.083333333 25:0.061705989 26:0.058181818 27:0.061930783 28:0.078467153 29:0.053016453 30:0.043956044 31:0.026033693 32:-0.0056026664 33:-0.037727549 34:0.053566282 35:-0.00091207319 36:-0.015752283 37:0.070026784 38:0.11108017 39:0.018589978 40:-0.10044375 41:0.082912025 42:-0.016263299 43:0.026800969 44:0.024316076 45:-0.0030534481 46:0.0080774684 47:0.036033047 48:0.073224103 49:0.015991227 50:-0.068979113 51:0.062337755 52:-0.011816555 53:0.049764514 54:-0.018793127 55:0.010270858 56:-0.0013445414 57:0.083149941 58:0.079566182 59:0.028173665 60:-0.079766507 61:0.055271094 62:-0.03742211 63:0.022464672 64:0.071974443 65:-0.043785967 66:-0.0088761065 67:0.11278429 68:0.077342926 69:0.010909217 70:-0.039080068 71:-0.0085664679 72:-0.013930534 73:0.0047729419 74:-0.073454276 75:0.0049852356 76:0.059811647 77:0.016670102 78:0.084299805 79:0.0078165929 80:-0.022807646 81:0.062543184 82:0.029809203 83:0.0065680414 84:0.093019745 85:0.068640895 86:0.066010863 87:0.045677971 88:0.049205844 89:0.017139511 90:0.098316617 91:0.054646271 92:0.01346987 93:0.047200974 94:0.047739359 95:-0.035979977 96:0.011117841 97:0.069349745 98:0.067428662 99:0.017228606 100:0.012451734 101:0.032753402 102:-0.0061083305 103:-0.022528787 104:0.059474888 105:0.054416155 106:0.06443874 107:0.024139187 108:0.042283239 109:-0.04726988 110:0.024936973 111:0.045539648 112:0.012641118 113:-0.0048447417 114:0.037215063 115:0.045213941 116:-0.0022547047 117:0.048724504 118:-0.040092344 119:0.0075068819 120:0.11105815 
1.685967702309281 1:54 2:20 3:55 4:51 5:46 6:36 7:20 8:63 9:60 10:83 11:21 12:36 13:44 14:27 15:43 16:53 17:49 18:52 19:9 20:30 21:0.073943662 22:0.059929495 23:0.061176471 24:0.068315665 25:0.076650943 26:0.064935065 27:0.055555556 28:0.062721893 29:0.08056872 30:0.06405694 31:-0.016720252 32:-0.11860342 33:0.027266776 34:0.087020347 35:-0.069186617 36:0.025150411 37:0.068339099 38:-0.0050117924 39:-0.088195423 40:-0.034279672 41:0.071989094 42:-0.094799968 43:0.0017461395 44:0.03219621 45:-0.0057937615 46:0.012344664 47:0.035861774 48:0.041558473 49:0.006680787 50:-0.013533627 51:0.023275012 52:-0.075020815 53:0.015780055 54:0.072869124 55:0.00035919632 56:0.039396669 57:0.017010792 58:0.03859663 59:0.0087446362 60:0.0057223591 61:0.030822274 62:-0.091076635 63:-0.0089747632 64:0.030669263 65:-0.010211706 66:0.0056637073 67:0.060006772 68:0.047961699 69:-0.059809728 70:0.0023183201 71:0.088257926 72:-0.028607553 73:0.024619191 74:0.038477156 75:0.085488851 76:0.059178041 77:-0.039493153 78:-0.0177969 79:0.057555489 80:-0.041392172 81:0.026787939 82:0.032772979 83:0.032066063 84:0.04354495 85:0.074880858 86:0.053088267 87:0.072766927 88:0.027583672 89:0.052189779 90:0.052397385 91:0.026759133 92:0.039385585 93:0.0081341581 94:0.0061433775 95:-0.00018017169 96:0.009115385 97:0.019454301 98:0.067527582 99:-0.0068171736 100:0.0074805134 101:0.018248008 102:-0.030736245 103:0.008529076 104:0.041152477 105:0.029447424 106:0.028014384 107:0.022734384 108:0.0030457478 109:0.034230355 110:0.018512379 111:0.053836938 112:-0.054368038 113:-0.0049022139 114:0.039135613 115:-0.014876509 116:-0.0076574848 117:0.01221792 118:0.042879201 119:0.058248933 120:0.12880089 
2 1:7 2:0 3:8 4:25 5:5 6:11 7:9 8:18 9:9 10:16 11:6 12:24 13:8 14:8 15:7 16:16 17:15 18:12 19:1 20:5 21:0.047619048 22:0.086124402 23:0.072115385 24:0.06763285 25:0.029126214 26:0.063414634 27:0.078431373 28:0.054187192 29:0.094059406 30:0.054726368 31:-0.060744006 32:0.051468289 33:0.068886944 34:-0.094557387 35:0.085775596 36:0.093630754 37:0.026053163 38:0.036256699 39:0.014621334 40:-0.1363323 41:-0.081429359 42:-0.10633839 43:0.076202805 44:0.052932825 45:-0.057005866 46:0.079712123 47:0.11027732 48:-0.00019183665 49:0.051168702 50:-0.07748689 51:-0.088374341 52:-0.0032464317 53:0.088411861 54:0.0064944773 55:0.025294408 56:0.045530071 57:0.12082393 58:0.015708806 59:-0.0073264346 60:-0.062272503 61:-0.079182917 62:0.099924035 63:0.11184042 64:0.010314519 65:0.049228996 66:0.12396323 67:0.065572883 68:-0.019739594 69:-0.0011080599 70:-0.056044548 71:0.038473573 72:-0.0014540113 73:0.12591925 74:-0.006571205 75:0.14017765 76:0.071978429 77:-0.030400433 78:0.13322573 79:0.13532951 80:-0.026934041 81:0.10794965 82:0.073343467 83:0.1378996 84:0.08782653 85:0.11587398 86:0.12190665 87:0.037788568 88:0.10221364 89:0.11607137 90:0.091007384 91:-0.059258777 92:0.11714586 93:0.082619147 94:0.019228669 95:0.10393894 96:0.10088774 97:0.031196253 98:0.067115439 99:0.079225999 100:0.11454085 101:0.033323403 102:-0.00987232 103:0.081983826 104:0.0045549202 105:0.047481798 106:0.066549287 107:-0.054531283 108:0.014734203 109:0.037677144 110:0.010285527 111:-0.0090039534 112:0.1744419 113:0.027340617 114:0.32927351 115:0.1562844 116:0.052536334 117:0.21758742 118:0.016003286 119:0.14836107 120:0.028595942 
0.2752266548292328 1:45 2:9 3:34 4:38 5:30 6:32 7:16 8:30 9:45 10:55 11:19 12:18 13:37 14:9 15:31 16:39 17:29 18:39 19:6 20:17 21:0.10034602 22:0.081455806 23:0.064236111 24:0.062608696 25:0.076655052 26:0.066317627 27:0.066433566 28:0.08056042 29:0.047368421 30:0.065026362 31:0.049984675 32:0.017615057 33:-0.053293032 34:0.0078237462 35:-0.087064441 36:0.063113056 37:0.045080713 38:-0.016440353 39:-0.0072307648 40:-0.049574303 41:0.077451262 42:-0.012041054 43:-0.05462219 44:0.0028683618 45:-0.0050760403 46:0.016620074 47:0.037088256 48:-0.071974735 49:-0.07827086 50:-0.081787469 51:0.042532037 52:-0.023372856 53:0.043528255 54:0.059194789 55:0.022808557 56:0.034118066 57:0.069499855 58:0.026075051 59:-0.088085356 60:-0.033449799 61:0.066201195 62:0.0080000203 63:-0.024541037 64:0.059063504 65:-0.034282507 66:0.05573579 67:0.086247673 68:-0.00010690055 69:-0.056909984 70:-0.016319099 71:0.06463266 72:0.023236607 73:0.015278394 74:0.016644077 75:0.052045825 76:0.011963897 77:0.051198251 78:0.034276201 79:-0.099398325 80:0.01321515 81:0.13450828 82:0.13043564 83:0.06376823 84:0.059760918 85:0.089423398 86:0.063686264 87:0.09684113 88:0.094209296 89:0.067433871 90:0.0826354 91:0.033126973 92:0.033407527 93:-0.002969837 94:0.01912251 95:-0.055189867 96:0.0097813608 97:0.0071549099 98:0.045886226 99:0.01858333 100:0.048785273 101:0.14731775 102:0.10088408 103:0.0065481647 104:0.013047882 105:0.053682361 106:0.040004321 107:0.074860127 108:0.052727272 109:0.02680646 110:0.017265608 111:0.05452459 112:0.045288455 113:-0.0031981573 114:-0.014681286 115:0.006880491 116:0.044652988 117:0.012715919 118:-0.0088398202 119:0.047627521 120:-0.059726799 
0.3151995444161207 1:16 2:9 3:17 4:27 5:21 6:20 7:7 8:20 9:19 10:32 11:9 12:19 13:20 14:8 15:21 16:26 17:18 18:27 19:1 20:12 21:0.05730659 22:0.07183908 23:0.060518732 24:0.072254335 25:0.055072464 26:0.072674419 27:0.072886297 28:0.076023392 29:0.061583578 30:0.055882353 31:-0.046392595 32:0.032044153 33:-0.048832935 34:0.058476734 35:-0.029293376 36:-0.031805413 37:0.064012716 38:0.10458973 39:0.0048377697 40:-0.054721344 41:-0.010343253 42:-0.040702598 43:0.017254122 44:0.099841023 45:-0.015632685 46:-0.028542515 47:0.0043324605 48:0.11367736 49:-0.045305763 50:-0.046771025 51:0.02828228 52:-0.020792678 53:0.062093004 54:0.068160516 55:-0.027473662 56:0.036124827 57:0.047437139 58:0.087812695 59:-0.0042827229 60:-0.045940683 61:-0.014554835 62:-0.095807225 63:0.0035704752 64:0.068637313 65:-0.023747146 66:-0.061261182 67:0.039392612 68:0.076140646 69:-0.0086367189 70:-0.030643776 71:0.015024725 72:0.011350851 73:-0.078950682 74:0.031769291 75:-0.0099201925 76:0.065898317 77:0.11992611 78:0.061193714 79:0.042171226 80:0.075276303 81:0.074482121 82:0.036387242 83:-0.021340576 84:0.02238527 85:0.072777669 86:0.037943299 87:0.1004088 88:0.037553592 89:0.048669789 90:0.08991171 91:0.061379928 92:-0.040927377 93:0.076647922 94:0.055284175 95:0.035310888 96:0.069970719 97:0.10512369 98:0.060801969 99:0.050427689 100:0.035213358 101:0.056670141 102:0.018338699 103:-0.02844542 104:-0.032068347 105:0.048975059 106:0.086841635 107:0.11948404 108:0.065264554 109:-0.0036987664 110:0.0183651 111:0.020967484 112:-0.026883433 113:-0.024166432 114:-0.07198458 115:-0.026453672 116:0.036177427 117:0.046250025 118:0.0065088508 119:-0.065133523 120:0.1413606 
2 1:25 2:5 3:16 4:24 5:15 6:21 7:10 8:14 9:17 10:41 11:7 12:10 13:25 14:16 15:31 16:23 17:25 18:25 19:3 20:13 21:0.090163934 22:0.093150685 23:0.074175824 24:0.071625344 25:0.066298343 26:0.047091413 27:0.055555556 28:0.066852368 29:0.055865922 30:0.072829132 31:-0.0019346271 32:-0.030730922 33:-0.03034354 34:-0.0097140543 35:-0.055157306 36:-0.13015902 37:0.061605664 38:0.012524795 39:-0.0054188495 40:-0.027780657 41:-0.037549888 42:-0.05214981 43:-0.10149195 44:0.021924478 45:-0.027219728 46:-0.10773812 47:-0.040264129 48:0.13734704 49:-0.0011036465 50:-0.029754931 51:0.064565089 52:-0.072625546 53:-0.0077716956 54:0.031627467 55:0.015736409 56:-0.045693755 57:0.00076580137 58:0.088193753 59:-0.00036067671 60:0.027375095 61:0.015036836 62:-0.029843206 63:-0.064806541 64:0.068683525 65:-0.021055385 66:-0.05442429 67:0.030214121 68:0.033474192 69:0.0050547434 70:-0.0070370838 71:0.069921091 72:0.030280774 73:-0.060265223 74:0.012217688 75:0.026434698 76:-0.0049664244 77:0.051237028 78:0.021239361 79:-0.027158911 80:0.055188974 81:0.10138772 82:0.10141265 83:0.091867002 84:0.10113221 85:0.019473089 86:0.0704529 87:0.07145284 88:0.065748774 89:-0.0018323439 90:0.051136893 91:0.00764183 92:-0.0021746672 93:0.077139619 94:0.06470363 95:0.054769683 96:-0.050131381 97:0.023176138 98:-0.0031139827 99:-0.0082135726 100:0.01662291 101:0.064437305 102:0.05075309 103:0.030466211 104:0.057640352 105:-0.082259716 106:0.023835029 107:-0.0094034231 108:0.043264014 109:-0.10692803 110:-0.0041309066 111:0.075886274 112:-4.2044301e-05 113:-0.1469061 114:-0.088297711 115:0.0038637565 116:-0.10681317 117:0.011128755 118:0.083501701 119:0.041465737 120:-0.043390507 
2 1:32 2:5 3:25 4:22 5:22 6:37 7:11 8:22 9:26 10:42 11:8 12:18 13:28 14:10 15:12 16:24 17:15 18:27 19:7 20:11 21:0.059405941 22:0.074441687 23:0.059701493 24:0.08478803 25:0.05 26:0.055137845 27:0.055276382 28:0.047858942 29:0.053030303 30:0.070886076 31:-0.024826953 32:-0.023180689 33:-0.07224273 34:-0.051743259 35:0.012693196 36:-0.059434396 37:-0.010911011 38:-0.044959175 39:-0.12158912 40:-0.013229742 41:0.026179138 42:-0.054000328 43:0.038191497 44:-0.00086118105 45:-0.018213072 46:-0.03956545 47:-0.017571551 48:0.024009119 49:0.020919369 50:-0.01039988 51:0.042798668 52:-0.06530143 53:-0.010346684 54:0.042675754 55:-0.02161662 56:-0.026796621 57:-0.038632845 58:-0.0035794654 59:-0.053541876 60:-0.010698692 61:0.043336776 62:-0.07201393 63:-0.025058403 64:-0.014686075 65:-0.023885228 66:-0.073574185 67:-0.039845806 68:-0.049067181 69:-0.077564123 70:-0.012426511 71:-0.070867461 72:0.071191451 73:-0.0092628842 74:-0.015891678 75:0.01009282 76:-0.05063614 77:0.12126881 78:-0.073635427 79:0.056037725 80:-0.042857047 81:0.11011706 82:0.13689325 83:0.036626929 84:0.069556739 85:0.065647923 86:0.10400609 87:0.1017231 88:0.10531911 89:0.057813656 90:0.13792408 91:0.034756603 92:0.0021115429 93:-0.032442948 94:-0.0084715482 95:-0.027050751 96:0.016808463 97:-0.047458166 98:0.042320382 99:0.0087474195 100:0.031967964 101:0.069681305 102:0.065705854 103:-0.01084039 104:0.021242186 105:0.022732938 106:0.061238665 107:0.10722293 108:-0.016798117 109:0.0025862838 110:0.095787219 111:0.016016664 112:0.054516418 113:-0.0037850068 114:0.037399243 115:0.020304121 116:0.043514762 117:0.015076916 118:0.054673736 119:0.074390237 120:0.12002065 
0.4652441882452893 1:21 2:9 3:28 4:47 5:33 6:20 7:18 8:44 9:35 10:61 11:18 12:13 13:35 14:14 15:31 16:29 17:33 18:34 19:8 20:10 21:0.086876155 22:0.061111111 23:0.079777365 24:0.050185874 25:0.059590317 26:0.069029851 27:0.06728972 28:0.061797753 29:0.060037523 30:0.058270677 31:0.059587744 32:-0.041905917 33:0.024230346 34:0.062943006 35:-0.0096253498 36:0.030688208 37:0.051927461 38:0.042220067 39:0.026127873 40:-0.010124215 41:0.075943615 42:-0.021294881 43:0.065656094 44:0.10563906 45:-0.04986649 46:0.014478062 47:-0.0080202279 48:0.019616398 49:-0.028173186 50:-0.022457901 51:0.084143925 52:-0.027387873 53:0.048948975 54:0.11406228 55:-0.00053592828 56:-0.021511631 57:0.037036633 58:0.06816427 59:-0.0065113716 60:-0.052390202 61:0.067062443 62:-0.034968829 63:0.028757193 64:0.08756399 65:-0.015548831 66:0.00030743539 67:0.02796326 68:0.05297839 69:-0.015111364 70:-0.067520144 71:0.079169455 72:0.038167982 73:0.067743674 74:0.015514926 75:-0.035979107 76:0.041452059 77:-0.028596721 78:0.0075191896 79:-0.038396724 80:-0.096692656 81:0.05002933 82:0.026899944 83:0.0090474031 84:-0.011126878 85:-0.0044652858 86:0.024716598 87:0.039312464 88:0.0027455761 89:0.0025117931 90:-0.012439768 91:0.094443549 92:-0.036917487 93:0.061685191 94:0.00073216355 95:-0.00031551103 96:0.034414683 97:0.0077180264 98:0.0274728 99:-0.036542904 100:-0.043241442 101:0.0538317 102:0.030474387 103:-0.022491679 104:-0.040619808 105:-0.0055285064 106:0.042059834 107:0.0056226753 108:0.0033759667 109:0.012367103 110:-0.041047239 111:-0.04639893 112:0.096141635 113:0.038958562 114:0.016188899 115:0.035169069 116:0.053368618 117:0.045514363 118:0.013382429 119:0.094615138 120:0.068643797 
2 1:58 2:8 3:32 4:48 5:33 6:47 7:22 8:33 9:30 10:52 11:17 12:40 13:55 14:17 15:39 16:40 17:36 18:45 19:14 20:29 21:0.071942446 22:0.063400576 23:0.076479076 24:0.054913295 25:0.062228654 26:0.049275362 27:0.07256894 28:0.056686047 29:0.056768559 30:0.045189504 31:0.027476571 32:-0.028344928 33:0.00070804188 34:0.042141284 35:0.01470443 36:-0.067537779 37:-0.03165171 38:-0.061280706 39:-0.010042646 40:0.0067881808 41:0.022693923 42:0.024853754 43:0.036732409 44:0.018613438 45:0.040814804 46:-0.064661359 47:0.038741816 48:-0.041915153 49:0.045726983 50:0.04178288 51:0.069809839 52:-0.0011087708 53:0.01620789 54:0.0075357274 55:0.02472905 56:-0.029480007 57:0.020567618 58:-0.026765429 59:0.04329344 60:0.067192824 61:0.050394031 62:-0.022161774 63:-0.00033158165 64:0.027998989 65:0.011267575 66:-0.062628431 67:0.016389152 68:-0.037975406 69:0.029954838 70:0.058178125 71:0.084014313 72:0.098342154 73:0.0045726734 74:-0.067694306 75:-0.007380574 76:-0.055118094 77:-0.020201827 78:0.0029577225 79:-0.010361389 80:-0.040475617 81:0.070216766 82:0.10470976 83:0.096524098 84:0.058957762 85:0.084803762 86:0.020138651 87:0.045969369 88:0.05614107 89:0.059573512 90:0.057114853 91:0.030128168 92:0.014751005 93:0.020690623 94:0.026091813 95:0.0627348 96:-0.056702805 97:0.051694233 98:-0.035533383 99:0.0079053804 100:0.050140917 101:0.039334157 102:0.040340736 103:0.042713545 104:-0.0073100369 105:0.060065152 106:-0.011365973 107:-0.016363369 108:0.0088654449 109:0.0020339805 110:-0.0015135434 111:-0.049778233 112:0.049565213 113:0.023663896 114:-0.061320311 115:0.054262708 116:0.0057430242 117:0.067770294 118:0.053619443 119:-0.013272716 120:0.094646879 
0.4923542159845989 1:25 2:7 3:25 4:38 5:28 6:20 7:19 8:49 9:44 10:56 11:10 12:21 13:30 14:14 15:25 16:16 17:31 18:24 19:3 20:19 21:0.061507937 22:0.057654076 23:0.057768924 24:0.05988024 25:0.082 26:0.084168337 27:0.064257028 28:0.058350101 29:0.056451613 30:0.062626263 31:-0.00089009438 32:-0.061141314 33:-0.009557026 34:0.0054452394 35:-0.045259362 36:-0.015941684 37:-0.01789317 38:0.022561954 39:0.0047273035 40:-0.028949728 41:0.05712836 42:-0.064819788 43:-0.044016395 44:0.050268402 45:0.0019490125 46:0.0049133484 47:0.091363184 48:-0.017371005 49:-0.055785128 50:-0.0082304249 51:0.10075528 52:-0.051005523 53:0.0061183159 54:0.048580945 55:0.020132921 56:0.047740183 57:0.14486859 58:0.029106546 59:-0.074670892 60:-0.022885334 61:0.064797443 62:-0.11552629 63:-0.034905989 64:0.063752706 65:-0.0090684613 66:-0.024434516 67:0.0870722 68:0.010290102 69:-0.048062887 70:-0.0405313 71:-0.040128183 72:0.015374557 73:0.012303542 74:-0.0070158354 75:-0.028341401 76:0.059961838 77:0.095159424 78:-0.01574399 79:-0.0021655376 80:0.0088556545 81:0.020135273 82:-0.010282941 83:0.023204647 84:0.015371838 85:0.054154313 86:0.086345167 87:0.014685528 88:-0.0046632948 89:-0.025849034 90:0.021518477 91:0.087131033 92:0.022879739 93:0.0055008124 94:0.038534782 95:0.041369847 96:0.040497219 97:0.052959716 98:0.0087859988 99:-0.041609761 100:-0.028110013 101:0.0002579585 102:-0.046209769 103:0.0043388767 104:-0.017553877 105:0.040853194 106:0.075874891 107:-0.001431914 108:-0.041872327 109:-0.034042198 110:-0.0036444342 111:0.013856 112:0.041252637 113:-0.050090442 114:0.086709754 115:-0.0053747229 116:0.081461756 117:0.095903913 118:0.10281337 119:0.1435659 120:0.056048188 
0.6517813828466398 1:31 2:5 3:32 4:24 5:44 6:15 7:6 8:36 9:36 10:48 11:10 12:29 13:22 14:11 15:27 16:28 17:33 18:29 19:2 20:26 21:0.060728745 22:0.073022312 23:0.054878049 24:0.085539715 25:0.057142857 26:0.063394683 27:0.071721311 28:0.059548255 29:0.055555556 30:0.051546392 31:0.0056331709 32:0.026188646 33:0.00018450592 34:0.029343283 35:-0.038622515 36:-0.036368133 37:0.11387685 38:0.06042356 39:0.025196231 40:-0.020859827 41:0.043763327 42:-0.063134473 43:-0.012699561 44:0.040448565 45:0.037230871 46:0.063832717 47:0.02869782 48:0.0045169444 49:0.07405555 50:-0.10346236 51:0.020516081 52:-0.011516954 53:0.027100064 54:0.060222383 55:0.030528729 56:-0.019368798 57:0.051371037 58:0.032452398 59:0.10810076 60:-0.11003225 61:-0.0019866416 62:-0.041009049 63:-0.0071992657 64:0.042901423 65:-0.019036006 66:-0.0019894441 67:0.060116371 68:0.050735113 69:0.057136362 70:-0.085714407 71:-0.020215598 72:0.00038031063 73:-0.097887914 74:-0.027239659 75:-0.035083961 76:0.05084382 77:-0.054624925 78:-0.044200611 79:-0.055775794 80:-0.05586442 81:0.027937364 82:-0.016190639 83:-0.036586223 84:0.0096306538 85:0.029163027 86:-0.0028762411 87:0.059298704 88:0.051525195 89:0.016153769 90:0.054550148 91:0.056816255 92:0.035670188 93:-0.036253318 94:0.02304865 95:-0.0094780666 96:0.027531671 97:0.05154396 98:0.042958898 99:0.0047605998 100:-0.029003261 101:-0.0075148512 102:-0.034109468 103:-0.052044874 104:-0.01018166 105:0.024077299 106:-0.019629805 107:0.043542997 108:0.024251819 109:0.0024453632 110:0.034835826 111:-0.066077395 112:-0.035144626 113:-0.020666207 114:-0.05744485 115:0.025578856 116:0.057222209 117:0.039315113 118:-0.054814863 119:-0.066728477 120:0.062686798 
0.5038401402700708 1:23 2:8 3:29 4:28 5:31 6:22 7:8 8:45 9:35 10:41 11:6 12:20 13:25 14:7 15:21 16:22 17:22 18:29 19:9 20:14 21:0.062921348 22:0.072072072 23:0.051918736 24:0.07918552 25:0.047619048 26:0.027272727 27:0.08428246 28:0.086757991 29:0.061784897 30:0.059633028 31:0.046230474 32:-0.014673619 33:-0.047728036 34:-0.0022565948 35:-0.024721015 36:-6.8284924e-05 37:0.11465152 38:-0.02716866 39:-0.034023927 40:-0.039688964 41:0.086427409 42:-0.11906788 43:0.037678562 44:0.056997128 45:-0.019796579 46:-0.011841251 47:0.045281389 48:-0.026365865 49:-0.048038709 50:-0.074753956 51:0.066194677 52:-0.1270209 53:0.0068563881 54:0.093453414 55:-0.041315431 56:0.0017283093 57:0.12052579 58:0.012934634 59:-0.076607497 60:-0.07917445 61:0.014992941 62:-0.11404886 63:-0.04703334 64:0.02876582 65:-0.043981455 66:-0.032749389 67:0.081901216 68:-0.058010994 69:-0.05639074 70:-0.11093924 71:0.065924958 72:0.015027819 73:-0.053879061 74:-0.080175416 75:-0.035120688 76:-0.0020498935 77:-0.018177085 78:0.021311342 79:0.10147153 80:0.021036791 81:-0.017024776 82:0.092948562 83:0.0084270216 84:0.0039132999 85:0.066632996 86:0.01459745 87:0.061742399 88:0.040435789 89:-0.026095245 90:0.016406051 91:0.046190398 92:-0.049685097 93:-0.0052597356 94:0.0025627759 95:-0.026683008 96:-0.043981869 97:0.12386851 98:0.060000803 99:-0.010916386 100:0.011743286 101:-0.027503494 102:0.051958622 103:-0.0038720075 104:-0.025494409 105:0.061577835 106:-0.012424719 107:0.037354894 108:0.056949541 109:-0.082419286 110:-0.0061303846 111:-0.036708719 112:0.10372388 113:0.0039399972 114:-0.041324747 115:-0.049668414 116:0.042578809 117:0.069420415 118:0.10022092 119:0.027382479 120:0.071769817 
1.350384436207352 1:9 2:4 3:8 4:11 5:21 6:13 7:2 8:20 9:14 10:16 11:6 12:13 13:12 14:7 15:8 16:5 17:7 18:19 19:5 20:10 21:0.057142857 22:0.043062201 23:0.0625 24:0.10144928 25:0.048543689 26:0.043902439 27:0.083333333 28:0.098522167 29:0.059405941 30:0.029850746 31:0.041109577 32:-0.015985888 33:0.08274414 34:0.21962881 35:0.18408406 36:0.021568715 37:0.058429447 38:0.15871188 39:0.1336392 40:0.093529107 41:0.093387881 42:-0.070964621 43:0.120539 44:0.2753683 45:0.11938678 46:-0.042197322 47:0.092287025 48:0.11374607 49:0.092439348 50:-0.058450223 51:-0.030747081 52:-0.13358743 53:0.099672397 54:0.16778734 55:0.050244688 56:-0.12916552 57:0.041242547 58:0.18610583 59:-0.0015356091 60:-0.11755268 61:0.0520774 62:-0.15460682 63:0.045860415 64:0.24144637 65:0.079532098 66:-0.090487548 67:0.047461448 68:0.15050305 69:0.14021751 70:-0.031238621 71:-0.012660762 72:0.088121718 73:-0.16077933 74:0.23146323 75:-0.10423207 76:0.068188939 77:-0.10637735 78:0.2119641 79:-0.029231095 80:0.068417714 81:0.010484319 82:0.031854493 83:-0.0063823162 84:0.12159052 85:7.1141446e-05 86:0.034284081 87:0.0029943264 88:0.011732978 89:-0.030011334 90:-0.0029144324 91:-0.039310706 92:-0.12140755 93:0.044273387 94:0.16495361 95:-0.0037649538 96:-0.087617763 97:0.064098525 98:0.055242808 99:0.010567722 100:0.031273771 101:-0.030600642 102:0.0047891043 103:-0.0016620341 104:0.15444991 105:0.083594225 106:0.010788996 107:-2.6165088e-05 108:0.080659588 109:-0.059931446 110:0.03686024 111:0.029639907 112:-0.064835795 113:0.060677833 114:-0.0046728038 115:0.018342328 116:0.033029284 117:0.11178195 118:0.031881325 119:0.099318324 120:-0.016164529 
0.208390410325843 1:23 2:8 3:22 4:19 5:24 6:39 7:12 8:35 9:23 10:42 11:18 12:17 13:30 14:12 15:25 16:42 17:28 18:39 19:6 20:21 21:0.078350515 22:0.07231405 23:0.074534161 24:0.085062241 25:0.068607069 26:0.08125 27:0.058455115 28:0.060669456 29:0.062893082 30:0.048319328 31:-0.040328785 32:0.10231492 33:0.016476507 34:0.013038324 35:0.052630403 36:0.074292992 37:0.068042461 38:0.013437836 39:0.028886879 40:-0.028521826 41:-0.020521583 42:0.07121795 43:0.046996581 44:-0.0069880289 45:0.076541505 46:0.1274572 47:0.11562072 48:-0.054195802 49:-0.017665223 50:-0.025900932 51:0.019283315 52:0.042760546 53:-0.026049612 54:0.0092483034 55:0.082420002 56:0.05248352 57:0.085886848 58:-0.0097905621 59:-0.014349969 60:-0.024755957 61:-0.052099197 62:0.074490857 63:0.011354722 64:-0.0031496197 65:0.035622133 66:0.076714439 67:0.054190916 68:0.018937451 69:-0.021614107 70:-0.036378624 71:0.028510091 72:0.027715268 73:-0.01918648 74:-0.022799883 75:0.03880906 76:-0.0044412501 77:0.071200088 78:-0.062203279 79:-0.0052171276 80:-0.040059013 81:0.1370766 82:0.12730955 83:0.17117613 84:0.119431 85:0.15571998 86:0.11653394 87:0.06079438 88:0.070754268 89:0.12412996 90:0.058658616 91:0.061299785 92:0.067644399 93:-0.0013574498 94:0.078495519 95:0.1172464 96:0.10269945 97:0.038449467 98:0.03400128 99:0.068976881 100:-0.0038048207 101:0.10547421 102:0.1437693 103:0.1268511 104:0.05655531 105:0.11171147 106:0.046246124 107:-0.018229549 108:0.033362561 109:0.057094575 110:0.017287019 111:0.016761005 112:0.044741023 113:0.016789158 114:0.048113006 115:0.058918026 116:0.077248282 117:0.021631605 118:0.057543077 119:-0.0014247814 120:0.014674843 
0.2314538964016283 1:24 2:5 3:29 4:32 5:37 6:27 7:11 8:40 9:46 10:53 11:17 12:29 13:30 14:15 15:20 16:16 17:43 18:27 19:6 20:14 21:0.069097889 22:0.065384615 23:0.065510597 24:0.052123552 25:0.077369439 26:0.058139535 27:0.052427184 28:0.062256809 29:0.072124756 30:0.05859375 31:-0.016945302 32:0.010142099 33:-0.054085113 34:-0.0069711599 35:-0.048226256 36:-0.088678842 37:0.057267605 38:0.074593214 39:0.049187988 40:-0.071635058 41:0.049087272 42:0.017611926 43:-0.015158337 44:0.020138558 45:-0.026140893 46:-0.0012911901 47:-0.0016480389 48:0.082090991 49:0.058418321 50:-0.046088762 51:0.019261312 52:-0.026555736 53:0.011415635 54:-0.050043943 55:0.007549358 56:-0.0022895848 57:0.04601938 58:0.06819687 59:0.065214394 60:-0.025130737 61:-0.020382529 62:0.014952414 63:-0.046230121 64:-0.015828733 65:-0.066472012 66:-0.064921037 67:0.046256592 68:0.063183023 69:0.042180705 70:-0.054638792 71:-0.035580825 72:0.075337785 73:-0.0097106356 74:-0.060127797 75:0.014512221 76:0.012063877 77:-0.084413699 78:0.022262848 79:-0.04467881 80:-0.029490579 81:0.053281917 82:-0.0094457429 83:0.013326256 84:0.0045647576 85:0.069215221 86:-0.0035187082 87:0.026849486 88:0.0071710981 89:-0.01496345 90:0.017133694 91:0.023159216 92:0.041341778 93:-0.0034448817 94:-0.015763743 95:0.015664597 96:-0.046984246 97:0.079788028 98:0.043469526 99:-0.01176678 100:0.008415997 101:0.023086359 102:-0.044526075 103:-0.0010926649 104:-0.05110746 105:0.047689203 106:-0.0236902 107:-0.0097574682 108:-0.0087629159 109:-0.057135335 110:-0.045124197 111:0.034309965 112:0.0096289963 113:0.028582511 114:0.026052561 115:-0.02529839 116:-0.036692577 117:0.025784672 118:-0.084438965 119:0.037530834 120:0.0017746041 
2 1:7 2:2 3:9 4:14 5:11 6:15 7:5 8:26 9:29 10:30 11:11 12:16 13:10 14:11 15:12 16:18 17:11 18:19 19:5 20:9 21:0.055555556 22:0.085501859 23:0.085820896 24:0.071161049 25:0.052631579 26:0.075471698 27:0.090909091 28:0.079847909 29:0.072519084 30:0.091954023 31:0.10510909 32:0.022428021 33:0.1055892 34:0.056224894 35:0.082870255 36:0.061541373 37:0.1533834 38:0.070979783 39:0.031753403 40:0.1058159 41:0.11239794 42:0.12391887 43:0.09792181 44:0.13798222 45:0.12018664 46:0.11623672 47:0.059426336 48:-0.026818883 49:-0.022909248 50:0.032723479 51:0.041913506 52:0.093636137 53:0.10115387 54:0.043906307 55:0.030094325 56:0.055620291 57:0.051456886 58:-0.063237065 59:0.020675549 60:0.037038678 61:0.058879605 62:0.048862516 63:0.051437137 64:0.078364684 65:0.047760869 66:0.043778195 67:0.075061969 68:-0.032548576 69:-0.0053797736 70:0.036298084 71:0.18585372 72:0.12976432 73:0.036052461 74:0.14448812 75:-0.024303152 76:0.15734127 77:0.099512278 78:0.033693129 79:-0.10681411 80:0.01902954 81:0.039558334 82:0.04221691 83:-0.027794263 84:-0.022381743 85:0.0034467175 86:0.056641668 87:0.014210424 88:0.13899769 89:-0.0051979182 90:-0.053248218 91:0.051470299 92:0.067463101 93:-0.019223617 94:-0.010669681 95:-0.0059015685 96:-0.038414491 97:0.016508496 98:0.053989237 99:-0.010828592 100:0.0043123486 101:0.0080998271 102:0.01104847 103:-0.048627995 104:-0.047665704 105:-0.016147855 106:0.037894075 107:0.0039870311 108:0.14349029 109:-0.019716019 110:-0.070739966 111:-0.07806049 112:0.012895845 113:0.15926337 114:0.051315101 115:0.0021051358 116:0.11152933 117:0.12240686 118:0.055074745 119:0.11299236 120:0.15402506 
0.2008113891259877 1:19 2:3 3:27 4:41 5:26 6:30 7:9 8:37 9:47 10:62 11:17 12:34 13:26 14:13 15:20 16:34 17:31 18:35 19:8 20:16 21:0.048598131 22:0.046816479 23:0.069418386 24:0.052631579 25:0.060263653 26:0.060377358 27:0.079395085 28:0.060606061 29:0.058823529 30:0.064638783 31:-0.035133066 32:-0.17440838 33:0.025215282 34:-0.062697593 35:-0.055726558 36:0.032302509 37:0.12018842 38:0.040655063 39:0.021220294 40:-0.0072257532 41:-0.026084518 42:-0.15673347 43:0.047654132 44:0.0036245878 45:-0.084325687 46:-0.00042568617 47:0.036002097 48:-0.0073852206 49:-0.056908799 50:-0.011360412 51:-0.048623982 52:-0.13684904 53:0.077491013 54:0.0080875071 55:-0.053782977 56:0.043929481 57:0.07685409 58:0.0074956036 59:-0.068756712 60:-0.02132954 61:-0.0080862012 62:-0.18739126 63:0.049192766 64:0.011922923 65:-0.066106409 66:0.034912367 67:0.10008358 68:-1.7537104e-05 69:-0.045927635 70:-0.033058526 71:0.018775786 72:0.034661957 73:-0.0053503254 74:-0.041752926 75:-0.059000833 76:-0.067889024 77:-0.078229141 78:-0.009686576 79:-0.010599715 80:0.062518373 81:0.029503596 82:0.048526881 83:0.018222399 84:0.039458154 85:0.066371094 86:0.066583743 87:0.055013402 88:0.02538736 89:0.07760088 90:0.046653033 91:0.015197852 92:-0.046155853 93:0.049948568 94:0.046745693 95:-0.0065025916 96:0.022258182 97:0.080880983 98:0.059991588 99:0.010788863 100:-0.080655211 101:-0.010743549 102:-0.0031413735 103:-0.030821154 104:-0.0068550204 105:0.0068434911 106:0.03985587 107:0.020866925 108:-0.010528539 109:0.05741124 110:0.0016002782 111:0.055625709 112:0.0077691629 113:-0.0033144667 114:0.05024047 115:0.12479641 116:0.002339383 117:0.028863175 118:0.080493868 119:0.036024299 120:0.067993771 
0.4005829775756687 1:29 2:13 3:25 4:24 5:30 6:29 7:15 8:27 9:25 10:47 11:10 12:19 13:30 14:18 15:23 16:31 17:28 18:37 19:9 20:13 21:0.078838174 22:0.03950104 23:0.058333333 24:0.066805846 25:0.060669456 26:0.054507338 27:0.073529412 28:0.054736842 29:0.050632911 30:0.040169133 31:-0.005012174 32:-0.11288143 33:0.093494054 34:0.010883383 35:-0.0473289 36:0.036804623 37:0.082988081 38:0.028976079 39:-0.14403059 40:-0.12206927 41:0.035041368 42:-0.11303456 43:0.12181987 44:-0.031173583 45:-0.046157442 46:0.088211771 47:0.062660481 48:0.0073703989 49:-0.042948528 50:-0.01641765 51:0.045395504 52:-0.084385483 53:0.095659465 54:-0.017743887 55:-0.06601871 56:0.039258579 57:0.068323213 58:0.032644964 59:-0.069675373 60:-0.037976827 61:0.062232919 62:-0.10068207 63:0.12052714 64:0.014330822 65:-0.038551882 66:0.05135431 67:0.086435014 68:0.0022435851 69:-0.098510921 70:-0.083557629 71:0.04123056 72:0.011300467 73:-0.022685518 74:-0.043556707 75:-0.00031100515 76:-0.023531704 77:0.031305146 78:-0.060077406 79:0.010102663 80:0.056158745 81:0.04191645 82:0.020523772 83:0.024315568 84:0.027604117 85:0.021902775 86:0.063915023 87:0.11075942 88:0.0093934428 89:0.073179034 90:0.052287047 91:0.081823848 92:0.030534564 93:0.045637736 94:0.017052329 95:0.020191758 96:0.07575897 97:0.064990684 98:-0.026564917 99:-0.013706383 100:-0.11234773 101:0.029327819 102:0.0018355861 103:0.011403694 104:0.020389619 105:0.014385892 106:0.026686651 107:0.031508356 108:-0.028515495 109:-0.011197674 110:-0.0074860463 111:0.067898451 112:-0.055797298 113:0.055686574 114:0.025167629 115:0.054343586 116:0.025947667 117:0.061259409 118:0.021284617 119:0.0063892851 120:0.051423403 
0.5922113681792956 1:9 2:8 3:15 4:25 5:20 6:17 7:10 8:18 9:25 10:31 11:9 12:8 13:18 14:15 15:15 16:22 17:15 18:22 19:2 20:8 21:0.054487179 22:0.045016077 23:0.067741935 24:0.071197411 25:0.051948052 26:0.061889251 27:0.055555556 28:0.059016393 29:0.055921053 30:0.062706271 31:-0.07789178 32:-0.072374018 33:-0.035188529 34:-0.0058989845 35:-0.010456973 36:-0.034201745 37:-0.054092508 38:0.20701929 39:-0.023633282 40:-0.040496782 41:-0.010418529 42:-0.11200024 43:0.061229632 44:0.07843745 45:-0.045742652 46:-0.0341142 47:-0.0055122539 48:0.12799689 49:-0.026511789 50:0.050220406 51:0.068064721 52:-0.086125766 53:0.058953651 54:0.065971434 55:-0.013021428 56:0.0043415482 57:0.017132669 58:0.12879454 59:0.027247602 60:0.0086451865 61:0.010439101 62:-0.079062015 63:-0.0039733215 64:0.0097757875 65:-0.017280372 66:-0.01373767 67:0.063934603 68:0.20553281 69:0.029656926 70:-0.013990012 71:0.0091694865 72:-0.0096150125 73:-0.045661029 74:-0.029955811 75:0.086527075 76:-0.013648903 77:0.0010218543 78:-0.038153994 79:0.069208643 80:-0.043468126 81:0.051377677 82:-0.003383987 83:-0.025068028 84:0.013025668 85:0.044724633 86:0.017357906 87:0.033658108 88:0.054450675 89:0.0074261073 90:0.040890681 91:0.062246172 92:0.055646713 93:0.0075416081 94:0.010868575 95:-0.012881002 96:0.0044332103 97:0.088173267 98:0.094800053 99:0.03551436 100:-0.04627673 101:0.068086535 102:-0.062333624 103:-0.070048967 104:-0.042689617 105:-0.0092425487 106:0.038837895 107:0.00040967381 108:0.024112443 109:-0.022924169 110:0.040812701 111:-0.03360795 112:0.062201584 113:0.022185725 114:-0.018227375 115:0.07030652 116:0.028255914 117:-0.085562569 118:0.0033643034 119:-0.0070199572 120:-0.025175676 
1.621688885501164 1:51 2:8 3:59 4:67 5:76 6:43 7:15 8:65 9:88 10:97 11:34 12:39 13:60 14:25 15:47 16:60 17:47 18:70 19:15 20:36 21:0.060878244 22:0.05994006 23:0.062 24:0.056056056 25:0.078156313 26:0.056168506 27:0.068273092 28:0.063316583 29:0.059356137 30:0.060422961 31:0.034384315 32:0.016257418 33:0.01353462 34:0.010501947 35:0.0043944609 36:-0.052371977 37:0.035087471 38:0.096469678 39:0.025628626 40:-0.024557521 41:0.056129926 42:-0.056118628 43:0.01621106 44:0.0076735122 45:-0.018793461 46:-0.036618171 47:0.02420687 48:0.02949095 49:0.037067515 50:-0.065606573 51:0.051604688 52:0.01010952 53:0.049243179 54:-0.018612858 55:-0.033676678 56:-0.023317612 57:0.045372329 58:0.063582254 59:0.06206008 60:-0.042229222 61:0.016370145 62:-0.048701603 63:-0.0024543867 64:-0.024573295 65:-0.023363592 66:-0.066607333 67:0.072389145 68:0.060764714 69:0.00050681182 70:-0.033910694 71:0.020049625 72:-0.0069048032 73:-0.045674108 74:-0.061768747 75:-0.03501007 76:0.031146894 77:0.012459567 78:-0.087500648 79:0.0041126599 80:-0.0088254188 81:0.052124179 82:-0.0010027234 83:-0.02186131 84:-0.0019096794 85:0.025717875 86:-0.025149543 87:0.02860684 88:-0.010831161 89:-0.0082732277 90:0.0079717485 91:0.057585436 92:0.023974124 93:0.03434834 94:0.0083336621 95:0.0033294734 96:-0.0075616735 97:0.067221739 98:0.0085156644 99:-0.0011706054 100:-0.013381996 101:0.030754531 102:-0.040239924 103:-0.03645618 104:-0.033424945 105:0.013553122 106:-0.033292108 107:0.011390069 108:-0.019747686 109:-0.033963672 110:-0.030932858 111:0.030535693 112:0.001958073 113:-0.036086434 114:0.010476714 115:0.05643748 116:0.045725295 117:0.02323627 118:-0.052921805 119:0.017257925 120:0.0042056461 
